{
    "layers": [
        {
            "weights": [
                0.03574272860689958,
                0.03251608482400192,
                0.0013364097378996188,
                -0.01353737538451891,
                0.037139592305725988,
                0.0014360739511655209,
                -0.05106616466872022,
                0.04215239932706507,
                -0.00022666766605310354,
                -0.023608484013798313,
                -0.014271911382542937,
                0.02514027181839113,
                0.03865809582112239,
                -0.034922643046884738,
                -0.03460410636815525,
                -0.01859442537412382,
                0.035222924965571788,
                -0.01809757575610919,
                -0.011021251492158426,
                0.002845500999686069,
                -0.0035465756346918727,
                -0.013454975122995275,
                0.0095864075233007,
                -0.004376303288457197,
                -0.04509028778154237,
                0.03321815036506326,
                -0.012412741373154393,
                0.04345433224011594,
                0.03843424512237832,
                -0.000797073815551825,
                -0.0020471320545315939,
                -0.05217234237621006,
                0.03614873659826304,
                -0.038971094647289736,
                -0.033716733511830677,
                -0.04106237976932579,
                -0.03248028370083783,
                0.008899187233889149,
                0.01688687793657658,
                0.04284028568759568,
                0.02062772488121615,
                0.029864569683047887,
                0.0010706487214387213,
                -0.05156817166187727,
                0.035243059126056779,
                -0.007538084661939878,
                -0.04317729599200393,
                -0.031212936597017374,
                -0.0012708135087158256,
                -0.019926249594575196,
                0.006631435054878585,
                0.04814711407903167,
                -0.048646730910422718,
                0.051656108226512859,
                -0.02594817333391238,
                0.00585252822555988,
                -0.02922449400481264,
                -0.04979153678658803,
                -0.02225400159342669,
                0.04520240931497978,
                -0.038629165231511639,
                -0.03479950477195984,
                -0.05086405529819911,
                0.0446826651259812,
                0.026287532608064307,
                -0.01844746173055399,
                0.05045236018814965,
                0.02190106297393469,
                0.04482594585328026,
                -0.04453790561896713,
                -0.047050521211502,
                -0.02581035217208701,
                0.011903944698126215,
                -0.003277234227879151,
                0.03191801207327261,
                0.016549078983232249,
                0.032201998994911,
                0.008887722159310064,
                0.009534137987179234,
                0.010211473815466889,
                0.02524262257811825,
                -0.03456925148055719,
                -0.008615090604041273,
                0.007541317603862134,
                0.04190121021666432,
                0.0009658240831225962,
                0.04158216086815202,
                0.03466799539183287,
                0.041125519909093247,
                0.012901377029992367,
                0.03365664374340666,
                -0.028122616551521944,
                -0.01750828417081753,
                0.019986297797436906,
                0.03702842640789587,
                0.006189491213875043,
                0.026051520756667815,
                0.004717419787774567,
                -0.021783829657148137,
                -0.004255781787218429,
                -0.002885050883752128,
                -0.014562831334485134,
                -0.024189351524745486,
                -0.009080939473029629,
                -0.0281600613153553,
                -0.01669246899404066,
                -0.014614222228771033,
                0.010476652658923976,
                -0.03339565238293155,
                0.005450342644891837,
                0.024668750747009115,
                0.012246112547754302,
                -0.010404154710599167,
                0.01246979253934739,
                -0.0311946608359174,
                0.04196223730720017,
                0.02299013669168043,
                -0.009201763053182663,
                -0.048398323929374247,
                -0.025011274143507069,
                -0.011251683622550357,
                -0.03714583201432983,
                0.02913210205367332,
                -0.01942963545620453,
                -0.03335533411960034,
                0.0386233973290058,
                0.04336274798981308,
                0.036229806014392167,
                0.006926697175255204,
                -0.029216059188956278,
                0.04314965145924669,
                -0.020638534025452409,
                -0.01721004653460229,
                -0.038206178473532709,
                -0.035748365303816,
                -0.006468736357715206,
                0.04432623278462666,
                0.05348990809512604,
                -0.011929223475648118,
                0.01466467549077417,
                -0.03518306660678117,
                -0.021555166097729215,
                0.009667454042364136,
                -0.00967000608945162,
                0.039488379189394708,
                -0.026062896489427328,
                0.030656483797740373,
                0.016008554281043517,
                0.0027681462755522834,
                0.0447104839817922,
                0.03667175733358842,
                -0.013236963177974544,
                -0.00024122940109148547,
                -0.04936026445938267,
                -0.03839597435645054,
                -0.01755948412754204,
                0.0028654807546216489,
                0.0404401089048609,
                -0.026438074350162718,
                -0.015143832587786049,
                -0.008835988900183834,
                -0.002782134928504908,
                -0.046388629612950278,
                0.04924721118433227,
                0.01337210554286737,
                -0.006909147898546497,
                -0.017453791947431336,
                -0.023467321603749436,
                0.0009771635890663056,
                0.024808968410019985,
                0.04601299391315306,
                0.021507930495216978,
                -0.04324404737900863,
                -0.012129953038121375,
                -0.03752907277205232,
                -0.0394936914109093,
                -0.0020060232530688078,
                -0.013999501739312246,
                -0.011703086895084564,
                0.04320355297572221,
                -0.04684283040886945,
                -0.0296904123366009,
                -0.010820847088612253,
                0.01361277000428563,
                -0.019261437357828014,
                0.007095849305187028,
                0.030010133783693508,
                -0.01857141702698833,
                0.04735619117866295,
                0.02929906521035251,
                0.036669397060940678,
                0.048735308959314927,
                0.02388480873134466,
                0.04832521384225132,
                -0.02842430246986145,
                0.01716202126167411,
                -0.02448884830284218,
                0.012164950383592336,
                0.026387392014031925,
                0.002284415709853371,
                0.039743461129276378,
                0.002463459548046309,
                -0.027345151575430154,
                0.02698685902360887,
                0.04820341185102268,
                -0.03549240624739028,
                -0.025113282525082726,
                -0.039145029222269759,
                0.0383221365790569,
                -0.04932469293572805,
                0.0340316273003836,
                -0.042394148905233536,
                0.00489891548274532,
                -0.02203168873184747,
                -0.016958657377921829,
                -0.028085500124506597,
                -0.041463617653763527,
                -0.006042855711923588,
                0.0146044514199603,
                -0.044895560183544378,
                0.010928346836344892,
                -0.046824512114076278,
                -0.02067363755923041,
                0.0189628501601112,
                0.03556801318354101,
                0.04643876321892514,
                0.0446558845671528,
                -0.041877712131792189,
                -0.031336042060022818,
                -0.012811138663776222,
                0.03592113486653827,
                0.03373873078777716,
                0.016155625214614109,
                0.03528403100924251,
                -0.05047951764582268,
                -0.001414512077103032,
                -0.05005475308702973,
                0.009953218336198633,
                0.01870068555519176,
                -0.03553964043930198,
                -0.025196957814332605,
                0.02431635247587406,
                -0.008911743636430573,
                0.04034716210583899,
                0.050417852429051588,
                0.019698344972435553,
                -0.006810295871195551,
                -0.003306824919566981,
                0.015410300642555664,
                -0.0438076320431966,
                0.005642068288433041,
                0.032354707502913738,
                0.03988774985357774,
                0.02480716902270229,
                0.04124271021664273,
                0.04253139965874809,
                -0.02779095390204571,
                0.00009978281163080757,
                0.03848643832023296,
                0.04143930914081813,
                -0.031564084890765797,
                -0.026936298240649756,
                0.038862696752171268,
                -0.005534825360702691,
                -0.038466739327298809,
                0.04556902215233226,
                0.001963274672122747,
                0.015852450444687743,
                -0.023674583046709237,
                0.03224250177887695,
                -0.037930285131301328,
                -0.004860549877242584,
                0.021348351664775956,
                -0.0004789256499289712,
                0.02987447663632446,
                0.040449944025406057,
                0.007736436682683199,
                -0.013393965281163217,
                0.01773106800678548,
                -0.037493081810112748,
                0.00201136523517087,
                -0.00498095202780103,
                -0.00973324643289801,
                -0.037282722122607,
                0.030216205502779596,
                -0.04686226099462041,
                0.038536276415052469,
                0.04412211060610953,
                0.04508245168993612,
                -0.04160444504467053,
                -0.026600485024855053,
                0.004201440441137892,
                0.022522808106417093,
                0.02388469281891832,
                -0.04836835159578323,
                -0.04866857327200875,
                0.030621067459906494,
                0.044043885443843428,
                0.033993945863228767,
                -0.053656650831358249,
                -0.025475526543228136,
                0.027039320458003267,
                -0.02744496475529658,
                0.029515427008370878,
                0.037658945230934898,
                -0.03768371378774563,
                -0.03803828070815454,
                -0.00477177690796649,
                0.04063709934493206,
                -0.04747827617151268,
                -0.0161828344062745,
                0.03609574436251315,
                0.03143926986293894,
                0.02235866762425269,
                -0.0108848795200688,
                0.019131542300120896,
                0.03335363177194534,
                0.025323987029486098,
                0.013840338715342103,
                -0.04213976570367854,
                -0.04467106833221543,
                0.0055750729391504378,
                0.019186786767770075,
                -0.0340927861045289,
                0.004197352345143231,
                0.014743239581731368,
                0.023833837752727808,
                0.04057826418773603,
                -0.004089484586764355,
                0.022624592255033626,
                -0.03974072988114627,
                0.016573050067425784,
                0.003792312586551693,
                0.016976778728472708,
                0.04062277245340301,
                0.028380558139964108,
                -0.02422845967213612,
                0.01267589030610748,
                -0.02368944612110951,
                0.022940593261342597,
                0.04122954991159445,
                -0.008616164959892353,
                0.046472144449879949,
                0.04558529012275543,
                0.025834657362372276,
                -0.010523110016496935,
                0.02001945026566937,
                -0.05298172325670688,
                -0.012857203535433345,
                -0.016535859460480627,
                -0.028783839515324248,
                -0.042408394279300359,
                -0.022107521812361344,
                0.022705672221064314,
                0.04684049120938111,
                0.01606651228249847,
                -0.04805361119740681,
                -0.04762018731839905,
                -0.02537425150629602,
                -0.024104981904257345,
                -0.010778719409236576,
                -0.03166945097012335,
                -0.051255013289142208,
                -0.030973828854729006,
                0.04612764277614922,
                0.01537517674446947,
                -0.01484971952013319,
                -0.0369379970989724,
                0.03443938695581034,
                0.008164991780271348,
                -0.009336042019716233,
                -0.02766007739794341,
                0.0034243168494512098,
                0.04015597561328954,
                -0.029366188385526256,
                0.01350470407494962,
                0.005440890587282799,
                0.020072347556928675,
                -0.012431591071456423,
                -0.033819334422046817,
                0.04086651304319621,
                0.02044339366250734,
                0.009613459388318672,
                -0.03546293664224477,
                0.0007501722483549488,
                -0.046235850750285519,
                -0.010918768234460325,
                0.030849779981947206,
                0.018064638391527188,
                -0.028717059298177938,
                0.022939076134204138,
                -0.030116032708887805,
                -0.0173015315167801,
                0.04607957323173583,
                -0.017632000012213966,
                0.02153419662773955,
                -0.007204084767258287,
                0.027752979475174613,
                -0.048910574506908648,
                -0.0337422444775551,
                -0.0477679023801946,
                0.006746204993806472,
                -0.028593302760122825,
                0.02802318578082346,
                0.04185270039069496,
                0.0478731740512022,
                -0.0004285420108777773,
                -0.013414457252931462,
                0.0017101037281865317,
                -0.017754594109214807,
                -0.039218935944568839,
                -0.026813377850950359,
                0.017299649166816736,
                -0.04471605614412668,
                -0.01463397899387802,
                0.01852780549460677,
                0.007415645876188078,
                0.03709587498763755,
                0.015240764154604086,
                0.04047857515290103,
                -0.025059557132227046,
                0.005340435577237832,
                -0.004149245435521127,
                0.00954950708768752,
                0.03345801290620813,
                -0.03014316647245791,
                0.037138959026403409,
                0.006544576088454455,
                0.010823607421841353,
                -0.008818260983082466,
                -0.027417500223006615,
                0.025583992544897954,
                0.025842654913700859,
                -0.03296532503780894,
                -0.04193366152091499,
                -0.015366281563594597,
                0.0026505285235196138,
                0.030622607583953019,
                -0.024330585819322804,
                0.002469254730074587,
                -0.002389029822949928,
                -0.043033386225249738,
                -0.024446091529836273,
                -0.01932067149612652,
                -0.034960021682737627,
                -0.009387770171887852,
                -0.0003941518431177773,
                -0.02338453505579794,
                0.010439965078212148,
                0.018293760531425043,
                -0.03912041805137668,
                0.004902616315224289,
                -0.044694344209952618,
                -0.036903183823179749,
                0.0445749979776317,
                0.0024661119098875604,
                -0.04002887057117965,
                0.005736296935504581,
                0.04121113651405956,
                0.014309307455113356,
                -0.04082439663286193,
                0.04944490866189219,
                0.023391202373553686,
                -0.044345251233168018,
                -0.04273135889086713,
                -0.02030447692756995,
                0.006576798233375776,
                -0.005806178818832959,
                0.04457343022936294,
                -0.049348767282252719,
                -0.04158203466927676,
                0.026288076890747776,
                0.009175765395787336,
                -0.035887961311765758,
                -0.006449909545304128,
                -0.03289347650580742,
                -0.024447254351374429,
                -0.037625717717066107,
                -0.006360837654370248,
                -0.009191647177196165,
                0.01819243678538868,
                0.007492064210142571,
                0.043898727203025057,
                0.04113479603856082,
                -0.020643589073235853,
                0.01709777042403708,
                0.015710875403753906,
                0.015147399613820034,
                -0.022234151739182363,
                0.008218226632653033,
                -0.029764315060019365,
                0.05049023731980211,
                0.03961677998430019,
                0.008854667590776968,
                -0.003663977659680037,
                -0.002690869006889777,
                -0.018661835131353927,
                -0.032022066431279718,
                -0.022293668897785319,
                0.02875785075798528,
                0.038555893605813757,
                -0.04284281870833586,
                -0.01705232167504083,
                0.006738757686711291,
                0.00465420857815584,
                -0.014060139005320525,
                0.046427264836613097,
                0.045705898676952638,
                0.016213489941909317,
                0.026177859291633383,
                -0.023205347016919805,
                0.048109642175393537,
                -0.03788895936739001,
                -0.002797868527920717,
                0.045617800167569767,
                -0.0022040985222621909,
                -0.04554169203514831,
                0.030773839668046377,
                0.026354471711004785,
                -0.011404763879689313,
                0.012028862142379199,
                0.039921390129066158,
                -0.03513967693851509,
                -0.014664679615716685,
                0.02520992609397805,
                -0.036488983598922299,
                0.03743055807988942,
                0.044020501374418288,
                0.01609503681530352,
                0.04051403070370645,
                0.03860540025542911,
                -0.03963682327512774,
                0.03626162942508438,
                0.013015152153176108,
                0.0034531629072259227,
                0.013523593715861746,
                -0.02362686994118762,
                -0.010341870252045445,
                -0.012827727632980561,
                0.0491505809398879,
                0.020923023069802889,
                0.01897691056327325,
                0.042085412933862729,
                0.005438978806707092,
                -0.018521154665000543,
                -0.024329625064886317,
                0.03750581687467755,
                -0.011844746801580222,
                0.01586306590088733,
                0.04988883506724643,
                -0.004662874047410558,
                0.0025693584257034014,
                -0.010390674375629209,
                0.036697553942466858,
                -0.0290303684746621,
                0.047111978457716658,
                0.03776829191085807,
                0.04459765640221074,
                0.03087521468493554,
                -0.005363313282031794,
                -0.00041295323912114083,
                -0.049701975890523508,
                -0.02093365103854321,
                0.026851084832133239,
                0.040165268155280747,
                -0.03416501612329127,
                -0.034670465219450528,
                -0.0035203997628784758,
                0.046203145162405759,
                -0.020035125688742346,
                -0.03144935162398487,
                0.017504010337767368,
                -0.003073754758382034,
                0.02670283126734654,
                0.021298204133575726,
                0.04368593253858287,
                0.04373708934261073,
                0.007003758559783467,
                -0.0491717599486362,
                -0.0001541345247911462,
                -0.02699274216295016,
                -0.007680122584435286,
                -0.016404401735984388,
                0.018432948232996305,
                -0.006361575135988432,
                -0.01354748615732502,
                0.02046059150630668,
                0.04854530001705307,
                -0.011083347863939827,
                0.003922402248498157,
                0.022019399360839639,
                -0.022036330208098633,
                0.002274998864096547,
                0.0386023719982504,
                -0.001021694390420113,
                0.018719063337140679,
                -0.009988218450445036,
                -0.03447276617526032,
                0.014806929173307723,
                -0.02873676102659475,
                -0.040505162691817048,
                -0.01074309191273296,
                -0.0006345291005656187,
                -0.014314744793334123,
                0.030537056339304478,
                0.02787490330062653,
                -0.05174371610124165,
                0.01237315562459083,
                -0.03433659295149541,
                -0.02273791434262229,
                0.05230830217607315,
                -0.02855811921225623,
                0.04536538226989544,
                -0.02048257903596457,
                -0.02738562652597505,
                -0.042236929646973928,
                0.01704908311994047,
                0.015313047167345575,
                -0.02099511480260606,
                0.0024101751729972114,
                -0.006398588527326542,
                -0.032761858975067618,
                -0.042365189121947029,
                -0.010724055637652492,
                0.004659728109387319,
                0.0383310011349895,
                -0.0383414671870612,
                0.008859544147707323,
                -0.01889584391901808,
                0.04353640265706581,
                0.004878286284480371,
                0.02647550435593041,
                0.048535185998374117,
                0.02852852284489012,
                -0.013731802081342377,
                0.03203326755687039,
                0.04470019023368884,
                0.046518175767398289,
                0.04199171816095634,
                0.013488205498430713,
                -0.01990005303728037,
                -0.035670993002271587,
                0.03089608656145405,
                -0.04473458645460773,
                0.007261153783405997,
                -0.008949518333806367,
                -0.018660518142533074,
                -0.02568240874412508,
                0.015171612861578268,
                -0.0024350136196707747,
                -0.050821899975898917,
                0.025714846172379525,
                0.02820892857227019,
                -0.034281525077447649,
                0.028986809036086759,
                0.04802680123231932,
                -0.0207079049977437,
                -0.04289853299537429,
                0.028329046007600713,
                0.03189749197676069,
                0.014199114278721129,
                -0.0016048446176448366,
                -0.023191957230296615,
                -0.034171414829565347,
                0.020607830592447659,
                -0.02935464351054911,
                -0.014896464239110178,
                -0.037386032432916247,
                0.03923801829307303,
                -0.01146515855306108,
                -0.04771204375951016,
                0.016755388863107406,
                0.02061086543576022,
                0.014257750446896096,
                -0.027789799713712518,
                -0.02015339851471493,
                -0.016124638416037258,
                0.05056291518546163,
                0.03141211011162423,
                -0.038798540960245767,
                0.0055515519927804729,
                0.033962240976185189,
                0.03909478173469306,
                0.034055622773080686,
                0.04400737746291551,
                0.029101197303119196,
                0.042744999777867349,
                0.03250364081853279,
                -0.048952610584797318,
                -0.011748886705004378,
                -0.001357421190710198,
                0.04232732897953312,
                -0.030215079232039693,
                -0.04364723740492036,
                -0.04419694875214665,
                0.032416279599240347,
                0.03203285413785278,
                0.013882879805968488,
                -0.010082913075655518,
                -0.021425434228385527,
                -0.03746102940813358,
                -0.03168489824634065,
                -0.012354505022915396,
                -0.02585074491868482,
                -0.011692569930975026,
                -0.017200597106967677,
                -0.04226194659309975,
                -0.031071671206123327,
                0.04110536993824119,
                -0.0014606713578646258,
                0.015775272926383017,
                -0.019602647421710138,
                -0.02483070880376018,
                0.013587638034980638,
                -0.025078968822837317,
                0.025878563312668386,
                0.008314966429510634,
                -0.0065553083294410869,
                -0.027736411463572334,
                0.04071875500217742,
                -0.02334904673164967,
                -0.002164457414447166,
                -0.04066671927709607,
                -0.0025267467411782607,
                0.035373076880502649,
                -0.03150268476828302,
                -0.0005390394739690761,
                0.005928548044445488,
                0.00633996123327606,
                -0.016379138647700118,
                0.0006063951652965503,
                0.021990533714280164,
                0.011095130046494631,
                -0.0011114163988541258,
                0.05017554887184733,
                -0.00991284155210393,
                0.0003080826881837848,
                0.017076294076235625,
                -0.0024203347073300976,
                0.016263321604166323,
                0.02178418956668524,
                0.020923630957027499,
                0.03747400175236165,
                0.006512354315691731,
                0.026456234522029527,
                -0.02892863401887858,
                0.014548851298498929,
                0.003325829101098243,
                0.03403851776158893,
                -0.018730038332592924,
                -0.023569823512784924,
                -0.007956515223952894,
                -0.010107242278996112,
                -0.0029922755721376837,
                -0.042161789943460026,
                0.013494651533587487,
                -0.04639188169121694,
                0.03467944337041281,
                -0.011034831991140925,
                -0.028097535927459825,
                0.034448235933180668,
                -0.0026588385566243038,
                0.013288995215712538,
                0.008345632290054578,
                0.05098278634887801,
                0.042049682027930388,
                0.02327983163176414,
                0.023189653733248485,
                0.01591454957559168,
                0.033047507574672087,
                -0.027813382077534585,
                0.04348805623574417,
                0.0498458886527681,
                0.0053340577792725519,
                -0.026570274776455937,
                0.006518570164454067,
                0.00764767512810738,
                0.00026434169337554873,
                0.018756124190566566,
                0.01501431569024003,
                -0.0007072267455812165,
                0.03936857264712304,
                0.028100347361036526,
                -0.02263221562848429,
                -0.044267154791370628,
                -0.0404504353534835,
                -0.017523632392702126,
                -0.0363172145661557,
                -0.010461594218737167,
                -0.015997822392404876,
                -0.016962786214443215,
                0.012304673386958525,
                -0.027330358164115329,
                -0.02953385720287374,
                0.030379127661886376,
                -0.02723578757163254,
                -0.0426871617107013,
                -0.021291914513563067,
                0.005642280181798514,
                0.04028737591145773,
                -0.0029899988560959896,
                0.03961617995826774,
                0.0447965746508346,
                0.05050391574380412,
                -0.042114701857568,
                -0.017318358174073194,
                -0.014722179954296866,
                0.03207955166681904,
                -0.02598503278752612,
                0.000746970818105164,
                -0.0449268801245196,
                -0.005443690498472915,
                -0.03189705840381863,
                0.02141652306715925,
                0.024323605552857974,
                0.04560339838757854,
                0.02028706389235465,
                -0.00944429379855997,
                -0.0024563521636004144,
                0.04038390390964562,
                0.006459049987486516,
                0.009825540865807576,
                -0.015710114468871117,
                -0.021123567751507426,
                -0.002754924061061873,
                0.008923350219460952,
                0.016355636209861858,
                0.030018564246550244,
                0.027410278601068498,
                0.04146450582245661,
                -0.00015039717085031212,
                -0.023425634674878488,
                0.05260765159107235,
                0.029107242387027556,
                -0.03518397261609169,
                0.006747578960712671,
                0.04671836709602628,
                0.02511195233012906,
                -0.02702158969445231,
                0.020784491801118383,
                0.016505630878377966,
                0.006688377516851055,
                0.03816916898844025,
                0.03190038142016676,
                -0.01546146113927645,
                0.029208983914964048,
                -0.005892349953012051,
                0.0030797781453151295,
                -0.0050225532840267009,
                0.04114073004818952,
                -0.0004800944931119388,
                0.018101243827863823,
                0.023513322889804873,
                0.018845358684343524,
                -0.016260533529657976,
                0.04271126114541555,
                0.0039810760757820339,
                0.013222416427080993,
                0.0005749957718125512,
                -0.011639568423480303,
                0.01561921324838798,
                0.012417303085281145,
                -0.04935995891651938,
                -0.02404457934992438,
                0.047803987681986039,
                0.02375925847548097,
                0.0037212460983452324,
                -0.01393255886197313,
                0.003887883711100616,
                -0.03555931645288767,
                0.03991311567773805,
                0.04094246807959713,
                -0.03646695033565647,
                0.025776198482259987,
                -0.02610944093299023,
                -0.04678733043603602,
                0.018547964500458568,
                -0.0004455209256558408,
                0.043403927717824638,
                0.015144891596499004,
                -0.03490804892736855,
                -0.03960637307566777,
                -0.018929022402716358,
                0.03777429343026008,
                -0.009130655718361487,
                0.031505880938389737,
                -0.0029389269269398268,
                -0.014697562103671285,
                -0.003876734492434893,
                -0.027271193874674777,
                -0.04999445103386831,
                -0.012789514429908422,
                -0.023898352704990908,
                0.031179755695264136,
                -0.037820108650260548,
                -0.04603541261335801,
                -0.000031334744289961825,
                0.009797034172869505,
                0.03951024808912333,
                0.002621161231325335,
                -0.018130632321043298,
                -0.043347776418692907,
                -0.04843992405832202,
                -0.021851113642332027,
                0.04382529661705983,
                0.01017429783344607,
                0.005598096413865405,
                -0.04646655761338318,
                -0.008459818817183234,
                -0.019036458540967944,
                -0.025317062587549463,
                -0.04453421548659824,
                0.018318409314526174,
                0.0315410846292188,
                -0.02613840572016635,
                0.0008321781413211664,
                -0.01830738872821883,
                -0.03708666217206983,
                0.03495468300912306,
                -0.034257439946746997,
                -0.02462724892143255,
                -0.03493482647068789,
                0.03815473667322046,
                -0.020884257728658294,
                -0.039482242223413888,
                0.01025165408113184,
                0.01646560496517967,
                -0.025060492539567458,
                0.011211842810958793,
                -0.036224484362358529,
                0.004485461377148966,
                -0.03984840529469324,
                0.010379646367493919,
                -0.013471583020929492,
                -0.014622617950930039,
                -0.038270429712289739,
                -0.03759148043503859,
                -0.04446606816368515,
                0.04570203025198513,
                0.03574886832203716,
                -0.02400653321031838,
                -0.008274156807894218,
                0.03762115809522838,
                -0.03252206148844374,
                -0.049939912522629709,
                0.046210273957887137,
                0.01690341809568791,
                -0.008356063276753097,
                0.010095414721095485,
                0.012168128690829799,
                0.025090460343814567,
                -0.009910738506762815,
                0.02295783930562978,
                0.021294180832974579,
                -0.017402433110747335,
                -0.035136525217139519,
                -0.035829041108302799,
                0.018021383704329397,
                -0.03300258395537605,
                -0.012970207522201788,
                0.04351984157816621,
                -0.022898155746160256,
                -0.008741161108362116,
                -0.02194211954364427,
                0.030099285351524925,
                -0.03774768047611963,
                -0.0018460181075204224,
                -0.02046650243571061,
                -0.0011873935475253354,
                -0.039907177130672138,
                -0.014676568162386073,
                -0.021346287344920457,
                -0.028241738980481123,
                -0.05231289109171087,
                0.0438436258665869,
                0.03371182095123696,
                -0.025680448173581614,
                0.017090991571328468,
                -0.024316956305451593,
                -0.035382956956705149,
                0.03894410400854463,
                -0.03156801693318758,
                0.021393926519178029,
                -0.04857609819477774,
                -0.012012609282947881,
                -0.034397639990631268,
                -0.012322832300023738,
                0.03985940304508894,
                -0.04740291199746333,
                -0.03283675819603893,
                0.04490063357485335,
                -0.00916064408845504,
                0.03221090014450048,
                0.0037454241484289154,
                0.04022443126048178,
                0.04684201288762206,
                0.05113531954336522,
                0.009163335096277027,
                -0.011005710475613984,
                0.04384053729094642,
                -0.0036733964292664335,
                -0.014644235200428393,
                0.051428467975221759,
                -0.0005091905965671702,
                -0.023791463878935456,
                -0.004229160036197136,
                -0.03921167072152497,
                0.023210867660384807,
                0.026614389134101924,
                -0.0021214242546580034,
                0.04058770779824544,
                -0.01425775671019033,
                -0.005252615921912275,
                0.048595960661131028,
                -0.001633848699214217,
                0.027186650692515254,
                0.005391216075873031,
                -0.007831288533470049,
                0.03661078661265755,
                0.014065713848337864,
                0.023317815964135317,
                0.009952327964528019,
                -0.022477242356441185,
                -0.022306273367069159,
                -0.037027017584694277,
                0.04272609990262362,
                -0.006473498655220289,
                0.017987097562556187,
                -0.03869551255331733,
                0.03698038903294624,
                0.034663010419584017,
                0.011091361926209369,
                -0.013684146031396883,
                -0.01997872321119775,
                0.011840830254141812,
                0.004673336421232383,
                -0.030867206346178297,
                -0.02845171404993372,
                0.02945099086094827,
                0.04226108704902222,
                0.045778396835438248,
                0.0194588910599539,
                -0.03968665498061469,
                -0.0017443515714319197,
                -0.018389469307797454,
                -0.001455870387293443,
                0.044346948653028777,
                0.033122503103486338,
                -0.04476646329624317,
                -0.03134094400655586,
                -0.01263494600046068,
                0.008507559702921228,
                0.014956487426830139,
                0.029257228808964684,
                -0.026143189741508315,
                0.043696504955816669,
                -0.04352067555534643,
                0.01748889849201847,
                -0.016875693524594987,
                -0.02586464106014177,
                0.050121563376022717,
                0.0016130983975181125,
                0.009075293591356636,
                0.0328402907307372,
                0.012298732487710155,
                -0.02681954490587677,
                -0.03934421244503916,
                -0.040048522537516787,
                -0.016687626865632099,
                0.04431975928240656,
                -0.003281404101851115,
                -0.017221095803736133,
                0.009133746557135125,
                0.0458295983039673,
                0.01735734416774858,
                -0.044998585484074388,
                -0.004031940880984887,
                0.027730701669789739,
                0.04565339056844219,
                0.011932264765937515,
                0.04720840667717847,
                0.006874409823264631,
                0.010133435821251343,
                0.04079720265335393,
                -0.0007042340721660608,
                -0.025034224112267718,
                0.04164120939444496,
                0.00967546883021929,
                -0.03948663477276357,
                0.02084626699396541,
                -0.007126519481953133,
                0.006517277261948678,
                0.038944130523660618,
                0.002398313280408801,
                0.0454909918486436,
                -0.0067973619911017809,
                -0.04380124159322582,
                -0.025817189436991605,
                0.04129792793028763,
                -0.048483532063247989,
                -0.006109417479452939,
                0.03676272340789426,
                0.0006007107428947318,
                -0.041928506105161179,
                0.016812336624659968,
                -0.043021255722040508,
                -0.050351649904356709,
                0.025332964718031274,
                -0.0432818057303392,
                -0.03199382393446578,
                -0.002688635528264734,
                -0.02107309403892091,
                0.02217715595830971,
                0.01637259594489863,
                -0.023571007172062867,
                -0.011160834825166033,
                0.04111434325198336,
                0.01786906855503618,
                -0.016432997477412966,
                -0.013528455623344116,
                -0.020430268481591176,
                -0.00145486979387554,
                0.04721075434217462,
                0.010239237473855948,
                -0.003569051165446275,
                0.04770240630005558,
                -0.005181660602007497,
                -0.04948244716478814,
                0.04836124089981287,
                -0.03177530873547989,
                0.05159081811568977,
                -0.02496277021783442,
                0.03938511799755881,
                0.04196778098965677,
                -0.029835642059192387,
                -0.03664767081323291,
                -0.04194415313245299,
                0.0037855009396525298,
                -0.024820297408653347,
                -0.0014675153492138916,
                -0.024973801484468085,
                -0.03487222242409844,
                -0.0042197358678434239,
                0.04611726785009027,
                -0.02501386057749734,
                -0.032384805160005147,
                0.03275549671956034,
                -0.03079092404120069,
                -0.02212624187257915,
                0.0073329322812218538,
                0.004662689820737088,
                -0.010025533714986423,
                0.03862261888950413,
                0.0022210473356810598,
                0.026845801253884664,
                0.04369148504604481,
                0.0334007716575505,
                0.036502406279164487,
                0.012243573501038828,
                0.021739482749203687,
                0.012948530483975703,
                0.04600439550285273,
                0.02704005899235934,
                0.04099143117086145,
                -0.030515061163622249,
                -0.027480871577415929,
                -0.006103383209769611,
                0.027844264534554375,
                -0.0015641984565945293,
                -0.038350663241869389,
                -0.02163455027596564,
                -0.010771915046151479,
                -0.0037564776958840374,
                0.03468457576393062,
                -0.03386370363075695,
                -0.03545798242469763,
                -0.05206451628565855,
                -0.052023099721818438,
                -0.0167623998496981,
                -0.02101729512214652,
                -0.04017133983789749,
                -0.03109675591177856,
                0.029055086421308008,
                -0.008518112323089154,
                0.011307460472272452,
                0.012040424123686403,
                -0.01378144524863887,
                -0.014839344822516143,
                -0.03742416198471562,
                -0.025322885643739486,
                -0.024191686521516339,
                -0.03270405702607676,
                0.03526526765268219,
                -0.0006043539379848094,
                0.03461814378067111,
                -0.02370276019655315,
                -0.01171646520903552,
                0.005560593806543509,
                0.026921348336059696,
                -0.04081077589988628,
                0.0219048011734275,
                -0.045080633687877919,
                0.02847918833143487,
                -0.03328402307702536,
                -0.02124628869325056,
                -0.034678411661743537,
                0.03527955484043468,
                -0.04695125964582786,
                -0.014489533188280757,
                0.01133741761964896,
                0.044414310229536377,
                0.02649780078151016,
                0.005511534007733766,
                -0.019782013820140985,
                0.013753419489632187,
                -0.005790775800152253,
                -0.03278317090031276,
                -0.010921350818327498,
                -0.02528071550273404,
                0.0061713897670964078,
                0.034482524270263398,
                -0.04118599029209289,
                0.013866604905165323,
                -0.02944850687215441,
                0.03237477722462602,
                -0.041305523039326687,
                -0.00018824110688703098,
                0.04682825401543816,
                -0.04663660249126741,
                0.02981141029449496,
                0.02855859992849057,
                -0.009599335663791054,
                -0.021832687995248819,
                -0.026473777481607558,
                0.0011988256806771388,
                -0.04440142441755426,
                -0.008519865971777103,
                0.01045633264578793,
                -0.03340003867048987,
                -0.005924437762678252,
                0.016506381793200014,
                -0.010471468179498503,
                0.04612226483525141,
                -0.005207984946125318,
                -0.013899950058957993,
                -0.009637417236382094,
                0.009720005303650829,
                0.006229866003293091,
                0.03513667856924289,
                -0.0038551923118831799,
                -0.04404890010415688,
                0.04878233940072912,
                -0.026698438966897384,
                -0.026971777645318979,
                -0.022312966013085038,
                0.01872391973300224,
                -0.012286236206641049,
                0.0034463175965059815,
                -0.018508701458643713,
                -0.03974743318828889,
                0.012856974806904506,
                0.04943752749189876,
                0.04555085455062747,
                0.0010849135905744575,
                0.031396299263607447,
                -0.0013266950803672528,
                0.009437506167594128,
                -0.02165864677102081,
                0.025234396376701015,
                0.007135953398323719,
                0.04109709422169498,
                0.003973332794448405,
                -0.029631737828866336,
                0.030765966778256248,
                0.04006608079788826,
                -0.004901119760754823,
                -0.03925628403318871,
                -0.0320321116224571,
                0.03422715096590429,
                -0.00985603897744538,
                -0.0021826313485162056,
                0.040742054037753747,
                -0.04144278419374981,
                0.006768694290031145,
                0.023446845155672574,
                0.029624625916813343,
                -0.03774967846995323,
                -0.04611778138880705,
                -0.051053238134400508,
                0.03250887449403278,
                0.012854140458398372,
                0.042832599654491518,
                -0.019248189060080586,
                -0.047037179582048237,
                0.036996220007466707,
                0.01864764004312861,
                -0.01176487043036541,
                -0.006130638214099741,
                0.02018041393816948,
                0.02938064256831298,
                0.03683501065665239,
                -0.017571028385123145,
                0.033357150627895109,
                -0.02461979544260754,
                -0.0018805807719487818,
                0.002047794271468165,
                0.030395515028626704,
                -0.0019919738897643979,
                -0.018414545098591349,
                0.03045288694145125,
                0.010120834468214969,
                -0.029127618397716036,
                0.01824929558955858,
                0.0351755043068809,
                0.011451146648309575,
                0.018523444310191495,
                0.03955230672729829,
                -0.010500819160804767,
                0.027080190135532663,
                -0.04962779315360738,
                -0.015055062341479376,
                0.0007491788371452872,
                -0.024000185387318228,
                0.039641509656411128,
                0.03852583995957611,
                -0.042609577384514787,
                -0.024641834607793207,
                -0.041038011212889007,
                0.040564532178593907,
                -0.03447632748693662,
                -0.04034019834221151,
                0.01915865113591644,
                -0.0003696381197527682,
                -0.04800537952584174,
                0.005063192015291779,
                -0.03231042399220916,
                -0.03865837606912539,
                0.03608614076921832,
                -0.03912893913270117,
                -0.021626769679308028,
                0.047708190299897337,
                0.011197811210402207,
                0.017841899654002674,
                -0.02538833971815148,
                -0.023313380571563407,
                -0.004914128923630579,
                -0.026923312860558686,
                -0.008032534712592698,
                -0.005966825582105592,
                -0.029961216252122413,
                0.03207341645595501,
                0.052339363881629668,
                0.013091620534141325,
                0.017044372382645526,
                -0.0006012103609092398,
                -0.014793686625483596,
                -0.04819173597280675,
                0.03907105928648146,
                -0.013686080488800403,
                -0.007446185117980463,
                -0.021928921786255708,
                0.017547992911350224,
                0.007470137621027992,
                -0.03356894204368434,
                0.023469660012766716,
                0.03975382462182598,
                0.025499846970783118,
                0.0153655538110902,
                -0.016470949622218797,
                -0.008156309067634245,
                0.0043208751668759319,
                -0.04427739521959295,
                -0.017106065091331947,
                0.0003454288001191795,
                -0.04363721064352042,
                0.024174876785167125,
                0.028032200400628053,
                -0.04989896957901494,
                0.009221368918306439,
                -0.00568966254443999,
                0.029919949318286684,
                0.02675064951236371,
                0.0215982759156633,
                0.02420157841998253,
                -0.01772106250090936,
                -0.04207425636188255,
                -0.04424908919732099,
                0.03075235988648521,
                -0.0007178058381600295,
                -0.03244285726173401,
                -0.03640075831321938,
                -0.03204338813579942,
                -0.0063342852863265438,
                0.012900614277000899,
                0.047310421575418818,
                -0.0208269513829466,
                -0.04590023443889245,
                0.001978523031675661,
                -0.0003973496289918452,
                -0.006774039468901691,
                0.019092360493532948,
                0.005835034100533546,
                -0.034889793815799697,
                -0.04835128346244594,
                0.01344586344541067,
                0.024877663579605949,
                0.013647199764400944,
                -0.039323037158613887,
                0.01185196479531503,
                0.02584542267204696,
                0.006392167962608018,
                0.04309147295274169,
                -0.017095820773251424,
                0.03930322911957895,
                0.014654421686967998,
                0.002243972554496712,
                0.04709545140879827,
                0.037796328903383458,
                0.03018647076171813,
                0.014063658128899683,
                0.030723249453500784,
                0.04548047591681987,
                -0.034850327121452199,
                -0.03745139460800042,
                -0.02478380768197487,
                -0.014777860111379249,
                0.009629136821087166,
                0.01903342493088399,
                0.006278805076353719,
                0.017416463178886976,
                0.02202619279101101,
                -0.026195642378750117,
                0.007816760620936746,
                -0.03315629431697546,
                0.02238884110536896,
                -0.02751491294302797,
                0.012277053201085667,
                0.018705830049221308,
                -0.036051225893975257,
                0.006684789410147721,
                -0.012154609954366238,
                0.05004498247840867,
                -0.03312056855231374,
                0.017963875722800065,
                0.017490175848756167,
                -0.037737520008168119,
                0.036563572446973138,
                0.006089410577464283,
                0.04886663020546696,
                0.0005387540669954398,
                -0.021411226260756496,
                -0.03482824024173957,
                0.01520654422143825,
                0.03938054051550505,
                0.012214548011289498,
                0.02812932830181296,
                -0.01010062175769841,
                0.04963492964446497,
                0.0226196672365039,
                -0.03128734658519293,
                -0.03663939555548486,
                -0.04962619530189129,
                -0.00012058277403959709,
                0.037673563586332118,
                -0.04832602604015839,
                -0.023273578625308715,
                -0.0043597716021283399,
                -0.037121207305599899,
                -0.0353258128832011,
                -0.008405842787561386,
                0.029464887810736859,
                -0.022936414966997569,
                0.018526190589276929,
                -0.026463325575537958,
                -0.023739187524723313,
                0.03449475227092578,
                0.0254665417400066,
                -0.004178810938396577,
                -0.004462449934317842,
                -0.038864491646965,
                -0.0012793986118183436,
                -0.04997297841448398,
                0.018386989624316037,
                -0.044879618561693129,
                -0.011581450485976877,
                0.0038037829993187559,
                0.003961651801295695,
                0.01956509702147645,
                0.005765680966336085,
                0.045094368207244699,
                0.028914222114898779,
                0.019581234713173257,
                0.04573279709594141,
                0.0422975218106755,
                -0.004729005409536943,
                -0.013188980215205683,
                -0.005478096436553421,
                -0.023627569854730355,
                0.021416305624174685,
                -0.017681366190921558,
                0.023513565574240747,
                0.024012035898704537,
                -0.008337198736137397,
                0.003063131003874204,
                0.014983783787122065,
                -0.04740553026425636,
                -0.0011166525016060745,
                -0.005032933032613827,
                0.00912743479908537,
                0.02892053388407083,
                0.05155969411075526,
                0.04487354122420198,
                0.004466269724062228,
                0.009052200276308353,
                0.0199633651022335,
                -0.040272832290969149,
                -0.018691804122458815,
                -0.005181786527974509,
                0.00011865416272366396,
                -0.0023762666128137445,
                0.020968310068080567,
                0.022686819368058048,
                0.005448953501099284,
                -0.03255739930271301,
                0.008513794208139249,
                -0.03222924856341433,
                -0.017079670349064815,
                0.021991259126302628,
                0.02652444554210749,
                0.034509003058756138,
                -0.010090778302301332,
                0.0023067285035936358,
                0.025274057136310498,
                -0.0407850730971524,
                -0.009839533372210215,
                0.027592042113466158,
                0.01113222310790583,
                -0.03359148732143726,
                -0.00856370500755622,
                -0.009002361343913383,
                -0.04517593242675247,
                -0.042477078175576919,
                -0.04357016556982315,
                0.028924907583615678,
                0.044478487660042507,
                0.03613611185246595,
                -0.03669271303224367,
                -0.016423890778791054,
                -0.02578250677326733,
                -0.013044918115820705,
                -0.04371815994379312,
                0.052132099712422618,
                0.025525751891431488,
                -0.028771022365169715,
                0.01657852257840259,
                0.04826026497935559,
                -0.034801581462839657,
                -0.02933440978135744,
                0.044544824913036819,
                0.0019723344912324599,
                0.020214718999426175,
                0.02505470590620225,
                0.018624745990874004,
                0.025563258292428706,
                -0.007916294807978699,
                -0.0016060389893697309,
                -0.027146351517115164,
                -0.009525715969939638,
                -0.030176566052704479,
                0.03970727732706211,
                -0.0038426182057208267,
                -0.034303545716650108,
                -0.04196332507617924,
                -0.04289977389436174,
                -0.0035909005414490964,
                0.012759552752486976,
                0.014162445420961609,
                0.022498956132516565,
                -0.03022005659393953,
                0.021337023594212954,
                0.049532615482839357,
                0.042069701572896977,
                0.0023069732853763169,
                -0.010281879737322898,
                0.026769380911926423,
                -0.009756958957640677,
                0.0263149677985689,
                0.004457968645376349,
                -0.008303023109874734,
                -0.010166377275429403,
                0.010959048554613349,
                -0.012889148328257079,
                -0.03447770303727471,
                0.035143306006174528,
                0.01780776404014311,
                -0.023388146841050864,
                -0.010809332455547286,
                -0.020472496556058117,
                -0.011361863963128652,
                0.001690778527824222,
                0.014311961902748074,
                0.020539113469446807,
                -0.027142517173582144,
                -0.015424195757592036,
                0.04154663618367233,
                0.04059729060104073,
                0.03664948188940723,
                0.016265980548632584,
                0.02601631610289453,
                -0.04805292322561864,
                -0.016256602667562335,
                -0.019020638680368668,
                -0.04668369482745294,
                -0.02933058731474983,
                0.002087692226370471,
                0.030667303356431174,
                -0.027723423973309327,
                -0.018284904811804289,
                0.04459943701658224,
                -0.048066627096534187,
                0.019949316309386457,
                0.01990582523399889,
                -0.04962577286349746,
                0.026138750582805235,
                -0.02410391486144051,
                -0.04305288352100085,
                0.04687976512250803,
                -0.026437779509104654,
                -0.007546634461716086,
                -0.04145931228702094,
                -0.02385100340259218,
                -0.01916405248545178,
                -0.006814856451714394,
                0.017887834935988894,
                -0.04684529143040408,
                -0.02150588498251892,
                0.02119678658441624,
                -0.032712614638730628,
                0.002796288538321404,
                0.03484114382822733,
                -0.0052601445869585659,
                -0.032833041787278919,
                0.02637329721753965,
                -0.01765051169637012,
                -0.038501092681238909,
                -0.030214951047027349,
                -0.016045891537745717,
                0.04651652702481017,
                -0.01850559253690696,
                0.04402200137550454,
                -0.04780596406246027,
                -0.042114677156448097,
                -0.021928894269710967,
                -0.009540829759662849,
                0.03224535646785302,
                -0.0485264710644856,
                0.01876990491775076,
                -0.00884362444767587,
                -0.045475701848341067,
                0.024963045848512476,
                0.041465905087327819,
                0.020759889838541325,
                -0.030493749787780509,
                0.010002536829116905,
                0.02354620844695854,
                0.045768747221500549,
                0.050819111407398979,
                -0.018381425021891923,
                -0.035131520184386467,
                -0.02779511321297278,
                -0.051437210459576779,
                -0.04616874796670029,
                0.02354868090337165,
                -0.04069675337318407,
                0.0061866711298638149,
                0.006838247992461176,
                0.039515422283033719,
                0.015284176104431148,
                0.014578545163502686,
                -0.04616236149632459,
                0.022458807707480257,
                0.046800332452097557,
                0.03846691496475312,
                -0.0022123044475312397,
                -0.043280940379494318,
                -0.03276364314350521,
                0.04770374923253885,
                -0.047387999120082287,
                0.03782971074761713,
                -0.046934973780940397,
                0.0053945551937787969,
                -0.014092472704957154,
                -0.036694748662701569,
                0.026317210584708124,
                0.04888842920856059,
                0.02390150369857554,
                0.04098788775524427,
                -0.03624007520508365,
                0.014812538987439499,
                -0.04304531016328807,
                -0.024284358260108067,
                -0.04703584721124099,
                0.03409621037837048,
                -0.043319924733553689,
                0.04044129709759763,
                0.049719249018723387,
                -0.015736549013425847,
                -0.025871857200260436,
                0.030501500894875547,
                -0.024138877504681686,
                -0.03832217400946399,
                -0.04589814695405713,
                0.02552135233385936,
                0.04730081894580688,
                -0.048709843292538679,
                0.040644758829585649,
                0.03258313308899356,
                0.021586594732416324,
                0.0032695693065279919,
                0.006266047376246431,
                0.04720137299225752,
                0.04514621288582073,
                -0.007911929642989488,
                -0.04042857553245896,
                0.012526303130152709,
                0.021007299221009899,
                0.04183486786820542,
                0.04313406230673332,
                -0.0419967233963875,
                0.026484171059565927,
                0.016749807934115,
                0.028960305167210738,
                -0.04638982241527376,
                0.004271257491060344,
                0.030747286263552968,
                0.02292122750302741,
                -0.03310275188231759,
                0.033887889910186128,
                0.009666851089431968,
                -0.037066883231066379,
                0.03262718074037914,
                0.020742074422550027,
                -0.03376963750506266,
                0.015104573317290843,
                0.04341895548487289,
                0.003505612801406415,
                0.008985749776849088,
                -0.03693342007767325,
                0.026199297323195707,
                -0.04139738899499396,
                0.04356025439296131,
                -0.027446414987221117,
                0.008682460392928192,
                -0.04413923441496391,
                -0.0343643632117267,
                -0.021718208498444515,
                0.006063002119961503,
                0.019607192009021204,
                -0.006154871564373952,
                -0.02740676474416344,
                -0.041373182791923358,
                -0.01119785640463362,
                -0.03405066528707898,
                -0.044837132602104427,
                0.01299708419290912,
                -0.017896129023232577,
                -0.046027654614460889,
                -0.030543300061101676,
                -0.03135009843668337,
                -0.02329251582023384,
                0.022030951365662529,
                -0.051034279780987578,
                -0.03284286450227988,
                -0.011069435982638484,
                0.026477587274448098,
                -0.024717501985315198,
                0.024513980764862724,
                0.02317760837869987,
                -0.03699890871000419,
                -0.04128118280486697,
                -0.04420546769883521,
                0.022133422533370866,
                -0.02742277273655817,
                -0.04911166732939336,
                0.031591274738483447,
                -0.004395929328661961,
                -0.029936645803664155,
                0.04715016204941862,
                -0.013035452907860209,
                -0.00030148694146013794,
                -0.03574144936826463,
                -0.007284758179682288,
                -0.01608840884498722,
                -0.01813875430613338,
                -0.04833693612068075,
                -0.007617836382575646,
                0.005552527017328483,
                -0.03932893440438133,
                -0.046807862029370959,
                0.01833081520913665,
                0.0000864573197423577,
                -0.01095809716127246,
                0.05249202332883926,
                -0.001328728435082713,
                -0.014196341246420233,
                0.04253060962193943,
                -0.04979022664598846,
                -0.032715759460606088,
                -0.020199249191771786,
                0.03900067130203987,
                0.003227393036157998,
                0.022788898995056374,
                0.00976157071632568,
                -0.018065855436018263,
                -0.03259755544047655,
                -0.012274032196552459,
                -0.03371127161553705,
                -0.03204624304569971,
                -0.02933279747424849,
                -0.03468429219666549,
                -0.03993282606301283,
                -0.04170117396850593,
                0.03281156278547966,
                0.014911325204281909,
                -0.03946757250779225,
                -0.022419497787003543,
                0.013545861698990442,
                0.03405634797217806,
                -0.008981338597570074,
                -0.024629104665413585,
                0.02297511985414994,
                0.011184528899982779,
                0.02847362586342553,
                -0.0065302580016077739,
                0.005134429319614623,
                0.01685957806078408,
                0.02112956400909759,
                0.02351219011133256,
                0.018982707720171175,
                0.038359587382068658,
                -0.011161096423316242,
                -0.04291769390308761,
                0.014902472900032518,
                -0.008105002476705309,
                -0.04814243096717128,
                -0.018148304807751534,
                0.03196843337357676,
                -0.04711478766680114,
                -0.03656804634887757,
                0.01816267049260255,
                -0.027448454739495227,
                -0.013549440641775778,
                0.03357302713307388,
                0.04040835555329399,
                0.009219698288766785,
                -0.003852918264977194,
                0.005030819976560425,
                -0.01799593509104781,
                -0.015821460493768578,
                -0.049397132546082408,
                -0.022283023900863984,
                -0.027532941580427188,
                0.022243557012961464,
                -0.05180605200378948,
                -0.034877080206145247,
                0.036498828554914809,
                -0.045040815777778787,
                -0.03819934393618152,
                0.024684848009170328,
                0.0006167006848755005,
                0.0073875285030609578,
                -0.00736963569080252,
                -0.005547876175239889,
                -0.016507943767814539,
                0.026547115570286524,
                -0.045486363209534589,
                -0.009247967156613115,
                -0.011128893090495657,
                0.013926813328328994,
                0.027086808948071109,
                -0.005852911712316205,
                0.006724437516588389,
                0.018377966377800687,
                0.02074531747283556,
                -0.04763087160879901,
                -0.015427988797851743,
                0.02344026700611499,
                0.037641508942380257,
                0.03722940514517937,
                -0.0405344649949852,
                -0.04221019395055986,
                -0.005214555042777798,
                -0.01132673958693877,
                0.016618239935617165,
                0.012766605968584427,
                -0.03383349695311744,
                -0.020594974723211515,
                0.014398986702443615,
                -0.017625543435605245,
                -0.04243972526324486,
                -0.017038212338490807,
                0.02158565652667903,
                -0.02001424843523131,
                0.009655136816515128,
                -0.04324917260046262,
                0.031304446682242779,
                0.04327323300453265,
                0.004131280933766308,
                -0.03942912201055793,
                0.004688292301158771,
                -0.044651669297206358,
                -0.033698432286970596,
                0.018253460948553174,
                0.004306208481929604,
                0.004781832588404517,
                0.01708236432342179,
                0.0029911620562138457,
                -0.048172952048920577,
                0.04620436601123028,
                0.02878112649671753,
                -0.038638393358523249,
                -0.03663748970584229,
                -0.027963144948615745,
                0.013025366545057166,
                -0.012118201985914732,
                -0.029805535470703853,
                -0.0442459254949084,
                0.022758702627495965,
                0.01953897942478135,
                0.005479296577273822,
                0.026672411662801107,
                0.02917942725830139,
                -0.04089820428659063,
                0.0034433960923660499,
                -0.004109658048893242,
                0.02506982840982436,
                -0.019270886117773609,
                -0.03947908922465967,
                0.01580346447686358,
                -0.022954323632327995,
                -0.008751905959313246,
                -0.03269823120818766,
                0.022497995703335259,
                -0.013854284649084812,
                -0.044512773853272107,
                0.04390224582870153,
                0.0240245886004892,
                0.03129356870340507,
                -0.03604816677652077,
                0.046423274363108908,
                0.014776972490748495,
                -0.019346082745259658,
                0.016408544066325097,
                0.0009851540770923443,
                -0.04859897591666017,
                -0.03259914206416158,
                -0.005403838834996953,
                0.011865334062703933,
                -0.028292193769678534,
                0.03874107548867357,
                0.025668349785252767,
                -0.03333252867642481,
                0.03568551226699981,
                0.006701652062068245,
                0.030335783006638356,
                -0.024472615486826615,
                -0.03855943627976319,
                -0.038214215310853418,
                -0.03938554741463798,
                0.027720392833693834,
                -0.016249610117055399,
                -0.006565784055822474,
                -0.009920050572840057,
                0.018291680399015379,
                -0.008323242579829462,
                0.044741561993252718,
                -0.012114586213273654,
                0.03336051557235322,
                0.003960702241102952,
                -0.006110355744457785,
                -0.008968604780098099,
                -0.03237431262391963,
                0.015469906552589482,
                0.02338763058505149,
                0.03768476727675828,
                -0.0029697758918424985,
                -0.037184708054675958,
                0.0067787880665173909,
                0.0002106618485176828,
                -0.024235601744406134,
                -0.022900248794954605,
                0.014465927163536702,
                0.03416814404199411,
                0.021865878989145078,
                -0.0009331614193736371,
                -0.027210702426459806,
                -0.018286131119229708,
                -0.03388599367650783,
                0.005848794972209545,
                0.0360765967614343,
                0.031194676824377378,
                0.012003851248352115,
                0.02917025985201511,
                -0.013556772080714106,
                0.012523235555660656,
                -0.028618343071443634,
                0.03180376717049307,
                0.04732931573312921,
                -0.041081064593061929,
                -0.04431285135564198,
                0.02985388351623476,
                0.00024399482356610272,
                -0.040147678635853088,
                0.02394523908420972,
                -0.000367751131896912,
                0.009551253943652728,
                0.0014409651635026962,
                -0.03475265740438177,
                0.01336521596516731,
                -0.017587961563306416,
                -0.03894347066777574,
                0.005765189057470494,
                0.011511456457147521,
                0.03075185929971285,
                -0.0029012502442455959,
                0.017667418407068409,
                0.006105191006940693,
                0.018277605541179209,
                -0.02707803377530385,
                -0.04097456493883805,
                0.01407403405632226,
                -0.03127961241406211,
                -0.014908888441973549,
                0.017639821635327923,
                0.007350747626658185,
                0.02844928217449512,
                -0.009092114713077917,
                -0.023190895551032925,
                -0.03518882695736705,
                0.015172053838062846,
                0.0055282273553344039,
                -0.027312883612578294,
                -0.004492720505336739,
                -0.012709166171562276,
                0.0022448112995217897,
                0.016715562234675388,
                0.003611624688113523,
                -0.03943766771771807,
                -0.029050494755023826,
                0.04575782641760324,
                0.017148455248032745,
                -0.03282786810187192,
                -0.005488556738722199,
                -0.022708918044860479,
                0.026298620968223716,
                -0.016726633876487149,
                0.0469508928852586,
                0.04303976593026511,
                0.03609644542006839,
                0.034897990737503648,
                0.013631512752645087,
                -0.027168977540076634,
                0.019740701788614414,
                0.04382021958977025,
                -0.01036150490229124,
                0.004910274043701085,
                -0.021796013310478213,
                -0.012067694713689707,
                -0.03675237106257388,
                0.018694099585412229,
                -0.04188352203874785,
                -0.02836876060305871,
                0.04700459017183563,
                0.04735191100966597,
                0.02597052440388365,
                0.040340163163067429,
                -0.04300829976942398,
                -0.027744443290261129,
                -0.021923950683280514,
                0.027621642217660795,
                -0.03697511179234096,
                -0.007559715131397047,
                -0.006124796197365068,
                -0.022818122933265695,
                -0.008524329020356535,
                -0.003123141411557954,
                0.01879937616308991,
                -0.041403568080328839,
                0.04415195598500093,
                -0.024296179303338187,
                0.027207645877099994,
                0.002530146569945407,
                -0.00707565566728074,
                -0.02214621570853461,
                -0.041116325063925759,
                -0.016650842983468383,
                -0.002656880955811059,
                -0.00046716288191249336,
                -0.04546580289878039,
                0.03971935644852787,
                -0.0041198168351623139,
                -0.033862950667381489,
                0.04970330057879234,
                0.000013490550652928082,
                0.031133126167453147,
                -0.0027320675125773006,
                -0.029485611064966875,
                0.003530658589246137,
                -0.002146119182229649,
                0.03536783484818173,
                -0.02278689278093892,
                0.026302265799151033,
                0.014258796357106635,
                -0.04603587643875504,
                0.020893551578373447,
                -0.033328446335554099,
                0.02900904677453773,
                -0.007314708502312894,
                0.0022475955336363924,
                0.04183031775605466,
                0.03498725800788955,
                -0.03404692326071007,
                -0.007391284646281122,
                0.034965550931512389,
                0.03730906132607126,
                0.01374704310791532,
                0.0300130856640683,
                0.013744330269210676,
                0.03698596093364601,
                -0.013347978528128591,
                -0.005243793747495757,
                0.009549040504006885,
                -0.029548537460082667,
                -0.014802696240253783,
                -0.01568389340262789,
                -0.04951334863050043,
                -0.0042929895421746689,
                0.04569379999076253,
                -0.002293311948721706,
                0.05031479776749865,
                -0.023628016497437074,
                -0.03726432549855208,
                0.004706316068334158,
                -0.03792309706307727,
                -0.04927431919560058,
                -0.04639414804223575,
                0.03675172685481668,
                -0.013810874309829495,
                0.008617716717533222,
                0.04266519783775487,
                0.006740817294580705,
                -0.042878927853033498,
                0.04554651777895393,
                -0.04061442768504759,
                -0.03948846045322561,
                -0.022553215969091338,
                0.018637178513311038,
                -0.039536251045834486,
                0.012748057733880788,
                -0.030251935603880264,
                0.017299445113967274,
                0.004247808228716225,
                0.016966225809166844,
                -0.03655670171232491,
                -0.006650427580860684,
                0.01654477368124719,
                0.00943449424149287,
                -0.02241092546768586,
                0.022267760949390919,
                0.018904886323273044,
                0.018232050462664526,
                0.034986675396960108,
                0.049255035302711688,
                0.0013090043765320934,
                0.01887769829222876,
                0.02205631793368075,
                0.007478142806327238,
                -0.022969066192561648,
                0.030833351708780718,
                0.03358691318837765,
                0.021968257480632325,
                -0.01226259874818119,
                -0.03984563369328278,
                0.0459413062723464,
                0.027588276345159123,
                -0.010949617579665273,
                0.014039838135592233,
                -0.0405659016901051,
                -0.02746545645821064,
                -0.0454855077942329,
                -0.021241439892503178,
                -0.018580990389965567,
                -0.02238020128694377,
                -0.027028167483127757,
                -0.0191411220384841,
                0.020101088477401074,
                -0.004452809055141756,
                -0.007953159313138546,
                0.019154884509410234,
                -0.00967418812916737,
                -0.006949768724441905,
                0.008588019842251006,
                0.021315012909932989,
                0.039579176467475458,
                -0.02666860824597941,
                0.021191777162079426,
                -0.04896093352975384,
                -0.006602316093190005,
                -0.009332746566628525,
                -0.012630404203961651,
                0.020456952281149293,
                -0.01883664712135486,
                -0.017398914366027804,
                0.026553966746955278,
                -0.0008555524560075181,
                -0.019330493376382767,
                -0.006445250055418783,
                0.02479410363768523,
                -0.018391365234442536,
                -0.04706974994123125,
                0.05055537334542342,
                0.0009172603362284203,
                -0.04584006072122867,
                0.013999473736092783,
                -0.012687996466800725,
                -0.014222779761351962,
                0.005103052678026455,
                0.02543882093515094,
                -0.026847473147011547,
                0.03941715865720369,
                -0.021765481560783206,
                -0.036554776176935737,
                0.016341557830995964,
                -0.010559826608936127,
                -0.013477284825466467,
                -0.03700713038322127,
                0.017328591309461049,
                -0.0302273791501015,
                0.026399840522940457,
                -0.04557038631283645,
                -0.021045820264407403,
                -0.022805420999895653,
                0.01628163702108516,
                0.028151159956105025,
                -0.009596628830738896,
                0.037632649474460638,
                0.04844040884345718,
                0.002308314554493899,
                0.023286840423985618,
                -0.0434226126076739,
                -0.027871959381972217,
                0.020658156340479858,
                -0.047922881132740267,
                0.01902329197426324,
                -0.00902718581532386,
                0.04845904020273538,
                0.002060274658245581,
                -0.04601968412154618,
                -0.001012697671846864,
                0.02742150923979377,
                -0.0365887097336453,
                -0.016461479108652346,
                -0.03567422016774587,
                -0.00493707868007405,
                -0.042406196500396498,
                0.000556609316253149,
                0.0274933563080079,
                0.03953322350912624,
                -0.012896534449918215,
                -0.01583927488781249,
                0.0018148548601157769,
                -0.028655945850543105,
                0.044424546945907108,
                -0.022955776220395978,
                0.023972116275421938,
                0.025986249202012036,
                0.03212310202620872,
                -0.02567132082367935,
                -0.025995142589779864,
                -0.0025845219174430399,
                -0.013101301750450252,
                -0.05050861831501656,
                0.049500143110242127,
                -0.03330850215942997,
                0.016989665707966535,
                0.005712121711346423,
                -0.04334529440131718,
                0.04724314328304726,
                -0.049674317121229816,
                -0.011425891654919925,
                0.00729608173730741,
                0.02018905595263302,
                0.022254255862278965,
                0.04653431281039243,
                0.04541675084026509,
                0.04606542499038048,
                -0.044345798800102299,
                -0.030098949673135746,
                0.027315586295743659,
                0.03085933985259075,
                -0.0324705196289594,
                -0.041318644011137089,
                -0.0323553183682882,
                -0.014120278364915282,
                -0.0014283791253349903,
                -0.04816570503183332,
                0.028863746457442515,
                0.029716947774252036,
                0.04172611096921705,
                0.015294643394476376,
                -0.03279276270419712,
                -0.021454768392904855,
                0.028840149940634747,
                0.0471213105108986,
                -0.0109065064255177,
                -0.039116525146495339,
                -0.016145352332596075,
                0.048724448334384318,
                0.028042329330145545,
                0.0007543605606452202,
                -0.006706653547323312,
                0.025149235047988193,
                0.03708389775779433,
                0.045867461338329699,
                0.022602534834125819,
                0.041031907770490098,
                0.0014243187096953565,
                0.04246098703890091,
                -0.020819659617375146,
                0.02265128066589518,
                0.021033231784347324,
                0.014490538803140446,
                -0.0012710673698746829,
                -0.010927858805113636,
                -0.017726802863041806,
                -0.018417869270035606,
                0.036461106600809877,
                0.015441855070290634,
                0.02055895937990036,
                0.020563121669108308,
                0.027314125845173288,
                -0.026439273520626185,
                -0.048956068911541309,
                -0.011524078035347855,
                -0.025648492810525185,
                -0.01970168388289621,
                0.03907417028149257,
                0.021962971751691729,
                0.008974737620538669,
                0.034923140103457279,
                0.013922614858531925,
                -0.039545133601220517,
                -0.010279287676630087,
                -0.026383642028155523,
                -0.006377590163062377,
                -0.009668366743208155,
                -0.03279723460195854,
                -0.0332473102559888,
                0.012833637782545322,
                0.009905845097809377,
                0.0010070234000248674,
                0.03281240246467812,
                0.0007845535976423662,
                -0.02961261723101155,
                0.04712344230453184,
                0.001366154295489463,
                0.03400157978366533,
                -0.012197388697909477,
                0.017458401439352006,
                -0.043897322427216649,
                -0.027855096191338505,
                0.019005208939657123,
                -0.016905719806617326,
                -0.04393951882429273,
                0.027340732897122755,
                -0.03060348563785918,
                0.020232902208384575,
                -0.004776954178825345,
                0.017364512578750697,
                -0.00821718558981118,
                0.04607442179106008,
                0.02275121215038301,
                -0.010526122200604933,
                -0.00465624661344687,
                -0.0439220381875379,
                0.01249010390966056,
                -0.025123472322776825,
                -0.025921227615290995,
                0.043680050983009689,
                0.03953714901682034,
                -0.03854303306678796,
                0.01529842150381952,
                -0.05341135891417087,
                -0.04473772357504636,
                -0.032297719475853057,
                0.04266685699195783,
                0.022657576368821737,
                0.030586847970928905,
                -0.007933607071793178,
                0.03001826698517758,
                -0.004265239716064502,
                0.001275137234607828,
                -0.03680828470651385,
                0.0029350772462714968,
                0.012242599306197018,
                0.04469887270258644,
                0.020024318499862936,
                -0.017410549126872567,
                -0.0035799670748056869,
                -0.027068066744400048,
                0.020331563729897588,
                0.010887382831958354,
                0.002209579763759389,
                -0.03213733077962381,
                0.015251390017807803,
                0.029720154698634758,
                -0.007302560364089807,
                -0.041934447456174746,
                -0.039815614586840759,
                -0.01678285313211792,
                -0.02540888220296866,
                0.011406035506241983,
                -0.006428524415246886,
                0.023824739691735924,
                0.04160543656146193,
                0.004987203474263321,
                0.019652287547760648,
                -0.022974755008392988,
                0.04232444672363035,
                0.025165773808437345,
                -0.0013703435779753616,
                0.03657692131725119,
                -0.03829186461902399,
                0.03655233871311167,
                0.0411954072373889,
                -0.004448015402968901,
                0.011669488767868488,
                0.03606305979853938,
                0.03738673639757485,
                -0.03981761094692197,
                0.0329062382071659,
                0.04870501660126186,
                0.025085450017442225,
                0.014045460451315054,
                -0.024838642405661659,
                -0.00940436719505088,
                -0.03736618561297072,
                0.029970159606986875,
                -0.010821934371132622,
                -0.0062747531804107719,
                -0.004412356741849859,
                0.014469256185945193,
                0.0130426207918182,
                -0.03762070262357265,
                0.006841246522133288,
                0.041331213449327868,
                -0.045317737787066349,
                -0.015775993105971058,
                0.00691808983701093,
                -0.05248446141688418,
                -0.0275208197311934,
                0.001713462509094977,
                -0.014659848603745587,
                0.015120870529074795,
                0.022822848761807379,
                0.02698031165642443,
                0.011680538251450905,
                0.011792379610770249,
                -0.026334222148567199,
                -0.03186669924911335,
                -0.04283596750686377,
                0.005365175765476926,
                -0.03313043082955293,
                0.05027361822894975,
                0.00030387317542257823,
                -0.021656176803204555,
                0.03302105032056096,
                0.028099605973662936,
                -0.0009846371792465825,
                -0.0011470333868408357,
                -0.009027908550655426,
                0.035842597879520477,
                0.03551952543609771,
                -0.0025543573306373637,
                -0.02062032923786354,
                0.032787559307321727,
                -0.030823680000726343,
                0.049903220585636207,
                -0.016742273972129574,
                -0.04918234092344555,
                -0.01346984439091953,
                -0.016443413495315936,
                -0.020305959797185834,
                0.03748536041795045,
                0.04176361047675943,
                -0.01855121038854257,
                0.007050402137878566,
                -0.041689893143790648,
                0.048258343768837929,
                -0.009874530190676407,
                0.03614346015787908,
                0.0023714854396244577,
                0.008562365536037573,
                -0.03157104974247485,
                -0.01886000822691003,
                0.04196154017730907,
                -0.0019290398715737085,
                0.018653342633518308,
                0.007878489569954153,
                -0.022199711455818746,
                -0.04097748285784893,
                -0.022692890696345545,
                0.03393497455887667,
                -0.04519745002693089,
                0.0053310610984801669,
                -0.016530578436913799,
                0.016502098784584468,
                0.037828988989081418,
                -0.014043706175148547,
                0.03936466784831575,
                0.006976523772605745,
                0.007312479713994662,
                -0.023860894082799876,
                -0.030648433281401347,
                0.027619114602598806,
                0.03295574326425494,
                -0.023009165391841288,
                -0.025724546804231947,
                -0.04360946162422499,
                -0.0370676640791993,
                0.022313423144438718,
                0.027472710714404104,
                0.03343120156863132,
                -0.044684515070472347,
                0.01597642410123982,
                0.043058331037921008,
                -0.01903295531505889,
                0.018724214750183905,
                -0.031605116559151418,
                -0.007074343729339413,
                -0.015286484314997786,
                -0.0020457776543020996,
                -0.01417634288604483,
                -0.04250175242939089,
                0.044614137557115688,
                -0.038429541846483578,
                -0.0024873480587114988,
                -0.027609752490531666,
                -0.016711546467057405,
                0.00678852532281887,
                0.017064515364738715,
                0.021640072503833937,
                0.021105686320635695,
                -0.0445263081265697,
                0.03891319416996797,
                -0.02437528144977294,
                -0.02932209159789976,
                -0.01676414365157627,
                -0.009238198068548655,
                0.0011268689872366129,
                0.014732069369401958,
                -0.02788881538938411,
                0.011757871429913797,
                -0.0014140805382666972,
                0.00972250924540303,
                -0.01967061242188444,
                -0.0018172540816195399,
                0.026007832884757295,
                -0.009931390140541306,
                0.010920199674111653,
                -0.04926404443892374,
                -0.05238958320913808,
                0.02297777718474956,
                0.040064247573016759,
                0.007521055554404715,
                -0.042228280918625817,
                -0.03264297142076409,
                -0.03523779527917322,
                -0.02757853851205718,
                0.014745028604202465,
                -0.021480071085868556,
                0.04792699176996527,
                0.047044375068063918,
                -0.0014915918605578854,
                -0.00765290913845943,
                -0.0487386006373003,
                -0.043396492994137069,
                0.026573727052387164,
                -0.03448859695863508,
                -0.012412010619919095,
                0.018306175145118815,
                0.04245436553945582,
                -0.028753906949424519,
                0.012950510737945483,
                0.026508473916819689,
                -0.03926201637234196,
                0.035813499000084337,
                0.037497345817398778,
                -0.00038927783308627346,
                0.02065176286564505,
                0.011664518015046229,
                0.020853737275637199,
                0.039931062548356658,
                0.022173645551879834,
                0.007372243246201079,
                0.01866079071731263,
                0.04107230257530753,
                0.028948611150912005,
                -0.0024876166518719956,
                0.029082367413013667,
                -0.0427660327124534,
                -0.0558661966320465,
                -0.037002190609839589,
                0.02393411743912478,
                -0.026117860514724007,
                0.018326192046225356,
                -0.024683660748412458,
                -0.03342520959894801,
                -0.04823566864900827,
                0.006150198908314193,
                -0.02758531002944187,
