{
    "layers": [
        {
            "weights": [
                -0.03090898133950236,
                0.009312772103199859,
                -0.01702687916211895,
                0.009071061889203007,
                0.023765441716667617,
                0.03551254794250652,
                0.044207565827573767,
                -0.029322097100420144,
                -0.05019491899269046,
                0.021980681790562063,
                0.009596975577259259,
                -0.02056432724729488,
                -0.046531957577846467,
                0.004664935300039372,
                -0.011876336005162527,
                -0.03338652294030633,
                -0.031759875165205789,
                -0.0383962228291361,
                0.041746638917253709,
                -0.01629892240938538,
                0.017282401410444644,
                0.030386153260349635,
                -0.016788813783735154,
                -0.000049279298010013965,
                0.02101751886610887,
                -0.044393004444075807,
                0.0004299811592636256,
                -0.0594371868402665,
                -0.02817811615791997,
                0.003994635424462536,
                -0.008619697261594896,
                0.01733040982945057,
                0.03878778403166113,
                0.04195145310294409,
                0.025477122724849714,
                -0.04027657924380698,
                0.021337882923263254,
                -0.039895878200096549,
                0.02613133769897682,
                0.03237814950314407,
                -0.04226219810965001,
                0.005243233852555044,
                0.037015335509564737,
                0.03645551691101656,
                0.004185544476130901,
                -0.023978585503733938,
                0.011095664232788695,
                0.017007178043310007,
                0.032513075490575988,
                -0.03211378978023488,
                0.016326832481324727,
                -0.0550527524854265,
                0.03202464570813939,
                0.04074936817306478,
                0.022782837489577189,
                -0.016435210315639358,
                -0.032505818161905338,
                0.032260516410101598,
                -0.04915926284362007,
                0.015838399157132915,
                -0.0238520571060815,
                0.04391986007753582,
                0.03994277820141818,
                -0.019279990182333959,
                -0.02177685285302125,
                0.029556315435814285,
                -0.006144844340018609,
                -0.042029978730638867,
                -0.01027845349522347,
                -0.017271315188554505,
                0.011996881481766938,
                -0.05536750663953355,
                -0.021057254085740129,
                -0.04335014613637168,
                -0.022771233982018074,
                -0.03447484384872603,
                0.029048252686087227,
                -0.012346786373643776,
                0.03698298432794928,
                -0.003391189518452361,
                -0.02549697246150322,
                0.04204491932800282,
                -0.02904774836812435,
                -0.0544663494939547,
                0.03023382028063048,
                -0.006652422073668934,
                0.023718337171125607,
                0.03686618715947744,
                -0.04780004275133988,
                -0.014789788660216342,
                0.038407432632388768,
                0.03925056054427943,
                -0.04426446404264596,
                -0.04107963151904424,
                -0.0018162139934397686,
                -0.037886976048514878,
                0.014306009356846728,
                -0.0022561527133513417,
                0.0002793223086208571,
                0.010753537656017439,
                0.025294374700969278,
                0.006366968146581965,
                -0.045312542918041678,
                -0.008371596376179194,
                0.001349372575254003,
                0.013565267581644853,
                0.01626282185046947,
                0.018934486206636126,
                0.010404644867235361,
                0.01334565355470739,
                -0.0069534692754475578,
                0.012883203253122266,
                0.031490187200336677,
                -0.004277123464211229,
                -0.02851899462797413,
                -0.01557500677106394,
                0.01650780599629631,
                0.03328586741582369,
                0.0009723397637867458,
                0.03576038003019896,
                -0.05704015589887941,
                -0.0007746974398843097,
                -0.05096312655599713,
                -0.04655937829283735,
                -0.01489623376750236,
                0.019056504418507107,
                0.034739305706105966,
                -0.03638663976320413,
                -0.0007026585326812624,
                -0.03699738784016882,
                -0.0021556586073521535,
                -0.021890378978743326,
                0.031040178145469823,
                -0.029415724163591934,
                0.007190971922599088,
                0.01769506039551436,
                0.029990856851897828,
                0.016062281185252864,
                -0.006345434673305828,
                -0.045422645962627159,
                0.019835768124476368,
                -0.04897278676336468,
                -0.026433873364322566,
                -0.010363300813364174,
                0.0287099006093279,
                -0.02793087244791058,
                -0.04516893890841639,
                0.005312499781452987,
                0.021165968459668229,
                -0.04595485293586919,
                -0.011418765223116424,
                0.024437697104457039,
                0.0408275795340191,
                0.010272263258041675,
                0.004012611721774292,
                -0.034657183850727749,
                0.0014576648797221864,
                -0.055152217080630467,
                -0.04459352272442152,
                0.023278334253202649,
                0.023349585403361737,
                -0.0085754949212014,
                -0.03744012991017393,
                -0.015383046210716388,
                -0.049476361233995336,
                -0.036560085987552639,
                0.028248198952699208,
                -0.006151671512429426,
                0.02989335707266947,
                -0.010027510867071892,
                -0.0017360065335407602,
                0.04471143414389516,
                -0.008586837090909539,
                -0.01627009590088148,
                -0.039063718368161078,
                0.03610425893940388,
                -0.035053179203297309,
                0.0037785630698461086,
                -0.03483797129135214,
                -0.04268120785089224,
                0.011189858984955947,
                -0.021327933440790558,
                -0.01635550689635217,
                -0.006713065802422157,
                0.020638009450268167,
                0.017962052020604914,
                -0.014722356993795615,
                -0.03154399328486863,
                0.011349897950991903,
                -0.006368057749909324,
                -0.04243139324800825,
                0.032608966145422139,
                0.009856910849362147,
                0.010571541345680625,
                -0.020852027193420359,
                -0.028036587276576733,
                0.034796940111890269,
                0.03435741483021172,
                -0.01260368316463736,
                0.015720291726520669,
                -0.010892793572719859,
                0.017387561507900438,
                0.02893708289934898,
                -0.043436669400079678,
                0.002760563540957407,
                -0.009256531974560797,
                -0.020238615569076684,
                0.0033008606644708909,
                -0.0027614648201745586,
                0.003006535246274658,
                -0.042346249502325277,
                0.03881332425315415,
                0.031707908968462,
                0.06955896565206787,
                -0.04202043952551532,
                -0.011758211625744675,
                -0.03858915952462655,
                0.01876474296558719,
                0.011977433294416822,
                -0.02783207359381865,
                0.012476128788946465,
                0.0018968194770676729,
                0.026748291300860435,
                -0.013263157013273046,
                -0.018078811902821045,
                0.011933572917683114,
                -0.026846782635841738,
                0.014626236434954022,
                -0.038516006670486029,
                0.03261980984997864,
                -0.04391648413297854,
                -0.016866752106220716,
                -0.028828180469301625,
                0.0015468641480483538,
                0.012368593318471701,
                -0.038482179369590269,
                0.004738885490256404,
                -0.03371564021424636,
                0.03567300205616032,
                -0.02877232813153347,
                -0.014203465203015093,
                0.03647791097791793,
                0.012880942593431096,
                -0.05519718488181626,
                -0.00596006863321284,
                -0.03382485109399689,
                -0.06272158685839276,
                0.02136586424639306,
                0.0041320428651049029,
                0.03584588575680872,
                -0.03276272679879274,
                -0.03588209746632081,
                -0.03027460283323611,
                -0.04342276813787564,
                0.035555264838920779,
                0.030250493992505554,
                0.018637303520746819,
                -0.01286748909662984,
                0.027268434385285525,
                0.03271560299325492,
                -0.044317933385422319,
                0.001878585834459317,
                -0.007065594070931741,
                -0.00505014984890435,
                0.0007325614943580082,
                0.010735990313927243,
                0.017944600271567816,
                -0.0241327460575244,
                -0.027751490364966045,
                0.04331746147288562,
                0.03384985851273402,
                0.030770757863961615,
                0.018697132220390403,
                -0.011680185736398926,
                0.04212097896103149,
                0.021489919015671687,
                0.03236854187901923,
                0.023171333992696529,
                0.03481651368510909,
                -0.0366715122670024,
                0.009069785050851678,
                0.0032875147739752205,
                -0.029265433798286806,
                -0.04150026102379054,
                0.005734869712672924,
                0.03136072916741615,
                -0.053592732454190248,
                -0.04298940110751306,
                0.0019781018153066955,
                0.02824819996301202,
                -0.013743502712757176,
                -0.033030620205137587,
                -0.019945386041356429,
                -0.05351414186492514,
                -0.043552027936979157,
                0.02894418158600504,
                -0.009534867023087732,
                -0.04854778769749969,
                -0.015843927247260759,
                0.015136143090435437,
                -0.0064949491866848779,
                0.01629235670783287,
                -0.015736698343514854,
                0.0032137367046866708,
                0.0463974945622083,
                -0.02025452085275946,
                -0.007277836633862152,
                0.029655337746583384,
                -0.03668639322670785,
                -0.03621683334709791,
                -0.05742198405349256,
                0.030306461759820537,
                -0.009202363905553025,
                0.004632573962364557,
                -0.03568110615608006,
                -0.00009816360558936182,
                -0.022959678689727066,
                -0.026118945665044806,
                -0.05547486517363811,
                0.01988162694615844,
                0.0036400362464060274,
                0.0035655255113095868,
                0.018903693487612177,
                -0.005508337313229452,
                -0.0014428397440629305,
                0.01504341246379735,
                -0.008618718727582815,
                0.01451191844676889,
                -0.030197609730682349,
                -0.04687636926387509,
                -0.02414285911235865,
                0.02123792929270401,
                -0.015636829422195989,
                -0.04063287216896975,
                0.0076670047457636689,
                0.03918585741902694,
                -0.04183917418229731,
                0.005452572529757087,
                -0.037387486569570447,
                -0.03392402267810114,
                -0.0183717287276907,
                -0.027521271691395508,
                0.038664099044071868,
                -0.014245968534857379,
                0.017637393644504303,
                0.007084994224704294,
                0.022970856667943738,
                0.023731514049838123,
                0.021455216728364577,
                -0.0026087554754747074,
                -0.0010534060232422242,
                -0.04253589416839646,
                -0.04887855924460022,
                0.008970030493515564,
                -0.048482835526634768,
                0.029668498871501783,
                0.0418486691186411,
                0.03257866095583887,
                -0.04578094600434309,
                -0.028368153301390299,
                0.034040048275394949,
                0.0199179706104325,
                -0.0024184815422835335,
                -0.05015227710977733,
                0.022181052540926915,
                -0.032221326229744728,
                -0.007324574725097275,
                -0.03776458552675119,
                0.03829507971223847,
                -0.03272276986198884,
                -0.02073890986367792,
                0.015165516447495302,
                -0.039743427619215548,
                0.016214147092426025,
                -0.01690897564243791,
                -0.023864876815639203,
                0.004785955279771667,
                -0.021571170673381609,
                0.01672225869821622,
                0.03826245340276439,
                0.03617010793387375,
                0.01753165713612699,
                0.03852773010075143,
                0.02444955214057794,
                0.0011164234089695439,
                -0.036285393455011517,
                0.018626287960412874,
                0.02434358534758928,
                -0.046450503692488879,
                0.02788213833947737,
                0.03878116054837587,
                -0.021047037109188737,
                0.001254671054574756,
                0.03139358256347468,
                -0.02259778081211669,
                0.006765784879927025,
                0.018760666989958927,
                0.03337770735797764,
                0.008416037307050153,
                0.00026392577062990123,
                -0.04514018945686032,
                0.0069106672859115879,
                0.03982292128359943,
                -0.03302631165228853,
                -0.03759407650532809,
                0.0399839306410284,
                0.0435407044276699,
                -0.015337772783454366,
                -0.027390620093439956,
                0.020592170975574359,
                -0.022586390387970228,
                0.0021156870308380538,
                -0.03390636733820364,
                -0.019329149598156203,
                -0.017540559727807004,
                -0.041441982369402299,
                0.030927129286742667,
                0.018413793326810796,
                -0.0036927048974470164,
                -0.0003810548219705737,
                -0.017032251587671106,
                0.012217756561093318,
                -0.04597084721700285,
                -0.04371296511639398,
                -0.030215473795019697,
                -0.0505279414790122,
                -0.039565955846128788,
                -0.038981458162386049,
                -0.007202398835341072,
                0.019964523899530366,
                0.009732181341044665,
                0.021967161572621509,
                0.024610834764654624,
                -0.03520927147844124,
                0.03471983035074395,
                -0.014868470344802227,
                0.03130637810794907,
                -0.006931463911426643,
                0.003915051242219128,
                0.012810901542838371,
                -0.028653620940785896,
                -0.0067567068103715709,
                -0.0032332829888559639,
                -0.021344643311404737,
                0.005136039307463933,
                -0.01560998421978559,
                -0.058415101085885528,
                -0.0027444965239245778,
                0.005574407571920696,
                -0.03710397982381384,
                0.030624342484027925,
                -0.05476773768693133,
                -0.01667360145009185,
                -0.050196042887841348,
                -0.049803766948682128,
                -0.010504558696521999,
                -0.011926671401866407,
                0.01633688277980398,
                -0.0296055318016232,
                -0.035246255413853188,
                0.01852631211504345,
                0.017826442911633886,
                0.04080640875753949,
                -0.022246639468518224,
                -0.046316095991120808,
                -0.001988094967669076,
                0.03332186904298366,
                -0.05582770222960885,
                -0.02923314381727375,
                0.03973713200335743,
                -0.016572397121248675,
                -0.02247445599800193,
                -0.04659764818803152,
                0.034524754362302009,
                -0.010282834282320259,
                0.03616064168028048,
                -0.03994521977960672,
                0.018147704153945438,
                -0.005523986921398893,
                0.037882200589474047,
                0.03666844889965381,
                0.007027843619582626,
                0.021570239276493858,
                -0.03308942498688763,
                0.03152787070679812,
                0.00575646596855778,
                -0.02783840358028488,
                0.016905335145933618,
                -0.048164034394559507,
                -0.009231561547034011,
                0.04229172329975449,
                -0.0452387273812517,
                -0.033914497680725,
                -0.008057311620863192,
                0.03465195596140805,
                -0.0054531583366126509,
                -0.000018662165246538694,
                -0.05126798483059762,
                -0.03475520872410397,
                -0.05985428700784155,
                -0.005283007989440009,
                -0.04695141935964468,
                -0.03761311293075432,
                0.004828342671297975,
                0.022492167292057304,
                -0.0041860278199861368,
                0.038714986955424249,
                -0.0049542114050342938,
                0.013754918722434362,
                -0.033451082668869019,
                -0.03051102301638622,
                0.008049090503228232,
                -0.029102802294335096,
                -0.028148105278459694,
                -0.03980629997529572,
                -0.03894954121497092,
                0.042766503947484799,
                0.010670118024563854,
                0.0052779122392059949,
                0.00031616378274024117,
                -0.037371442448261769,
                -0.04205691127231134,
                0.04142645702885688,
                0.031830473029934077,
                0.04268858120594029,
                -0.02582488839817611,
                -0.04551025013271899,
                0.005439319789965577,
                0.03808807225873348,
                0.03492224096553173,
                -0.014065417881690652,
                -0.048793422286792,
                -0.005470095470684952,
                -0.008675512221430102,
                -0.021410667007994805,
                0.03170639392257377,
                -0.015424014487705283,
                -0.04637353756357282,
                -0.0034711964282741079,
                -0.029431906343145975,
                0.011118578245597946,
                0.02866140839514051,
                -0.0526088448991047,
                0.03360663942540453,
                -0.04536244373946681,
                -0.020409210836568778,
                0.032443524135452029,
                0.04201019607810426,
                -0.030962141678120809,
                0.015103749932646006,
                -0.002165227290804193,
                0.030416549255613307,
                -0.012675243120964852,
                0.011874946641090295,
                0.018424019524990094,
                -0.022885328305085357,
                -0.04323878261658572,
                -0.02457730249579846,
                0.014687604070348453,
                -0.011670827551953856,
                -0.012261161728818039,
                -0.028865401376220048,
                -0.00018670455809204393,
                0.01611619479279388,
                0.015444216162557688,
                -0.03576792762085598,
                -0.04144820592745648,
                0.007350350079390111,
                0.03294069258662557,
                -0.03132266694050463,
                0.016871932078249976,
                0.03409272011183411,
                -0.03416603608888294,
                -0.03116484428003922,
                0.031484793493073207,
                -0.021598472496856096,
                -0.05242169535878691,
                -0.046978745946376177,
                0.017683292106408886,
                0.0016299930864408499,
                -0.012374165246240549,
                -0.03911683095472796,
                -0.018360123481252555,
                -0.028069341324559697,
                -0.015176319221072722,
                -0.0005681764684618319,
                0.014520579906503118,
                0.033092326340310739,
                0.019449073575496555,
                -0.0487985377784842,
                0.015398903007427443,
                -0.04003388502043728,
                -0.01138826031749273,
                -0.05369645473987283,
                0.03285985767075105,
                -0.01453483596455715,
                -0.026978342401385515,
                -0.023041611376906389,
                -0.03507021035703905,
                0.03895306600340772,
                -0.03551819699383267,
                -0.025820595989409467,
                -0.03520287168757738,
                0.02465334075080432,
                0.043772739843808559,
                0.014664568724007619,
                0.009108371210708608,
                -0.031874371037796,
                0.02645999834666461,
                -0.01917034422057413,
                -0.013672520518540902,
                -0.05434764779621986,
                0.008797981448050793,
                -0.020472788472802838,
                0.045062603869529847,
                -0.029711627500494686,
                0.04025965521061551,
                -0.026175883030755903,
                -0.016922688188600988,
                -0.043981859681433189,
                -0.016178487029999496,
                -0.02914144360461949,
                0.03431440564194436,
                0.029108661377902888,
                -0.0022031654271006697,
                0.0068988590369428669,
                -0.014297951857903325,
                -0.04583715542408947,
                -0.008940708491797928,
                -0.007852097101699167,
                -0.041417974171732738,
                0.022389646166173957,
                0.04160212299503757,
                0.029206747206183226,
                -0.011605427602510653,
                -0.024447020401636604,
                -0.046966019916075348,
                -0.009279097675563467,
                -0.0281404721119645,
                0.015548715590928976,
                0.04289332226114862,
                0.006499151075048094,
                -0.05096321938558045,
                -0.020064063191741818,
                0.0264950445468342,
                0.021089312988092056,
                -0.017957071216829633,
                -0.008475989226726587,
                -0.04527460733043292,
                0.006780088896299812,
                -0.00034412678420806463,
                -0.052486871746563908,
                0.043089572354297587,
                -0.05076074962345272,
                -0.009863264276250946,
                0.04100806931252093,
                -0.02366859209030366,
                -0.02672777111712362,
                -0.011696152162463452,
                -0.013447776729701872,
                -0.03384438682743121,
                -0.007643374210818895,
                0.02648912172323606,
                -0.03958459153160268,
                -0.027310304611624038,
                -0.0011514570070177103,
                -0.042256657523530607,
                0.027198936995590514,
                0.012874518586003992,
                0.020332849368300246,
                -0.027686669098451048,
                -0.011297361917201267,
                0.03928113221878337,
                0.014059794893464787,
                -0.02211559390844397,
                0.021812875777760748,
                -0.03201045854437063,
                -0.00387068516020768,
                -0.055362663341992659,
                0.02951912818368734,
                -0.04361615275263507,
                -0.052704888014120158,
                -0.03607120433546154,
                0.01811414615006338,
                0.035338791200904,
                -0.04962675281999757,
                0.01445186629398938,
                0.03449173498985884,
                -0.02523749961063818,
                -0.005432125267413478,
                -0.056577066565632678,
                0.021736187292229579,
                -0.05453988829629191,
                0.035414035197633048,
                -0.009992062535850576,
                -0.007529596858792347,
                0.02922512033029767,
                0.023254154079104754,
                -0.0522208393181383,
                -0.0383006688299447,
                0.005382091360020941,
                0.010504223695538759,
                0.012820563917015285,
                -0.024055871658113349,
                -0.019235150960172189,
                -0.0455145251920734,
                -0.04398469902884914,
                -0.021611074330667943,
                0.027999789676859948,
                0.01286527120316431,
                0.019134177552067166,
                0.015572970197282247,
                -0.02058645108632715,
                -0.0007059617571698207,
                -0.03798458400020953,
                -0.03328220466703314,
                -0.02563304580088941,
                -0.05235877876272441,
                -0.01814756629464089,
                -0.02706114136634109,
                0.02363114244812115,
                -0.03542080648553749,
                -0.0006164404721351925,
                -0.027697688707632487,
                0.01784586002215714,
                -0.003270128700984431,
                -0.012036314715015534,
                -0.04647249046101068,
                -0.03996788064717329,
                0.02185610140436743,
                0.040752631556485629,
                -0.015420414009021867,
                -0.009543198938600785,
                0.02098217594251196,
                -0.04104208999523357,
                -0.004138158844771438,
                -0.02482939435482218,
                0.025667011061674476,
                -0.013603181992743047,
                0.018445916692387728,
                0.040235413049520458,
                -0.005769007673841536,
                -0.04589916979554325,
                0.006816083593791361,
                0.0060237941623287869,
                -0.028231101086147606,
                -0.004575874573394769,
                -0.008872034393930393,
                0.008227794700871361,
                -0.03575414519351312,
                -0.036683272202032737,
                0.028366899088099474,
                -0.016850700951098565,
                0.019871075558769773,
                -0.021381734588146265,
                -0.018201469356201904,
                -0.04334451820554379,
                -0.014459742515400606,
                0.008861257454884907,
                0.026410177573652113,
                0.012181400139322669,
                0.042858942747591107,
                -0.045218035008634669,
                -0.057597493345802278,
                0.011000692762775506,
                -0.01515743796830721,
                -0.03070567284068159,
                -0.01779538120416741,
                -0.018222239990727443,
                0.00953786915130717,
                0.03619218788600041,
                -0.007952888047816834,
                0.007930810371324867,
                0.003954391118418462,
                -0.02059879420029943,
                -0.023008034460092604,
                -0.049493194766301009,
                0.03607684302100786,
                0.0017000375870830744,
                -0.013476257945913437,
                -0.05499075635068347,
                0.04373321497167983,
                -0.01313911033025848,
                -0.051568292138260269,
                0.004703505952743217,
                -0.0390646217223654,
                -0.053142529059424747,
                0.019782966679630214,
                -0.010689427421654045,
                0.0315406728264545,
                -0.022528793425704995,
                0.03983680460995374,
                -0.031743563238267439,
                0.0005351711148496572,
                -0.04570914338173921,
                0.04114406396257809,
                -0.020079448497519214,
                -0.043949657633812467,
                0.040441934855330079,
                -0.023900803124019773,
                -0.05223194269626418,
                -0.03711350980699767,
                -0.03160525718150487,
                0.01757682301415479,
                -0.025398804423094679,
                0.023317006851756779,
                -0.03441930595933749,
                0.0347976430694725,
                -0.0108937198560227,
                -0.056353619261342229,
                -0.00874526610007912,
                -0.04188254191472228,
                0.033286594986998759,
                -0.0036355721856039838,
                0.019304897825680308,
                0.005600077854100729,
                0.009464422947429372,
                -0.044730690920884937,
                -0.013163211651238084,
                -0.010794593945565043,
                -0.028936629389711679,
                -0.0070899496708541,
                0.038001316998748018,
                0.000121167328807963,
                -0.021730848875139057,
                0.04346821867042393,
                -0.029376625835411373,
                -0.06281639417600152,
                0.00024152216963990063,
                -0.018783398174746597,
                -0.04842171984716363,
                0.04461516370609194,
                -0.050351547140491417,
                -0.015554733855438001,
                -0.006587047813764652,
                0.04227935006827637,
                0.034882722383579759,
                0.001754866794051283,
                0.01757179357170708,
                0.028730100099599803,
                0.04784589858695422,
                -0.021959972134333519,
                -0.022252331728183515,
                -0.010253358491461936,
                0.0015058500739438745,
                -0.029641832454619763,
                -0.060997874550411789,
                -0.03945763387675378,
                0.02435946644018278,
                -0.013481336226970658,
                -0.01078290346639253,
                -0.029672615101936307,
                0.015915453422220988,
                -0.00932866576400696,
                0.03494070772213617,
                0.003471950840274492,
                -0.03667869890167665,
                0.008906826050094416,
                0.002658208723424895,
                -0.015695962173614819,
                -0.008774041923713597,
                -0.03566223843532175,
                -0.02229927587490998,
                -0.06803506630227643,
                0.039622332606837579,
                -0.02092456289559374,
                -0.04125469533764393,
                0.0005127560372214183,
                0.023080122658241946,
                0.03638876106639394,
                0.035653896751346749,
                -0.05517419529123504,
                -0.022753165309039273,
                0.008154139495656332,
                0.0011474011939797344,
                -0.06075634317470595,
                -0.04574505929532768,
                -0.011941946472182042,
                0.03839099345346459,
                -0.03770258729193776,
                0.03336192429426015,
                -0.038488563860600007,
                -0.02117123617210245,
                -0.047466188787581308,
                0.03556357378598287,
                0.022814699961476754,
                -0.03507825646097011,
                0.0028776747604253307,
                -0.01712083759605715,
                0.03125742786041288,
                0.026338240737685607,
                -0.02917359058365298,
                0.04065585267522742,
                -0.014070170470773682,
                -0.020783352136882383,
                0.027281313837664496,
                -0.04904492245758892,
                -0.02189692506856004,
                -0.008975495826592569,
                -0.04532694944300023,
                -0.04517652688212677,
                -0.0038013356125386674,
                -0.03185123492254502,
                0.0334456398390831,
                -0.001469198152609806,
                -0.014865550995015352,
                0.03855688901692898,
                -0.04663875037883514,
                0.04116438091431746,
                0.052063155595650289,
                -0.012716510074674123,
                0.008660836453507379,
                0.009438149014111979,
                -0.016621644519449125,
                -0.020304013449852905,
                -0.01791402795933417,
                0.03012920132912832,
                -0.04071841358783289,
                -0.04358367640815624,
                -0.032962196110767557,
                -0.052650568046623037,
                -0.000125763698127635,
                -0.03389172879335905,
                0.044259984087100207,
                -0.05201313079636706,
                0.011874207906335697,
                -0.04982429811067158,
                0.035272823223343418,
                -0.029715496704488584,
                0.017524160165565199,
                0.036751921096802638,
                0.019860461150887584,
                -0.05821522945153623,
                0.02025556921527906,
                -0.05521153627553604,
                -0.012395872271333687,
                0.03357722619551311,
                -0.017789431882725638,
                0.006165550078849647,
                -0.014004900428693422,
                0.026990358359264233,
                -0.037287785123978008,
                0.003385993766956095,
                -0.01687958561061497,
                -0.02433547173018329,
                -0.037732663952102628,
                0.003658584177309067,
                0.005584877307711935,
                -0.05801392764155903,
                0.034925027575163487,
                0.04447416317535065,
                0.03230580675008184,
                -0.03242769534420303,
                -0.03138445615893291,
                -0.05534442285037401,
                -0.005232419515539686,
                -0.024536402855740485,
                -0.030001827207685493,
                0.03390631045370315,
                0.028635124792830377,
                -0.01857536411765275,
                0.043717764848991699,
                0.02689063487050037,
                -0.04010844810103774,
                -0.056322118908485669,
                0.015534697246615513,
                0.009067030147601668,
                0.019975451367677735,
                -0.018519818189083979,
                0.038990333511658929,
                -0.010095093911312598,
                -0.00778536938653035,
                0.005842864461972166,
                0.0009360634293282328,
                -0.019771561533167265,
                0.033080838444736738,
                0.027584981031750365,
                0.03001121471391707,
                0.007205639752673773,
                0.024847241370671834,
                -0.04546966608413553,
                -0.007245059291449746,
                0.03790625439021364,
                -0.014766336134048505,
                0.02229306396224827,
                -0.04902186569999071,
                0.0001955881136892188,
                0.021434797248398836,
                0.024596277965228409,
                -0.0013503726160134119,
                -0.049755323938906869,
                0.012802213206545838,
                -0.0010377616033556349,
                0.014173421396153588,
                -0.0436379490778331,
                0.02812749097401481,
                -0.017626221011548084,
                -0.006752421777747885,
                -0.015068860866594947,
                0.01350848562751562,
                -0.0031502285369731759,
                0.03807225510276544,
                -0.017593342223626793,
                -0.06923002292921959,
                -0.007474622788305653,
                0.0003516079723285793,
                -0.027976220777329878,
                0.022745474224829606,
                0.03346581912034426,
                -0.05804284365867628,
                0.019722627746145757,
                -0.011010272164533073,
                0.014873535481847273,
                -0.012604620927634885,
                0.010416700304159602,
                0.023810529598520946,
                -0.04076553640811951,
                -0.011715446598258664,
                -0.009193016063937503,
                0.03184756591505145,
                -0.05540375392791754,
                0.03565960302985734,
                0.04272400887249679,
                0.03247396110027132,
                0.0276923948962344,
                0.026848464241568973,
                0.03721816509972397,
                0.020400384730457918,
                -0.0021599637452645724,
                -0.0001730360402352501,
                0.001965488822224255,
                -0.010901077133304184,
                0.0056933441943445169,
                0.05033720312548388,
                -0.02193966411687891,
                -0.01626593828212915,
                -0.030992049474100077,
                0.04095192920409449,
                0.0380580786307478,
                -0.03526931832506485,
                0.0296247452511768,
                0.04445158585789702,
                0.028604546516412079,
                0.015978813432997925,
                0.03946126509040665,
                0.010473252086964957,
                0.022533847232121649,
                0.011256215464894974,
                0.051686584046629468,
                -0.03376962280902715,
                0.028328254696368836,
                0.04175988893875675,
                -0.04604171240105897,
                -0.006871260635938831,
                -0.0020750448855895366,
                0.007545289925894842,
                0.031014468150841885,
                -0.006008139933309706,
                -0.03514285867084158,
                0.013080304315554594,
                0.0017337558849253984,
                -0.011762140305329879,
                -0.031392053400495608,
                -0.040721708222560378,
                -0.004563525346877657,
                -0.028045650345935308,
                0.0442716970675723,
                0.01669158640219052,
                0.01571548085863765,
                -0.012166289262141748,
                0.02374482052848038,
                -0.04759600868093867,
                -0.012606638594454678,
                -0.02894684139624231,
                -0.03972517083285649,
                -0.05126545183780288,
                0.04229324699613734,
                -0.030941231632878317,
                0.033982089328636357,
                -0.029513293443953354,
                0.025002299791498235,
                -0.018811569318574828,
                0.03835443462057285,
                -0.032191665919654558,
                0.013815393489537214,
                0.005034798957120344,
                -0.030854410968673194,
                -0.05269272055468844,
                -0.014107182124201841,
                0.015359090376541663,
                0.0021909289669067588,
                0.023994547730558214,
                0.018953129127900479,
                -0.025267266767649067,
                0.004794100142878567,
                -0.00982875861086519,
                0.028503354099349098,
                0.004214311276979471,
                -0.04040213776511118,
                -0.0006821912680743988,
                0.011944361862287437,
                -0.026691039666149428,
                0.02309474532436066,
                0.007786569444211297,
                -0.007670456728106767,
                0.016900022421773198,
                -0.0007127227407420658,
                0.030600110613896095,
                -0.014333200397730433,
                -0.0007554169106002732,
                0.006575138834583053,
                -0.004671899165926782,
                0.0012848804749959354,
                0.037152673369851989,
                0.018975608229638283,
                -0.028593979046986796,
                -0.007135133702779049,
                0.03499955747083455,
                0.006064425732222639,
                0.043256315878919298,
                0.03528095841019644,
                0.03962766401926548,
                -0.023519731047892627,
                -0.04726514086775717,
                0.02189182609651427,
                -0.05281903537503029,
                -0.019495013617552786,
                -0.040647889567484617,
                0.006757799475142051,
                0.013036976002643209,
                -0.03019689946964514,
                -0.01870724651466381,
                -0.04779454943697172,
                -0.028257178960500504,
                -0.005925270413802985,
                0.0041472974075911239,
                0.001929441462664861,
                -0.03296377507885573,
                0.026701747799679096,
                0.030404189928479418,
                -0.05138397205900435,
                -0.010365997934771781,
                0.004482281151823477,
                0.03590363905029682,
                0.04053309244128366,
                -0.047390568490943796,
                -0.0311947590916383,
                0.03039668025608414,
                -0.010130791631015527,
                -0.02923071654882345,
                0.04463669757053927,
                0.03547459307953512,
                0.04319274609311745,
                -0.03972082296469348,
                -0.00011938717549284222,
                0.01212766943247199,
                0.042570424433105779,
                0.01572698720673123,
                0.032553037508814258,
                -0.011858618425299825,
                -0.016046715686807154,
                -0.023685487881135147,
                -0.03323939563224258,
                0.007956131888440757,
                -0.0378097497260175,
                -0.02659295722233977,
                -0.012554358094334978,
                -0.04548178849649649,
                -0.015709555466025674,
                -0.04076127696074872,
                0.013840331282386548,
                -0.028978524929581696,
                -0.03936236576934159,
                0.006403801323459279,
                0.03578192297487682,
                -0.006840510086027531,
                -0.03627255951911886,
                -0.013539064678990538,
                -0.04843422815002643,
                0.013040454676598665,
                0.02479593653932595,
                -0.003201911561473708,
                0.011476568248404573,
                -0.015015658557795088,
                0.01838096600878262,
                -0.018410247283741987,
                -0.01153845414179055,
                0.039760588070188219,
                0.022868915140125874,
                0.03146031603241981,
                -0.0011987710775473329,
                0.036485320550324749,
                -0.017808601883656344,
                -0.020796972265844317,
                0.0002846656588412253,
                0.014363328799751958,
                -0.029621155374923177,
                -0.051567003308083749,
                0.02070742437686797,
                0.019645818708241188,
                0.0070294983426410048,
                -0.030933613841219719,
                0.006754456604310391,
                -0.03522186045448743,
                0.004789686995496567,
                0.022558274770924214,
                0.020340809529489885,
                -0.013307306919394179,
                -0.027191240872663275,
                -0.06558192862053118,
                0.0006926180638769947,
                -0.001251230762373648,
                0.01585354532378548,
                -0.012724956017117387,
                0.004793552120640261,
                0.02400692090825128,
                0.02157262251232467,
                0.02819124457018366,
                0.03555141346088497,
                0.018018001620029347,
                0.01961426604938333,
                -0.006823392967788721,
                -0.023947025047713845,
                0.001401232477843846,
                0.0038468557529313426,
                0.02589674985824034,
                0.030175885161505577,
                0.012621004924020662,
                -0.0400060547887045,
                -0.03170237747660061,
                -0.02546656485812797,
                -0.02614388363908976,
                0.0166139670567522,
                -0.016835830898161227,
                -0.044772079898007497,
                0.019716793042585526,
                -0.0474010354665104,
                -0.009622525165589143,
                0.021306403096734928,
                0.042491034654723567,
                0.011976402002150113,
                -0.0394957646215688,
                0.015983931531534377,
                0.0166079235551252,
                -0.008333502947417922,
                -0.05418849174639766,
                -0.053584039717851427,
                -0.02273541381869431,
                0.022264539233811579,
                0.016755976210345057,
                -0.04818696818851542,
                -0.008328042882432515,
                -0.04225348083705804,
                0.04230470668041119,
                0.033070338413080827,
                -0.04096415673238032,
                0.02251857611851346,
                0.04198742099875239,
                0.014297114742596143,
                0.027824526321987256,
                0.030431633861022744,
                0.04236261183016015,
                -0.027443636973015899,
                -0.07042240858276222,
                0.02257624290822495,
                -0.03062798075461682,
                0.03426624244331708,
                -0.019104081596010404,
                -0.04610986895307981,
                0.03467229352853077,
                0.030016141073830217,
                -0.03319395013104651,
                0.039486694993457898,
                0.045923360839373799,
                -0.031760373470255568,
                0.0012354725521457103,
                0.024573395755011358,
                0.0020891047085694386,
                -0.04645372629542137,
                0.0076291479265462119,
                0.00511614363954149,
                0.0051852475160597218,
                -0.041982208197814809,
                -0.01835755643938824,
                -0.041855832311065589,
                0.0228098989449413,
                -0.05299339868049405,
                0.018147966997628243,
                -0.017091735633520054,
                0.03597717056829692,
                -0.05441108972446427,
                -0.04230578396886084,
                0.022039332891583164,
                -0.05436527602073926,
                -0.0478255025834312,
                0.015247421294655596,
                0.0369795924742395,
                0.01510957383901829,
                0.0357037266678849,
                -0.047573325863282129,
                -0.04120894365750922,
                0.025911746765729997,
                -0.042953073434049898,
                0.029133784831506864,
                0.03024857778118647,
                0.026838015962927076,
                -0.0038424161753058399,
                -0.042258136143255849,
                0.025885784438243073,
                -0.019690699609053849,
                -0.020866879003785776,
                -0.04320974563335987,
                0.027840060633908059,
                -0.05386461373992714,
                -0.044314193002288188,
                -0.025084291285045147,
                0.030830422148218088,
                0.02791799671335335,
                0.03007107227987575,
                -0.0514311211598552,
                -0.03975280178490384,
                -0.04219286827194089,
                -0.05586144743859338,
                -0.033737783521864319,
                0.026454801120680564,
                0.018261070384429289,
                -0.00842417600862679,
                0.04210255150517198,
                0.03260564021327439,
                -0.0077398241281680089,
                0.01575217654323743,
                -0.048769439246368759,
                0.011078551988520813,
                -0.061421968078934848,
                -0.007680489099774738,
                0.02592516157639883,
                -0.012068635881403268,
                -0.03383976390877914,
                0.000053755073425899315,
                -0.028590120269134456,
                -0.030041404314133999,
                0.038641165937696449,
                0.03684129872371302,
                -0.046817790259799558,
                -0.009617635655823794,
                0.036861285649682707,
                -0.02556923118152385,
                0.01925981044581182,
                0.028190251669356918,
                0.016673773600817254,
                0.031157301869434156,
                -0.04877256309894165,
                0.030164173815202423,
                0.03175741407359396,
                0.03613580719552431,
                0.040800110767969629,
                0.02688544163229556,
                0.03419713751675006,
                -0.05168871769445586,
                -0.046713492713152549,
                -0.019062532507987834,
                -0.0015860073009100165,
                -0.03187292947433148,
                -0.029362368701912213,
                0.0002106727648211829,
                -0.023405839909928756,
                -0.009300003043913714,
                0.02284634990553678,
                0.003314089959043461,
                -0.02754367954347318,
                0.026233617977350959,
                0.007874304206147298,
                -0.02404575490182596,
                -0.005303215123937446,
                0.021158071815768264,
                -0.03542147444688559,
                -0.04247805114966508,
                0.03777786609437513,
                0.013965058869708119,
                0.03592961387392759,
                -0.009850058717259089,
                0.01992712454744863,
                -0.04236496740203202,
                -0.035397128690554158,
                0.007997568003585259,
                0.007610939165199646,
                -0.03382588043453096,
                0.026423498241199433,
                -0.05099180581149107,
                -0.006726537831795913,
                -0.05867894176730247,
                0.003927608377188321,
                -0.03499315578684957,
                -0.012143038326291923,
                0.035261208583863699,
                0.016838522525966384,
                0.015944842118747267,
                0.013041631880910293,
                -0.005615043793601194,
                -0.03317018990624134,
                -0.013087621820254294,
                -0.003509924642429973,
                -0.01883262023634364,
                -0.026066305827750419,
                0.03562185831003941,
                -0.023476824904451016,
                0.021677871338202184,
                -0.002524782700056621,
                -0.04163854575981198,
                0.01296995905424204,
                0.038214434207717567,
                0.030097914532009493,
                -0.028418934279327909,
                -0.007267286567220723,
                -0.0027952097655445744,
                -0.00994599735647957,
                -0.008228796112140245,
                -0.050894662976747839,
                0.009193588869982523,
                0.03126620629968552,
                -0.05690344278135158,
                0.01218139188109369,
                0.018711976996771297,
                -0.04069563946109704,
                -0.02577102205397476,
                -0.02709389208255662,
                -0.013101850720135276,
                0.01743895028152644,
                0.0055420510923681188,
                -0.05077994104269709,
                -0.0084052311060572,
                -0.005898972474412628,
                -0.004818564552546801,
                0.0018658292013498757,
                0.004391176250408139,
                -0.04929661952278487,
                0.007602952790337563,
                0.011631558890011532,
                -0.024373646687030589,
                -0.020285283996364469,
                0.0394017015439333,
                0.041766111126841688,
                0.012993439434398929,
                -0.021474574944241866,
                0.013627035283239928,
                -0.03619793161233538,
                -0.03245546286097978,
                -0.03336538915037001,
                0.03380855449236734,
                -0.024720400478032743,
                -0.015357244171781155,
                0.012935137621428575,
                -0.05146225582524525,
                0.0026803109266189254,
                -0.043879584216816657,
                0.026851706184675949,
                0.019865159674598375,
                -0.042861164560146509,
                -0.031514910705628607,
                0.016050143686509093,
                0.030158229078595005,
                0.03689556557816764,
                0.023772727888113917,
                -0.06334052737284984,
                -0.037118792185180878,
                -0.01993760153508511,
                -0.012034816798129282,
                0.017924152842747906,
                0.0019162502889339599,
                0.008778404954655744,
                -0.04269753766926749,
                0.016407734164757185,
                0.016587837632087385,
                -0.01814623282783684,
                -0.05125805455638253,
                -0.050368136649942257,
                0.035955642399100758,
                -0.017421770543655115,
                -0.013050669514711408,
                -0.03281879596461371,
                0.03685050765124333,
                -0.02895729275047279,
                -0.04867748841062049,
                -0.02637613104437772,
                0.010130582282430648,
                0.031060987288866687,
                -0.0163808755064114,
                0.034679688571602949,
                -0.02063252656886268,
                0.02183572617001011,
                -0.02293759174215931,
                -0.004365502940371529,
                -0.01412499702886088,
                0.01389451397087174,
                -0.00829963418753877,
                0.04550099948760504,
                -0.03166213275594784,
                0.014764912024838002,
                -0.04149265130353043,
                -0.03406989975684746,
                0.014600719704162669,
                0.0019393566895873846,
                -0.0004119795311867544,
                -0.03190274140204257,
                -0.03501219910627229,
                0.009246501537621329,
                0.04617992516100917,
                0.007490406698221718,
                0.0032331239935970855,
                -0.03621188930516505,
                0.025015486102781038,
                -0.026586446773070189,
                0.008061268593146818,
                0.04507014799216868,
                0.011039397763185603,
                0.014343206069319029,
                0.03226311782673939,
                -0.016266121020390758,
                -0.01724180035665461,
                -0.018746596439002059,
                0.03009423162441088,
                -0.0019362659059649966,
                -0.011429664878550024,
                0.03221487544713746,
                -0.026194254263754648,
                0.0057391009050847779,
                -0.022962857699121279,
                -0.05194291597721642,
                0.030376073759208853,
                -0.04813223173158159,
                0.03203413257177444,
                -0.03360686843396095,
                -0.03259795243495214,
                -0.04159804273516564,
                -0.012631758890113067,
                -0.016738099736180246,
                0.01405453459094732,
                0.02021394285962911,
                -0.038190090224341329,
                0.03403936986177496,
                0.030590675985521139,
                0.01977787596700641,
                -0.029578527151767735,
                -0.0343536482474732,
                0.030453287033945878,
                -0.04706770643235853,
                0.03357069471662542,
                -0.00973974798089607,
                0.03535532061804102,
                0.020199090084434696,
                -0.0424615066467241,
                0.028141764088560778,
                -0.021453344399443607,
                0.02225556058324701,
                -0.025703746373123807,
                -0.04137249406005744,
                -0.04046664046254613,
                0.013762627893361766,
                0.04357119625012023,
                0.0009526529973101676,
                -0.02118717620762785,
                0.032275133029223929,
                0.02585159875325878,
                -0.012325181314880857,
                -0.03521970242369624,
                0.0070376772580460059,
                -0.05043759938516216,
                -0.017834869511966994,
                -0.0015332599616998957,
                -0.03125912434129651,
                0.04615389551127184,
                -0.04168805258463562,
                -0.022762876375371084,
                -0.0198091351767771,
                -0.0054708185100380249,
                -0.044066914439114399,
                -0.042011761751460829,
                -0.036802510863644607,
                0.043989433929846669,
                -0.035403689486267989,
                0.019387078841116877,
                0.035213482896298577,
                -0.045165937833578747,
                -0.04006692981609296,
                0.041265633593664249,
                -0.04803961845852352,
                0.03879209250236756,
                -0.006129108207234922,
                0.03130149002919252,
                -0.02176853740630682,
                -0.036756669671401388,
                0.046828450384839157,
                0.02082614622770079,
                0.0018603878847081347,
                0.006181288433760677,
                0.03980857513323175,
                0.04257573050658797,
                0.032803801853719709,
                -0.05000733558149119,
                -0.02580204540151785,
                -0.054395378696583739,
                0.004396775488850341,
                0.0449093426824017,
                -0.007757988687538075,
                0.0223476499993727,
                -0.05085472066839417,
                -0.007272462151840292,
                0.047615055270737487,
                -0.024665107287067099,
                -0.0431634457454321,
                -0.04824055360710252,
                0.03444223727172927,
                0.0219658064159766,
                0.05266803848361521,
                0.02200981309106002,
                -0.012423582662522715,
                0.032069945490438709,
                0.012811328664159716,
                -0.0030952475650704279,
                -0.048320649829211349,
                0.003532918310126068,
                0.0005305012271597956,
                -0.0033259160665755139,
                -0.03242004490325045,
                -0.0519774050964779,
                -0.053879538138666579,
                -0.02155921932484302,
                0.00817853631184769,
                0.027898774005818789,
                -0.0008695152248607374,
                -0.03312024646949703,
                -0.021624965790770675,
                -0.028309154637342607,
                0.020719746242663,
                -0.031993260278262668,
                -0.025108264771264739,
                0.046375731888149609,
                -0.00562628247288642,
                -0.019955211288951319,
                0.038208568566117439,
                0.011086371506090435,
                -0.04793079145819743,
                -0.034941585066906147,
                0.014929221838394867,
                -0.017780839116557528,
                -0.020231119825589156,
                -0.038063686907661698,
                -0.04458276417938118,
                0.02440480805570039,
                -0.03218076699426348,
                -0.037239219597370098,
                -0.024821653097091748,
                -0.015528507417502264,
                0.037496160795514047,
                0.00513208107856814,
                -0.004782697495422756,
                0.038702317668554048,
                0.020074713461862547,
                0.0041697658206016779,
                0.022219725173939814,
                0.013173244391586705,
                0.016737170709676408,
                -0.034095807134065968,
                0.006739873961377041,
                0.036361357524897098,
                0.0150064806371104,
                0.017576717793541788,
                -0.05343167795532962,
                0.004191142735046747,
                -0.004989347721548161,
                -0.007998976037725621,
                -0.02632569718780476,
                -0.02883187128478933,
                0.006008920322154162,
                0.0004428543215294533,
                -0.00684105526126166,
                -0.01851315805778746,
                0.020881560496453675,
                0.02719431829090403,
                0.021445244580053915,
                0.02448617830885914,
                -0.023371717006166263,
                -0.050314013144807049,
                -0.004537645415591157,
                -0.020161898633823534,
                0.03165276217085335,
                0.027924756423742575,
                -0.027450701496340117,
                -0.04882248874955324,
                0.01932886495807357,
                -0.017921309650857019,
                -0.03138939340537231,
                0.03638825438631201,
                0.00787659422141807,
                -0.03340170099744351,
                0.03565954607023464,
                0.03380600655098095,
                -0.008158134384805593,
                0.015522395488053044,
                -0.0015235798081888299,
                0.0032872105595570515,
                -0.03579665160780734,
                -0.014193197822555357,
                -0.02813072907295715,
                0.019638236495381504,
                0.030540749060373134,
                -0.04922962688919904,
                0.018511320174124037,
                -0.011553583284296457,
                -0.03491946588922663,
                -0.047375243090261979,
                -0.04239939700997804,
                0.0338114194611181,
                0.023699002473367007,
                0.03990986569580391,
                -0.009621848898002583,
                0.013544964571580613,
                0.0074252032185578718,
                -0.017111296000221298,
                -0.04056978147613211,
                0.02523294680227586,
                -0.011159738930463282,
                -0.05564943498203265,
                0.03559667932129508,
                -0.044603397563664669,
                -0.03526628647430057,
                -0.01526188033529967,
                0.010166708840081073,
                -0.019271012499173798,
                0.007551342424158003,
                0.013214221859314909,
                0.03245209669463243,
                -0.048856376186734117,
                -0.033300894672589956,
                -0.03951397131213791,
                0.00269393292528408,
                0.03094099710920597,
                0.014937266977583137,
                0.02684420465979463,
                -0.015274069052879099,
                0.025599996436678656,
                -0.04819684663944054,
                0.023853054608093249,
                0.03431461788418716,
                0.0009534552966551932,
                -0.02502815541074217,
                -0.017609531122689986,
                -0.04390780753982668,
                0.0064453577372708338,
                0.01777971656312556,
                -0.03433391698689124,
                -0.030097594981797327,
                -0.0465923242559338,
                0.0030833667868270717,
                0.01717630681012583,
                -0.044859862150280687,
                -0.03621345689305856,
                -0.004833770864269866,
                -0.03539537273156132,
                -0.005094925349851082,
                -0.00895699475369676,
                -0.01896496357677249,
                -0.011644057351060677,
                0.0185385129833692,
                -0.011905240312845117,
                -0.030361781239516915,
                -0.04618863818124718,
                0.0024024264818480907,
                0.010747471952863644,
                -0.023758303234481,
                0.0037370023518296365,
                0.04422681747007497,
                0.030410341152401427,
                0.031891096803783509,
                -0.025712364885073718,
                0.015246880492571117,
                -0.0023472067795781567,
                -0.04508551207606251,
                -0.024699474827420899,
                0.023942193417227594,
                0.030334480689685807,
                -0.024180966307479739,
                -0.0515851732460983,
                0.009802500944744042,
                -0.011920436599316187,
                -0.012990297753379718,
                0.02682335533817944,
                -0.004369093115507657,
                -0.0059538241921642388,
                -0.050942826716528128,
                -0.020109329434350666,
                -0.016496159837229585,
                -0.005168186543499051,
                -0.024436838975618083,
                -0.057220693293804737,
                -0.010856459321711115,
                0.010407104015408866,
                -0.04607645293345356,
                -0.0049941845367866498,
                -0.018886903631663795,
                -0.035357881120634319,
                0.03426731926992222,
                0.00046158938886755154,
                -0.03983215083898373,
                -0.03823679527450104,
                -0.02700557199481144,
                -0.017674845845511833,
                -0.02744594897202306,
                -0.02564253380576889,
                -0.05608140849479672,
                0.006435387851838562,
                -0.04936417534562118,
                -0.028971904652616379,
                0.009365581768003949,
                0.004708629164790838,
                -0.04769249144859226,
                -0.0156487165604269,
                0.023523469111277698,
                -0.014683092987840603,
                0.039595367384054658,
                -0.023447472154722015,
                0.002771645511309439,
                -0.04399998874296094,
                0.009510554227630813,
                0.03813984338335708,
                -0.03263473870063328,
                -0.006259656481516777,
                -0.014145002280523083,
                0.0435214067628021,
                0.0331375081054834,
                -0.04558733658843212,
                -0.00023960433664466313,
                0.01135511469916734,
                0.046170122732500689,
                0.015962961515897986,
                -0.0423599736986081,
                0.03560428639261037,
                0.0299866934664001,
                -0.007064342060511646,
                -0.039408229497954427,
                -0.0401672649806435,
                0.01688707000573521,
                -0.03730912841468707,
                -0.008310442565063425,
                -0.0023673407768027797,
                -0.018858528082218778,
                -0.06011978704931682,
                -0.032921070817357577,
                0.01820122877861582,
                0.03256219607749453,
                -0.04009307843706385,
                0.03492670574968677,
                0.02142763008701717,
                -0.004238863914462661,
                -0.06128815210747458,
                0.011590607420024319,
                0.011803410130542132,
                0.03038512528287285,
                -0.020635986612005554,
                0.048089345119783719,
                0.0218006595465926,
                0.02857506189657082,
                -0.024681415684287234,
                -0.034062153196199377,
                0.032965360106699859,
                -0.046692961698843109,
                -0.006892294009713604,
                -0.028908750633148809,
                0.024302718099684645,
                -0.002071344288528079,
                -0.024168232648650209,
                -0.00694130118585533,
                -0.028654640906296173,
                -0.02981080155921113,
                0.04367966007713457,
                0.008625653979758803,
                -0.018475442930465759,
                0.0008146436920147594,
                -0.0453942257599507,
                0.011096585566545303,
                -0.0456282506746149,
                -0.02094454728094267,
                0.03874973351706375,
                -0.051170948872007907,
                0.018129037343582296,
                -0.03984007105368321,
                0.010196324945929477,
                -0.03977848530408395,
                0.04348146675861059,
                0.04726064674014599,
                -0.007235421402465973,
                0.04728197690015067,
                -0.006077899492365929,
                0.001312546325848298,
                -0.020308857334195995,
                -0.029201856892658658,
                -0.009280514248966473,
                0.02984187887363672,
                -0.00549842841541233,
                -0.022184431578145294,
                0.030344502831897384,
                0.027227728304032633,
                -0.022969223282538307,
                -0.03876630059415838,
                0.0010688243751630059,
                0.006962515159666509,
                0.01292602416724201,
                -0.0016305990049255946,
                0.0023776489257007029,
                -0.015978462236866068,
                -0.02925251579591832,
                -0.056312149991291627,
                0.01985155364997242,
                0.005310156284622926,
                0.028268315655372635,
                -0.0017787256317620144,
                0.035687733201928379,
                -0.03879197194398543,
                0.010364424823512738,
                0.030010554822055965,
                -0.022416825219765424,
                -0.024979195197817967,
                -0.019545867053813109,
                0.030945808918156366,
                -0.04979454744571143,
                -0.02579074571442883,
                0.04394675955552998,
                0.017835531709964819,
                0.026740713829488187,
                0.015000669217744239,
                -0.03399668115422642,
                -0.00702752070599013,
                -0.0478504467056019,
                0.011433882642399876,
                0.016337748225929796,
                -0.025370420538538837,
                0.03911111204822184,
                0.014323714562563248,
                0.0002770947297462972,
                -0.056880177977750547,
                -0.00528782231078516,
                -0.03768825089156151,
                -0.0010667406556115322,
                0.006461838423704525,
                0.006110847047924086,
                -0.0059554417383060318,
                -0.022854977166939889,
                0.038048291414438929,
                0.009077805607566795,
                0.02380372207083247,
                -0.01859558236696003,
                -0.028861507546057109,
                -0.03678591682239703,
                0.011342980290694437,
                -0.05814483753985172,
                -0.0031802119335972796,
                -0.007195509359142669,
                -0.009011512000571593,
                -0.035645944951220278,
                -0.033143125340629759,
                0.009187862650017663,
                0.03139528538918566,
                0.011777184289148799,
                0.0251673381083819,
                -0.04899397188481397,
                0.024033634369416705,
                0.03803404273571663,
                0.03421323997718831,
                0.02984934498926886,
                -0.00880330488437626,
                0.0005507446245713692,
                -0.03553048445598782,
                0.01446670016488085,
                0.0007452387601655391,
                -0.019836200639885099,
                -0.041873937261454597,
                0.0131322798090255,
                0.015509853077504962,
                -0.03662321598990558,
                -0.003305775197505121,
                -0.05705683332107931,
                -0.044789460835087609,
                -0.0491040069577878,
                -0.04549067694545543,
                -0.02008395800033918,
                0.04233201872114169,
                -0.020006582042035295,
                -0.00982080644403878,
                0.0183718791456768,
                -0.02962980115256578,
                0.021112134442572703,
                -0.0007420085621158492,
                -0.0007626245123343499,
                -0.027214072177380364,
                -0.015300477825752284,
                0.009261371096234424,
                -0.006989335250302834,
                0.019882194949464948,
                0.001254613907373994,
                0.033417689678222266,
                -0.0009226416695960467,
                -0.006398393876888258,
                -0.03701562122407889,
                -0.052595238458786958,
                -0.02813281981026118,
                -0.03227364737859167,
                0.001424949895389016,
                0.014036413497782959,
                -0.01950647862240558,
                0.01621115527927561,
                0.03859798519556193,
                0.014964759664231413,
                -0.019678897949176077,
                0.03524629107143805,
                -0.03264466120180953,
                -0.010312338530139506,
                0.03477490276186926,
                0.008640024152590477,
                -0.006478045141203077,
                -0.0514948788464504,
                -0.021376221943447645,
                -0.009022381352861724,
                -0.04043989077948203,
                0.00762364731276537,
                0.015429448775868989,
                -0.05121352058226109,
                0.007927871477821938,
                -0.02831068807179763,
                -0.03588178610569234,
                0.015866719542219466,
                0.01516923830310227,
                0.05112605267165927,
                -0.029596512471447867,
                -0.017917127682915973,
                0.04877032418185617,
                0.011606208131913935,
                0.0475925075051457,
                0.043508149311488397,
                0.025963139937841739,
                -0.03982302307510007,
                -0.006692198579765831,
                0.02740695200236581,
                -0.04022329617276827,
                0.03690609713904355,
                -0.008311424672841493,
                -0.04616449676544118,
                -0.05010654038665898,
                0.04622343815356468,
                -0.04677104570876563,
                0.03282912359807392,
                0.03097813483648687,
                0.03520905296860769,
                -0.028546287357597415,
                -0.008857255139682498,
                -0.01192001581866664,
                -0.04325471024562242,
                -0.03591320506442254,
                0.0006586067064425217,
                -0.01252798910720191,
                -0.02993075740376001,
                -0.0020089230861438896,
                -0.03747913805248115,
                -0.0077356280159700898,
                -0.008899288747056972,
                -0.049311718823821199,
                0.0332465540959267,
                -0.00426955051548613,
                -0.05441537075734849,
                0.012502321969631518,
                0.0050823904451317669,
                0.0060357366120958049,
                0.027155793741699857,
                0.016744702598852497,
                -0.014522360254774205,
                0.016644886296046679,
                -0.005430350237335235,
                -0.021959276641131579,
                -0.033457531674482798,
                -0.04171040939898798,
                0.010743162878816115,
                0.030587826325177246,
                0.014865900158723134,
                -0.01322870912438323,
                -0.0276174415809918,
                0.026938531398513839,
                0.02324948293113678,
                0.0087001690242861,
                0.021967728649188179,
                0.02991781490243659,
                0.03263030195272829,
                -0.0069063891977222389,
                -0.006297293911244386,
                -0.0032205424783052778,
                0.0037122594123346664,
                0.0029670723579154009,
                -0.027815620198333288,
                -0.016308513108060628,
                -0.0043266620114480809,
                0.023274548475724065,
                -0.009895060417950843,
                0.004493066882364835,
                -0.038372589838709298,
                -0.033976720743280199,
                -0.00860670830919112,
                -0.02876774692515835,
                -0.05538171681213365,
                -0.03880070219131944,
                0.03360654539032414,
                0.026921274956372724,
                0.04501756012801796,
                0.0197141368916422,
                0.03540247253227813,
                -0.019195495741585815,
                0.01837208226115022,
                -0.021470758846333927,
                0.03607276556731208,
                0.022417674730941085,
                -0.04406337517293589,
                0.02351702377580493,
                -0.016669597620820255,
                -0.04146058315013449,
                0.01615539415496213,
                -0.03388970112223003,
                0.03082501640553135,
                -0.04649489417684819,
                -0.041171470082100657,
                -0.02439158029470528,
                -0.03971837234763647,
                0.02216612109548814,
                -0.013570621871521392,
                -0.03441181761223314,
                0.023534956753031568,
                -0.013993312216742753,
                0.004847434161616354,
                -0.052872076669483177,
                0.013814795500855862,
                -0.011514603496220052,
                0.03212211233945741,
                -0.04557575910737045,
                0.01794443797569273,
                0.004478118536241821,
                0.025011726965339554,
                -0.06043236930380596,
                0.03525908449131092,
                -0.053605721788784647,
                0.0005378976546901555,
                -0.03904472422101034,
                0.027046496657935325,
                -0.036390964906489606,
                0.007277802155653872,
                -0.001752973705910262,
                -0.030175044943084304,
                0.01828414940270729,
                -0.014049934196273873,
                -0.02990126917113614,
                0.02747851925404067,
                0.04060539422216303,
                -0.018688373862472575,
                -0.012651179572066926,
                -0.045704450970105506,
                0.015391815638023225,
                0.04211310831805889,
                -0.050278348186143868,
                -0.02283399435845365,
                0.01309900437419066,
                0.04431326240380282,
                -0.007152752164378306,
                0.006933019420862747,
                0.015190802917262788,
                0.003478302295490374,
                -0.010987595753249549,
                0.03417754857509474,
                -0.04466659001091582,
                0.038502329201425187,
                0.02004882825212472,
                -0.02193186500642492,
                0.012558616614402947,
                -0.02261982443157711,
                0.022775053900311878,
                -0.008209069462377426,
                -0.05505712172832915,
                -0.002886666209719802,
                0.038095668582090767,
                -0.035173890530027587,
                0.03831129033778847,
                0.04059951695317852,
                -0.04574495028013376,
                -0.05255906538891438,
                -0.01654426716422928,
                -0.031768192756789399,
                0.013746728129323137,
                -0.04422465237300748,
                -0.0061602291314987599,
                0.03903210404800094,
                -0.046209538959731798,
                0.00514118363258289,
                0.023324286943510035,
                0.00986128884299059,
                -0.03198900791285971,
                -0.04474459786011567,
                -0.04766910231626552,
                0.00717329540466753,
                -0.03221518816763832,
                -0.02346914918324302,
                -0.036077544987221727,
                0.012243490887714978,
                -0.0396535951919978,
                0.03370690103033734,
                0.014295069267408558,
                0.02816861538250049,
                -0.03255220880648725,
                0.00648833632403237,
                0.010128363836341147,
                0.06589272603308903,
                -0.05113218603019001,
                -0.04522169224156091,
                -0.04171503306091737,
                0.03163649725423229,
                -0.010189027050650387,
                0.010622990184783242,
                0.026874121816261904,
                -0.00764155488987496,
                -0.03158207656174388,
                -0.0025942679062688535,
                0.03330623741635834,
                -0.01821118074650025,
                -0.014744701406562398,
                -0.0593203020736736,
                0.035763566433085449,
                -0.03987470911584694,
                0.00894098410866992,
                -0.04141374594717269,
                -0.0414665604330651,
                0.023021703935191489,
                -0.003943756003502875,
                -0.00013149987218227409,
                -0.012990271361492178,
                -0.010169109468977938,
                -0.054113607472926778,
                -0.027747691681951279,
                0.03396620887233897,
                -0.01461025934228098,
                -0.02122183436466732,
                -0.00721102366649359,
                -0.04448709806362316,
                -0.04188089803887799,
                -0.019788276360304514,
                0.007837413604433566,
                0.037813967563193589,
                0.03667389649760262,
                0.006051928185667389,
                0.0370720825996742,
                -0.030775148564848165,
                -0.005563968010124746,
                -0.036855492262710457,
                0.010560103367577189,
                -0.027129978056091198,
                0.01307206288156638,
                0.01219839602142261,
                0.03409389565900022,
                -0.03289374182938598,
                -0.05150984511999623,
                0.039725751275433349,
                -0.01665439174987407,
                -0.0287301620793391,
                -0.04749184231593409,
                -0.0012844705777449106,
                0.03478387249171166,
                -0.0033038997524528514,
                0.0015041402189614293,
                0.03150702707695929,
                0.0034084390079262237,
                0.025339826618678036,
                -0.0352781985185396,
                0.037554300563907749,
                -0.01567288285918122,
                -0.0440546458235627,
                0.015089864191128995,
                -0.017241065873108857,
                0.028775087785740444,
                0.03439087161031648,
                0.025655149551097685,
                -0.02744721819405343,
                0.03895699393342999,
                -0.002930565207087388,
                0.013077277315982605,
                0.02115859523554638,
                0.007485399700485765,
                -0.006943600206123219,
                0.024207195424125674,
                -0.024502236695755139,
                0.017893450251871617,
                0.022079291826192308,
                -0.03374348714248875,
                0.0470355931969143,
                0.025081195166946528,
                -0.0048352815015118388,
                0.029764149552757664,
                -0.03983053299338808,
                0.03530541716627212,
                0.0009155615681685118,
                -0.0030147910535319574,
                -0.04954325535190798,
                -0.019333061336446079,
                -0.04920257113197467,
                0.04181193939732725,
                -0.041850100217448987,
                -0.05070058874240385,
                0.009462668026946066,
                0.030323154519239588,
                -0.006391360325620214,
                -0.009149495832012848,
                -0.028745906137060335,
                0.022489283617962757,
                0.030610103959955553,
                -0.006602967803777523,
                0.024267159183228645,
                0.0368743404146553,
                0.04208968254402689,
                0.011604876507763063,
                -0.030357631639571993,
                0.034358003579974139,
                -0.00684555329609464,
                0.023176300692563584,
                -0.03291150143863319,
                -0.04169226204835199,
                0.030179504703051139,
                0.0058385200128305519,
                -0.04345058683245,
                -0.04265874836426174,
                0.03953760617196228,
                -0.030851516580418793,
                -0.0002712930387382322,
                -0.015029563661278592,
                -0.03300423228760914,
                -0.012937583399964885,
                0.015939262275639758,
                0.028879340766257177,
                0.038038953432677918,
                -0.008935675193143055,
                -0.0016107299442098436,
                0.022434722243131364,
                -0.058301131901576149,
                0.011291037352617245,
                -0.036158062542186817,
                0.029832089574868577,
                -0.005723393013714486,
                0.04439648546992768,
                -0.028080088781371468,
                -0.007096723630284591,
                -0.053239652315700488,
                0.000562053435109358,
                0.030956666675421627,
                -0.004776515847678209,
                0.007742296871408831,
                0.0073764273652749579,
                -0.05033542697552859,
                -0.02775692529604295,
                -0.03612066962817301,
                0.03329820013967043,
                -0.041902033189616268,
                -0.003864643165370565,
                0.034446163257633329,
                -0.014161438999665122,
                0.026076573833284334,
                -0.02771298952035727,
                0.03556368777523205,
                0.01627363767391354,
                0.0006238083031171291,
                -0.014059529175525663,
                0.019905818758236744,
                0.039395158999207698,
                -0.05102897148731708,
                -0.013838783935525984,
                -0.04437799393775318,
                -0.008833518439859089,
                0.02721399211803744,
                0.02345798071831717,
                -0.0037213720438805397,
                -0.019079691422154104,
                0.00933560334604769,
                0.03275442522877919,
                -0.021090984543958276,
                0.014531545710430772,
                -0.042656488324641448,
                -0.015210052182377726,
                -0.015447228313323172,
                -0.047648094311367048,
                0.02351809343084635,
                0.00895053773046482,
                -0.02430628099957164,
                -0.008151880737409993,
                0.01458253949752017,
                0.04568455525252822,
                -0.017203249454479966,
                -0.04914014913962965,
                0.0307753814526291,
                0.0037967558847367898,
                0.02883949500025575,
                0.045452638255797029,
                0.03399613036319057,
                0.02990064112877998,
                0.0005989287376144308,
                0.008518098013867753,
                0.01949822742979572,
                -0.04245523371726289,
                -0.003135099175826277,
                -0.0007915749137033689,
                -0.014328883590434966,
                -0.042708861281054517,
                0.03353865655990187,
                -0.036512660686229509,
                0.026464447757501225,
                0.04907142362021714,
                -0.03308166724254236,
                -0.03992222111599319,
                -0.03299951446909806,
                -0.030808559947037359,
                -0.020390404537414948,
                -0.018818976874166714,
                0.020401574308880348,
                0.0297781052245585,
                0.03822699518793532,
                0.038758677700281959,
                -0.04727907231746825,
                -0.024392980635173379,
                -0.03157631666787435,
                -0.06300584561683778,
                -0.04240236907280321,
                -0.04982748740358779,
                0.013827320070233006,
                -0.02256822727684935,
                -0.04726015860318729,
                0.002578510874634964,
                -0.003172935799254957,
                0.04208575155985513,
                -0.013499244540834801,
                0.0017046977670274805,
                0.03648537508604001,
                0.04437956908672709,
                0.03792589341289013,
                -0.050324086663139689,
                0.011179336302294497,
                0.00915394476064865,
                0.031050977049442407,
                -0.03883909297136677,
                -0.000550910368532271,
                0.046142912508682628,
                0.027444504839406308,
                -0.04078073076509395,
                0.03862064792846118,
                0.008431051954273919,
                -0.027711246734196825,
                -0.00983513733223569,
                -0.042410903608835887,
                -0.0473545089173137,
                0.02585606355008689,
                0.006473785285266839,
                0.017933854728935988,
                -0.008781529814728287,
                0.03014744272160032,
                -0.0036801648419075765,
                -0.013867769671017909,
                -0.03604841934360211,
                -0.010964384542605396,
                0.00006254537361005024,
                -0.03548424677852053,
                -0.031083099630591545,
                -0.02396516476048279,
                -0.024659325371789353,
                0.03515433989517645,
                0.0027142959014143689,
                -0.029230356295439284,
                -0.017476604582650758,
                0.002056075355007034,
                0.016937963673323406,
                -0.039070876849697,
                -0.02992365038660001,
                -0.051069335670733909,
                0.04328039835173194,
                0.01182670891838786,
                -0.02705011735592193,
                -0.02559175095615273,
                0.03379358051525907,
                -0.04637991770236698,
                0.04635155335395927,
                0.037426248435306768,
                0.00490126090783781,
                -0.01787844469481927,
                -0.010550494545222177,
                -0.03719650037874487,
                0.029068434202640663,
                0.02981474505036006,
                -0.003334206292124904,
                -0.04344200631105346,
                -0.013082206463748046,
                0.011544105624347292,
                -0.019743136154748227,
                -0.04292148463642618,
                -0.03681997320648735,
                0.04049780530346386,
                -0.016439506236868709,
                0.004751004648252653,
                -0.005758051969250246,
                -0.031154714676028648,
                -0.021003836923503585,
                -0.013320182659455431,
                0.03317054814397377,
                0.039296449756262109,
                -0.005423675921999906,
                0.0329899841609504,
                -0.007253749187641527,
                -0.005767087151538865,
                0.015256075896869689,
                0.020854378351182296,
                0.01109387598377902,
                -0.03181894738905691,
                -0.011736261469161734,
                -0.030932264366726988,
                -0.0005782218437366929,
                -0.000336265975333227,
                0.0026442045872904706,
                0.036197808075259147,
                0.03892629638374781,
                -0.04440447047958275,
                -0.04779054010958847,
                0.019358613665188857,
                0.020851476304018413,
                -0.033711210469087319,
                -0.041315610412011889,
                -0.04232403610525453,
                0.021576357002856589,
                -0.043437315939948348,
                0.024698524901009768,
                -0.05817850688486683,
                -0.02834158635833936,
                0.0070487278877164939,
                0.016845276393086179,
                0.015196751404430081,
                0.012330196052846599,
                0.005903955449976301,
                -0.04911187502763026,
                0.011827510080680655,
                0.037324722415070798,
                -0.010986254818613893,
                0.021538328559600415,
                -0.022148530773209435,
                -0.039787211479876797,
                0.0150020172910127,
                -0.013602147420211805,
                -0.036713042523849107,
                -0.03664815863242098,
                -0.043573079610311007,
                0.005964842513679277,
                0.006384014023321482,
                -0.021357967523357458,
                -0.0069876167549935189,
                0.010032635779384812,
                -0.011014965312237835,
                -0.0429682526063541,
                0.005768554905792177,
                0.00456393709579516,
                0.012858575633469566,
                0.01753456323513684,
                -0.027665767063924968,
                -0.04212260967288264,
                -0.016698877588620019,
                0.0028486800005702998,
                0.014900783427223385,
                -0.013094296956330765,
                0.04355128143881453,
                -0.004756151228194624,
                0.022897196511181066,
                -0.007892988035419857,
                0.035471710882103327,
                -0.008247209599293943,
                0.029348422985262063,
                0.041973763129736819,
                -0.007210856807728231,
                -0.019403793732699648,
                0.020320419311388905,
                0.005035093634646473,
                -0.04996500309495699,
                0.02589889024915841,
                0.040727227070418117,
                0.03567228891432633,
                0.01447541363522425,
                0.0009992536638473006,
                -0.036303493250604518,
                0.009412419832955295,
                0.02010838077961184,
                0.046706740033726278,
                -0.02528627036564691,
                -0.0005914190976149317,
                -0.04597817507755965,
                -0.05366671890175209,
                -0.013442194497604818,
                0.03966722926969454,
                0.010205860419582677,
                -0.01940238310797471,
                -0.019479532509812104,
                0.028472876495415707,
                -0.0030744302312212077,
                -0.054482631322661737,
                -0.009028726115150456,
                0.01886819177436947,
                -0.016320180156521113,
                0.01544739089160394,
                0.016233012114283877,
                -0.04636205097951482,
                0.00035026675063590425,
                -0.00967175540775587,
                -0.02894060382824528,
                -0.014999031077976623,
                -0.019855002216683638,
                -0.06565534360087372,
                0.0027685667704619254,
                0.03055608950374972,
                0.02440852919379148,
