{
    "layers": [
        {
            "weights": [
                0.03971588359368339,
                -0.034567395765496878,
                -0.04431602921403938,
                -0.014670481478397498,
                -0.0142894158592682,
                -0.09764082206836439,
                -0.024933593191580795,
                0.00418194536309456,
                0.00007704803778711369,
                -0.027651019489027749,
                -0.024730791852710867,
                0.001615091276475059,
                -0.0069350765092425548,
                -0.038690879441716247,
                -0.06537803656690858,
                0.024887727507161718,
                -0.02646379236195653,
                -0.059729358298294458,
                0.04574484061775305,
                0.020217935987660447,
                -0.03462888789214088,
                0.030722878999565253,
                0.040029740432560138,
                -0.0035367576539754514,
                0.0063195859531013959,
                0.0442959190159152,
                -0.008548912616435147,
                0.01436901392974178,
                0.026460628885637426,
                0.0031610743773582575,
                0.0346958905654444,
                0.0195725015593144,
                0.04332044919614423,
                0.021133977025164675,
                0.027262743357699336,
                0.03600951729138312,
                -0.02844735034171117,
                0.03664114461983021,
                -0.00906999174698182,
                -0.022133695868972179,
                0.04274051732252776,
                0.034732960897767988,
                -0.0508814381771402,
                0.012364590662633613,
                -0.05277536213044127,
                -0.04988027976459205,
                -0.04691338452920841,
                0.04655128293264379,
                -0.0005688297807167044,
                -0.04443684566060727,
                0.02235915124272362,
                0.012347928189067463,
                0.02440905442456888,
                -0.0527937315531951,
                -0.0340498273856942,
                0.04575794277571317,
                -0.0031270245303077935,
                0.009317844126811182,
                0.02003564465258916,
                -0.015601532469345757,
                -0.008677677902184548,
                -0.016258938098384459,
                -0.02458333996557,
                -0.05921736714773154,
                -0.024443567766158609,
                -0.00091030612551583,
                -0.0017820470925400717,
                0.013866030268994313,
                -0.027056532451110363,
                -0.0415867373450296,
                -0.023851054852632497,
                -0.029442444150985574,
                -0.04021663905346145,
                0.017280064239540813,
                0.03464971233544473,
                -0.038548942585132448,
                0.01116632559610323,
                -0.052664818698039388,
                -0.017859083490034186,
                -0.03014984329306389,
                0.03219255712945471,
                -0.0053179225635418,
                -0.022190782347913775,
                0.024543762460433,
                0.01985016226714884,
                -0.04341047402991586,
                0.04141467018389213,
                0.03788495766540372,
                0.0160530216939015,
                0.03579655837623587,
                -0.009208264935701122,
                0.0027249751660036278,
                -0.04484808962876939,
                -0.0326832986475044,
                0.023284268187748998,
                -0.015967057137457893,
                -0.0011573375808347756,
                -0.05553131198136727,
                -0.024567212698082459,
                0.0017615620181397308,
                0.02820259815005129,
                -0.0212563299358761,
                0.021541273160749717,
                -0.02341669192296354,
                0.006450796862149358,
                0.00446133701399097,
                -0.007203486686183521,
                -0.03710806801681699,
                -0.042969745122568129,
                0.03605284369237321,
                -0.020962466224100915,
                -0.024242147980022705,
                -0.029057182912823846,
                0.007129301056111381,
                -0.016378242404977089,
                -0.05160424578629308,
                -0.0516562060906371,
                0.0014834956652441743,
                -0.031487805755731828,
                -0.03113531964770517,
                0.001339754965175645,
                0.012093369650787098,
                -0.050075678415473248,
                -0.013712105434179865,
                0.012680787943121965,
                0.025823026349300578,
                -0.0466621796025135,
                -0.05231639558217245,
                0.034367204319300587,
                -0.004457235256618194,
                0.014947544137688264,
                0.0038431439447320586,
                0.025183007284482155,
                0.01986111181172118,
                -0.008278382088638702,
                0.0029905410369723756,
                0.026464630358626199,
                -0.051732395781348926,
                -0.03507216366837758,
                -0.04125309002404855,
                0.011385113124585659,
                0.02300153528382837,
                0.013014952195768167,
                0.023876274789264394,
                -0.0019304062716192178,
                -0.03801876127169125,
                -0.01344838283093995,
                0.00015843564651118276,
                0.03156100522573052,
                0.018044763345593935,
                -0.028371975802032935,
                0.03977068691239242,
                0.014341479740101249,
                -0.04417992353949702,
                -0.06367684629631927,
                -0.03703594911398082,
                -0.02541349327901815,
                -0.013534792602160742,
                0.015550842720457528,
                0.031723597498918249,
                -0.004326451374108276,
                -0.017203877249390134,
                -0.032338056257487968,
                0.005786214810876901,
                -0.03393714839295774,
                0.015272961534190936,
                -0.00792160648504591,
                -0.012107624231204997,
                -0.03860942863305284,
                0.020252379407779847,
                -0.03222468034127424,
                -0.04711144407433076,
                -0.01691407662294836,
                -0.04832532413657741,
                -0.004292774566004949,
                0.024551344865929214,
                0.030734754875150054,
                -0.02576229836737298,
                0.019788782574735206,
                -0.008491454195010788,
                -0.017410347822548478,
                -0.0011928411064549736,
                -0.036783347623738627,
                -0.040099384491843397,
                -0.029573331283025876,
                0.012527035846159926,
                0.026949961367280504,
                0.017827672591876108,
                0.018911958841304017,
                -0.03191222877526687,
                -0.02743854479523364,
                -0.020447545603489719,
                -0.022005111731956706,
                -0.020446794594998275,
                0.013111765279884452,
                -0.029387538065224686,
                -0.006718110622971179,
                -0.03916666159881836,
                -0.009676450029298116,
                0.025749454692305143,
                0.019019027489920273,
                0.0425003450887835,
                0.00541190579258463,
                -0.04174768755935431,
                -0.0035195115873421125,
                -0.10090051006617451,
                0.007274203823127098,
                0.0320872480517902,
                -0.0067690184286647559,
                -0.015163987299077406,
                -0.025367719847212024,
                0.04048905531807728,
                0.02128406896403637,
                -0.032127587613060479,
                -0.02956386918111183,
                0.06820902801158692,
                -0.009522901692574453,
                -0.12024618483084856,
                -0.009710577907842543,
                0.0026356175280737206,
                0.043339245344316979,
                0.029516561285110017,
                0.026768202293189024,
                0.04326001979394598,
                -0.011536960766595715,
                0.02184834782456282,
                0.01114083945946452,
                -0.046232303407406669,
                -0.0381646807574079,
                -0.04440009634419569,
                -0.032510566103759509,
                0.02682885470877814,
                0.023377641393530637,
                0.03533934466331366,
                0.02110277311171371,
                -0.005589213305786897,
                -0.03479898142800113,
                -0.03889655206598857,
                0.0119535344934938,
                -0.04495095226814741,
                -0.022651845357966405,
                -0.03836361545892319,
                -0.04523741138448828,
                -0.005106957062743615,
                0.03145240666223471,
                -0.042289780722595798,
                0.027575166691688099,
                -0.0408401172159703,
                0.04594624640754869,
                0.023685353121309449,
                -0.044718426530462807,
                -0.012900331421726723,
                0.025691205844136999,
                -0.05124013783871158,
                0.048464246424771099,
                0.03408584239240471,
                -0.02622568696703625,
                -0.00620817279963432,
                0.009510465396036177,
                0.01057164420433822,
                -0.011995988714946091,
                -0.0028556702284113996,
                -0.03392964962928369,
                -0.026586780333333949,
                -0.05632650070772129,
                0.013153932813729626,
                -0.04229413029950537,
                0.013271776704440701,
                -0.013015691159574617,
                0.03886332978688057,
                0.00843302514943599,
                -0.04270494772642445,
                -0.026706594461972857,
                -0.013994579115059828,
                -0.022105596108142217,
                0.014906049389206216,
                0.013394575415285094,
                -0.03984990982945129,
                -0.045138707542935519,
                -0.049719393850436468,
                -0.05317683207948668,
                0.003085072590740095,
                -0.05177769255530257,
                0.0009222398726451356,
                -0.046506099980477267,
                0.01828780376371469,
                0.03045868278509679,
                0.022349165217265007,
                0.042721259677567558,
                0.03861067672016539,
                -0.04199638971270986,
                0.01958450722456603,
                -0.007618753638749292,
                -0.05249320529506849,
                -0.002168576489886361,
                0.005724102507779855,
                0.03332345389486891,
                0.017756113231639876,
                -0.008538557598588282,
                -0.028339295990929816,
                -0.031153918891609349,
                -0.047607753946147367,
                0.019686933917576006,
                -0.04960438647104592,
                -0.04823418087261009,
                -0.049773882597016819,
                -0.040578506282494947,
                -0.010280113508817713,
                0.01363287757663781,
                -0.03329978009761602,
                -0.03151863046419924,
                -0.05060412863703517,
                -0.02223886198800638,
                0.00984055816760704,
                0.0015460025067203525,
                0.03202462058165729,
                -0.009776974154719469,
                0.016092497872180899,
                -0.033886963489604859,
                -0.025758159633578846,
                0.017338283761185886,
                -0.012436338866076345,
                0.01748954695519685,
                -0.0022961208722525985,
                0.021461814050583434,
                0.031085630847969216,
                -0.0017039523827332162,
                -0.030371695297810469,
                0.02609882458572701,
                0.015312107177768257,
                0.03371780123288467,
                0.033530402803336089,
                0.014418876492685305,
                0.019086109146647647,
                0.031362869346845827,
                0.04512011645357104,
                0.034344612008687897,
                -0.05539237351048695,
                -0.0031751717891771835,
                -0.05254533929796662,
                0.008638833457010867,
                -0.011273610131460334,
                -0.05945586297534271,
                0.018996046124127309,
                0.009624232077320092,
                -0.046822370077751588,
                -0.0038871961416994725,
                0.03697231877611003,
                -0.006146983457261763,
                0.015632878224541046,
                -0.04768416200729125,
                -0.04715266456708017,
                -0.013204890185230288,
                -0.033456119832487137,
                -0.008942540566932323,
                0.030244318836935348,
                -0.01855146823952594,
                -0.02623795106443611,
                -0.024533367315996429,
                -0.03071429834127681,
                -0.009743019969832496,
                0.029683824323072696,
                0.0029354659798009857,
                0.04565019326314582,
                -0.022440570855628108,
                -0.02221998362695613,
                -0.02743840352665691,
                -0.00275005653517937,
                0.025780954270165948,
                -0.0005102564273153802,
                0.04349639855575622,
                -0.005394394118805379,
                -0.03198447179724921,
                -0.03806124382469548,
                0.006333781246140381,
                -0.026788496789314037,
                -0.01717047603660904,
                -0.055274939225543138,
                0.017405391350047665,
                0.008800927465914127,
                -0.02021858298112006,
                0.010379090182654729,
                0.022569676224479149,
                -0.04415444994065546,
                0.009072321333964868,
                0.015983310396066046,
                -0.015692160775931796,
                -0.0023375990086451816,
                -0.03699833234504561,
                0.044964809323677388,
                0.005824948678591657,
                0.0011866366464690709,
                0.015700719838390499,
                -0.024907717132851463,
                0.0038325620120038038,
                0.02078970313311326,
                0.023698999455072046,
                -0.05111966048687194,
                -0.021120249815392065,
                -0.016139937051918377,
                0.03088030358475328,
                0.04571018717956241,
                -0.021367152597509727,
                0.04301960929954527,
                0.0221181452139294,
                -0.043396065691880359,
                0.041024459016487938,
                -0.006416391584605699,
                -0.007145053667663034,
                -0.012812157028736329,
                -0.01113508800248025,
                -0.016780664616193449,
                0.012571395973086999,
                0.012036870256627978,
                0.006116684385853825,
                0.05204784817684338,
                -0.014863815286161191,
                -0.07456941694579465,
                -0.007056492613946621,
                0.00811208541331287,
                0.0443228874649959,
                0.03352942965275458,
                -0.008626721579442852,
                0.036374626714206988,
                0.035712805378777839,
                -0.024257138952401174,
                0.015935500020781518,
                0.03899910856557594,
                -0.010849558626933653,
                -0.0017175889595905114,
                -0.01362469815833918,
                -0.003789894389087442,
                0.009018021868043442,
                -0.02073254534527351,
                0.03469215419254932,
                -0.01314852248438143,
                0.004513254911042642,
                0.03409702804538389,
                -0.01106748865433129,
                0.05655805006308041,
                0.03356054117519443,
                -0.04505485434026492,
                0.037005767678061528,
                0.03513867871418003,
                -0.0015893312507399979,
                -0.0466491051108912,
                -0.040952609639070238,
                -0.04440089000952364,
                0.0038312520822409736,
                0.026569650443076664,
                0.02217877679197292,
                -0.01835157452479518,
                0.014997159119503907,
                0.027522788209570525,
                0.0016306191424879406,
                0.04454255989760957,
                0.016105084523097846,
                -0.01742189783455709,
                -0.051666521262754828,
                -0.029372565476691639,
                0.025511282810714163,
                -0.0562453611711213,
                0.010640107187071063,
                0.015004622843014721,
                0.030623463844962955,
                -0.03259038131312785,
                0.009899998668426395,
                -0.04046230192774651,
                0.022315072790553223,
                -0.017331291889700709,
                -0.047379347807833659,
                -0.03107742543548602,
                0.027812466484679236,
                -0.01383585166990722,
                0.019255028355065645,
                0.022565755106393777,
                0.034681296561119897,
                -0.015103935817386496,
                -0.023552327901003295,
                -0.0021671118764515077,
                -0.03102148889410079,
                0.006022967665094887,
                -0.018835805693606358,
                0.01826958591112928,
                -0.0499862639965015,
                -0.054835091584728368,
                0.005814048096132329,
                0.03329901141281963,
                0.034531938528727688,
                0.042494305595984587,
                0.013229509638406649,
                -0.024887682024140217,
                0.02672788023204096,
                -0.04080296363588072,
                -0.04115365655738817,
                0.024590780357355694,
                -0.010761428489930329,
                -0.03891297972306211,
                -0.054404537895928219,
                -0.014733496235174306,
                0.017427214354106568,
                0.03986970053269031,
                -0.01836831339222725,
                -0.04381395715679235,
                0.008147465239500473,
                0.004235925718856564,
                -0.012589828357395838,
                -0.019478658865100995,
                -0.0458606309938405,
                0.015714520676765793,
                -0.050294393233176918,
                -0.03485882265471956,
                0.0383800974333608,
                0.0040727449947654029,
                -0.05344346406112579,
                -0.03382766664657121,
                0.008730707219078652,
                0.04343812669748405,
                0.015843839909228036,
                0.03354949745306239,
                -0.0017467306675329044,
                0.02922359695406408,
                -0.02647454658075772,
                0.030000462133980948,
                0.008484188690658805,
                0.022831445436983335,
                -0.02309961639643678,
                0.02161031998470172,
                -0.0341224326499504,
                0.037390954735460998,
                -0.00926497690054102,
                0.017695516539237744,
                -0.018108180530517324,
                0.027527417102265449,
                0.02888852361866816,
                -0.02274656345961934,
                -0.022618290817989177,
                -0.033287226692982358,
                -0.042793403890001,
                -0.01244788416695595,
                0.0057702731948603,
                -0.031109278309651324,
                0.014504256070732554,
                -0.04040296620277505,
                0.034577707015185057,
                -0.003182224599674482,
                -0.01646155122554494,
                -0.026458639449606564,
                -0.04306688635864535,
                0.0404772325996525,
                -0.04604239146411146,
                -0.02293400861765907,
                -0.012178926518012386,
                -0.04063151659363533,
                0.028825784743272348,
                0.03594327635933063,
                0.007552240253933186,
                0.0047400307083028379,
                -0.0029904969771674335,
                0.035343141067329209,
                -0.03606529643023761,
                0.006906628811211258,
                -0.0504693491726431,
                -0.03561840707465265,
                -0.03136109669931594,
                -0.02118539416074517,
                0.013884164148454772,
                -0.04419092550881011,
                0.017724110669425774,
                0.007582005191659852,
                0.030264295677787664,
                -0.008956418585496548,
                0.03165950045468161,
                -0.03479893080203601,
                -0.029486563818808623,
                -0.03096330285642221,
                -0.043337711971023647,
                -0.0449425950140715,
                0.025433144625135207,
                -0.046472104578277887,
                -0.01721563824223897,
                -0.0511152010576817,
                0.006038668135810642,
                -0.027163825426492626,
                0.02929628108281731,
                -0.05146733721213509,
                -0.0342316270465503,
                -0.02628891718080774,
                0.03858074154004498,
                0.03930548451909673,
                0.012007136162394355,
                0.015452538060341918,
                0.009746173569364601,
                -0.03045995889375465,
                -0.027372193350690387,
                0.03780022966758332,
                -0.03820342344168046,
                0.00270373603588428,
                0.03293377177311218,
                0.004349883119327111,
                0.038363600622583818,
                -0.03005154324408347,
                0.002486538340030852,
                -0.0004039496336379863,
                -0.04070201775061456,
                -0.02236742861539015,
                -0.000943482050851022,
                -0.010149345212931094,
                0.021138522964405754,
                0.022394348371964549,
                0.021256525856216649,
                -0.007765935558371122,
                0.02255991058428766,
                -0.0061141304187784929,
                -0.024119845625628319,
                -0.02340143817996919,
                0.07008742923549294,
                -0.0533126199430877,
                -0.011615414138592698,
                -0.04011827689587896,
                -0.04123079788149624,
                0.005517983308506877,
                -0.026540102538645008,
                0.030114222112526173,
                0.03606923736816871,
                -0.0444794264350994,
                0.017452849749220724,
                0.002755961796835655,
                0.005307476868023446,
                -0.05934558070190617,
                -0.05443018828332628,
                0.004416421247395603,
                -0.02711589684878405,
                -0.03307393754155244,
                -0.021678799992102667,
                -0.041624522598526548,
                0.0024479336256353065,
                -0.044884100953224839,
                -0.033012477795818107,
                -0.03491688731541873,
                0.019385848678767693,
                0.04604950411757015,
                -0.01855326674871382,
                -0.029154174308636629,
                -0.038531102729656038,
                -0.04858803967121002,
                -0.0526173213344579,
                -0.03187066626058703,
                0.034413566057171589,
                -0.04086472233667916,
                0.040288618851304889,
                -0.018045010148174419,
                -0.028146073434282997,
                0.019199227136917273,
                0.0029603778357007294,
                -0.03985036431286053,
                -0.04600924218579409,
                0.022647801321391798,
                0.011952947154360771,
                0.047744803615261548,
                0.01719676910368554,
                0.0326923575109399,
                -0.03452857150276484,
                -0.007374925471431226,
                0.006985712365733712,
                -0.024839418004722347,
                -0.03795337730938879,
                -0.00615145798993662,
                -0.035164856915257298,
                -0.033175908084923048,
                -0.010364123687986529,
                0.03771898098842849,
                -0.010231057265895053,
                -0.03134628260218818,
                0.003362834486315936,
                -0.05127772922327213,
                -0.04137486079321464,
                0.02919200937466828,
                0.003856104884918126,
                0.008025214822043018,
                -0.047773198866815008,
                -0.0004336266247676281,
                0.01585890418212026,
                0.021613981610337446,
                -0.022062357259146297,
                -0.00041190920757693775,
                -0.03800722769586523,
                -0.0039546878036900308,
                0.012818733012759753,
                -0.03417822948256664,
                -0.04985454335060786,
                0.017537197262962064,
                -0.0051543500047856638,
                -0.01916392877163072,
                -0.019540985138777387,
                0.007553982412117121,
                0.01335149410624185,
                0.025069998255373289,
                0.005414749837911767,
                0.040850653925634399,
                -0.050171105371647348,
                -0.0072182675035053849,
                -0.03767356257968438,
                0.008820878205396631,
                0.0011167238557681682,
                -0.038943493239081517,
                0.04674297990926983,
                -0.044772865010102167,
                -0.03720505103245965,
                -0.008944936792813788,
                -0.04556340699521365,
                -0.03848264371533995,
                -0.03942375571963692,
                0.05108454714378961,
                0.02333125957939882,
                -0.029175145590936724,
                -0.0403788661853756,
                -0.006918101842887042,
                -0.032838256508523549,
                -0.04651424723963181,
                0.04524116917861364,
                0.025936679299362689,
                0.028780609885689768,
                0.03647261709324912,
                -0.03499109800920498,
                0.023693480434480477,
                -0.021264413914420259,
                -0.045776689307932837,
                0.0311104722957639,
                0.04292328213939942,
                -0.012944843735447666,
                -0.028919295545237576,
                -0.027001863953943999,
                0.003661412451847433,
                0.011997323783476536,
                0.00862095197651577,
                -0.011642125667685752,
                -0.04542301119512453,
                -0.03460837497875308,
                -0.0416846692002896,
                0.010533306443576024,
                -0.0432429489665478,
                -0.03339245783179795,
                -0.03327751822143491,
                -0.04757709744186849,
                0.02966242313591589,
                0.01075014838122996,
                0.000005147816082943027,
                0.0021245459720123556,
                -0.04981468951605584,
                -0.015498315740024537,
                -0.04341020298498739,
                -0.006944809316279142,
                -0.0005110440557336681,
                0.033813453219113238,
                -0.024787949710749398,
                0.011917684418001711,
                -0.024605709305386658,
                -0.009041520599770413,
                0.034304005966432519,
                0.018388031074549034,
                0.026577162047872917,
                -0.036526038777917307,
                -0.03233433524240395,
                -0.052002084799931968,
                0.024778350801372838,
                0.029386099585409693,
                -0.0017441446948566226,
                -0.014171091180905605,
                -0.04156374892752985,
                0.02803758158080694,
                -0.046287362483620749,
                -0.022133340301434474,
                -0.0466236839192605,
                -0.011155199985594276,
                0.03408552226428805,
                -0.0045766759471755099,
                0.00862752182709798,
                0.018418778071530245,
                -0.024316710148042019,
                -0.04851695009655991,
                0.029770752451973228,
                0.001251648264832751,
                0.027085854465612088,
                -0.00047679909227930803,
                -0.033746078554656788,
                0.01789134752094568,
                0.020156037011418636,
                0.00373802445793609,
                -0.029951332121145287,
                0.03594918839010583,
                -0.045353980119736857,
                0.010812413090150464,
                -0.023474565756664669,
                -0.008260324655261468,
                0.023307493751127764,
                0.03176741097115776,
                -0.052034419352992567,
                -0.04483568085177651,
                -0.024405846117858917,
                0.07185841356607552,
                -0.04018973337931747,
                -0.027072509499847728,
                -0.00925906621266768,
                -0.02463335897469723,
                -0.05661335175546192,
                0.03148537061400206,
                0.012944429197980778,
                -0.04972738476994562,
                -0.02975964466756198,
                0.02752850800079669,
                0.05315400032385791,
                0.009252043003606273,
                -0.037236477099721079,
                0.00665031214692288,
                0.051643817447128498,
                -0.007651102459077499,
                -0.09793032281415201,
                0.024511860823457303,
                0.029534973915357027,
                -0.040924967556985,
                -0.0340992364335021,
                0.05094016067761643,
                -0.03537017392836514,
                -0.04051332898088437,
                0.01625130134210013,
                -0.02374074075439641,
                0.04219067130609295,
                -0.019069964271375047,
                -0.021456337805866589,
                0.0362317021095557,
                0.0005458172526307413,
                -0.00495574397269766,
                -0.013656985587543781,
                -0.020296959482523318,
                0.0432705552271351,
                0.0190073724418696,
                -0.03671494875437662,
                0.0009614255673173052,
                -0.027151113512158818,
                -0.002769312587279329,
                -0.024877780653646328,
                0.0073845908294035539,
                -0.0071123742017493219,
                -0.00883472445453696,
                -0.0763618874821084,
                0.00958674049946987,
                0.001311530443802185,
                0.009418183588864289,
                0.00169513017093401,
                0.010220347296277589,
                -0.010782729586863568,
                -0.01974229486992102,
                -0.02014458488757233,
                -0.034387262244753167,
                0.01775068348490726,
                -0.033559936728194347,
                0.04693118463385885,
                -0.03049180917437359,
                0.0022775975908134367,
                0.03194744080424693,
                0.02148148176674184,
                0.018372843067218159,
                -0.015081711356259494,
                -0.037635493432014697,
                -0.010422351038589873,
                -0.008682003747218002,
                -0.043638336235376679,
                0.03409931121429709,
                0.02112927336756824,
                -0.04355177139412935,
                -0.04290240674054146,
                0.012946975599794825,
                -0.0003107321961995405,
                -0.01830694948530146,
                0.020349802526410684,
                -0.0006956378332320862,
                -0.02211136144925678,
                0.013269225728079622,
                -0.040247830071355707,
                -0.050212272070706717,
                0.026658820558989585,
                -0.017482412974124649,
                -0.04892435095527682,
                -0.04957772713762605,
                -0.017510773598264224,
                -0.05199732822025114,
                -0.031129692067805447,
                -0.03766868132561597,
                0.0028699326866540449,
                0.01749286970194248,
                0.013476364794516787,
                0.0355514200017018,
                -0.04546587517614776,
                -0.02799910390152264,
                0.0031616270631172145,
                -0.0044372294210009099,
                -0.04097282323793628,
                -0.02752777118433147,
                -0.042766645817992849,
                -0.0013510380072395802,
                -0.005401573825605076,
                0.025385263794920715,
                0.021116546598109365,
                -0.013164739455458583,
                -0.0050376829344295939,
                0.021359061792325396,
                0.033082452516382327,
                0.045764337286331047,
                -0.006073309384987916,
                -0.02413396038681742,
                0.01886688061788913,
                -0.016508488388074759,
                -0.037118815434434068,
                -0.008242281907923215,
                -0.04785147990872666,
                -0.016334958752226366,
                0.019130195804249567,
                -0.01808853462552515,
                0.02960617896765891,
                -0.02935656493966527,
                -0.02026367008675923,
                0.04035735549313767,
                -0.02780144798757854,
                -0.05116515823357499,
                -0.017557709421517927,
                -0.03590495415794639,
                0.010691187133342323,
                -0.0341723768630616,
                0.020502962765084434,
                -0.02016495397720947,
                -0.01915502584627057,
                -0.0406785841146652,
                -0.007251723346784746,
                0.0175858362929102,
                0.003856110117421269,
                -0.04270212764741517,
                0.0052067309903964689,
                0.012811589418962518,
                -0.0035530774330771294,
                0.011202325275793632,
                -0.03182592970720546,
                -0.04935510467544483,
                0.01681162733544127,
                -0.033590503411748549,
                0.04317012437069609,
                -0.007510448904432347,
                0.02694446736536488,
                0.009632336047314918,
                -0.029435431762434927,
                -0.0434700345469266,
                0.012326448947978191,
                0.010053909948173698,
                -0.006289054873273041,
                0.019460135816324138,
                -0.03463527422183046,
                0.0024752795394679448,
                0.0046418754512048839,
                0.028209490015577235,
                -0.04378233893457861,
                -0.025421709312171818,
                -0.04782893918251996,
                0.008673642566447182,
                -0.032456644540009769,
                -0.041687552070537387,
                0.03785905803889778,
                0.0004576988442983271,
                0.0224105482547427,
                -0.0027380532863886897,
                0.029569636779911248,
                0.04372342484283352,
                0.03335394655423046,
                -0.04712740503962254,
                0.029119824116904816,
                -0.04161953874222146,
                -0.04940568362909355,
                -0.03639421689010641,
                -0.02780086022762152,
                0.035438588403081897,
                -0.05194214782928465,
                0.03429486490672047,
                -0.012308229854450384,
                -0.04712738715034018,
                -0.05707111853230212,
                0.010963778870566136,
                -0.0004884447175628793,
                0.002408701362725997,
                0.014768369832945832,
                0.006808262665863362,
                -0.013319928830842945,
                -0.0542479086891781,
                -0.008093615204238566,
                0.022125458970879309,
                0.00502076172175444,
                -0.029945232188835364,
                -0.00023324330418473133,
                -0.0005357866456914607,
                0.03701591318378272,
                -0.011001337824732045,
                -0.021364533293585187,
                0.0037669069745405257,
                0.017357958666541698,
                -0.00449732602834552,
                0.027906845150608193,
                -0.019134236448622216,
                -0.09856347486836437,
                0.015566163670508636,
                0.056172839435988729,
                -0.01973493111348036,
                0.04712238161383525,
                -0.054099126383586718,
                0.002959278258919626,
                0.022922882144119778,
                0.029067344111675058,
                -0.06707447001009001,
                0.06369358080965802,
                0.06911985928092147,
                -0.08255757461138699,
                0.0213267895258776,
                0.005447355064736134,
                -0.010583008066145058,
                0.04951030767844133,
                -0.015391596826229358,
                -0.02919450481513049,
                0.024578179392180108,
                -0.0019120425043315693,
                -0.05740378657149996,
                -0.006483470112019331,
                -0.030820728901183777,
                -0.05104150818194898,
                -0.011127944864452335,
                -0.009617891995346597,
                0.025530078326210214,
                0.002121402769363892,
                0.003143478261934062,
                -0.031266553176561597,
                -0.035938226391746489,
                -0.016101429931830784,
                0.019133193959033888,
                -0.0068469183654827308,
                0.06074835955428738,
                0.01643409426345082,
                -0.022562970910867939,
                0.023980050528257189,
                -0.020183582459959934,
                -0.011170913385577609,
                0.03989602876488888,
                -0.05253124822626481,
                0.002050334778245562,
                -0.011879784843894917,
                0.011345755732182219,
                0.033463150306468968,
                -0.01890838303547976,
                0.04548487813483612,
                -0.04498741242723017,
                0.0014121604521162928,
                0.004398165154767879,
                -0.026207952832642026,
                0.053148969717966638,
                0.021311740616826455,
                -0.04726862836281455,
                -0.03868786100461531,
                -0.03490084463263312,
                0.01572982780368031,
                -0.01509623750860978,
                0.032446749379644018,
                -0.011941727428310302,
                -0.04843050507395422,
                -0.03501054672021424,
                0.032483472492386807,
                -0.0010998449910727274,
                0.018397837538323467,
                0.013165520260699603,
                -0.023941110529320948,
                0.0007206177662525269,
                0.00025218408435377345,
                0.004287062587506183,
                -0.028369047282747623,
                0.017544004344525495,
                0.04054639033143628,
                -0.0002575661067308868,
                -0.04877564980321458,
                0.0426153660229244,
                -0.040480779446074869,
                0.039527687730383547,
                -0.006505505907275507,
                0.034486526706898949,
                0.03054331470579079,
                -0.0009154113272166931,
                -0.041224741578094029,
                0.011284161548378122,
                -0.058335798044073589,
                -0.01893611904577772,
                -0.05675131717580248,
                -0.0332197334516895,
                0.023996391617510834,
                -0.003580554375453292,
                -0.0005774896388418104,
                -0.015363316271026547,
                0.006505734320105648,
                -0.009572310084155284,
                0.025058796555927667,
                0.03148700068218688,
                0.003973419837924626,
                0.018661959698229266,
                0.040546142757421747,
                -0.048852055385308238,
                -0.03895564088799488,
                -0.009056447288934407,
                -0.0049285344491102199,
                0.041707022567913958,
                -0.03747813681423752,
                -0.017285787097064323,
                -0.04053812803108569,
                -0.03631258148986727,
                -0.0412565581762705,
                -0.0372598168374337,
                -0.038085005076341837,
                0.02307333074333279,
                0.03973059455226088,
                0.03298757772510768,
                0.011262876397694667,
                -0.000020170958347744673,
                -0.03896851980787752,
                -0.035997506025801598,
                0.006058493059631209,
                -0.023930034599247996,
                0.025089851022140485,
                -0.052764221971553327,
                0.020943989312554979,
                -0.03523326053607011,
                0.04366226213787527,
                0.03455793817891192,
                -0.050563341636562678,
                0.0005577540258577315,
                0.025235343925900455,
                -0.025583341684016219,
                -0.01993624568339029,
                -0.011641800894662914,
                -0.05739731325008451,
                -0.00901590137673808,
                0.02026856443554064,
                -0.02996021852717155,
                -0.047469684902428487,
                -0.042155549940114337,
                -0.007170099576121403,
                0.010838663686353351,
                -0.02395301183939508,
                0.03274986815015512,
                -0.04683829038930329,
                -0.0022566120025054915,
                -0.033157580614628017,
                0.010930284439326265,
                -0.005700060387039916,
                0.010563145608514246,
                0.027476953213909,
                -0.02904539006619582,
                0.028101790739853868,
                -0.005994495751544999,
                -0.036646587503918,
                0.0031364494953693255,
                -0.03012160839548777,
                -0.04978183188307391,
                0.012384101255434556,
                -0.02755681554660548,
                0.045437042117464038,
                -0.040455535976544509,
                -0.020309546640925454,
                0.012000073156145148,
                -0.02110335850225941,
                0.03402967124178632,
                0.034826595534384417,
                0.01943436544712286,
                0.025011502354164475,
                -0.010818991476621706,
                -0.0425956058913356,
                -0.02182797112974549,
                -0.012821347423104868,
                0.027951366115480659,
                0.01040790200907064,
                -0.05616634982010824,
                -0.048311269354604158,
                0.043135262709594748,
                -0.054797142244571109,
                -0.025157212845739738,
                0.03712404807151691,
                -0.03801185406974712,
                -0.0037139148761504679,
                -0.02244044440219433,
                0.01454343948675537,
                -0.0038374118007775185,
                -0.01449234138306536,
                0.029456587864617503,
                -0.025947795817167369,
                -0.010411588963947828,
                -0.035857914306771699,
                0.010937230627555072,
                0.015655723966415376,
                0.016288463081121034,
                -0.03900357830096585,
                0.016519003632688549,
                -0.02423019544698241,
                0.022676587590236744,
                0.0023731887500302638,
                -0.030633960621417115,
                -0.033110704433539629,
                -0.0006664794709257898,
                0.059572339739738289,
                -0.05865294876122261,
                0.020053752540732905,
                -0.005592131382224792,
                0.030591319766006904,
                0.05589125667039565,
                0.032775895931980898,
                -0.05987940072901137,
                0.02031137231686907,
                -0.000697288384041998,
                -0.13760163689143288,
                0.0023172442459681679,
                -0.018808285301224613,
                0.029964588679986929,
                0.02476851923742682,
                0.0615109831105382,
                0.05058978181186102,
                0.016941105458162615,
                -0.011786711629768123,
                -0.06281570029384813,
                -0.017095057874935979,
                -0.04902249641282784,
                -0.06265872302324358,
                -0.019500900493867415,
                0.007507482539774868,
                0.019879845681508986,
                0.012421066570961157,
                -0.016619642706091375,
                0.013559276136817397,
                -0.005430405122104959,
                -0.008184361668075867,
                0.022678796736819583,
                0.011914708620789736,
                -0.0077135002477708779,
                -0.025408093307037948,
                -0.011406276970679658,
                0.010456071241617864,
                -0.039078745519037779,
                0.010073612109114996,
                0.0051545470041373859,
                -0.05071229519730615,
                -0.027254194969028798,
                0.037195097016007639,
                -0.04338715050963782,
                0.0020326028464185037,
                -0.02224358196119435,
                -0.011321719590635937,
                -0.018063027077323488,
                -0.007441994114395325,
                -0.016327208674513043,
                0.012688060108908767,
                0.029193802140965658,
                0.032802818568578497,
                -0.009165048392730245,
                -0.055119892124365108,
                -0.006550028766918323,
                0.019803100227564729,
                -0.030983581575114936,
                0.04730020532862972,
                0.038981201500680778,
                -0.031392574706734208,
                0.0021184055249662029,
                -0.018394941852677164,
                -0.0659459074756099,
                0.026034223335807597,
                -0.04482989702156943,
                0.03460423337198652,
                0.0380589334036976,
                -0.00685358436894575,
                -0.02543196327896872,
                -0.03291805500835581,
                0.026033268179247897,
                0.026023954604076049,
                0.031837399754535308,
                -0.05900004999107065,
                -0.03497251666551207,
                -0.010624472640816679,
                -0.03772400258498592,
                0.01631781584424741,
                -0.038968132365360428,
                -0.01901757047595271,
                -0.02718861654214698,
                0.03211764063938149,
                -0.020590921736140748,
                0.02073445038975556,
                0.009192238990065216,
                -0.035239849148331187,
                0.03970737832886304,
                -0.025376109316425516,
                0.017005727219931597,
                0.003194862586283409,
                -0.011978974203223808,
                -0.02687417156334258,
                -0.055554410743597109,
                -0.025479657345948114,
                0.006292108842074238,
                0.016730840254458955,
                0.03056350083964978,
                -0.031285158459036867,
                -0.007262827351217524,
                -0.0009857811191839163,
                -0.0035854006605001858,
                0.03691423924605196,
                -0.027692712024715447,
                0.041278379547630559,
                0.04095026131179672,
                -0.049698592702712058,
                0.03221465747712395,
                0.006808004918646969,
                0.027792926705961043,
                -0.03868975231142334,
                0.004112310185978938,
                -0.0012431625342357292,
                0.010596299655132969,
                0.004304385737770686,
                -0.05665829496695616,
                0.008702031469735946,
                -0.04846586016566956,
                -0.040360464538260209,
                -0.0394035902329495,
                -0.05297291668486194,
                0.02766171287710901,
                0.0011447041590749953,
                0.029088117133495178,
                0.016044433528616815,
                0.035805271959026049,
                -0.011858154875314612,
                0.031338993193557148,
                -0.0018742690349874002,
                -0.008236735022832454,
                -0.006833898560240553,
                0.0026894915461660848,
                0.03755074634584441,
                -0.03084166908320053,
                0.014718269282719955,
                0.016186801196681,
                -0.019834260789579267,
                0.0008474190411467682,
                -0.01601107283338085,
                0.04539899301294987,
                0.005921318249025253,
                -0.026702668780693274,
                -0.020324991569640698,
                -0.016708406229890239,
                -0.0008625702932935121,
                0.037506747832343537,
                0.036213215754102839,
                0.00005984124387061393,
                -0.015966737910017536,
                -0.023913604061239207,
                -0.0514416119814117,
                0.025219929508504679,
                0.0231264047082157,
                -0.040041379642515587,
                -0.015486688290540344,
                0.011598760991836932,
                0.03989476726360928,
                -0.04815905650903449,
                0.0015370728357397006,
                -0.05097703791843356,
                -0.023230209188881705,
                -0.03216203824016929,
                -0.03269723036558533,
                -0.0368249195740517,
                -0.00366709911755629,
                0.0014265769577394977,
                0.005589787247939756,
                -0.0342689693421053,
                0.03560326546770506,
                0.026549304512419028,
                0.005529794001632544,
                0.03960287886164651,
                0.012078667462641769,
                -0.03797857861677584,
                -0.004550214676153548,
                0.022550707800005417,
                -0.004550065373723434,
                -0.029569689888048754,
                -0.03137419363619911,
                0.0035609660760613215,
                -0.052942035119003767,
                0.03287419092356828,
                -0.006779443148731406,
                -0.02752030434711344,
                -0.017225554084035797,
                0.006732710654487281,
                0.030486054401546716,
                0.03242855039272145,
                0.02201533643782243,
                -0.053916217517604499,
                0.03503551798278247,
                -0.03241901139579102,
                -0.056315005377675208,
                0.016772415271966973,
                0.013687215629309486,
                0.0007567356151293547,
                -0.04459995929202812,
                -0.03157003899177378,
                -0.031517736820538117,
                0.045840090297067228,
                0.0033366994707092546,
                -0.004780519561093304,
                0.026816752115171737,
                0.0007199624703698507,
                0.008689433924541376,
                -0.040687110069615447,
                -0.03618445818713107,
                -0.020569891633613628,
                0.031487826172384787,
                0.04893908156590241,
                -0.11777074849842038,
                0.03300094721632931,
                0.018551975924707064,
                0.05279189621223112,
                -0.04161527382266353,
                0.0011657270758153752,
                0.04606744093817661,
                0.0373964252774914,
                0.021368889854334835,
                0.03012696146363096,
                0.016276058856944894,
                -0.006681688948822782,
                -0.0660146687783994,
                0.03338472446001764,
                0.0506309382801589,
                -0.010145734478416442,
                0.04282701421088677,
                -0.03162524640583613,
                0.0002499528906629633,
                -0.040672712352668029,
                0.029870807044925099,
                -0.01841508068657006,
                -0.016769396299234124,
                0.0038424276761278616,
                -0.024318760468211029,
                -0.02191099807432857,
                -0.0348015159337855,
                0.02632243497687702,
                -0.01404458369287599,
                -0.011287005240338832,
                -0.005325363169052517,
                -0.01238796852543845,
                -0.01738179361121505,
                -0.034876398397284947,
                0.034413048945333927,
                -0.03091031200321882,
                -0.0034771306816832609,
                -0.036466907594636128,
                -0.02207197968590899,
                -0.03222887537113406,
                0.017008053468302567,
                -0.03499652574591701,
                -0.01590170144457731,
                -0.061208918793331869,
                -0.028747173806701617,
                -0.0007161890776059185,
                -0.03870110760448064,
                0.025126457989655738,
                0.01885171319745814,
                -0.04142869089475845,
                -0.04722911071676264,
                0.03609252864612517,
                0.0422949437614645,
                -0.018028862478034165,
                0.04046442196840359,
                0.011590643773022476,
                -0.005474126903960359,
                -0.014698770197350294,
                0.00297891206774438,
                0.019986601982022766,
                -0.039599141170559907,
                0.04226243946581901,
                -0.035608655552153149,
                -0.01982271946679271,
                -0.014629334162222688,
                -0.021772821791652826,
                -0.023306801396315074,
                -0.02528072046756443,
                0.03745081778009202,
                0.010803040750580289,
                0.048483490259292379,
                0.03335765892647701,
                -0.04829154706064708,
                -0.021428930392106084,
                -0.010503604128312316,
                0.011324105375560601,
                -0.049224282045018188,
                -0.02036514381104815,
                -0.047237900359811967,
                0.022926746263783605,
                -0.04494422342773947,
                -0.014287992503964436,
                -0.03015886314447283,
                0.006957844648579273,
                -0.02192097107382609,
                0.015974834763010955,
                -0.015071477755336332,
                0.037394724568513868,
                -0.021926388212726228,
                -0.03392343153375971,
                0.031008822532556786,
                -0.041012911381042797,
                -0.005219550614161771,
                0.011680242574366236,
                0.03909945243879712,
                0.007046870344742175,
                0.053645882681880637,
                0.0429495208391708,
                0.008318938291129567,
                0.03558153843200104,
                -0.022695712818989058,
                -0.06102111134909473,
                0.033715766499550558,
                0.03680640959941246,
                -0.029493181493377327,
                -0.03770108668820348,
                0.03222556896628427,
                0.01208439756491134,
                0.039283663103335957,
                -0.031629834265668278,
                0.01358617331574996,
                -0.046528266926021379,
                -0.02053293902178564,
                0.043446216245990019,
                -0.0018386982293211083,
                0.02697343779456098,
                0.013581388941118088,
                0.010453107446705247,
                -0.04904620041394542,
                0.023930237509612829,
                0.03990585329129592,
                -0.013155345184823147,
                0.036172123365297997,
                0.02788800720257307,
                0.030884104581612109,
                0.019339567677340149,
                -0.01117210430043136,
                -0.01597038515858057,
                -0.019853129480926478,
                0.03849323416787957,
                0.013209831597302954,
                -0.046840567235917809,
                0.012067215436338373,
                -0.044011883540659189,
                -0.022679095490276484,
                -0.048533389852069178,
                0.0008161088919206805,
                -0.026469049882569655,
                -0.018850469916895798,
                -0.03703675687757444,
                0.03725808633932579,
                0.02574705872746031,
                -0.04510024944517134,
                -0.05263124240249528,
                -0.008079927092390412,
                0.012297298837115275,
                0.022076245169087396,
                -0.00623185058624258,
                -0.04291763627266869,
                -0.05341669903386803,
                0.03640882583512522,
                -0.008488005803963856,
                0.03250439742425902,
                0.032707348346227928,
                -0.05211752159103584,
                0.038908036112530759,
                -0.05109650336165696,
                -0.0476988259271706,
                -0.04892180229652351,
                -0.00919872145375618,
                0.01925688498054427,
                -0.019411727482230698,
                -0.02678538943962028,
                0.039853401125082888,
                0.0020880018215758617,
                0.010819168658784273,
                -0.012798329483008566,
                -0.030227441246003716,
                -0.000055616638120173324,
                -0.016081135943841204,
                -0.02200313960896035,
                -0.023232626997721965,
                -0.034740635615580408,
                0.030392007011782124,
                0.025131821102500796,
                -0.04094372649683153,
                -0.02096671759802748,
                0.036049143209106408,
                -0.025726601491196017,
                -0.04115171797860731,
                -0.05288581833803425,
                0.03159895701853874,
                -0.02768630584262784,
                -0.00402862075037963,
                0.046909293036723708,
                -0.007784595909975831,
                -0.030637808429174564,
                0.03287305418014858,
                -0.09667071642677593,
                -0.006317523899918632,
                -0.03249256444187265,
                -0.013747920144172947,
                -0.010617398980185013,
                0.0364395584744927,
                -0.004031805378252714,
                0.021625113394572579,
                -0.0009059379875274924,
                -0.06632538173265507,
                0.021032662426056657,
                0.03255466467156935,
                -0.10669048339169249,
                0.012220020367023214,
                0.032825319094887,
                0.019626492571937688,
                0.023105106034269266,
                0.02189309711776783,
                -0.02387226222055598,
                0.03870713889351448,
                -0.04665610815478187,
                0.021280413152334849,
                0.00027492457711263693,
                -0.05948846210053948,
                -0.008104961946937191,
                0.02526243120839144,
                0.0017529676551960407,
                0.030663332062715197,
                -0.048129176439549708,
                -0.051668483537634837,
                0.04626812813736182,
                -0.014221253458047,
                -0.002373142505763896,
                0.006120711522937927,
                -0.03125276148655281,
                -0.0377715966687951,
                -0.020725721168622918,
                0.030305463688182517,
                0.043305286177143579,
                -0.028783261324085976,
                -0.029864801109131698,
                -0.016112963653344638,
                0.012965858472434523,
                -0.016830873043334184,
                -0.007739410330540731,
                0.01089571594558054,
                0.029478211225944768,
                -0.009525558234074014,
                -0.054562532725314517,
                -0.0038075379303090276,
                -0.01621009141509113,
                -0.004945132205782859,
                0.0458286531356095,
                -0.025738202024424243,
                0.011769011337447577,
                -0.03443791947101048,
                0.023529108345200779,
                0.029552810219489867,
                0.011893948441075908,
                -0.0076102740909325329,
                0.005577675081105894,
                -0.0033535118160020218,
                -0.01076886182401344,
                0.002137943490974088,
                -0.04814395392626146,
                -0.06672978512608839,
                -0.017979840385581797,
                -0.015077619399853687,
                -0.0031440849721003354,
                0.0178170585965696,
                -0.02262897883757024,
                0.03309611323216507,
                0.0037678546478629394,
                -0.04936970383641024,
                -0.019451926964950778,
                0.01238574379696161,
                -0.04409108064335899,
                -0.027669540584373547,
                0.00803260123694285,
                -0.03639396467082177,
                0.03623369647870051,
                0.036214985045193447,
                0.030201581609969508,
                -0.0031705073452530038,
                0.0027407371310498244,
                -0.000553281956264884,
                -0.010567948328475498,
                -0.033227087730404007,
                0.039527278130068479,
                0.03262108356637998,
                -0.02974064290057803,
                -0.0031039917900194246,
                -0.04410519310811914,
                -0.0082588175764927,
                0.022485580345353169,
                -0.046146602789678938,
                0.035041329018473389,
                -0.03701221575577194,
                -0.03730491524522529,
                -0.014858563086816265,
                -0.0316777616963651,
                -0.018488761315900643,
                0.04507910939362122,
                -0.024390375718625267,
                -0.02807736228955224,
                -0.0003639371864172018,
                0.023715794737110688,
                0.0359193071900993,
                0.038432929800300077,
                -0.05134306665655456,
                -0.048419503960237909,
                0.0030685770144231858,
                -0.026081927640913079,
                -0.005367478524519631,
                0.006650456750443275,
                -0.0012066129812095049,
                0.008635095954172974,
                0.039975866601376159,
                0.04464238763020785,
                -0.002362014110628974,
                -0.0038127544074173646,
                -0.04812021171107816,
                0.0016627487802228793,
                0.010743034706262174,
                -0.015187664916967296,
                0.04109639811977811,
                0.02593244368013512,
                -0.04864317759722269,
                -0.03894356852112918,
                -0.018516677339878167,
                0.025374844836190528,
                -0.04761961297787928,
                -0.04886966406167186,
                -0.029851404707230874,
                0.037827858236721977,
                0.0017382779523069483,
                0.039524746507736189,
                -0.012098106811132962,
                -0.03180603367324712,
                -0.056297559445289007,
                0.01981383163984346,
                0.01007512798282252,
                -0.01953093545764892,
                0.03676030517373087,
                0.025987607923925544,
                0.005105082421000977,
                -0.04654436066784415,
                -0.002872046071937947,
                0.03625358701944994,
                -0.03976746921759544,
                -0.014812310536326017,
                0.0387540831927441,
                -0.027354494553347664,
                0.01884548391209308,
                0.04522283546366929,
                -0.04144528734850743,
                0.021875445895799488,
                -0.02556183439917197,
                0.03511569925801246,
                -0.027739809220416479,
                0.019634554995882675,
                0.006373755591767286,
                0.009420247838509647,
                0.00590758134625039,
                -0.03687768299608668,
                -0.05552390843284944,
                0.0070831711492035718,
                -0.050736450024925539,
                -0.004773917222011782,
                -0.05597187774529951,
                -0.00017275337236659426,
                -0.03649551320507972,
                0.014576217085229188,
                0.028697305975904875,
                0.02063941421264355,
                0.030930894687241175,
                0.020649708637421005,
                0.013058146571577093,
                0.03198769260749808,
                0.028186193867516936,
                0.022710029598533304,
                -0.0436925657839713,
                -0.03458544209552514,
                0.03796562183179208,
                0.03766620602697347,
                0.025975225665698155,
                0.019057493494976924,
                -0.024877913478283103,
                -0.025171724689360524,
                0.031151376663478018,
                0.019908714870265414,
                0.007767888292322447,
                0.009945584023624495,
                0.031243958558243458,
                -0.02570877452638515,
                -0.015155457058083896,
                0.045855609281695419,
                0.04194614405314037,
                0.02339454547711866,
                0.029444929489245709,
                -0.11516710596027288,
                -0.03776938793914377,
                -0.032095187043918508,
                0.024727256769303889,
                0.029583353103694304,
                -0.03534688090125712,
                -0.020765223900431126,
                0.00001464069226790766,
                0.04688941737607245,
                -0.07209480920335955,
                0.01116858177184457,
                -0.025038460781782267,
                -0.09803451679663863,
                -0.03635117401012128,
                -0.004070232694535134,
                0.012935408745529424,
                -0.0035146880761916436,
                0.025548050876582286,
                0.026768210712913487,
                -0.027378198308376346,
                -0.0386581122088012,
                -0.032306766900516859,
                0.020225974220245588,
                -0.012142097914351388,
                -0.07453904659671917,
                0.03186083374684069,
                0.017219438588052615,
                0.028656955016983938,
                -0.0012365068736673682,
                0.008892513361965834,
                0.037558733364939169,
                -0.05245792932469887,
                0.04584679362162404,
                -0.04368027133073164,
                0.03481681406669884,
                0.032865370770168437,
                -0.045742817859797047,
                -0.025187225815137928,
                -0.030618026393230137,
                0.011305348729276181,
                -0.0025122389453690557,
                -0.008098665490196182,
                -0.021519600956045966,
                -0.021147669535921244,
                -0.002482816161844876,
                0.026978638884297008,
                -0.033715262103908818,
                0.004994169259717186,
                -0.005801773531854149,
                0.021845645030625944,
                0.01061354429209548,
                -0.02315720852101751,
                -0.03491917498980212,
                0.0014568325336078868,
                -0.004335218875962064,
                0.0050192286414347708,
                -0.0187608613664454,
                -0.02105519040654025,
                0.00795042251151329,
                0.026585621123436145,
                0.02553591907658132,
                -0.025651654345705736,
                0.029059033160501209,
                -0.012336463733403903,
                -0.03912658622835921,
                -0.03193141389360797,
                -0.035049857737874588,
                -0.0365018263473672,
                -0.018076408496277477,
                0.017098107328361913,
                -0.011016342668910284,
                -0.039629929427121828,
                -0.015853118154638199,
                -0.05140082824069281,
                -0.005547652941776635,
                0.022659884535083036,
                0.03877429434486879,
                -0.011619621736442388,
                -0.045436477049200878,
                0.00004548750501472067,
                0.00475958872387493,
                0.0263317364029369,
                -0.019124434503747856,
                0.0263246468800548,
                -0.04654115249325414,
                0.004359746218574234,
                0.036293671074392647,
                -0.004905933064468385,
                0.0030599509831896935,
                -0.0478925662861619,
                -0.02450252584560648,
                0.016798095593038945,
                0.004441117888162072,
                -0.015309889873233885,
                0.039714988538606759,
                -0.007696468964790595,
                -0.0002998498247663519,
                0.04445395517259546,
                -0.04226953972642225,
                -0.03929310712407524,
                0.006926535753016522,
                0.04878314807776375,
                -0.024228712279683506,
                0.022973301992949437,
                -0.02656417753013232,
                -0.008468618243613322,
                0.027566963232258554,
                -0.05018906468485328,
                0.05222803789476942,
                0.015108613211482642,
                0.021376110899692489,
                0.03848568604883962,
                -0.023309625851642959,
                -0.03938041011903917,
                -0.030653358216326897,
                0.027774955529991885,
                0.04561405442648487,
                -0.05124998692405564,
                -0.022018982657057884,
                0.0034992414185649456,
                -0.01579183297700265,
                0.0039979070373377949,
                0.0051457235952559079,
                -0.025491913643414043,
                -0.013241618721431682,
                0.03215201759201517,
                -0.003846032624030209,
                -0.05376870231616413,
                -0.05291370614498696,
                0.054120747526133907,
                -0.024192325201600113,
                -0.052637501014685988,
                -0.022324750511921889,
                0.03996895837382509,
                0.033091147887735827,
                0.01073957236074107,
                0.004006966013574504,
                -0.008749931811525778,
                -0.0010913628705306587,
                0.0005401852102143304,
                0.017057297771663917,
                0.041749056079442268,
                -0.0012382730717176512,
                0.0371278903043651,
                -0.026148231654547956,
                -0.025233391181290728,
                -0.029353665139515065,
                -0.018989460972457518,
                -0.03400097426873409,
                -0.050039729043582278,
                -0.005609279933429788,
                -0.0015176505816528177,
                0.018281989892527704,
                0.0036507749880288359,
                0.03779610752001762,
                0.040974076953768086,
                -0.01703868432389995,
                0.041985701858056809,
                -0.01748137796898626,
                -0.014394869422016409,
                0.04015807158192719,
                0.022863246764305204,
                0.04157733827335448,
                -0.05208961971019977,
                -0.013339137861215996,
                0.019369969104403155,
                0.017557888360531166,
                -0.01388219448183353,
                -0.030068356416866016,
                0.0037901984259238066,
                -0.03073526198623388,
                -0.00881053104331426,
                -0.0017825664741218223,
                0.0076934945670177729,
                0.02787156881952992,
                -0.018718204794068436,
                -0.043985857709522038,
                0.01791189533160834,
                -0.05261893159564526,
                -0.04290320105632395,
                -0.007760264891276377,
                -0.0471333833696436,
                0.029594229554104527,
                0.030526931445035624,
                -0.006300312904918397,
                0.014709495739803958,
                -0.03086490352438951,
                0.018789320955956924,
                -0.05000525676759344,
                0.04338625812636672,
                -0.03187919996754783,
                0.0035274666414019,
                -0.03968501543333726,
                -0.04768282333371977,
                0.014520084944543302,
                0.07250798478955166,
                0.04278656886522392,
                -0.0025671280793896835,
                -0.003262498367194616,
                0.003320969156610493,
                -0.02744920702052763,
                0.039806664078940869,
                -0.01554852205686615,
                -0.004327613602377127,
                0.04601670811408334,
                -0.04928450387384578,
                0.042888143165308967,
                -0.02617912205908629,
                0.02408255727456752,
                -0.025821899030926029,
                0.051939542118615098,
                0.028111601259879005,
                -0.044037128254853747,
                -0.014969601913755765,
                0.03335308367912174,
                0.03815349105039543,
                0.05247527285899881,
                -0.037289114518001129,
                0.007196854154395664,
                0.011514647349624824,
                -0.003395360241356372,
                0.023989810935990637,
                -0.024886250150042624,
                -0.04878374456102559,
                -0.038113713563333918,
                -0.0002256677359049555,
                -0.021254335734655979,
                -0.005732947313530532,
                0.04014034824741739,
                0.03607056403227367,
                -0.007976761545954737,
                0.00993701761947987,
                -0.02916994217532416,
                -0.0057611819628820069,
                0.0007645114897145691,
                0.022015917905095995,
                0.03810961741344418,
                -0.03531535745641363,
                0.03576430784684097,
                -0.011264475914262927,
                0.0055826462685704659,
                -0.03290910409108005,
                -0.04925126871737374,
                0.011505495709701778,
                -0.03899285057224439,
                0.023833612320652874,
                0.006518179947818376,
                0.03394641954855647,
                -0.03459839910242316,
                0.033739176833547577,
                0.034177514626385258,
                0.03752649359452589,
                0.0563894820173754,
                0.03754504146691575,
                -0.05653711433813552,
                0.009329557627605685,
                0.0021150064287550347,
                0.027250160674977269,
                -0.03152714037052628,
                -0.017761673559622445,
                0.02607526343692469,
                -0.004703144873401529,
                -0.04422218739158298,
                0.036754637439517779,
                -0.05045068493588944,
                -0.04553792754315808,
                -0.01128314161778438,
                -0.030988386911089306,
                0.034176610682866089,
                -0.03015348289838651,
                0.03351216283899968,
                0.023286172821006726,
                -0.038963687019497029,
                -0.0480256418303621,
                0.03296433195173282,
                -0.035393998228714498,
                0.028293678549170015,
                0.016343536363170657,
                -0.04506060652389962,
                0.011619927839520452,
                0.03220994020408602,
                -0.019753686759712148,
                -0.02966696571098822,
                -0.047569206930186829,
                0.044425542209868298,
                -0.01112503486315368,
                0.005634190220427816,
                -0.011191541611018435,
                -0.012279532102563844,
                0.008508164634641385,
                -0.053271468480773718,
                0.050260522159119479,
                0.03575333270460986,
                -0.005782566458395117,
                0.012894187064221633,
                -0.024589885803050505,
                -0.049369668483940729,
                -0.03435338744080943,
                0.0032409103231381775,
                0.040375731703165818,
                -0.02505447336427922,
                -0.02258222850675838,
                -0.04833174390159091,
                0.04224764294730746,
                0.04118854633508608,
                -0.03631726312286204,
                0.00961219949709172,
                0.0289128451779328,
                0.05018184137238034,
                0.021377062700176909,
                0.03797468891775863,
                0.031650576839583877,
                0.02251335224603826,
                0.0036415751786658524,
                -0.0008066862639274177,
                -0.015428101784421812,
                -0.024403752459672476,
                -0.0509920125226046,
                0.03908852729604646,
                0.0013640113432369676,
                -0.0003400353042050115,
                0.03381625292109227,
                0.02795843986344822,
                -0.03649528266840874,
                -0.028820009389216324,
                0.04154961566337334,
                0.02275884880700062,
                0.010421014362473011,
                -0.02103240792974532,
                0.01011514186682447,
                -0.03326787033860292,
                0.015420445076668869,
                -0.03985861917488559,
                -0.03835775057848371,
                -0.020500700122463586,
                0.007714311869524829,
                -0.024003048397385115,
                -0.03761433926451377,
                -0.03868067848642472,
                0.02068976698496675,
                0.027369624756069703,
                0.023780507984999173,
                -0.004203546906951908,
                0.020084349348532605,
                0.01951737480819505,
                -0.04788701518404558,
                -0.04128595886829095,
                -0.032550561039829197,
                0.04653804551282067,
                -0.03131104130433947,
                -0.051672816924962939,
                -0.04889746276114053,
                -0.019390345948198694,
                -0.052040141419263188,
                -0.003264334059346956,
                -0.02095850094717385,
                -0.011391063736368782,
                0.02422191910378191,
                0.016005275644672514,
                -0.05592928026214935,
                -0.018382557306897846,
                0.033321830421030079,
                -0.0019787826671769047,
                -0.009091739163099975,
                0.00012425591005170975,
                -0.029145979874077089,
                0.02068791948008131,
                0.010874771974966877,
                -0.03098753488738873,
                0.035559923940607907,
                -0.04445266036314909,
                -0.051002825442582038,
                0.03453427550188547,
                -0.05238014109513651,
                0.013768619096928366,
                0.01650135105696905,
                -0.01046443669346209,
                -0.04168679173616224,
                -0.007723639932486731,
                -0.03950131349246277,
                0.010752980118964756,
                -0.0030488165218382236,
                0.01601439554991735,
                -0.05613652992149039,
                -0.0035890092453837775,
                -0.0450815032539057,
                -0.026245298226248636,
                -0.03886075532780156,
                0.010919386592225453,
                -0.05354049117478774,
                -0.03829975825437491,
                -0.007954549903175406,
                -0.0033276422631231289,
                -0.046551343807799776,
                -0.009750400692165257,
                0.06888098551841925,
                -0.034507980798585028,
                -0.05933734987522405,
                -0.02981975040442678,
                0.0010414465602272246,
                -0.059715299229023317,
                0.005834407211520835,
                -0.022077288867564404,
                -0.05569162789957635,
                -0.01789089417273291,
                0.044923794642162308,
                -0.041537452907777949,
                -0.01044901119358618,
                -0.01548322125995841,
                -0.0032080785283815284,
                0.06077828285804924,
                -0.006128028455632263,
                -0.11421704523982072,
                0.018712402406798269,
                -0.03220206123896772,
                0.03335514927400409,
                -0.014404761544741393,
                0.011350337233681224,
                0.04848366384561594,
                -0.018064748237909,
                0.0374641010921251,
                -0.014461110604260294,
                0.03849441005853573,
                -0.06612631172837769,
                -0.03708974061581471,
                -0.0016885760702611557,
                0.009386603700534426,
                0.027371833023991905,
                0.00027790181495227536,
                0.021112027208340109,
                -0.0054975937032363899,
                -0.00690332209997493,
                0.044694952733883828,
                -0.06065757270254431,
                0.03440485674835054,
                -0.02168358762891767,
                -0.007940451772457657,
                0.0024262443927781879,
                0.017515212598225674,
                -0.006971517824125409,
                -0.0915023902599225,
                -0.04513377918940298,
                0.03239047290849173,
                0.04808578921263902,
                -0.04435990848288319,
                0.047695463867211209,
                -0.04432553565832232,
                0.04054060682418076,
                0.028271550406773983,
                0.022738814220600993,
                0.0008859896401577257,
                0.02028262952672532,
                -0.03023566006321277,
                0.028706877038345056,
                0.0022891480980052178,
                0.015671395714037748,
                0.004377537880408951,
                0.015778927882480473,
                -0.022995937167849955,
                0.01994735743318249,
                0.0023211853986193065,
                -0.023861407633892437,
                0.017178356863530657,
                0.0029518931040632089,
                -0.03411090827460965,
                -0.03320803271069342,
                -0.015219660083018908,
                -0.04258353657553933,
                0.035246344602165937,
                -0.042808838865667598,
                -0.027091999832340946,
                0.01717666161231201,
                0.015194191779309335,
                -0.012540540188515406,
                -0.019986283767164414,
                0.025302574009422538,
                0.010725468994459696,
                0.04519101822713796,
                -0.042836455305822997,
                0.0227536962174105,
                -0.018963098490565448,
                -0.006364129153321478,
                0.045523832648695177,
                0.030713066448498685,
                -0.03042142958037159,
                0.01791111572172233,
                -0.02459545457005129,
                -0.040103939370056098,
                -0.015119022519821106,
                0.0438110425452205,
                0.0013763404494381927,
                0.020003419773805304,
                -0.037506214057434598,
                0.038298369998753429,
                -0.05231163198782408,
                0.023115498727785609,
                -0.02523432438114061,
                -0.017044348463650058,
                0.024799710396139535,
                0.010746881165663382,
                0.00795519415442583,
                0.03147459410344474,
                -0.039841999422140079,
                0.017895653913203577,
                -0.01458299428000904,
                0.039348290600195259,
                0.03246910379028385,
                0.007999781984419703,
                0.006718309229600838,
                0.01582194963562002,
                -0.038071059747938517,
                0.0017003638709996708,
                0.011778547472034537,
                0.001462565526654251,
                -0.012324238738086689,
                0.040462548664649048,
                -0.013930999157374422,
                0.03239726057795135,
                -0.01705776099523055,
                -0.008681628224159554,
                -0.04573981706921198,
                -0.03907890775821152,
                0.029274074958084974,
                0.03132798528769945,
                0.003528549768388828,
                0.013457165639831225,
                -0.012142921187427436,
                0.02577543572528608,
                -0.02381671243231217,
                0.008392306917041966,
                0.001736109048997126,
                -0.016130710089761074,
                -0.030646195279635709,
                -0.005127567987055889,
                -0.045375439339847809,
                0.005301767875844102,
                -0.013589402376406948,
                -0.045630807773804318,
                -0.0036040962669308519,
                -0.03262815238399463,
                0.028933019365457805,
                0.021230225837336679,
                0.010183967625039252,
                0.018104700899730064,
                0.027078929578913056,
                0.034393439379112798,
                0.03497100367563873,
                -0.01365043341452302,
                0.002996740008836718,
                -0.06092009253184124,
                -0.015181948784309127,
                -0.007885547649183053,
                -0.04569226099601283,
                -0.023067512346201935,
                0.013107641184668538,
                -0.012500228270900579,
                0.03940974719216069,
                -0.034877790022628,
                -0.04254980314820194,
                0.015831748704777956,
                -0.007117804960796564,
                -0.06071079944662608,
                -0.025678770779351574,
                -0.04897630984091296,
                -0.041884848146110969,
                0.02934286524217446,
                -0.017332963408384393,
                -0.03283740701582128,
                -0.00491187982652663,
                0.02586412477039755,
                0.004372902891495932,
                -0.036736181379070049,
                -0.01641806397699957,
                0.041597890041481618,
                0.0030498629301880279,
                -0.026235618230345045,
                0.0022775921622275234,
                -0.03693551357658321,
                -0.043873580738740949,
                0.011889935766503525,
                0.005509743499579842,
                0.03673644432389174,
                -0.02291400360071599,
                -0.03446713874964615,
                -0.04539044746335964,
                -0.048253438616206307,
                -0.03307878964889294,
                0.03791198601481763,
                0.029559942551762244,
                0.015111549116272957,
                0.008862019130052046,
                -0.037053995125787549,
                -0.04532917365916452,
                0.013780884336687739,
                0.030121778749724608,
                0.06460911734690052,
                -0.010215581485093644,
                -0.00037161834396090966,
                0.008322443349438729,
                0.0511043173351473,
                -0.02893928881757136,
                0.026552863858602988,
                -0.02230585761196827,
                0.012653964454254249,
                0.011072612795624208,
                -0.030184106349325967,
                0.05424711660118418,
                -0.0405392543351007,
                0.028371444991498634,
                -0.03975175025074275,
                0.04647354790232104,
                0.04745391209571778,
                -0.13115062824231719,
                0.007498525450233023,
                -0.053323509094480147,
                0.006924479473550109,
                0.029552266154369318,
                -0.04688767076941894,
                0.04479957792728065,
                0.04303169255191651,
                -0.004018968826897179,
                -0.018981963202914274,
                -0.028651304495161929,
                0.013843603710807395,
                -0.07476837749957112,
                -0.023196298141905739,
                -0.03519779265585577,
                0.013867420643448685,
                -0.045250147207605447,
                0.01697154437253487,
                0.027755603464323484,
                -0.04818736033251334,
                0.004583383017804871,
                -0.040554405583139999,
                -0.03893464130517855,
                0.043280233141066968,
                0.0335273759296316,
                -0.0038366408025773829,
                0.008394880938101151,
                0.03196507866060691,
                -0.0728618169536476,
                -0.03397455394393936,
                -0.0350929176945839,
                0.005802270504282774,
                0.031907342609046328,
                0.039247892813551048,
                -0.04642487252143827,
                0.008824031770390297,
                0.01596352060477134,
                -0.012763602790010202,
                -0.04971616677804659,
                -0.007491953449461159,
                0.019878947258072808,
                0.009263770703111699,
                -0.021372521406175118,
                -0.0407801198237257,
                -0.013717288247044957,
                -0.03861838883092239,
                0.002076812033727896,
                -0.028220679462329556,
                -0.03132264072531342,
                -0.02060015882088366,
                0.04025166172936501,
                -0.04614353440587849,
                -0.008372495983924006,
                0.013309643035377832,
                -0.03356381539835444,
                0.017332640627295668,
                -0.010494203580513279,
                -0.040959307645165889,
                0.004605358171623421,
                -0.033956904518803347,
                -0.017522075231193227,
                -0.05221649989307296,
                0.028317074464817125,
                -0.024488446740726728,
                -0.03680981430780534,
                0.024859430691325295,
                0.036629242025099009,
                -0.0364145003885512,
                -0.038564796796779429,
                -0.011106863503667195,
                0.03889957276415482,
                0.023333005942035014,
                0.0045391792451390969,
                -0.021075913062994526,
                -0.016548399495761935,
                0.040590820622035398,
                0.02118393112526844,
                0.035421396500052108,
                -0.007436414775119619,
                0.01643903535401689,
                0.032569775375949339,
                -0.019545761107055066,
                0.018830927972035274,
                0.02724518634003395,
                -0.032636676828188587,
                -0.03917103505885971,
                -0.04578260932557015,
                -0.04459672156248758,
                0.02345693385561452,
                -0.028777502247661035,
                -0.02833068200911342,
                0.0053474119288757699,
                0.018157191228647817,
                0.03758272690219707,
                -0.05619988605701983,
                0.0015179166429396877,
                0.030853674223491634,
                -0.048326346727032249,
                0.04264661995903347,
                0.006156305013194914,
                -0.023213741702639024,
                -0.013739246226749751,
                -0.03973316868895622,
                0.019894002384227256,
                -0.012596201599306405,
                -0.03756536388860296,
                -0.0014453078868012005,
                -0.04870532828666264,
                -0.022331466121934739,
                -0.03852395505959165,
                -0.05172460056315409,
                -0.008961684730557706,
                0.010044580508573147,
                0.04600709607016974,
                -0.025020644799862443,
                -0.05244881275914553,
                -0.03192182179107065,
                0.05301338829376228,
                -0.045212516588407736,
                -0.04176330461236836,
                0.017264995171994366,
                0.028670031434407659,
                -0.016003939425853109,
                0.03986291297768527,
                -0.040977983701315247,
                -0.028601779129463157,
                -0.04657920274570157,
                0.008525085735151655,
                -0.015215476011534144,
                0.030691397327778228,
                -0.03798879811904105,
                0.0197991093756034,
                0.04078801833022239,
                0.022306822750366528,
                -0.024842987921027877,
                -0.014915796422822146,
                -0.030700031631443068,
                -0.0628832420101676,
                -0.01533371283754297,
                -0.04914958227161904,
                0.016829072701586464,
                -0.04873931476076521,
                0.03177059275719154,
                0.005670979063677991,
                -0.03630480759975734,
                0.014411863424517993,
                0.03603438239953596,
                0.016711425918622338,
                0.010213287807875607,
                0.03315878440654351,
                -0.021299602493358887,
                0.029316426442275339,
                0.03500711099798282,
                0.033257984439949799,
                0.03830167023423686,
                -0.004731725269686765,
                0.04342554988403097,
                -0.036134475221927069,
                0.004494891468203892,
                -0.04699433301788412,
                -0.04840989858380801,
                0.02101435938920452,
                0.00730032313110685,
                -0.01158171627956224,
                -0.053317348525416818,
                -0.023548735063184287,
                -0.0006684320733983963,
                0.037676100938507147,
                0.005270711340019199,
                0.02498798736446951,
                0.030211311289855139,
                -0.0297279157072444,
                0.008272808816650615,
                -0.047407236079888958,
                -0.019532831421649453,
                0.006303774461152889,
                -0.05565259803527278,
                0.02721454468909278,
                0.015197961495103815,
                -0.012612852680444032,
                -0.01207003257718821,
                -0.024737372731496195,
                -0.05545795100228619,
                0.021084724959902977,
                -0.00139852829614322,
                -0.01940019395339585,
                0.035196413621637157,
                -0.043000690217146909,
                -0.028663424316787327,
                0.03518319479921978,
                0.010867215470681294,
                -0.05592199473312757,
                0.00012678997822560022,
                -0.026456295598046184,
                0.048494001372368786,
                0.05560173507951563,
                -0.0062808822268964549,
                -0.03914246089323729,
                0.033289028755185277,
                0.059603206973022789,
                -0.13115244677952679,
