{
    "layers": [
        {
            "weights": [
                0.02480057083341866,
                -0.015647130052329235,
                0.011543050894942512,
                -0.0016257818885283217,
                -0.005123130413212416,
                -0.047988889016729218,
                -0.029229443408773815,
                0.010620024700573093,
                -0.03798231317671261,
                -0.043248207376316568,
                -0.018111117098139497,
                -0.015119530295030182,
                -0.02778168765711183,
                -0.05029030690582907,
                -0.03387025291978534,
                -0.0058759965765451068,
                -0.017578530798885093,
                0.043631444702309059,
                0.003476230415769199,
                0.0016033105924297474,
                0.02760171969827759,
                -0.04622702419437034,
                -0.0018777996147053603,
                0.01591615882035713,
                -0.036634122868729478,
                -0.01095606292225984,
                0.023445333335936643,
                -0.006580865984913371,
                -0.018692267790717949,
                0.022179146023869207,
                -0.04211086125693902,
                0.004575738473477127,
                0.019442526800788275,
                0.04244961243819129,
                0.01246081801364112,
                -0.040803930271826587,
                0.030681774758426818,
                0.026987712426858609,
                -0.015154425227757469,
                -0.0152545370596142,
                0.03365423814689705,
                0.04069707658492593,
                -0.021022584266126553,
                -0.035956089669351817,
                -0.03003692915994355,
                0.023771025244238333,
                -0.027797387135353299,
                0.026637780307506313,
                0.04374887296731594,
                -0.009793278158059433,
                0.0059604860153063669,
                -0.0014541617874787433,
                0.021311543554735029,
                -0.0006763465603466651,
                -0.04275132616710301,
                0.0170421427504051,
                0.0331833438734709,
                -0.04479643891551095,
                -0.018515900945098908,
                -0.04921131956402121,
                -0.02479553177685024,
                0.025353467807495104,
                -0.02383244225995751,
                -0.002392270207481254,
                0.04373110986229381,
                0.03223012448084393,
                0.0058872994840878998,
                -0.01875941023054306,
                -0.020338658473281938,
                -0.0457962686751946,
                0.009429760389674747,
                0.011333854708199185,
                0.009473789036578917,
                -0.04132475759802336,
                0.019564100500317397,
                0.03623125758365608,
                0.02367862990161752,
                -0.010664673295865636,
                -0.011501155185176946,
                -0.013507825185273597,
                -0.02965092394295509,
                0.05304458846164898,
                0.011283381055264067,
                0.03920923217663661,
                -0.03887130811045998,
                0.006231603791046835,
                0.03528469475185186,
                -0.03208133956612948,
                0.03447620839108827,
                0.04009482318585155,
                -0.021734536376838248,
                0.028203887802326086,
                0.0008257001908867096,
                -0.02698504108221986,
                -0.030039681027360308,
                -0.04743044532774981,
                0.012418892406015124,
                0.037209149022062789,
                -0.03870246107987334,
                -0.014808680467954895,
                -0.038779665404717608,
                0.043868980279904917,
                -0.0046667662028921819,
                0.03362061201144136,
                0.025138679317056508,
                -0.046481692878123388,
                0.04034843873864848,
                0.011614406059882227,
                0.03058773426479154,
                -0.02766533421695489,
                0.03732947076556434,
                -0.011294600979529422,
                0.004966107784113582,
                0.04355820173966011,
                0.030477409887787595,
                -0.027094707818388885,
                -0.026992441759122616,
                -0.007390848015295231,
                -0.020716685242911704,
                -0.0039482792338167318,
                0.04655904710953611,
                -0.008601831677746646,
                -0.0037541319515003209,
                -0.007673425891169456,
                0.036233271011851298,
                0.031500639185552996,
                -0.05148754046194798,
                -0.019552518725768583,
                0.043216300639927058,
                0.020279535865060439,
                -0.027748321413381739,
                0.03918058445431295,
                -0.016441147308173744,
                -0.04158882485650535,
                -0.024626487376355097,
                -0.014439104612703053,
                0.010951268679135408,
                0.022552466324946835,
                -0.03697828809501803,
                -0.03752031399956129,
                0.011880978073276877,
                -0.023430090354692715,
                -0.004164079421824726,
                0.012136122758824851,
                -0.05245088960140981,
                0.02859070496619724,
                -0.020873194383549726,
                0.003852377159787181,
                -0.0015082015549951834,
                0.04107575632891268,
                0.03509610094847142,
                -0.03692643939533844,
                0.013370759702055792,
                0.02254159698360497,
                -0.014523622217026467,
                0.021409577396212924,
                -0.014945789613569957,
                -0.04955608901178793,
                0.04962527865295903,
                0.04189866531999369,
                -0.051503710680592267,
                0.006784914613630193,
                0.020035537312901538,
                -0.04179548576196559,
                0.044762270288929466,
                -0.05086210048174388,
                -0.036049515605251877,
                -0.0065620976718934009,
                0.016184511656110069,
                0.0007726461104194192,
                0.014475109099534355,
                -0.00942482696288753,
                -0.012948425027978383,
                -0.03530541593016712,
                0.029736793974902567,
                0.012978174510994001,
                0.044705807876538477,
                0.0411826392664447,
                -0.018616194623057394,
                -0.04953010910318148,
                0.0012132750217531072,
                -0.003437978981924693,
                0.027237455152123798,
                -0.049273248216027378,
                0.030481817275675398,
                -0.0378157288427992,
                -0.015678697371484579,
                0.00939648587187609,
                0.021912361801146517,
                0.0036497188994035029,
                0.04896780421554403,
                0.004172324968526706,
                0.03186170526867888,
                -0.027502361485049005,
                -0.04342800112325029,
                -0.04517819493816222,
                0.010619426200729957,
                -0.012819841016166232,
                0.01784184437125176,
                -0.054701070327390018,
                0.01641235695497622,
                0.027985878742099895,
                0.03456377896149364,
                -0.0506103218744047,
                -0.030203657697784514,
                -0.006555986624278757,
                0.03274227378729331,
                -0.012684161665172707,
                0.036732014180728567,
                0.027855232409357289,
                0.020023206364180855,
                -0.00369606606830917,
                0.012186311238091887,
                0.040877590176321938,
                -0.011390261134006586,
                0.0003988946981902837,
                0.02306035736575586,
                0.011662690855257513,
                -0.02084462708058143,
                0.02976297597280411,
                0.011859039174419739,
                -0.003391203329566907,
                0.01831104693804713,
                -0.040020930143819907,
                0.008910835657151466,
                -0.039813725167276787,
                0.01587415192094479,
                -0.04507324807864793,
                -0.041656131589321677,
                0.013652971029646622,
                -0.042269016296173949,
                0.0019516969263387316,
                -0.029375932318400634,
                -0.01971381542209631,
                -0.021113265228144826,
                0.02984196108595887,
                0.0013559397052540744,
                0.02354128448027851,
                0.030951831644264944,
                -0.02169942577037148,
                -0.014574117503556328,
                0.04132398585444526,
                0.014628187455775653,
                0.04624244575359612,
                0.03029960836025044,
                -0.009871230626651099,
                0.040753336465654658,
                0.03315193049580052,
                0.03820475430459121,
                0.006886306445206601,
                -0.0158767354055421,
                0.04774596789254999,
                -0.040863677160631908,
                0.03376692350495416,
                -0.02460367855016083,
                -0.03347527528290041,
                -0.04287224895269309,
                0.028481540791327175,
                -0.012421559648650365,
                -0.04438972926879216,
                0.02810997804494273,
                0.023676439611110806,
                -0.023233892067211348,
                -0.021573181061626688,
                0.015423037403375638,
                -0.026520648757720364,
                -0.03336763133657653,
                -0.020829275764654235,
                0.009748355023629824,
                0.005491312216506521,
                0.042626874488576837,
                0.0534632232516164,
                0.02738937957868845,
                0.039650757186368779,
                -0.0010718747213132375,
                0.024358391865903919,
                0.03057944856475729,
                0.02615057079049593,
                -0.024247785712269544,
                -0.03723011990679205,
                -0.0267945393789683,
                0.038087996180791259,
                -0.020269665770398797,
                -0.001218078447923399,
                -0.0256239106138324,
                -0.04274770794557332,
                -0.0025717746666093666,
                -0.012950963762099968,
                -0.044633220161756779,
                -0.04577566304418377,
                0.02113614386459422,
                0.02567923465557974,
                -0.012216975298862383,
                0.01726995675792094,
                0.009944275170452268,
                0.0006344902488889788,
                0.00897760249899509,
                -0.007769441993143476,
                -0.02746999920350929,
                0.0054904164063404778,
                -0.030863258240605427,
                0.01410620142294867,
                -0.02279581202388719,
                -0.0236417266323322,
                0.006999432294190579,
                -0.014230022547010909,
                -0.03162091994607143,
                -0.034702309273105868,
                -0.015658231538683229,
                0.010491678019018314,
                -0.017603659333616647,
                -0.021330172901678665,
                -0.010046888907818377,
                -0.025271240958991606,
                0.03175093836908617,
                0.039569608307708097,
                -0.0008198457352089023,
                0.03319958678486544,
                0.04281851674274647,
                0.022787747119508506,
                0.025790067461848404,
                0.03068364323802693,
                -0.027951978667044128,
                0.006076904928283157,
                0.039564689281016519,
                -0.030436182905271403,
                0.0013719089628505572,
                -0.04622561218780703,
                -0.015866858799011425,
                0.04652505973152886,
                -0.04289901729446933,
                -0.010630971801785612,
                0.009983121075998988,
                0.02993956394685507,
                0.04288904871313728,
                0.01679762205916787,
                0.01566044546705982,
                -0.0517007418312555,
                0.043455110556718867,
                0.048119546537848837,
                0.03173918924754069,
                -0.01729062564631557,
                -0.035476070529516349,
                -0.0037196042324767269,
                0.02035822191893309,
                -0.013038606521622847,
                -0.006309757648341058,
                -0.038798748948153268,
                0.04405319630364076,
                0.01085277775776057,
                -0.041925457749845237,
                0.023761395962987314,
                -0.0020911548831314726,
                0.010413110617534199,
                0.023263622337339114,
                -0.00688601807425086,
                -0.01912283995875397,
                0.012286026803853828,
                -0.010669823434169428,
                -0.01424346621887542,
                0.029306711893025217,
                -0.03582806772918368,
                0.030562963474225124,
                -0.013022375096949436,
                -0.011233003960681613,
                0.04479056100436527,
                0.02468502915922465,
                0.009857507212883844,
                -0.015158330585200384,
                -0.03316481411716167,
                -0.020637037692738913,
                -0.008094999335310521,
                0.04529062072233309,
                -0.05054769449347918,
                0.03855277812322855,
                -0.019149642864880149,
                0.01986891303751516,
                0.02800145138344318,
                0.026883475722139863,
                -0.008401274066365344,
                0.026551347915031319,
                -0.012079437314749356,
                -0.04122895405663842,
                0.020672476554647307,
                0.03749191827070218,
                -0.010722951182748797,
                0.05000112460635145,
                0.04545838410688314,
                -0.04819888200957521,
                0.0038633142957807608,
                -0.01794862485784104,
                0.04241397834860209,
                0.014509560963043157,
                0.011836722582693927,
                -0.03793895913610739,
                0.021004416217347528,
                0.005482227387241174,
                0.021701375336001827,
                -0.04239435764151745,
                0.02508583145748676,
                0.014724466049391557,
                0.024048036235646405,
                0.028193754919724573,
                0.023271908316590218,
                -0.02432705475114757,
                0.013402519637309816,
                0.03343129174091907,
                -0.010353392819746377,
                0.01944893685414104,
                -0.0100057072165957,
                0.011195123474760092,
                0.005244898190396725,
                0.029786995780245089,
                0.03923082380014229,
                0.010479338979181009,
                -0.018512690984203697,
                -0.05101151145248128,
                -0.045569761937638546,
                -0.0005578374875297685,
                -0.04815197971263931,
                0.039467947901161818,
                0.01925693457267403,
                -0.0011789156951223276,
                0.024904433692204725,
                0.04057031967592827,
                -0.01725182097172719,
                0.030767828173732076,
                -0.018905764157117263,
                0.04112520335418999,
                -0.04302693626699396,
                0.03525718737690332,
                -0.05384443436133732,
                0.021222491068737846,
                -0.04623560173645324,
                0.02459397438312792,
                -0.046208304795746907,
                0.006007778502547771,
                -0.019506500424688337,
                -0.003977286115328484,
                -0.037646650779899978,
                0.003408327560501192,
                0.0037537378363960806,
                -0.028608231493572675,
                0.016890041188339496,
                0.03686489911563033,
                0.01921848302877582,
                -0.03590228129593388,
                0.025179597968555669,
                0.051809916155532678,
                0.022602993930125476,
                0.019599746955155919,
                -0.000950320518525154,
                -0.028881911018548115,
                0.04589981911791865,
                0.026073949020239154,
                0.04254513989648891,
                -0.02389285236488705,
                -0.041026033229476507,
                0.029978462382351639,
                0.03947703671462843,
                0.03314896528854466,
                0.00022273667423719216,
                -0.0017338564652629068,
                0.016474340260544144,
                0.0016990902403579262,
                0.019212927125218248,
                0.02637195572116111,
                0.027270827932519199,
                -0.040555272566138899,
                0.0006617668531011627,
                0.02396927366944576,
                0.021724800351617898,
                0.006668587245002288,
                -0.021360385026722607,
                0.0011298054605108884,
                -0.013110761313189104,
                -0.0042437287243291209,
                0.03804392385616281,
                0.03352179484336569,
                -0.03355803684203768,
                -0.029843596458402456,
                -0.038801465575678126,
                -0.008934384531478759,
                -0.03444075888101718,
                -0.015918369231022076,
                -0.015350499940492363,
                0.028651680283544147,
                0.02492673491017346,
                -0.02364468565977017,
                0.027102673681251009,
                0.025736903842789827,
                -0.0016158730660909939,
                0.0059512381305123159,
                -0.003550192841333717,
                -0.010417948821566586,
                -0.051033006105216018,
                -0.04622710728515011,
                0.008747998096259837,
                -0.043664318090148018,
                -0.03200774660663567,
                0.04032733836506426,
                -0.009581417206413994,
                0.015176632500316704,
                -0.006924651731966098,
                0.04323941904718649,
                -0.043927219535549868,
                0.041281391201168648,
                0.04255552227692756,
                -0.0015436315731254523,
                -0.00615308954821192,
                -0.008946844048227154,
                -0.012334781893375856,
                -0.03623156749603529,
                0.010178164493841626,
                0.016439749321969303,
                0.02255831393971222,
                -0.034209126039050189,
                -0.01575702370048135,
                -0.022310961514636589,
                -0.019435035510672668,
                0.04214855673455775,
                -0.04538792080193368,
                0.0020732783087551414,
                -0.013706179251265116,
                0.03196642878277699,
                -0.023939113299364633,
                -0.04824874470808465,
                -0.04524072247605842,
                0.04189094590378571,
                0.0038767302887958746,
                -0.021166239980562618,
                0.037118942843500746,
                0.034885590950929707,
                0.023802627590967509,
                -0.023844259802199415,
                0.038032864149357029,
                0.0015746701249235759,
                0.04215196489171446,
                -0.027507103286346474,
                -0.01630984249342359,
                -0.013377651297120673,
                0.03764245195912912,
                -0.01273026717911068,
                0.03255315287032084,
                -0.016949551067818256,
                -0.018995796411821875,
                -0.0072583736902197379,
                0.044728015804013757,
                0.038987260065580477,
                0.011058044020080335,
                0.03369887192773707,
                0.015140542809620768,
                -0.016484926760928818,
                0.035260294510019978,
                -0.030235243875530245,
                0.03788320820247007,
                0.027452167824176936,
                -0.025283410417796284,
                0.014329214378702524,
                0.015968303847310167,
                0.046944152485946879,
                0.034454371967093267,
                0.05066920350889611,
                0.041794163946137819,
                -0.044072219318330298,
                0.0038920666311475316,
                0.008608888486690617,
                -0.009434684440365512,
                -0.017432312043371265,
                0.03218561437225843,
                -0.02531727070073943,
                -0.03382731893702087,
                -0.03429973468116317,
                0.0431851767790509,
                0.039998798841831408,
                0.0419836050158748,
                0.01766223029984781,
                0.022675488268908918,
                0.04294504616231054,
                -0.00825761635789575,
                0.033502431339844759,
                -0.04162644370685307,
                -0.0363197036694291,
                -0.021309762028433815,
                0.01719118986091564,
                0.01811720665824431,
                0.011764041566875895,
                0.0462376162555875,
                -0.00045123406960730967,
                -0.014366501129292157,
                -0.03943064957461726,
                -0.031445934726995219,
                -0.015737409746231388,
                0.009511553382870157,
                -0.019206272143660748,
                0.0029659086738507559,
                0.04119749115511153,
                -0.0069026163475508759,
                0.02502451151239318,
                0.02587405445023366,
                0.0238961615475541,
                0.04022385112914962,
                0.008370972914193939,
                -0.04419532355133647,
                -0.02001484977744051,
                0.01723466241413114,
                0.0008982588633667585,
                -0.019406407838314517,
                -0.05599920408985456,
                -0.023555912372064344,
                -0.035001378977954838,
                -0.042194844621555278,
                -0.025309809119101326,
                -0.03435736763445866,
                0.029596713135595744,
                0.030940355525694384,
                0.013763380085829187,
                0.01671529695154853,
                -0.02468435615752605,
                -0.014503720273058825,
                0.03822906497937649,
                0.005109120292124998,
                0.0359304684976311,
                0.04271109809959477,
                0.028269077041153898,
                -0.04559863468726637,
                0.03438607209495418,
                0.006835910255586806,
                0.01434903081539062,
                -0.024642550642680919,
                -0.03900995178289069,
                -0.030650153350081947,
                -0.05325059278657391,
                -0.03156638657370293,
                0.011062802192860494,
                0.04882319141672547,
                -0.004164698578367148,
                -0.04600035795785921,
                0.05108702434458025,
                0.03646990841604957,
                -0.03181692796947952,
                -0.025251903506705855,
                0.04522484570917308,
                -0.022562821155779429,
                -0.030259764001529338,
                0.04230933159436603,
                0.04319550264578436,
                -0.03346608786118485,
                0.029768646436719949,
                -0.00352172593210518,
                0.0378534375005592,
                -0.02750265005846835,
                -0.034058840931626369,
                -0.017722406223117758,
                0.03166054017137307,
                -0.03470888841540027,
                -0.04478992496812741,
                0.02263107680474371,
                -0.02727988329286625,
                -0.028449914765034107,
                0.030600997373104158,
                0.04301288624548479,
                0.016007078928371406,
                0.026056744291118387,
                -0.037397637654386427,
                0.05043297799605677,
                -0.0477373750096188,
                -0.04098610920249671,
                -0.004498864564819834,
                0.02695737929345699,
                -0.016968123197915569,
                0.013018984164991169,
                0.015115517163318019,
                -0.0196157850085318,
                -0.028837485879553056,
                0.012063271703050698,
                0.008167345636942766,
                0.01387227581166518,
                0.018603630241866215,
                0.03246652239814349,
                -0.03621460554982727,
                0.02340265151408164,
                0.03783505543455489,
                -0.034080602025738159,
                -0.0176545080031461,
                0.036041826384187247,
                -0.044851925084287039,
                0.011187614652278664,
                -0.014552659544212647,
                -0.008614261198709223,
                0.044285369440339079,
                0.023812077052555129,
                0.037296049586273218,
                0.017218062433273886,
                -0.03322976382496896,
                -0.028841139203573196,
                0.009521796961985135,
                -0.025240292514292087,
                -0.044008983676766418,
                -0.03122754203294452,
                0.03430673512031897,
                0.03996981643094725,
                0.020824152873599488,
                0.04611383978582102,
                -0.04268336634058541,
                -0.01511732848171305,
                0.007793635613828816,
                0.03684596633533534,
                -0.03646071583613047,
                -0.02820532423716048,
                0.001976349446073436,
                -0.010870583166410427,
                0.04287808907253859,
                -0.010783029583254986,
                -0.04188623710907031,
                -0.04194713601569012,
                -0.03939421544766337,
                0.002876555142473761,
                -0.014054510129285143,
                -0.012067462479532519,
                0.04339585206683212,
                -0.005581260637559628,
                0.0223355639679241,
                -0.042536028760795218,
                0.042680496881012278,
                0.009692312405668376,
                0.013653099318726998,
                0.04138190781907305,
                -0.0340678962252819,
                -0.04593073119270548,
                -0.04858805713483774,
                -0.01474070649653908,
                0.011789088165374926,
                0.005048226223301059,
                -0.05231576048826341,
                -0.017509665479150554,
                -0.0419725516795995,
                0.037348812707814618,
                -0.04160665103388682,
                -0.045642533988909068,
                -0.026825662950886808,
                -0.02809009032109984,
                0.006634781987818875,
                -0.03516152012437423,
                0.03753908457780862,
                -0.005940143128605449,
                0.03692195937264678,
                -0.003337747577800055,
                0.016574132108539607,
                -0.046690478006403888,
                -0.03829825365356139,
                -0.0506965603977378,
                0.042857430531441299,
                0.0258229691569007,
                -0.029115083830029237,
                -0.0066239244991794219,
                -0.04612366308096681,
                0.010312242416455686,
                -0.043276556517726157,
                -0.0042786639029379629,
                0.01378987525537515,
                0.014060985742450985,
                0.021017690259333655,
                -0.04116529928010826,
                -0.03732476683610892,
                -0.03290034416218403,
                0.035587412562193877,
                -0.012136717375323873,
                -0.010227642496786139,
                0.028705186303809289,
                -0.04738971010847419,
                -0.034924280309416768,
                -0.0006342883939533737,
                -0.019758185436083893,
                -0.0386765431383645,
                0.011836482288138687,
                0.03602189369580309,
                0.013447214493532279,
                -0.042153631771475869,
                -0.00982992405690421,
                0.023145595196876216,
                -0.02995519597140402,
                -0.029123643695156129,
                -0.038190665815926397,
                0.037405142486557119,
                -0.04347680657327572,
                0.0011535898130172775,
                0.03275734642623627,
                -0.017957013395540026,
                0.0038671526387469804,
                -0.021659151936884916,
                -0.009740993875463107,
                0.0391599684473105,
                0.013013704336634968,
                -0.015134456236264305,
                0.009178842665874069,
                0.004578112903027482,
                -0.002190161055753483,
                0.05135041632982212,
                0.018128984566466216,
                0.010324236942469829,
                -0.010954762065022514,
                -0.04810295319202466,
                0.040567201629866458,
                0.043383694863015079,
                0.045971493163201138,
                0.0038022498493067876,
                0.0011097852738437098,
                0.013149253120795046,
                0.01148937713710909,
                -0.000606338574484034,
                -0.006351695202307144,
                -0.004985502945234192,
                0.0093085442307548,
                0.021795486111184784,
                -0.011639087640895848,
                -0.013859366667479056,
                0.00269580741751546,
                -0.02946728962304755,
                -0.046534391001211417,
                0.013541315235368045,
                0.04527524478085748,
                -0.04801028646865458,
                0.03362403636887961,
                0.0055529797935711358,
                0.011640119003598187,
                -0.02091015563968616,
                0.03225871265067497,
                0.04643794778971243,
                -0.009873380254624264,
                -0.03489751131360669,
                -0.017397733950967659,
                0.010670125015297752,
                -0.008842799935586466,
                0.022071330763255935,
                -0.009929983679283706,
                -0.04009890387499801,
                -0.023257710944716769,
                -0.031116876029666467,
                0.030553617114166048,
                0.0055762040510819,
                0.04317911387402076,
                -0.03855236382424958,
                0.02522725712853305,
                0.05113066261247065,
                0.025758338437679896,
                0.04410418356821002,
                -0.025314329052414567,
                0.04529843093544367,
                0.045335664235717738,
                -0.02697339895599464,
                -0.05102392643340569,
                -0.02407413755134948,
                0.04161679792343632,
                -0.05161709769751085,
                0.011868571270959194,
                -0.014484682225586935,
                -0.02471675926670768,
                -0.020387140927329223,
                -0.021895212021418699,
                0.010655068559727784,
                0.019797830900146693,
                0.0029685153025443189,
                -0.01851666550661163,
                -0.009260589258810473,
                -0.02756439970999185,
                0.02219742638518534,
                -0.04412197012457356,
                0.028087676812979205,
                -0.020611029888640009,
                -0.024847282741137509,
                -0.03571824337360824,
                -0.01739303939246149,
                -0.01913766411478976,
                0.0019349322465505893,
                0.020051909658309606,
                0.03226583361300314,
                -0.01880524629951602,
                0.027841239243439308,
                0.028385479366016234,
                0.023444674089217959,
                -0.03776374489733996,
                0.047364746413201697,
                -0.050724811032314517,
                -0.03869708764503091,
                -0.03734251676923216,
                -0.041689237065783809,
                0.01854965492083708,
                -0.007474655483023556,
                -0.04469699717308201,
                -0.04461096373767028,
                0.0364259732731175,
                -0.047573192383123987,
                0.03161097517239104,
                -0.022467563286242957,
                0.029269922868155969,
                -0.012621612270697617,
                0.03806439204961733,
                -0.026252305192516417,
                0.027091771533013687,
                0.04548783303163421,
                0.04192076080306307,
                -0.0019716811148891976,
                0.010764896223917615,
                0.013447642202377994,
                -0.03196182428370222,
                0.01576548104450959,
                0.043343094176867307,
                -0.011854203124038687,
                -0.020241354786344074,
                0.02559165846863233,
                -0.050621931709704009,
                -0.013196930239676839,
                0.0019206705442135052,
                0.005935494804317387,
                0.0027861154698716305,
                0.028955831013128459,
                0.007955959316692657,
                -0.041929272866543378,
                -0.010286034043754774,
                -0.03831348215046336,
                -0.0429718695180633,
                0.013109280175516372,
                0.024451384279268973,
                -0.018164428525760599,
                -0.009955757204629332,
                -0.04893380712593689,
                -0.007055848399688532,
                -0.04226544724879501,
                0.02498827496155741,
                -0.019110870571389526,
                0.04578246150719148,
                -0.03581724308205968,
                -0.04451918041052811,
                0.030854929645813907,
                0.0393282132322257,
                0.01770634231489403,
                -0.017371983302611726,
                -0.014487287321002993,
                0.0505483075154969,
                -0.007878759595054646,
                -0.03180378734144279,
                -0.012086970053196566,
                -0.03728097010577005,
                -0.022221539429061217,
                0.045123574145025439,
                0.005138130533491575,
                -0.0041028428162715479,
                -0.0184638359454856,
                0.01734402082510296,
                -0.04278338994093673,
                0.02260347597163951,
                0.031538340302986907,
                0.04385768799337506,
                0.011115101420430277,
                0.0425242095160163,
                -0.03326395511298685,
                0.016773121006864963,
                -0.018880105331600395,
                -0.027516988517791734,
                -0.03812968055720834,
                -0.028516640507611717,
                0.0387467380076933,
                0.012756082658523155,
                0.041122189969517389,
                0.03123164988128085,
                0.04462519308530535,
                -0.020078805729554035,
                0.02309587303734259,
                0.02130161526252416,
                0.038857271312867518,
                -0.014039951708750659,
                -0.020623022602691417,
                -0.040712726586087658,
                0.04472748080754816,
                0.03394918945853497,
                0.018149982667369298,
                0.006237512479309901,
                -0.014446254699119489,
                -0.02084518351788167,
                0.03389787865214286,
                0.005031865487123647,
                -0.040805507873913588,
                -0.011431424674005837,
                0.015360000397401512,
                0.01232811336281314,
                -0.026885150145912259,
                -0.032846039281906169,
                -0.007617821146286894,
                0.04121558323759673,
                0.01969149303504784,
                0.04051386174082287,
                -0.0406376690375747,
                -0.03464781612613352,
                0.03221333157819035,
                -0.026996661838991456,
                -0.016467931267315319,
                0.024062478772811297,
                -0.027046614916749216,
                -0.003651660301103847,
                -0.04906306777738552,
                -0.036240807920748758,
                0.020908812679706649,
                0.012755152804347928,
                0.02213761498970598,
                0.018368110657706463,
                -0.0005718686112261958,
                0.011689192850425065,
                0.044271533127544098,
                0.028641337003767064,
                -0.0401808119463824,
                0.013627940227484393,
                -0.02356349704655106,
                0.044734183263605727,
                -0.01164496324780252,
                0.00008562584236314818,
                -0.04356984987916565,
                -0.007619921055695634,
                0.04593408449679619,
                -0.023440110499837777,
                0.005931472415349862,
                0.01780704785241721,
                0.029363548275885815,
                0.029247399272040465,
                -0.04228264248833338,
                0.04431432502957538,
                -0.01846957517544183,
                -0.0434797553183483,
                -0.020993524544578265,
                0.013340030830971793,
                0.010398429358777368,
                0.04063959886852696,
                -0.015946770713875275,
                0.03640503890961876,
                -0.030418130778122007,
                0.01982462707909262,
                0.02384485828277363,
                -0.011871075469276059,
                0.01560391669976576,
                0.03450320711892142,
                -0.03384958383624228,
                0.0058474133793349849,
                -0.03150138039021553,
                0.02050748346511315,
                0.023561775923802966,
                0.048388473544010799,
                0.015067609951532826,
                -0.03911681822171246,
                0.034013459138962139,
                -0.019657843400596905,
                -0.03501519522821758,
                0.038424921713493449,
                0.02659364285952448,
                0.036447677894809359,
                0.03273667931488702,
                -0.018064113748042396,
                -0.014119045443904579,
                0.05041589680729087,
                0.0010785757453623535,
                0.023772135076374325,
                -0.016236254461855963,
                -0.010495723326127112,
                -0.02139477801513966,
                -0.014285434428828048,
                -0.034185171319705918,
                -0.022679355929713736,
                -0.03363106013278186,
                -0.0139763005397496,
                0.014943261943539241,
                0.01337265281015244,
                0.022286216508574185,
                0.022076504882683574,
                0.02341625200132876,
                -0.04851784463887405,
                -0.03350874278628148,
                -0.047538769813876068,
                -0.002196410883289954,
                -0.03419507647813447,
                -0.05248913703921734,
                -0.04409138722027065,
                -0.01217296909394349,
                -0.0230054403489312,
                -0.011288359598229539,
                0.04659170047063844,
                -0.007610321501189288,
                0.015833949348023656,
                -0.033088880312465446,
                -0.003765507009453759,
                -0.044801021447233167,
                0.03578147827723288,
                -0.015234073519705249,
                0.028338025681796706,
                0.045372283547500679,
                0.03432598401190343,
                0.01392907588453584,
                0.018657553679476359,
                -0.032956968182568258,
                0.037000186862827317,
                -0.005025754542457938,
                -0.0057639525360748899,
                0.021988514868845837,
                -0.019038318126522809,
                -0.0008226277379937798,
                -0.03972351081061228,
                0.0016817367864515932,
                0.0011226175383800754,
                -0.03508900164009033,
                0.025484060230513244,
                0.02061416692362213,
                0.035895946587978368,
                0.028897753216961497,
                -0.033943066931197678,
                0.03575733201824827,
                -0.006713197442519936,
                -0.009407721416317509,
                -0.04059900616069993,
                -0.04310662773108399,
                -0.012261485954274912,
                0.032176882765764667,
                0.011021005843700817,
                -0.04078481774434873,
                0.0255495111176687,
                -0.018291431423510145,
                0.03247754896528598,
                -0.008148816941910518,
                0.04687582124223398,
                0.010650007863665596,
                0.03221694138347235,
                -0.009494204794193377,
                0.001337172137767601,
                0.028867627169184116,
                0.012848261373896254,
                0.030735668865436998,
                0.01494152098505419,
                -0.018235611423879407,
                -0.034843220437616988,
                0.03597835818746392,
                -0.02421925795575137,
                -0.002651354331681954,
                0.04976558585388222,
                -0.005021123024544412,
                -0.005225946691712417,
                0.03970641491276966,
                -0.03195717648414064,
                -0.04738104364347894,
                -0.040404781288066248,
                0.050992225841756517,
                -0.0002985239351664228,
                0.0025200010876165435,
                -0.0029391626287492797,
                0.017598415281390474,
                0.024413001089652145,
                -0.04316849834429136,
                0.043980102308144159,
                -0.02001211233374697,
                0.046982866506160698,
                0.03559355308481846,
                0.003577319982893461,
                0.023782647657835524,
                0.004030870352785824,
                0.035695881962077399,
                -0.01650957760571505,
                -0.014237052352292976,
                -0.031231019879586799,
                0.04838848387993309,
                -0.031816288422233659,
                -0.006380134896515831,
                -0.03036636304621593,
                -0.03560729084282262,
                -0.01848584165027699,
                -0.020297685762778195,
                0.021960930570805085,
                0.047837233631517,
                0.03705953061697141,
                -0.03295804523363679,
                -0.0020653690317572928,
                0.039191665425034088,
                -0.031058316736183247,
                0.01862520425080468,
                -0.03011193991299932,
                -0.052721236745988397,
                -0.03936683886988588,
                -0.024269344479042996,
                0.04657855862604774,
                0.03394726435492187,
                -0.03853538310859517,
                0.01684251625746835,
                0.032678933030258299,
                -0.020458021529105039,
                -0.017447960768245463,
                -0.02351700473463777,
                -0.03229490376024781,
                0.010641132564999259,
                0.04477626953736392,
                -0.048935415479188757,
                -0.03371935779496023,
                -0.03323757463211002,
                0.016946137342501785,
                -0.026345711382639165,
                0.03499189928173337,
                0.015367736037183616,
                0.014479478534087253,
                -0.0166233889023587,
                -0.026676580170502556,
                -0.04090127102835704,
                0.04181921093122863,
                0.02793879985720925,
                -0.04302320177488461,
                0.027278399713960127,
                0.0276068931618522,
                -0.050067680830812037,
                0.019489377019267466,
                0.03279652918047829,
                -0.0052193622123918449,
                0.005531289469669284,
                0.016837677569494826,
                -0.051702293844208,
                -0.018465128417660859,
                -0.013582930102453026,
                0.03475404996317137,
                0.0002587111428274538,
                0.0026029901106941757,
                0.030437023484013279,
                0.02645769965316105,
                -0.037864852506344349,
                -0.041685553734180699,
                -0.03713766702875161,
                -0.050063181103916738,
                0.034848933308625668,
                0.04033801008796717,
                -0.004863621280814839,
                -0.032448863705393658,
                -0.05177082658141154,
                0.03480865303989315,
                -0.002305377672920045,
                -0.01866459400515788,
                0.022492094653230104,
                -0.051262322689215888,
                0.040918926329424499,
                0.026879877916919625,
                -0.01745519958090821,
                0.0008381711923794187,
                -0.04867300590503239,
                0.012248973196947134,
                -0.02258783490244834,
                -0.003678547061222305,
                -0.01641828633469186,
                -0.03458366597948142,
                -0.004242228875173201,
                -0.018624881124971954,
                -0.03671788912221693,
                0.03217139537918114,
                -0.022573931989618998,
                -0.02338470678875353,
                -0.01760438604517794,
                -0.04234797144714121,
                0.03744498953493677,
                0.016638238820360256,
                -0.04443480122660211,
                0.0458033162970809,
                0.023783162460644326,
                0.027299705268625578,
                -0.027467955257820137,
                0.04372337848235232,
                -0.0204633675727203,
                0.0367743555812261,
                0.012788963454475042,
                -0.047194176751874507,
                0.03521211151875498,
                -0.03452974725716397,
                0.04356078781201055,
                0.052850323840229317,
                -0.008410143511846468,
                0.004594608450688125,
                0.0059169078129225369,
                0.04401551672616334,
                0.002563750590413416,
                -0.020362718877062356,
                -0.007949485855412383,
                0.013900459222802316,
                0.028540677088408688,
                -0.047710295264429689,
                0.016993755212920664,
                0.00318632741231356,
                0.020953091116237188,
                0.007440168635881307,
                0.03847294989904072,
                0.022247311721126839,
                0.0015237532753234497,
                -0.00971463360452385,
                -0.0024484943763099845,
                -0.043408871219666,
                -0.04821781484388446,
                0.03191655331536997,
                -0.03723419072210404,
                0.0029430363755883306,
                -0.02115896215868634,
                -0.037340980353391079,
                -0.02824042433601795,
                -0.009259971109493328,
                0.02759923515627656,
                -0.009449842880565544,
                -0.020280961996525905,
                -0.030842972652773725,
                -0.01859234816530846,
                -0.02590055498673649,
                -0.00871817052674715,
                0.029486447773494314,
                0.02238019955534189,
                -0.014272950682440727,
                0.00041649224317787527,
                0.004710309240346294,
                -0.03841044658130505,
                -0.009832784688998127,
                -0.027985105510612664,
                0.023635015812758239,
                -0.035523394812334917,
                0.021491142500245698,
                -0.037982954221865369,
                0.027774557173364839,
                0.04745742688192195,
                0.04750594149957903,
                -0.0037610473979622545,
                -0.001169015831920387,
                0.030994345850518004,
                0.03491588605975767,
                0.037610389228939149,
                0.002228615136035503,
                -0.010167792219256865,
                -0.038890417546730487,
                0.014849278503292396,
                -0.007978697101656744,
                -0.03966454065805815,
                -0.04262594757166318,
                0.03534687402466003,
                -0.004476552353106647,
                0.02917372556842301,
                -0.00558767826369087,
                -0.031028406226830866,
                0.002976861747691983,
                -0.03958712264949204,
                -0.03404980487228151,
                -0.04540789439592147,
                -0.0308757196538306,
                0.03437054854005706,
                0.02960789647182178,
                0.047730317796329437,
                0.011929744328032958,
                0.019158078702005898,
                -0.013251433486552857,
                -0.013792703351416766,
                -0.0006080737125553039,
                0.054841703164988698,
                -0.003150600658866901,
                -0.013115115158624047,
                0.02707071317304913,
                0.027760505516222206,
                0.027506668021281736,
                -0.009727678283538693,
                -0.006830053130621181,
                -0.02192302853463277,
                0.03704864568248887,
                -0.013020514140998353,
                0.013720660563324943,
                0.017680559086550114,
                -0.04212762110034213,
                0.001786571797968707,
                -0.04538499422010729,
                0.003517003137216447,
                0.027299213175972109,
                0.04281133350498056,
                0.012954009776154886,
                0.00905977021619119,
                0.00833728298687303,
                0.016146159070476054,
                0.01975378621667418,
                0.03979794672514143,
                -0.010800928315172008,
                0.0016011450589125897,
                0.044463382009131507,
                0.0373973857202272,
                -0.015983832610351007,
                0.030782096155381964,
                -0.04374708674053565,
                0.017426515858104665,
                -0.031247078269484715,
                -0.005478011236207071,
                0.010889678947631878,
                0.021422618132975834,
                -0.04687766595276967,
                0.018281335870720076,
                0.047131140146924158,
                -0.03598987226599963,
                0.025645383120765094,
                -0.030271957539188818,
                -0.02679805468562534,
                0.031462997373201909,
                -0.005920152845926774,
                -0.0007764973001583312,
                0.02423494864895761,
                -0.022901291114754336,
                0.03443501218133299,
                -0.0476960775490125,
                0.04526318686664184,
                -0.01586592999728842,
                0.023907751494761446,
                0.04308470672225196,
                -0.015835282655888479,
                0.03192543528650749,
                0.018361543031123016,
                0.034763181230761778,
                -0.008391059324620625,
                -0.032606806439926357,
                -0.009996187053057418,
                0.00270378993832405,
                0.04026104170816731,
                -0.0504227363233423,
                -0.02588875359705375,
                0.04311748554332367,
                -0.008938580098144489,
                0.01491426663350933,
                0.03740406034365703,
                -0.01800115358189842,
                0.0009655305395315746,
                -0.03514443717713704,
                -0.051777124727529818,
                0.0012760903485756113,
                0.030023969998415745,
                -0.013221505037430592,
                -0.02007341906724909,
                0.04440281166266246,
                -0.008869773042066745,
                0.04026139218425118,
                0.030481395892193377,
                0.00983354636625166,
                -0.040672518402891117,
                -0.02561525399897777,
                0.03222714226258538,
                0.02368049453656906,
                0.032999959094213198,
                -0.019943614122975116,
                -0.04694309913446905,
                0.019256544261279638,
                -0.04545969288816221,
                -0.037250609774592737,
                -0.032618052991578678,
                0.023177578412195984,
                0.01598074481273211,
                -0.02490196585504884,
                -0.019964841005173457,
                -0.026285063396861855,
                0.006553619411245159,
                -0.0021287820780831309,
                -0.048401285222123769,
                -0.043120904652539707,
                -0.012426568202235015,
                0.0016221664417456175,
                0.008228198153651003,
                0.02380294579196739,
                -0.01810775196719594,
                -0.03620096399487631,
                -0.03716808287646795,
                -0.05271889850404066,
                0.01161791816999879,
                0.01818699130696714,
                -0.001536924446460435,
                -0.008915930065196787,
                -0.00780739544311644,
                0.023011883203232967,
                -0.008142138168339929,
                0.014083244234369439,
                -0.027496019921769079,
                0.00037090533779848573,
                -0.04718600112573272,
                -0.03536307044308158,
                0.00438653338416478,
                -0.03295056273777099,
                -0.019522389197059579,
                -0.019268193749459027,
                0.04762794603275901,
                -0.019165824951973683,
                0.0427987521443994,
                0.012972799999194625,
                -0.04295307783636315,
                -0.0477711946569738,
                -0.017381915682811938,
                0.04009406677785711,
                0.038436075266024379,
                0.021556480807850659,
                -0.03455943580870187,
                0.008666557034743594,
                0.016423704487432229,
                -0.03647325471457566,
                -0.018553563314051247,
                0.0271156969749662,
                -0.037415163033071307,
                -0.04201351149078231,
                -0.03303021561462551,
                -0.023163426458280818,
                0.012377036150109777,
                0.016823830728532778,
                -0.013475955034515458,
                0.04308692346708868,
                0.027496403761268125,
                0.008374034820777261,
                -0.03663368454956504,
                -0.04366907361283762,
                -0.004864087578283755,
                0.03496588743441889,
                0.0002483294988065673,
                -0.033376619879287968,
                -0.03307669719889987,
                -0.033810514238760937,
                0.027703709242209969,
                -0.04565219023419257,
                -0.025070876837342914,
                0.00287234557612085,
                0.043865064266244428,
                -0.0008414425578639664,
                -0.006026311672711348,
                0.0036885019556177494,
                0.009476958972044933,
                0.019403983820828826,
                0.008660600699168547,
                0.0413990137079068,
                0.04758352616277563,
                -0.05088430914040067,
                -0.039600075191318567,
                -0.02027383904835529,
                -0.04184449534160466,
                -0.0015918192435409097,
                -0.04806896827917042,
                -0.0413099935505595,
                0.020233623910657706,
                -0.021703929803657184,
                0.04907017654901884,
                -0.047035938955722247,
                0.03263706204098806,
                -0.004810914146273819,
                0.044891904460808648,
                -0.027186583626514085,
                0.000968564820178473,
                -0.041133211393514407,
                -0.025352394794926664,
                -0.05425692100968997,
                -0.021692701396091538,
                0.001712601009520563,
                -0.018641993945239477,
                -0.018884895685691667,
                -0.0021490733293798617,
                0.01422485185300486,
                -0.04348581654392929,
                0.021952091127322289,
                0.04026524844671039,
                -0.04376203204698036,
                -0.039328515902093328,
                0.005132377009918908,
                -0.02021625303514132,
                0.038801369197638307,
                0.009432003781208827,
                -0.043795574885511907,
                0.04475481572580496,
                -0.029307387591526247,
                0.03031945290054617,
                0.04766457439603596,
                -0.0355326623039278,
                -0.032098019003222597,
                -0.0047223883936960918,
                0.0011604292514815916,
                -0.04180300861848383,
                -0.026639628170591974,
                0.011169654689429503,
                0.006427036616438012,
                0.003782783902311995,
                -0.03351902386848768,
                0.044687576914542757,
                -0.0013706500406388135,
                0.0028526459094543419,
                -0.0004490113653603501,
                0.007126768290663908,
                -0.006234522794961582,
                0.020822301651021076,
                0.026691992038857517,
                0.03205517232384127,
                -0.01210034833499028,
                -0.006651832309675492,
                -0.011421870976814455,
                -0.033082722616586398,
                0.014575843068200789,
                -0.032333450090249567,
                -0.009064910829435022,
                0.015142959417071779,
                0.05374467314747364,
                0.035899306508276117,
                0.030199295123505895,
                -0.02015037376590725,
                -0.01500726893773257,
                -0.020996829822040525,
                -0.022874783457007037,
                0.03269209674305281,
                -0.04019306749845024,
                -0.05371940769424175,
                0.024940739838057659,
                -0.02334447839273222,
                -0.03179431846457434,
                -0.047867659640433938,
                0.00782922953925222,
                -0.042786943012431879,
                0.019732398869701928,
                -0.033281865853047046,
                -0.0021876052354520196,
                -0.04457984917046346,
                0.024934569562942819,
                -0.022919882739525396,
                -0.034607460400723617,
                -0.019556898865682138,
                -0.037849677934455368,
                -0.021319139508136379,
                -0.01123323475574242,
                -0.0020102679012864727,
                0.027316674022981634,
                0.04532661307479716,
                0.022938893812628558,
                -0.014027477591375269,
                0.02265815896479006,
                0.006454700525832729,
                0.013632589731695717,
                0.010860219746024955,
                0.022964373266229258,
                0.029254150989197565,
                0.01541809525069187,
                -0.035318285543168227,
                -0.024474061797594376,
                0.01812199895555583,
                -0.011980619344857637,
                -0.0002193008641578095,
                0.03351920446095371,
                -0.009815966536565474,
                0.015232524969866782,
                -0.023014364344213224,
                0.04053907477967068,
                -0.02222038691863611,
                -0.007767265116052982,
                0.0065003470354062209,
                0.009102695052248419,
                -0.0195752263182435,
                0.03948160639853071,
                0.022614788213362308,
                0.03373221558393316,
                0.0016886292614281115,
                -0.032290695628965717,
                -0.04372746130603672,
                0.03996691009776593,
                0.021796610093074526,
                -0.053246193461114848,
                -0.03608099227846207,
                -0.027117340976536964,
                -0.0011631190609431243,
                0.0009021859743925653,
                0.005936494752756948,
                -0.01505146138893887,
                0.04438589428039257,
                -0.019845588499847953,
                0.04416444757257665,
                -0.00242123084188186,
                -0.007374283997095581,
                0.017046360157964899,
                -0.0445149692601938,
                0.027323023462210086,
                0.00988538875729125,
                -0.006694443017216999,
                0.02492456172314228,
                0.009577822486719849,
                -0.04814835497300544,
                0.011908651809422648,
                0.0054029061604554408,
                0.0015426427783116022,
                -0.023894391172396734,
                0.015736073859773014,
                -0.008542506139195204,
                0.025848602726540289,
                0.0463215459216337,
                0.043527979522107348,
                -0.03169330748697752,
                0.005244954419812423,
                0.00572420742797798,
                -0.0219638436308911,
                0.0038701335143561949,
                0.02328726903637091,
                -0.028895970646348008,
                -0.020111180441490723,
                -0.00975176548026551,
                0.05040052098804161,
                -0.04886055147737945,
                -0.044735633770421317,
                0.03954774940805709,
                0.03444574025727985,
                0.002168694137390806,
                -0.051000360358138537,
                -0.03673707988944499,
                0.003498768729162596,
                0.033752421906561438,
                0.047689455252793829,
                -0.03568656712333,
                -0.048900127744652608,
                0.0013963591062892858,
                -0.005078322448956511,
                0.03790351506287402,
                -0.03892548143456375,
                -0.005315821126175641,
                0.0064328614889381349,
                0.03938600795434566,
                0.015109492607342058,
                -0.04092385478813163,
                0.035485340680712119,
                -0.011734543601882556,
                -0.04018241444393059,
                -0.031767869879922177,
                -0.02233476232789088,
                0.049459834744641859,
                -0.034761692005832078,
                -0.032639397586948708,
                -0.01569567784377762,
                0.010798844645356009,
                -0.004485395420178867,
                -0.04376236642343302,
                0.00959515525480142,
                0.003947169274895628,
                -0.051035729461601,
                0.027885273259138256,
                0.014216742776906847,
                -0.04750221096725845,
                -0.013654822781967207,
                0.014421992139815812,
                0.0336579872932575,
                0.04922309162405158,
                -0.04284181101937205,
                0.02709301345201318,
                -0.030882977294336077,
                -0.03942017574945125,
                -0.045081156749880207,
                -0.009445618995919359,
                0.004624166192353438,
                -0.023198464641719958,
                0.008464893778195449,
                -0.021992386810596535,
                0.03191761616688222,
                0.04041819415220154,
                -0.02388716274805624,
                0.010190262296307226,
                0.03498203672148954,
                0.010872447538651078,
                -0.022793076649525406,
                -0.04231402767085522,
                -0.05519421215898693,
                -0.016317314548246928,
                -0.013508090577821671,
                -0.024186791564948679,
                0.025291539265594664,
                0.04569978228986019,
                0.03846897575920227,
                0.041316469357144978,
                0.041986894234197619,
                -0.017701943127921023,
                0.024780499392786923,
                0.007031320067849244,
                0.01378368301978117,
                0.0494968766244801,
                -0.025819381094868887,
                0.042537798973172728,
                -0.014213148372716766,
                -0.028400653865105129,
                -0.042854268272899929,
                -0.032570443900719548,
                0.04754966280068155,
                0.009592409321951098,
                0.01598295982652714,
                -0.03420193299193273,
                0.03941237756255574,
                -0.04420684548151651,
                -0.02500712199004979,
                0.02174050905978388,
                -0.024675871584262825,
                -0.007740642251365268,
                0.04028018693443096,
                -0.04184972953001715,
                0.03496893906767123,
                -0.02388482627602548,
                0.014608040678333479,
                -0.0004259584569370126,
                0.008753787667740449,
                0.016959348577306207,
                -0.037977125814004118,
                -0.02456885148885137,
                -0.03747617601479594,
                -0.032953294691577959,
                0.009008952532607646,
                -0.02866059937565601,
                0.0038704094374360628,
                -0.049883048802898618,
                0.01350822059575336,
                0.01761063861683083,
                0.010976969403688638,
                -0.015056810623323215,
                -0.033710549582816429,
                0.010868190047117846,
                0.0067717569314255658,
                -0.052967366473143807,
                -0.04131120182906933,
                -0.014860081897441933,
                0.011011178321477248,
                -0.024694411683303075,
                -0.016390628464132519,
                0.008607711777587464,
                0.01810592043086834,
                -0.0400419157603867,
                0.007529424583314223,
                -0.01014212353235942,
                -0.005285266067941243,
                0.014093439649366408,
                0.02137137680643302,
                -0.01887818796640305,
                -0.0254380812685479,
                0.024637404070422778,
                -0.009833102048792182,
                0.01693611227151121,
                -0.039662373230857399,
                0.027969348530086769,
                -0.04436497375810385,
                0.021034407713645087,
                -0.03615174307370956,
                -0.011767760143843806,
                0.01297089255711292,
                0.037749728255899849,
                -0.01563461549048644,
                0.007428338363821155,
                -0.047061753285680307,
                0.03556240413407174,
                -0.02098089679732305,
                -0.034189819797490587,
                0.004890253172690588,
                0.03144494658765212,
                -0.037401458069671367,
                -0.011836248770490778,
                0.030337850050263794,
                -0.0267990184690956,
                -0.016617909325806175,
                0.0007809630670118496,
                0.011584193603201463,
                -0.045664912429789348,
                0.004900068463812185,
                -0.03463678621667175,
                0.025034301311586704,
                0.02980253144886107,
                -0.022901346854404707,
                -0.019000905166863158,
                -0.006595656714281303,
                0.04635251442716244,
                0.03915480028629985,
                -0.006731109807908157,
                -0.004995952068686561,
                0.02809436152960666,
                0.03682147071306591,
                -0.005020498649031464,
                -0.03185603555151088,
                -0.01897949976609222,
                -0.00010417712629335224,
                -0.001966365824446563,
                -0.03612619906836749,
                -0.04363489595254758,
                -0.04645746659843081,
                0.025954053787243315,
                -0.04028017422588071,
                -0.03009361470365175,
                -0.0359132505256081,
                0.03833291012352413,
                -0.032799720190687619,
                0.04303421561921322,
                0.03554253553579988,
                -0.03453195782676628,
                -0.010480099812174616,
                0.015423694265047621,
                -0.02004383054002414,
                0.05005650404168086,
                -0.041632916218001646,
                0.04357658602157778,
                0.01409975354332482,
                0.03307227089551046,
                0.010044201217699084,
                -0.05003315201035167,
                -0.03249239293179247,
                -0.04052783435399746,
                -0.04642020210892396,
                0.024894917198646103,
                0.03054787345868875,
                0.02083165985173315,
                0.03685927277174066,
                0.023797305540668186,
                -0.037980236255920219,
                -0.0027710836285395714,
                0.014535676240868148,
                0.038954490918325739,
                -0.011084287216402905,
                -0.0037525847383400596,
                0.042901743184146318,
                0.037635809326941608,
                -0.043949421155205389,
                0.007653940156626546,
                0.01743195259573364,
                -0.010249600299703694,
                -0.0404091658140706,
                -0.00635486582564579,
                -0.05316769634025564,
                0.024492402175690897,
                -0.04110294086696994,
                0.029577190352429299,
                0.005334839603043413,
                0.044740365206377519,
                -0.02619875307724023,
                -0.018360946328462234,
                0.01509279487462834,
                0.022840235576390257,
                0.036864863218015696,
                -0.033304976594616678,
                -0.046157576853239398,
                0.0451746116759186,
                0.011177322977305275,
                -0.020967553593966325,
                -0.00991310169607838,
                -0.001486363112885559,
                -0.05079194669985044,
                -0.004661221692033933,
                0.03940838722172272,
                -0.004991077873591293,
                -0.0007394509788438684,
                0.006741895139739031,
                -0.01606135150855341,
                0.03025752070614194,
                -0.043484806012643758,
                -0.021525708178568485,
                0.03315317157596292,
                -0.039776456592518268,
                -0.024070738074699024,
                -0.028541691462111854,
                0.03596345013610907,
                0.010718826229067886,
                -0.03279114027863748,
                -0.021609085442587506,
                0.0232070327361883,
                0.046037892488291379,
                -0.02975136811108685,
                0.03441955658792924,
                0.0025092768314432898,
                0.03801368078298931,
                0.02820157378242029,
                0.03984183306480877,
                0.038841101950548167,
                -0.03472708415379446,
                -0.003251677548941911,
                0.045427537962093218,
                -0.028240256240679243,
                0.026752838167416909,
                -0.03158766662544253,
                -0.030348290617477154,
                -0.01562851815517951,
                0.01604063008187415,
                0.014173907638245972,
                0.0020377564956119045,
                -0.02488355299056894,
                0.005633245800892826,
                -0.0018274498023804725,
                0.01499555833924566,
                0.04582071934549982,
                0.04602956178513241,
                -0.002043661553013713,
                -0.005771782331616064,
                -0.0025558332621172157,
                0.024790854343839137,
                -0.03338586034139443,
                -0.016385460971752809,
                0.02850894867074457,
                -0.012554107230772076,
                -0.0008322207022010909,
                -0.0031630143719067894,
                -0.02611412303126903,
                -0.0300261735249165,
                -0.047767184413519066,
                0.0475400492028556,
                0.014979302120086323,
                0.00975132500558919,
                0.01597177633940736,
                -0.041921202812165079,
                -0.005726144867974752,
                -0.03906645377142765,
                -0.05118170850968701,
                -0.0417403353625202,
                0.04829278344000374,
                -0.04254103747817895,
                0.03844417627333618,
                -0.03140581611163134,
                -0.05285891981851889,
                0.002869220755164158,
                -0.05140954254534479,
                -0.028250433215280213,
                -0.011226782548721479,
                0.0033253871635482818,
                0.04277785978201428,
                -0.004517233443703553,
                -0.010600672208613322,
                -0.013475855304395967,
                -0.014449263903229072,
                -0.0316520445814821,
                0.043382222383889317,
                -0.04482020915820494,
                -0.03492000274326926,
                0.028551771975404543,
                -0.032203012179706207,
                0.012735198762606936,
                0.044449803303598798,
                -0.03889230123973313,
                0.014735498725078929,
                0.007908885729947232,
                0.029853921106933465,
                0.015388502713090644,
                0.04517704255748285,
                -0.010680128307220809,
                -0.02588329555154205,
                0.02972199630718401,
                0.04504968587666003,
                -0.020745414657564449,
                0.002190989199946402,
                -0.014743254035570464,
                0.03571656579646425,
                0.04787569727956815,
                -0.020878503182543377,
                -0.02204307211939527,
                -0.019931144896935584,
                -0.024743001318656124,
                -0.0408670806277046,
                0.009248544393901841,
                -0.023020667364503139,
                0.0001879799999638187,
                0.003882108168360988,
                -0.014710832652286683,
                -0.03528996438612662,
                -0.01128042017349598,
                -0.03783722906746167,
                -0.014173191129853595,
                0.05231541338151471,
                -0.03013937053464353,
                0.037746452330686349,
                -0.01632782945017075,
                -0.03902837262117609,
                0.017540354654387338,
                0.0016346160382911888,
                -0.012748654464223946,
                0.02280321498182541,
                -0.008134156791187897,
                -0.027407728912866748,
                0.044193277678528087,
                -0.0251519636405639,
                -0.03796998156462184,
                -0.0017106743509916387,
                -0.035097771315763557,
                0.027495642422944504,
                -0.04360486023166784,
                -0.02719146540804337,
                0.04926423667245724,
                0.016482338435476326,
                0.031123640951004128,
                -0.0028299960781652709,
                0.046852240189233649,
                0.0022943775329031556,
                -0.020756981496847614,
                0.035752926390833817,
                -0.03820774957349589,
                -0.045733509211573219,
                0.002850543724279875,
                -0.0063585131590218738,
                0.00499030493682231,
                -0.019555518462858708,
                0.04292221467318955,
                0.039260079147580947,
                0.024871903120933564,
                -0.015090045215688434,
                -0.03375980458406967,
                -0.024942586320002074,
                -0.030854651154970007,
                -0.003808874349714264,
                0.039337079040206109,
                0.008105698251622358,
                0.04061358627719074,
                -0.040696159653371578,
                -0.04614620425668714,
                -0.0076747511752148279,
                -0.03737942080951773,
                0.0471169156862083,
                -0.006186007271806947,
                -0.0022897486101604109,
                -0.04236999329111897,
                -0.0392109341835881,
                -0.03361810056634684,
                0.01819787478429157,
                -0.037686675479168697,
                0.015928259804626457,
                -0.048765265307133948,
                0.030242847150605279,
                0.0344675883245561,
                0.03303925226309455,
                -0.012411390335668859,
                -0.022501650950561573,
                -0.03447508287020625,
                0.03565332931577121,
                0.01802114659803157,
                0.016827453514856914,
                -0.018671463861523686,
                -0.0219181591187338,
                0.02775991751853133,
                0.020897636940041026,
                0.018529433786061909,
                0.032208102207368079,
                -0.04223709459796352,
                0.0011042806014421379,
                0.029746515388685295,
                -0.014561230805622525,
                0.006545437366647224,
                0.026046164733421488,
                -0.006598300920681499,
                0.03545188343388314,
                0.028598665276622544,
                -0.03670003238292144,
                0.01116729196016281,
                -0.040880244260665287,
                -0.007663937382833231,
                -0.007430484074032194,
                -0.029543069767246266,
                -0.017653903753332493,
                0.023560915851750569,
                -0.04348065004099607,
                -0.010803797893167308,
                -0.01943132484742475,
                -0.00615131532924223,
                -0.008336585415696626,
                -0.03862894966512923,
                0.007705139936121984,
                -0.021395355602838969,
                -0.04194753184960108,
                -0.009002626271720604,
                -0.005023379445028957,
                -0.042625620480205659,
                0.0361416834380681,
                -0.03687968965172521,
                0.02475429994049533,
                0.03480090265351485,
                -0.027571535679358107,
                -0.048948300839869698,
                0.0018414023175311664,
                0.03314519856899959,
                0.030149319824132833,
                -0.042183461934400968,
                -0.03086737483193694,
                -0.01497856860498013,
                0.050444737365449836,
                -0.045201597152220867,
                -0.03041893689237988,
                0.016825145159383084,
                -0.03372685833052056,
                -0.00565704580519905,
                -0.02697110170109963,
                -0.0006047269050908682,
                -0.05022238061607248,
                -0.004303543912234169,
                0.02740597264135549,
                -0.020108072091437849,
                -0.013235250965847288,
                -0.02226477746270085,
                0.014447592947343368,
                0.0027203214918767035,
                -0.03999282421985387,
                -0.05065142263519363,
                -0.0007846158224889811,
                -0.008761593918328,
                0.04426507569560618,
                0.02999848975327113,
                0.03593008438946513,
                -0.04745810258638897,
                0.043268424229061058,
                -0.028235915825642365,
                -0.032284611035283346,
                -0.009977009502234435,
                0.015365272032530284,
                -0.011130528500787229,
                0.051674861218662177,
                0.049780470591229687,
                -0.03510890037785224,
                0.04589081148969021,
                -0.0011097220918382396,
                -0.011675246880668653,
                0.037663875510835369,
                0.0373484916345938,
                -0.0375825922029868,
                0.001867151909089408,
                -0.037612409653567869,
                0.04809855890806193,
                0.049065018540731187,
                -0.010450217694299779,
                -0.010617407771309217,
                -0.015212941127513943,
                -0.006015493493319714,
                0.04687470299677436,
                -0.020176489274831165,
                -0.04668140340369086,
                0.017406395645229956,
                0.023916436070319234,
                0.007179915369776395,
                0.02238988353501328,
                -0.01656085469789839,
                -0.03887072360025825,
                -0.03332931927142462,
                -0.03842736465030464,
                0.022492773755995997,
                0.037929207866604249,
                -0.029589323499804394,
                0.03361872330724402,
                0.03806961816724979,
                0.01055058097907752,
                -0.004470206275479565,
                0.02304328481453048,
                -0.03477221353311755,
                -0.01773579839829714,
                0.034887609964854408,
                -0.027807050673027687,
                0.015373552186645058,
                -0.026457383595269138,
                0.027815437631957267,
                0.048434620758302269,
                -0.030344434731737356,
                -0.05684586237169637,
                0.03265017016483556,
                -0.01482839319941774,
                0.015766105914328148,
                0.0033215221974053148,
                0.021186462190657695,
                -0.026956653779367454,
                -0.045600200690292389,
                0.00471471851123273,
                0.02066675979867743,
                -0.02511716356956128,
                -0.002773616616320113,
                -0.007889673298118528,
                0.010971786726497317,
                -0.013929319551467432,
                -0.03026131108463027,
                0.017585711573674769,
                -0.03810564668317522,
                -0.024992975581892675,
                -0.01835984192237304,
                -0.013069966198923722,
                -0.045778936715760557,
                -0.016253587431171495,
                0.03937424626235417,
                0.01560061050493307,
                -0.033576657382165139,
                -0.03126057377033857,
                -0.042628326515544139,
                -0.03548579590081203,
                -0.023594395904212287,
                -0.002990511946924949,
                0.03713846314404817,
                0.005495302401455601,
                0.0009357620298037364,
                -0.006324316990224605,
                -0.023712505788761663,
                0.02151730818400186,
                -0.0022088086616974028,
                -0.03243414457023286,
                -0.03553489864869977,
                -0.04862687455362213,
                0.022696531354468469,
                -0.0172287530242025,
                0.04695084678880057,
                -0.02140651109365452,
                -0.011555313706803829,
                0.02084283708415015,
                0.016608837594518489,
                -0.00469810263565441,
                -0.045479913804226699,
                -0.05441811773849618,
                -0.04026239007025272,
                -0.002431485302495253,
                0.01802434367314508,
                0.035688362140873248,
                0.04407631434717959,
                -0.010214397895086009,
                0.0064500462682713839,
                0.04747255799939568,
                -0.017656909718477916,
                0.0073324451566815248,
                -0.04186816223484466,
                0.0381040284323966,
                -0.030718979625106739,
                -0.02536719350850432,
                -0.011879269007035995,
                0.033626311044651139,
                0.0351699159847261,
                -0.02625837967581085,
                -0.03936005185727043,
                -0.0021760631697503448,
                -0.02919065774725196,
                0.04470158598698893,
                -0.04464039344127493,
                -0.024370464153203394,
                0.0021359404080268,
                0.02142308899862411,
                -0.012821984551386399,
                0.013911210710900693,
                -0.016236753900032119,
                0.0021567684862145578,
                -0.003806087770490346,
                0.022056841726009629,
                -0.04121257240384159,
                -0.015202440664633556,
                -0.011722778855050839,
                -0.008671238527475343,
                0.0489305214959665,
                0.017894019662548,
                -0.008537182070782,
                0.03156483070602446,
                -0.03141449874793125,
                0.004521237269981364,
                0.03503054614555384,
                0.00951964150436707,
                0.05023904920155584,
                0.039890516235712877,
                -0.038163242333938179,
                0.026664107208840425,
                0.04587189308568244,
                0.001275731934837727,
                0.034476652715594999,
                -0.002197715382946987,
                -0.018441239989556294,
                0.009581406554507195,
                0.036574661439477979,
                -0.03262489844454371,
                -0.01016986945743029,
                -0.019471280578760673,
                -0.011893500083997371,
                -0.03146530788847577,
                -0.04543929760975906,
                0.03948117881371989,
                0.019521944410823706,
                0.021747321731398436,
                -0.03468498225234908,
                -0.0042913535819339679,
                0.027579676154795959,
                0.03860783416742204,
                0.026207059375850395,
                0.0406255252235582,
                0.038676951816018347,
                -0.033401038039000466,
                0.02685939098291075,
                -0.021204950359840058,
                -0.01489491700030158,
                0.016373905897397489,
                -0.04561023407681444,
                -0.0032594909376564577,
                -0.01471644436891468,
                0.011668834433006976,
                0.013655815079415835,
                0.01732507311467459,
                0.020535988276562515,
                0.022498205203420934,
                0.024671482347896107,
                0.04654536202304147,
                -0.013236531985379644,
                -0.008623817809974798,
                -0.0008351225932354681,
                -0.020999021027617,
                0.03735475196444799,
                0.009477992382852963,
                -0.021315990021335657,
                -0.023820810284589729,
                0.01878247691620927,
                -0.02027864190954242,
                0.030755531808276415,
                -0.03254913076491384,
                0.00312007588856554,
                0.0030032914167949619,
                -0.041450757329464817,
                -0.027150877544084016,
                0.04802201745588658,
                0.042335721012623,
                0.020857291151418438,
                0.017962204289516519,
                0.01242030391577339,
                -0.043457789393698178,
                -0.01777306740508678,
                -0.03172449299767832,
                -0.03777746914658211,
                0.04225394420838675,
                -0.05466288583483844,
                0.015386705535804305,
                0.002707507608776445,
                -0.007972740598026584,
                -0.040065537852533739,
                0.045359747159824808,
                -0.04682167822833303,
                -0.041025436957576179,
                -0.04737525988244399,
                -0.0087215583843499,
                -0.020388825158117346,
                0.0010147081069020535,
                -0.0521804976158306,
                -0.031585320125684619,
                0.035737700556923438,
                -0.0030378261153451338,
                -0.00004539410358732511,
                0.04471489491590192,
                0.034778516684328419,
                0.03721346392764286,
                0.044998721143655887,
                0.024393347158650975,
                -0.0017315602229019318,
                -0.011709210919270366,
                0.02571872661754359,
                0.025936386606808746,
                -0.04721303957813745,
                -0.051340330752757668,
                -0.017414421498498406,
                -0.025934069300190215,
                -0.03454552667071088,
                -0.023567605284005423,
                -0.034842377995059289,
                0.043838441914053189,
                0.009321359248794268,
                0.01791132272620019,
                0.015202960115498044,
                -0.023253932686874508,
                -0.032013873557193848,
                0.029515494112722849,
                -0.0320326915635747,
                -0.013296531901848199,
                -0.005995212948538186,
                0.022520834715071208,
                0.038945660922282087,
                -0.010614649803091812,
                0.04324381671490256,
                -0.0032609148562431809,
                0.03889520833266169,
                -0.03327667360837483,
                0.003453691490577702,
                -0.015168517680269353,
                -0.01618330080740338,
                -0.02931131822255935,
                0.0442749640279688,
                -0.028546486006773114,
                -0.034443786274032498,
                -0.030709010455737066,
                0.011409615164530367,
                -0.01873276465887552,
                0.0360216704353735,
                -0.04633875602775257,
                0.0245864466729042,
                0.035980510252193637,
                -0.03211181976642179,
                -0.0407252717785886,
                -0.02590570730104821,
                -0.04474022595019768,
                0.004524428787709826,
                -0.035501909873042827,
                0.028575179981699725,
                -0.019109202108248164,
                0.02201954185851642,
                -0.050123895649535798,
                0.02031245769065219,
                0.006744726696620154,
                -0.021261719222584895,
                0.0285115406382329,
                -0.006902366053436564,
                -0.014218717203246367,
                0.039535323074727169,
                0.013189664731785697,
                -0.031320825727348598,
                -0.03476310118705299,
                0.016452041059761555,
                0.027245667181960956,
                0.04402024125661165,
                -0.05206988331122585,
                0.05100063712426349,
                -0.018239357032531785,
                0.0026611702169348626,
                -0.0015244336159283799,
                0.018178791204376725,
                0.031243618765364569,
                0.04930414664717392,
                -0.04126481313536061,
                0.006980858672328,
                0.015680016996562679,
                -0.004732022377259457,
                0.026207769602132073,
                -0.04371989408141908,
                0.04013239863900698,
                0.043789219569381459,
                0.019240231177257946,
                -0.018982048911318027,
                -0.01796887247692211,
                0.00885694433250043,
                -0.016884981402013875,
                -0.004183156816966723,
                -0.015229893088996853,
                0.039174009767558259,
                -0.015842218297404528,
                0.01399447158767408,
                -0.02212221746564807,
                -0.004838354114137178,
                -0.02327407023818552,
                0.03697525078037333,
                0.012680880447348267,
                -0.04139005505710036,
                0.0005232729612120993,
                -0.03504069413406378,
                -0.01837552501377116,
                -0.04673051294387319,
                -0.025780320169850044,
                0.02134565145150122,
                -0.017511894477466495,
                0.000785553375906686,
                0.03488522729098466,
                -0.04624239733224725,
                0.017044047459846499,
                -0.051590519168972098,
                0.015264874087730049,
                -0.009913470047537981,
                0.021759564648918467,
                -0.024343496600228534,
                0.054109367959652199,
                0.023412226414360656,
                0.000283427316207559,
                0.03365118023188436,
                -0.009837720009584252,
                -0.038839821948767349,
                0.012657891491322276,
                0.008012684905226969,
                0.018425078577190863,
                -0.010274547685048097,
                -0.04376141039312761,
                0.03811489874693596,
                -0.014191038953890947,
                -0.0076499751175858978,
                0.016537438817397805,
                -0.022025130255990779,
                0.0387696907870514,
                0.006969434119990338,
                0.05341608514640117,
                0.010459085662450229,
                0.027965747582188315,
                0.02524705054938792,
                0.010592725768353007,
                0.049800017915961978,
                0.047133605107194189,
                0.02695349431082047,
                0.02547733187170338,
                -0.016070480832105679,
                0.03226353364253649,
                -0.017281782503780958,
                -0.02594700013149899,
                -0.04794661864853667,
                0.04188990812298159,
                -0.0435303929855035,
                -0.005701392096779386,
                0.006785239762288805,
                -0.021594218378467268,
                0.03619290942826628,
                0.021936304470806118,
                -0.012785456201423733,
                -0.009093074718681838,
                0.024513371636574769,
                -0.005521954508602983,
                0.02323140094680715,
                0.006433143210171709,
                -0.005733917904513939,
                -0.03498626642071254,
                -0.009891070863950037,
                -0.011935303872639029,
                -0.014169187015933187,
                -0.036766413844859627,
                -0.03422272457894168,
                -0.014470298511857235,
                -0.04117164078828799,
                -0.0013825933425245759,
                -0.026484068185625006,
                -0.050236549946588559,
                0.0069380692948444139,
                0.037779124504876488,
                0.0023564893594472384,
                -0.009519227499736367,
                -0.015571571177850772,
                0.023106064076471784,
                -0.0143909141800537,
                -0.03302332572487632,
                -0.04759050406985156,
                0.03560391536172018,
                -0.023446290608175905,
                0.04719462151599842,
                -0.04828565940926768,
                0.044640344625344958,
                -0.043700684880556877,
                0.02589517208456902,
                0.008813257158192553,
                -0.03068619471646255,
                -0.05900253824335316,
                -0.017151520486603894,
                0.036227619218515538,
                -0.016181539981605376,
                0.004805700629949814,
                0.004621866834644316,
                -0.020834425180268645,
                0.035594642208188569,
                -0.005342903068484652,
                -0.03261002271416658,
                -0.04365972609282937,
