{
    "layers": [
        {
            "weights": [
                -0.044777135600432938,
                -0.043381445397650309,
                -0.0733216447786156,
                0.0048789290593933749,
                -0.06416080122100534,
                -0.0220799122100014,
                -0.010305937442595623,
                -0.0013291752384014442,
                0.03563997619602581,
                0.03180432601050702,
                -0.005741271633126059,
                0.00199127177942238,
                -0.05612298565125582,
                -0.033439727305843918,
                -0.04687409765041332,
                -0.05836310322024911,
                -0.013565124035643042,
                -0.0721303514484642,
                -0.05288767057230452,
                0.011165902102150013,
                -0.07316480317725623,
                -0.015403929174496687,
                0.06279074360063018,
                -0.03737642624741038,
                0.08420441914791724,
                -0.037232001980124409,
                -0.022619039046922634,
                -0.025337717825787227,
                0.009564384628608463,
                -0.008023430730441294,
                -0.05223934665621231,
                0.009515421417404944,
                -0.011597130042596956,
                -0.05029430559628001,
                -0.020240756258818123,
                -0.06436447286251485,
                -0.06374132074561007,
                -0.006722486893983019,
                -0.023072601808801466,
                -0.035596648211821357,
                -0.09702786933100169,
                -0.015796445253163137,
                -0.014203396715170557,
                -0.0030528420304903435,
                -0.02539922695267222,
                -0.09644700175111167,
                -0.027316151041013878,
                -0.05217589333171563,
                -0.015807684613118986,
                -0.022488722408860713,
                0.002647588790995699,
                -0.080807102082453,
                -0.06189864229060219,
                -0.05008227336082792,
                -0.04463616924785791,
                0.01721715385467675,
                0.02778004376645517,
                -0.024448847205601488,
                -0.06226422391326503,
                0.004267152838352475,
                -0.020333667709118019,
                0.07650363618095907,
                0.016319971408885877,
                0.013111903821365958,
                -0.028237024386464934,
                0.057034975179847697,
                -0.03085233141891627,
                -0.004530914405154313,
                -0.03060586459650118,
                -0.03210839339202007,
                0.028450033252500285,
                0.11561086539622112,
                -0.02703296363282685,
                -0.15603958108921896,
                0.004045044465509714,
                0.0001699453479753576,
                -0.03706723433076383,
                -0.00044061313929324227,
                -0.028799240362246099,
                -0.0029369807570094445,
                0.10141379570206725,
                0.02436963362795656,
                0.012368195123136226,
                -0.015339292981632214,
                -0.010003192715966314,
                0.04430567954568079,
                -0.012067152239929798,
                -0.05412341431450805,
                0.019305347375718798,
                -0.08019129191814049,
                -0.062371769773861978,
                -0.03436964750342433,
                -0.027448220108628499,
                -0.06990059265626363,
                -0.008394957904175405,
                -0.026704131248137938,
                0.06594407471909211,
                0.01176886524924854,
                -0.007653751270780794,
                -0.08725850094722236,
                0.05186262406376508,
                -0.13167776653378844,
                -0.03854501708527125,
                -0.04817375516795095,
                -0.012087506937657021,
                -0.0659429374391436,
                0.006131320234669433,
                -0.03489567530231021,
                -0.017769283112550949,
                0.049980513611052847,
                -0.00516016003863066,
                -0.047388584700226357,
                0.05339930863618963,
                0.031154068642734298,
                0.019838268614245103,
                -0.05350343500604854,
                0.03868600285709265,
                0.00386977549060283,
                -0.1229980102989442,
                0.021084320084600616,
                -0.03702012123698803,
                -0.003589588571287825,
                -0.027907443616733728,
                -0.05967366251477925,
                -0.03877273616432865,
                0.014420347106224484,
                -0.040094333641355377,
                -0.05589317971159088,
                -0.047247550878944288,
                -0.048098384905873637,
                -0.07115427038645496,
                -0.017366660570751686,
                -0.028176939049439074,
                -0.06564549150272917,
                0.034644622572104859,
                -0.023779917332506934,
                -0.028312617441694479,
                -0.00032397329529163074,
                -0.05252153284585262,
                -0.05387648383253788,
                -0.08994966415207098,
                -0.057621811572647948,
                -0.025054578837970515,
                -0.03369263112510772,
                -0.037882962154121308,
                0.008651109787822693,
                0.00855508235841393,
                -0.019071956170711524,
                -0.00843326856517022,
                -0.033477444419263157,
                -0.05368837188070425,
                0.008627334454940548,
                -0.05184431659879087,
                -0.06518550876234274,
                0.014851698902166503,
                -0.02435632989010529,
                -0.03965091109328711,
                -0.06644550282081287,
                -0.0492876686355657,
                -0.011895915139405146,
                -0.03596493709907793,
                -0.008183218726386927,
                -0.05508724584553154,
                -0.07124337849909661,
                0.023259623647036689,
                -0.07746796411999561,
                0.005430739360372831,
                -0.036514620120659,
                -0.06714257291115374,
                -0.04850947106212989,
                -0.035534373343135448,
                -0.05607005787634869,
                -0.01785405052767758,
                -0.0486141868901493,
                -0.014647484088314738,
                -0.08318596757908575,
                -0.04411976814798454,
                -0.02857366926305493,
                -0.05304904338112847,
                -0.06689310723915078,
                -0.007035397772489291,
                -0.0732073869548153,
                -0.0719788909571082,
                0.014774267102360876,
                -0.0806260714349766,
                -0.03454163228081678,
                -0.031040439234879839,
                -0.03747713592921399,
                0.007320653479187302,
                0.00563325396512869,
                -0.028631539640358435,
                -0.026100830748458479,
                -0.011208723832488914,
                0.05577721577838101,
                0.025603296819272295,
                -0.006817831517790788,
                0.09373410625400497,
                -0.012718302771864386,
                0.010558151782597829,
                0.012534235810836745,
                -0.053115934034537747,
                -0.044871758480496907,
                -0.08414029878368576,
                -0.014916936849121076,
                -0.029200663244588259,
                0.004322854642114453,
                0.025463230418063526,
                -0.0033208369361115025,
                -0.0003814134554188029,
                0.023532008654849939,
                -0.037466849107770417,
                0.002827990942846876,
                0.0012384069782737902,
                0.028633771791186564,
                -0.10008405540420876,
                -0.0035301825250296967,
                -0.04900454704693124,
                -0.0274921790633261,
                -0.08319406817746057,
                -0.018725138894136949,
                -0.009294176039754458,
                -0.07683672615721733,
                0.04179773045822851,
                -0.034374901647709187,
                0.11055412410600925,
                -0.016592547449436936,
                0.07066303368725083,
                -0.06056352802242924,
                -0.020405018581794066,
                0.013232625965394866,
                -0.06715600467914991,
                -0.09420506740843594,
                0.012502615706953918,
                -0.04306062415277708,
                -0.013095644233750523,
                -0.017638128031421713,
                -0.058704263983220487,
                -0.011164327717362546,
                -0.07565056899714451,
                -0.037631122668531327,
                -0.05970032224376731,
                0.007812969790984666,
                -0.0893981293728337,
                -0.003362915917760109,
                -0.049254565976105339,
                -0.0671733683642757,
                -0.004925723276704658,
                -0.026867012724731719,
                -0.06229135948558993,
                -0.0184487080673442,
                -0.04031490785051008,
                -0.05644301498883441,
                -0.08493859433375878,
                -0.08006245023101652,
                -0.037042923720474987,
                -0.046053416828808719,
                -0.08110822721141252,
                -0.009900893194254404,
                -0.017267837049703674,
                -0.06505935705426001,
                0.009388805349893118,
                0.07562885970034822,
                -0.06044369922130991,
                0.0462287739450824,
                -0.013294559639183098,
                0.022908243554579639,
                0.03924349719637918,
                -0.023829349384033996,
                -0.08239927198055458,
                -0.0141099782723563,
                0.08829873986107843,
                0.10173420656620133,
                -0.0202895678227554,
                -0.0786322015994107,
                0.03309381988215194,
                -0.06728715752703919,
                -0.09989516826065873,
                0.03785233585153991,
                0.011680270138422879,
                0.03050542694997333,
                0.09663884941071319,
                0.10622838578552071,
                0.009676636591901302,
                -0.038927244082556069,
                -0.04604203953345266,
                0.0060858297725663499,
                0.02158401967850035,
                0.004549045956824968,
                -0.05841721504894443,
                -0.02165526168381475,
                -0.02014473207794981,
                -0.021224694442503135,
                0.021972923801938265,
                -0.06113098867601888,
                -0.06387666037197197,
                0.04677281108945955,
                0.05544113133197767,
                -0.018027396146677648,
                0.015174168936547914,
                -0.08356574447673213,
                0.017690153424113308,
                -0.06372424596528688,
                -0.062445727477595049,
                0.004915615315743078,
                0.008511899635957736,
                -0.02988119616882935,
                -0.07408847054362063,
                -0.040211670521408667,
                -0.07618051520314603,
                0.06612534369852177,
                -0.08021662594636178,
                -0.08571090323743778,
                0.09063571862971462,
                -0.04521886422399247,
                -0.07315568398189192,
                -0.0520503235830316,
                0.0017410606069604663,
                -0.08128377571857575,
                -0.15311802826956368,
                -0.052838060032486557,
                0.003292620155907212,
                -0.09428083719318388,
                -0.08735357977163787,
                -0.061574040592828917,
                0.026768534126792387,
                0.09800156617831273,
                -0.04799418168861531,
                -0.10663437432783866,
                -0.02492733425621049,
                -0.001095779296395821,
                -0.02061590507510377,
                -0.028193422239214985,
                -0.08043621728379555,
                -0.025790672921273098,
                -0.013277874449583057,
                -0.07771390356847115,
                -0.05612243099293655,
                -0.05145869526072955,
                0.024901660842729529,
                0.016897520112956058,
                -0.036576664366605369,
                -0.03292260502942516,
                -0.03001897303644889,
                0.014671646266157086,
                -0.012526796177408272,
                -0.048486221566287717,
                -0.021128169110729387,
                0.018397136039188995,
                0.08095528440076275,
                -0.07040768965293885,
                -0.045649810617935288,
                -0.04553885004404912,
                -0.009241231694805303,
                0.0028978458077524628,
                -0.033458304507532139,
                -0.060011158004301869,
                -0.027706604619539788,
                0.02000269196738385,
                -0.06038066866041069,
                -0.032341035941920528,
                -0.05435755988905157,
                -0.061609870132342679,
                -0.06837394879726734,
                -0.07517711411542305,
                -0.02379594423453022,
                -0.030144713584208485,
                -0.05513954129105168,
                -0.0007528198844630439,
                0.0012715799464911387,
                -0.0820211761787817,
                -0.06787629881988754,
                -0.048647221152172,
                -0.0570576658352854,
                -0.07683329990577004,
                -0.03475878457442549,
                -0.02109155996692015,
                -0.03944009360650702,
                0.007344194574544241,
                0.010683902816444949,
                -0.035480191185813868,
                -0.04477294290632244,
                -0.015246739218921673,
                -0.07596115500274718,
                -0.06577501563669491,
                -0.014471045640138583,
                -0.03563431855313369,
                -0.06911660273020494,
                -0.06830325475961266,
                -0.01963123639373591,
                -0.0788496833549947,
                0.03635206090464119,
                -0.0002794127760094682,
                0.022791810871503089,
                0.022261189875732044,
                0.00979724285511709,
                -0.006168959878088289,
                0.03545658520766943,
                -0.016355728783579154,
                0.04708368419827971,
                0.005463157312192626,
                -0.029819179697494474,
                -0.07757097404730815,
                0.00623590501565409,
                0.004596487759800263,
                -0.07146742347992968,
                -0.013763680768395558,
                0.002264176813903978,
                -0.051041178267430539,
                -0.011554142893817536,
                -0.035718859288055,
                -0.003243710222751643,
                -0.0378612106867684,
                0.023002625319858917,
                0.010545085020090552,
                -0.08370487057966926,
                -0.06071265631190885,
                0.025729330700935615,
                -0.057526613624175309,
                -0.03879972393065003,
                0.039199861055374558,
                -0.05026060285381065,
                -0.01070646937652209,
                0.046009008905483119,
                0.015461338090288046,
                0.061831040914234008,
                0.006373484743263411,
                0.028357036250650695,
                -0.057770012694713868,
                -0.018440892728450944,
                0.027955928365833966,
                -0.05691993261918652,
                -0.09445239275989302,
                0.01372747040459927,
                0.03045797467911913,
                -0.01342337647831324,
                -0.005072005910120775,
                0.015175077644756332,
                -0.044579657037287497,
                0.0035942582711894729,
                -0.056236653606880109,
                -0.013871111118993899,
                0.02723715529423063,
                0.013665710197138363,
                -0.05442183351266121,
                -0.10846078832534034,
                -0.05757165351559207,
                -0.020585442790485486,
                -0.043607528619507927,
                -0.07713733730580548,
                -0.06516635728242094,
                -0.02086722356257733,
                -0.011802606805036626,
                0.0016167199623614735,
                0.018158863215865505,
                -0.028560153211373806,
                0.015931504030911694,
                -0.009749434657016743,
                -0.08602679406182332,
                -0.015361867765912807,
                -0.035292233579347419,
                0.02080314100936314,
                0.08832350837912308,
                -0.0010844711551948484,
                0.030262008913104388,
                0.03835739774449411,
                0.06256908853191515,
                -0.0060421638463034,
                0.013587990298729055,
                0.005724876236865204,
                -0.05543862260568493,
                0.016153405082931926,
                0.08726895637329348,
                0.002372392202054899,
                -0.12874047975847173,
                -0.054692357784560188,
                -0.03160379928091811,
                -0.029526918171610816,
                0.013770214416292275,
                -0.014961030928371157,
                0.03522856717881271,
                -0.002511796713827209,
                0.0826858942445793,
                0.028658580463507979,
                -0.08156952221060641,
                -0.05853503067228755,
                -0.05125301329537395,
                -0.07714985020662239,
                0.015528960713473572,
                -0.035859699770136237,
                0.023512800173525119,
                -0.08077660481186259,
                0.017615759273504999,
                -0.013027602368841889,
                -0.0004019617739490239,
                -0.11709305794595976,
                -0.00897068602712969,
                0.006642861271902784,
                -0.027535720141806838,
                -0.034592272214319107,
                -0.08028148128914728,
                0.05878380297882398,
                -0.04436183871623177,
                -0.05775474621069104,
                -0.02243646482899233,
                0.00950329383172476,
                -0.0017587650994171118,
                -0.014759464604943457,
                -0.018817437640670257,
                -0.003800792009753888,
                -0.024904016012515755,
                -0.08219652605839434,
                -0.06233667034654688,
                0.07917972554547218,
                0.04295215967315236,
                -0.06751507959567926,
                -0.04750157373545382,
                -0.016520801459851958,
                -0.03954773789385243,
                -0.14497454925128984,
                0.03797526175111749,
                -0.0001487817058957637,
                -0.03848220340212728,
                -0.037771367111749217,
                -0.11740611839621759,
                -0.02967546099311684,
                0.11758614995366075,
                -0.09586173879505293,
                -0.04840173991069115,
                -0.05929251819228346,
                -0.029259168649980774,
                -0.06314242094343968,
                -0.04031335824295298,
                -0.09066552686521834,
                -0.0794938460744469,
                0.08521233701987555,
                -0.021698576571003954,
                -0.03807757258443819,
                -0.02073645051122786,
                -0.04121224185296629,
                -0.01188523036693454,
                -0.04042262199821942,
                0.0002926237420643901,
                -0.09254003554611355,
                -0.0349556734406699,
                0.03154369371100342,
                -0.008573515476030957,
                -0.04305859055926158,
                -0.01026423580671718,
                0.06983536533284537,
                0.0047161183684841499,
                -0.08043060437666101,
                0.016513925748981675,
                0.005563737749320618,
                -0.0024474747232347104,
                0.009004575117421046,
                -0.09315101162500965,
                -0.07417825947983095,
                -0.05123848477681646,
                -0.010997713258522047,
                -0.05267161148386064,
                0.016902322763162993,
                -0.049921474480545017,
                -0.04808397484067862,
                -0.08137189119245042,
                -0.08191511858486161,
                -0.020076785684538049,
                -0.0465095802380065,
                0.021686531816378916,
                -0.07208781032120249,
                -0.05152436324754423,
                -0.04998241988101426,
                -0.09168482388040374,
                -0.08599626430290643,
                -0.025918545433959406,
                0.018399375999052504,
                -0.053664379206674387,
                -0.035339644344399127,
                -0.03086202798737459,
                -0.054650072145513619,
                -0.030319041576604246,
                0.020968395993759889,
                -0.03709021216246063,
                0.030429782514071657,
                -0.03809937009815147,
                -0.02896132812663878,
                -0.022308459695316319,
                0.009607913320119049,
                -0.04056784474569574,
                0.0016477194483586577,
                0.006687550010325949,
                -0.0004871433149019857,
                -0.0958193192583054,
                0.03722119807829861,
                -0.013131559791899908,
                0.025135096354512985,
                -0.024092605792568668,
                0.017378835385654585,
                0.026023307475799626,
                0.0020815187229672774,
                -0.06245284005635501,
                -0.0006511414634168371,
                -0.025980804428808739,
                -0.05088388330860348,
                -0.04598472759954722,
                -0.007117622939058698,
                -0.006976576855636514,
                -0.01973466980926418,
                -0.0009236655527005082,
                0.04201730909055281,
                -0.01945790543337824,
                -0.007879386655732648,
                -0.0044837750060391589,
                -0.045768014196925718,
                0.031168964611811114,
                -0.041806226152067329,
                -0.0780029720802844,
                -0.02823944113912548,
                -0.07194812485193963,
                -0.02677188487002178,
                -0.005632039573159378,
                -0.013373127894091102,
                0.005269181170617061,
                0.051804374083734918,
                -0.02505086448789896,
                0.11151350759173322,
                -0.0712256533581658,
                -0.019405147321146233,
                -0.041425335599772,
                0.016129442189004134,
                -0.049740044348653738,
                -0.07386711073008255,
                -0.03283664455434294,
                -0.06791794276075464,
                -0.005016360997436455,
                -0.007457919114194707,
                -0.016471068897911689,
                -0.055101747282761948,
                -0.034517828933249648,
                -0.03813054780328297,
                -0.0029596356055270596,
                -0.10162056249644062,
                -0.061826144617271167,
                -0.043640568417384579,
                -0.06753110514169734,
                -0.025942943169969806,
                -0.02062729907830106,
                0.04419241687257626,
                0.024490709875734513,
                -0.05086106358844685,
                -0.046801683538448147,
                -0.06362847347659474,
                -0.07678478264219092,
                -0.08788498547004176,
                -0.03363944782776122,
                -0.04039515791551356,
                0.036788576515083,
                -0.0644681839611283,
                0.007895864362590513,
                -0.04256276976786193,
                0.002025818088916742,
                -0.004507242462768864,
                0.06307682362505052,
                0.017692120017070997,
                0.03774758873827091,
                -0.05479596372934751,
                -0.007596745045798273,
                -0.022438346726406677,
                -0.049121309191050479,
                -0.08946272434719963,
                -0.010190285286857783,
                0.1072366758090589,
                0.13099245263273252,
                -0.020451907136592025,
                -0.05882273101853827,
                -0.009311042652495135,
                -0.0039061878823182705,
                -0.05358127979481426,
                -0.007868274461382347,
                -0.020149474984168679,
                -0.0156807106799893,
                0.02983837172823913,
                0.04468648716247354,
                -0.021619276501462893,
                -0.09234785765271955,
                -0.07334928797140412,
                -0.1069009657164237,
                -0.025483822253814925,
                -0.020917374426227956,
                -0.04400523893922766,
                -0.0806140845385518,
                0.004644928925951593,
                -0.035007012583640337,
                0.02362877676137557,
                0.018188951302243508,
                -0.09128173929607225,
                0.009175087198463062,
                0.0019541418777295367,
                -0.05098892326191752,
                -0.011524547543172595,
                -0.029027734517340248,
                -0.027159551208982524,
                -0.0757380893382506,
                0.006172519079737341,
                0.05502584938081344,
                -0.0023009516882944388,
                -0.1276387365294884,
                -0.050459060958919849,
                -0.044614516287611028,
                -0.06265539059676716,
                0.05469193495415028,
                -0.038866042173757258,
                -0.026635411428338284,
                0.05329189565783222,
                0.010327591702912895,
                -0.020965029072974353,
                -0.059207439004609497,
                -0.0026348165198182497,
                -0.041883140826313749,
                -0.11884791094393532,
                -0.025549836037133717,
                0.005942972174352034,
                -0.08388538497632182,
                -0.08442620057761616,
                -0.10553749149862644,
                -0.025362051529050149,
                0.1099289646292173,
                -0.08711184343352729,
                -0.03836373277330955,
                0.0015478992479975099,
                -0.009756783264727426,
                -0.0506773835726265,
                -0.03774711681851503,
                0.0357589241583652,
                -0.02181840289406626,
                -0.026254954580860649,
                -0.028789033985603238,
                -0.03266453736065778,
                -0.0029808294382413366,
                -0.022523504147999967,
                -0.04772071031353804,
                -0.0344421239353649,
                -0.06490010434507147,
                -0.04571679488985935,
                -0.02095547685230391,
                -0.010418679994208633,
                -0.06877691273673377,
                0.05579912507789591,
                -0.02852832527120116,
                0.04493712830610608,
                -0.005040305203037817,
                -0.08720191785048417,
                0.0025881139535373369,
                0.030007899847900936,
                -0.035609957219249869,
                -0.0706734364619624,
                -0.012181127675656108,
                -0.025265819861242289,
                -0.009070823868415686,
                -0.015783548946741369,
                0.01519834473065508,
                0.026260022929378784,
                0.02163124700866025,
                -0.014127871334902606,
                -0.08571274453870705,
                -0.030392132716541763,
                -0.07914293808089905,
                -0.018797388797501384,
                0.03136158677218368,
                -0.04187750770937887,
                0.03480084268861585,
                0.039227991307278987,
                -0.04797142872657271,
                -0.008874113416041246,
                -0.07885517551351296,
                -0.00014244799196350144,
                -0.010191320941973368,
                -0.030816336113917397,
                -0.011106014854170642,
                -0.033547691217150999,
                -0.00538126415010133,
                0.03774054787046908,
                -0.02326799865336383,
                -0.06565971466331053,
                0.03337742062894634,
                -0.07412082636828675,
                0.010835770768359864,
                -0.024611572925080456,
                -0.04646066053324096,
                0.05790913346234795,
                -0.07126939810516324,
                -0.04985673666419249,
                -0.016951176375640664,
                0.011612945920672278,
                0.06250112200583549,
                -0.03791504402013707,
                -0.00542527569242657,
                0.06677161019604854,
                -0.059130387472454828,
                0.05868468502026875,
                -0.04119103465020703,
                0.021696309697269098,
                -0.07182560427310766,
                0.0020306032833432867,
                -0.02116725438088962,
                0.016246459808480247,
                -0.04875428389949652,
                0.017712476079843655,
                0.0032206032301198915,
                0.03242301523894533,
                -0.013923165708508885,
                -0.027749041393128356,
                0.009509171461890285,
                -0.035949708944900637,
                -0.013858162395010879,
                -0.017716191944556569,
                -0.061476884169237109,
                -0.003703490369939724,
                -0.011694989527743805,
                -0.028025730023533484,
                0.012954875487012862,
                -0.0256619986186357,
                0.011220768321106825,
                0.04617988741345012,
                -0.030728061633648275,
                0.11065651162496046,
                -0.05142190564480375,
                -0.04676420807829438,
                -0.06701903855168522,
                0.028162690324493729,
                0.0008029054966194379,
                -0.050670228429787318,
                -0.04819618045603342,
                -0.008474082798867029,
                -0.08505765347464685,
                -0.0664552765968956,
                -0.017108458936577664,
                0.03326750470041203,
                0.00433400438302212,
                -0.07761600556946963,
                -0.07014821743824199,
                -0.09091894730851585,
                0.028485899976575574,
                -0.009004663946386924,
                -0.035047325395378896,
                -0.03358928758342341,
                -0.07718647168642431,
                -0.05566687100957964,
                -0.04557636754987567,
                -0.011524089764414977,
                -0.02681552607575139,
                -0.04103746843501937,
                -0.01015447727746506,
                -0.003982499020327869,
                -0.06233341743114598,
                -0.012616045637284508,
                0.032749641228340408,
                0.011700040702685046,
                -0.07300980858099675,
                -0.018337587876603266,
                -0.00220860478594095,
                -0.011166890669662772,
                0.04495993120073925,
                0.006198060326979827,
                -0.03015813788499137,
                -0.05461031042349361,
                -0.002942615677570939,
                -0.0263434597270841,
                -0.04116483560910921,
                -0.03685815400111629,
                -0.0639060461073437,
                0.025238127274580515,
                0.11838021719317714,
                0.012365595068461803,
                -0.13000324082754059,
                0.008799989773901104,
                -0.0048377529027791399,
                -0.08789104810251107,
                -0.0759033863093473,
                0.004047626424228819,
                0.00783917398763689,
                0.09303880469822305,
                0.12519923339489248,
                -0.008365774714673091,
                -0.10606372056821757,
                -0.05221884370833565,
                -0.09183677937453117,
                0.0025452710854554155,
                -0.027574625875632868,
                -0.057060646601824947,
                -0.06490503362734168,
                -0.005197520352735191,
                -0.01620598144096255,
                0.017392545279317458,
                -0.011559678384006518,
                -0.04933496290844247,
                0.029383783806473077,
                0.02071534244489282,
                0.0025160723103506219,
                -0.02853809651184159,
                -0.007732743109404421,
                0.04791486748696789,
                -0.012774886602210921,
                -0.01432136552657344,
                -0.05264079281701418,
                -0.023372475181351484,
                -0.12213455676963162,
                -0.040412516143843116,
                -0.03695557124466619,
                -0.04215022893739275,
                0.004802709008212086,
                0.02380466794429578,
                -0.024244637941674878,
                0.07311354236212195,
                -0.014902218931859977,
                -0.015423386100606764,
                -0.04100594003159213,
                -0.06573791665128397,
                0.005418774187229499,
                -0.1395227034215478,
                0.04087309047295937,
                -0.025474048719477103,
                -0.010167433363671314,
                -0.0626863718935423,
                -0.1161589672309039,
                0.003944517782145569,
                0.01296522072439622,
                -0.08251720528651197,
                0.009047590707711101,
                0.03761553478274171,
                -0.07448696371767204,
                -0.006615826936484717,
                -0.022800596390091984,
                -0.01600090160991424,
                -0.09484840153045028,
                0.0602630089185714,
                0.00980166951917134,
                -0.04643269566799105,
                0.026610393771433286,
                0.01076478075159353,
                -0.021990621672172467,
                -0.00036155371152892896,
                -0.05145990911090464,
                -0.09632297504725378,
                0.008542620596251806,
                -0.019372128383525555,
                -0.037369870330842418,
                -0.029819891686557206,
                0.013941609781363737,
                0.09292506144822102,
                -0.07296994723977725,
                0.0043678550624835789,
                0.0013568956985752343,
                -0.03482121957675176,
                -0.01214213684493519,
                -0.050908724154923357,
                -0.11670559688918574,
                0.0034447177364408958,
                -0.008670587863681214,
                -0.05855409218720421,
                -0.03909864205570778,
                -0.054403667310934027,
                -0.00360939678607027,
                -0.037658162120616487,
                -0.05756293575637506,
                0.00421617338503563,
                -0.048489515915308808,
                -0.0059167151061663,
                0.026519269257486136,
                -0.08406516081617605,
                -0.026630069024952287,
                -0.09688865839708547,
                -0.09596698423674383,
                -0.0750805428109028,
                -0.05084769074426102,
                -0.07809783011952132,
                -0.03259805656956097,
                0.0014315409573205927,
                -0.005410610831872406,
                0.02405023883769254,
                -0.13058159209026938,
                0.052836056181179136,
                -0.034908519658945837,
                0.03475302005187706,
                0.02985371470373374,
                -0.051494263088105,
                0.061968975279443439,
                -0.04815068230538452,
                -0.05008358374887238,
                0.07043839473789873,
                0.0028241119945386038,
                -0.02343613865698372,
                -0.03841105284651468,
                0.06059178116535978,
                -0.02716010618582813,
                -0.03994211935222468,
                0.016227368257683475,
                0.10081925719530179,
                0.021379332445113799,
                -0.024331468965005995,
                0.024304387598360397,
                -0.008920066382083127,
                -0.05180376425114542,
                -0.048623470090455447,
                -0.04750200426610991,
                0.0006984673748540697,
                -0.02229715751966583,
                -0.004924379734745706,
                -0.06550637206512614,
                -0.007106548697452233,
                -0.04885354810695197,
                -0.04627559153559725,
                -0.054083942994208929,
                -0.004633595109184542,
                -0.05726802107343068,
                -0.05898018524323202,
                -0.007465516564621329,
                -0.017017819074803425,
                -0.029122997538516,
                0.0011407483704785552,
                0.02299191595132908,
                -0.06762986425142692,
                -0.0499251445943934,
                0.06757290537228886,
                -0.031424009729265189,
                0.09216735067435529,
                -0.03113647776001487,
                -0.021900635657841,
                -0.0029169173751301777,
                -0.06903855917881759,
                -0.011272877801859512,
                -0.06014792101094237,
                0.001662872193724657,
                -0.0357372058037647,
                0.005560460013976147,
                -0.066181652491519,
                -0.058457722068417709,
                0.02043931080816806,
                -0.0010769755040009582,
                -0.07885611813876471,
                0.02140137800894455,
                -0.048017040171056808,
                -0.04882249197371119,
                0.019407712265017936,
                0.01630500552331698,
                -0.03613820585630032,
                0.0016736613180415995,
                -0.06210131677190455,
                0.027544169158703188,
                0.00007962363963336623,
                -0.0770935365601357,
                0.01754418293158091,
                -0.036050104631214028,
                -0.014397224609508625,
                -0.05632168161708727,
                -0.0011547519732033397,
                -0.0031839021426978795,
                -0.010456293305906117,
                -0.11528275274632896,
                -0.08102869336581979,
                -0.031340362968943099,
                -0.020832654290226,
                0.10272015798779498,
                -0.05967596137893092,
                0.06495147395466013,
                -0.0012321220469407985,
                0.03477331811179469,
                0.01925682150990571,
                0.0009999511475302645,
                0.0204099976679514,
                -0.09013375512152285,
                0.030209563488561344,
                0.11739097375608058,
                -0.026608527004577329,
                -0.15644620783161759,
                -0.04546478791597626,
                0.028412294255182867,
                -0.03377760877786597,
                -0.05612976650522724,
                0.010003067280985078,
                -0.023957546507795338,
                0.049544932188014239,
                0.03277771690541582,
                -0.012896505165072067,
                -0.030782003480763929,
                -0.0007784209909430449,
                -0.0306424721172107,
                -0.06633690230789297,
                -0.061220558936176717,
                0.029388944035929608,
                0.003373744427521059,
                -0.01724724286178888,
                0.03758195967839311,
                -0.001622948324242739,
                0.012216874188195309,
                -0.05085029514499151,
                0.027333562850401794,
                0.00613201212589725,
                -0.058357559931305539,
                0.033776018891483839,
                -0.07603008671446667,
                -0.006079176416139741,
                -0.05391717428770726,
                -0.04127092187753137,
                -0.009626265340609099,
                -0.048919846188070607,
                -0.006380523473157633,
                -0.06671692402367993,
                0.0014930135893564062,
                0.009937851667031022,
                -0.021474063613302276,
                -0.07317085431452289,
                -0.028303405669296155,
                0.012915000050547972,
                0.0014509453460769926,
                0.016015661416208177,
                -0.06533846955436137,
                -0.05398216468917118,
                -0.06920458844603428,
                -0.15748237342023009,
                -0.026213944531236618,
                -0.01536096878823828,
                -0.03755330117551364,
                -0.0015770796712597264,
                0.008122411231366533,
                -0.011487615113689502,
                0.020822011792845209,
                -0.07517197176727419,
                -0.0501826281249353,
                0.008040232826552392,
                -0.031156570821563289,
                -0.005933288290290037,
                -0.05740782558501327,
                -0.061733007617091158,
                -0.031120674447042974,
                0.041313414904794138,
                -0.0007709286763538076,
                -0.06310690559931275,
                0.027918026981335357,
                -0.047910047014007157,
                0.025624120200561666,
                -0.03750635318116972,
                -0.04628339985471199,
                -0.045261927041401379,
                0.03311911877583207,
                0.010683688746230914,
                -0.07742993288539765,
                0.016853219746169689,
                0.0350672541475501,
                0.07212697630672284,
                -0.060123154507263649,
                -0.028616188874073964,
                0.030641707476798037,
                -0.049152958676347887,
                -0.004226205666805837,
                0.006647060516255997,
                -0.058966704807524899,
                -0.003689790723549185,
                -0.0688087503625202,
                -0.01668517739330779,
                -0.027302631046555255,
                0.010959999632924772,
                0.02458478840411769,
                -0.07147326263249815,
                -0.05969260303891725,
                -0.04403214741169667,
                -0.0004040802614433199,
                -0.011735227259271007,
                0.01974280091546946,
                -0.04301786709449992,
                0.015212704092012404,
                -0.10879736894381924,
                -0.07664021540081079,
                -0.012389098224870433,
                -0.06371985438685174,
                0.015173272735763299,
                -0.05366168638187102,
                -0.026086897592333789,
                0.04729754331373615,
                -0.043158404575203767,
                -0.05781438749970561,
                -0.031391043036403828,
                -0.09237483479104929,
                -0.022710090822934623,
                0.01299737944760153,
                0.001832601553806849,
                0.01188837721649962,
                -0.0649520551242916,
                -0.05652042348858407,
                -0.04608263977666101,
                -0.0011027218083906224,
                -0.01710986486040099,
                -0.04485329218162015,
                -0.0301642885915775,
                0.06823843445379961,
                -0.03658381630900164,
                -0.008489227938268944,
                0.007028679629997729,
                0.011087124002303134,
                0.007538672940327665,
                -0.005426596030827672,
                -0.01473568259544137,
                -0.06671582001456539,
                -0.046373150260013398,
                0.013892133460510714,
                -0.07720603131498714,
                -0.0480022571825559,
                0.02736452102675303,
                0.015254889282394166,
                0.02818780455654089,
                -0.009766051490989332,
                -0.07291090395684429,
                -0.02171891298809043,
                0.014376267573113092,
                -0.0551987300120134,
                -0.09874829117170128,
                -0.054274318987054339,
                -0.04507364638760874,
                -0.026580319118995167,
                -0.048280767676393259,
                -0.020756021982754705,
                -0.019216321663023736,
                -0.06816871462952067,
                0.00670673833494479,
                0.0068949568277478809,
                0.1150729714022201,
                -0.06884911552604149,
                0.019618874697865504,
                -0.0815165307782183,
                -0.06470821251408136,
                -0.06854275338970172,
                -0.06598996086784871,
                -0.02947719452384017,
                -0.04699278079335478,
                -0.05192638993588049,
                -0.016371643964017077,
                -0.00536886981645684,
                0.014222929717534243,
                -0.02071513924347091,
                -0.04331936653334207,
                -0.005503401676465321,
                -0.09924125253476082,
                -0.027226074676103476,
                -0.036771420871205637,
                -0.015686982881035134,
                -0.07021392199746658,
                -0.0345349581077569,
                -0.06943209222875098,
                -0.03174010165088961,
                -0.01606762394540223,
                -0.04691544456561263,
                -0.03038657866076427,
                -0.03960559989159683,
                -0.07530392077189958,
                -0.0785022018964243,
                -0.0696943471236938,
                -0.009287471617279986,
                -0.0484165479810978,
                -0.04563993578017295,
                -0.03461689203083478,
                -0.053427166949966058,
                -0.02038991864810788,
                0.12863276605542424,
                0.00134118745641105,
                0.04493908545266893,
                -0.05055153304304104,
                0.03343121739574698,
                -0.04008544039129026,
                -0.03211097151122813,
                -0.05762205741867585,
                -0.056158096158748057,
                0.05226488658135432,
                0.09059195889699424,
                -0.032302079968367067,
                -0.06622036956224643,
                -0.031367650704808489,
                -0.03616075066319764,
                -0.0667606151148253,
                -0.010844061319113278,
                -0.055962043135388547,
                -0.009516336471040815,
                0.08134545957676127,
                0.04596064796335577,
                -0.060313077635068438,
                -0.0672323664843275,
                -0.0057438390789920179,
                -0.005239102515548894,
                -0.03720915809835281,
                -0.06345717233580069,
                -0.04358672308246942,
                -0.058942905665333108,
                -0.01541640549251628,
                -0.041480208137155017,
                -0.052545237508722048,
                -0.04067861673111067,
                -0.09413794261936459,
                -0.030829568410288185,
                0.04556073080963746,
                0.02323570270004673,
                -0.050905756850063297,
                -0.09174428081213039,
                -0.002241758945719934,
                -0.05768460193567729,
                -0.08219622791339702,
                -0.049260554159234217,
                -0.07143689317753639,
                -0.018636373802345838,
                -0.045308993271547418,
                -0.027981365378997443,
                -0.015354514273530282,
                0.03896910499224334,
                0.004608924981085734,
                -0.03622464063296628,
                0.05225484713693128,
                -0.006849955168325261,
                -0.06909930713299627,
                -0.08563948432480062,
                -0.015548590292416594,
                -0.07245643119601879,
                -0.08400737729847158,
                0.01468414689346366,
                -0.04771344885631181,
                -0.07820368188827533,
                -0.07919252410250007,
                0.0006516987006534781,
                0.005680041521643799,
                0.05974744050839039,
                -0.06451490458978865,
                -0.029629477356639897,
                0.02552118894953178,
                -0.06554205264964544,
                0.0007914669045721709,
                -0.027009606678896997,
                -0.05381529985050588,
                -0.10517110763492282,
                0.041087010269155187,
                -0.08740375784964921,
                -0.00789774294568712,
                -0.003996893940720796,
                -0.029334539780759489,
                -0.06727499932338063,
                -0.07487218858269625,
                0.00524974868403571,
                -0.036371206101637579,
                0.012144223656722235,
                -0.025555370506097607,
                -0.0863137957881885,
                -0.001018418746544602,
                -0.008837861017560938,
                -0.011648705488467639,
                -0.06797977218810006,
                -0.01431648708758905,
                -0.034613072836752068,
                -0.0405337889461875,
                -0.03477260196134896,
                -0.07231803418870804,
                -0.11999035625744022,
                -0.0000044098466682179419,
                -0.053996608743036269,
                0.0028409583379111495,
                -0.012773705955650028,
                -0.04520564723770315,
                0.01606697415653375,
                -0.001030979236775113,
                -0.07047684164723062,
                0.005342798476686699,
                -0.06314426075827127,
                -0.04508974601377066,
                0.0470967333877577,
                -0.011816079297065097,
                -0.05065336580161574,
                -0.032284518335731347,
                -0.022329518711946565,
                -0.0184923729648952,
                -0.00464507801834997,
                0.00733586563051636,
                -0.025641614845553146,
                -0.0157047474068674,
                -0.006927705586805069,
                -0.01899340036915571,
                -0.0214904519901154,
                0.021364571828291297,
                -0.02726497002475561,
                -0.0314507011710391,
                -0.014961038461289954,
                -0.09632433995560472,
                -0.004987535870559693,
                -0.028791663591189379,
                -0.011537134789269032,
                -0.048526426391419668,
                -0.026293840828529929,
                -0.020709475661670606,
                -0.04670697827959837,
                0.02487177477342557,
                0.06598824675430605,
                0.030342245357179766,
                -0.050592894795741947,
                0.1335661916534528,
                0.02122038264371226,
                0.005180005260426061,
                -0.08159140265782197,
                0.020783894839358775,
                -0.07209966538554397,
                -0.008727691401390192,
                0.006116162712372403,
                -0.024630813942776655,
                -0.007842628833269946,
                -0.021824709597821385,
                -0.035698680648021657,
                0.019563291525994097,
                0.006907111678894179,
                -0.04115052997807043,
                -0.08604640015677763,
                -0.02107624016824007,
                -0.03401295346923585,
                -0.024056616652759809,
                -0.06104777374091575,
                -0.04105544026194289,
                -0.0577067989329236,
                0.008138182961750474,
                -0.026843348468912136,
                0.0016352887783970707,
                -0.043681682367493358,
                0.01984420816645416,
                -0.038288330534177707,
                0.11351739247172009,
                -0.05849198706708014,
                0.0381814130107263,
                -0.05639792610377129,
                0.023782354687517945,
                -0.04387718104201476,
                -0.037893296691732438,
                -0.014750154294256515,
                -0.07776766679305239,
                -0.035050723801439687,
                -0.006550127831980465,
                -0.03995319332560026,
                -0.053070557268043289,
                0.00037813141089365534,
                -0.07742587252810215,
                0.00710244400626697,
                -0.06732950853948124,
                -0.06575271133658083,
                -0.06418361372497732,
                -0.030624192578621116,
                -0.10825524946448087,
                -0.05325742813820637,
                0.008356162225583521,
                0.01573479386301097,
                -0.0031114275287218,
                -0.05136453879010041,
                -0.07663198927664403,
                -0.00060133230106457,
                -0.02149436993020148,
                -0.05826388699907641,
                -0.07431050418189562,
                -0.01542379503482162,
                0.03243903740745158,
                -0.062001355838784178,
                -0.09423382484893639,
                -0.036682861018927797,
                0.022431749875620606,
                0.015197562217103628,
                -0.034116096262345216,
                0.008022834487260706,
                -0.058716812786166448,
                0.06725216512318469,
                0.021837196661819839,
                0.025946270423377324,
                -0.010210643755395778,
                -0.06176615258928705,
                0.025360538021879824,
                0.0744493093303828,
                -0.031510959641572019,
                -0.13877565961648173,
                -0.0651594509881312,
                0.023487838744072333,
                -0.0687773104935784,
                -0.04152667734296352,
                -0.06512222829828912,
                -0.026947467799110754,
                0.025635154060580278,
                0.022173940291997826,
                -0.06134761055077711,
                -0.06797102726278151,
                -0.02988033243421834,
                -0.02923749736402547,
                0.018198196851384485,
                -0.004979653144846845,
                -0.0375754838452611,
                -0.06734644260429787,
                -0.029644404841304825,
                -0.008313983475709636,
                -0.007433393836873579,
                0.0049697357828546889,
                0.016451514386364119,
                -0.025169499951698348,
                0.06316558835994626,
                0.01696445465484358,
                -0.07104153488319234,
                -0.017408613420899258,
                0.020917428769510458,
                -0.019725073389546919,
                -0.011471432586718879,
                -0.06565247990165485,
                -0.0351855964010126,
                -0.07683257133025728,
                -0.017129620067777786,
                -0.00034029467360511265,
                -0.060998784480946938,
                0.028965426669587615,
                -0.06196559342785418,
                0.0005783397599631489,
                0.02013959599835807,
                0.023957120072262754,
                0.0124464096530621,
                -0.02835113444806012,
                0.01971822085390998,
                -0.00887079492514989,
                -0.0785788325809892,
                0.012194408825757867,
                0.00797601297357147,
                -0.07945338875916572,
                -0.018975731801442409,
                -0.11193942739773168,
                0.01729962760684499,
                0.06555057299000052,
                0.011991458326018868,
                -0.05982416503586075,
                -0.05382069807063142,
                -0.0015107226695135299,
                -0.0739487424345697,
                -0.03443710874802075,
                0.0006198996593536999,
                -0.04809830276027819,
                -0.030438414417613515,
                -0.05201715693578613,
                -0.010325485213499589,
                0.019726285891794247,
                -0.06520998949727881,
                -0.05306029391119253,
                -0.006406293337053882,
                0.02970054309146107,
                -0.05928839274017352,
                0.037490847570633718,
                -0.06114046074512695,
                -0.028544725646848177,
                -0.07135265804201141,
                -0.06717146168142144,
                0.08386859748073193,
                -0.05270730092377001,
                -0.05514648652452403,
                0.015487833795485717,
                -0.04467973972552502,
                -0.03624139217252157,
                0.014264690253774783,
                -0.10681404765975654,
                -0.025889751699056167,
                0.0047795416023061949,
                -0.014379318474033398,
                0.005084129635371124,
                -0.004551549935476879,
                -0.0012437816111302424,
                -0.021945450062204255,
                -0.04977853547818471,
                -0.044335777867435328,
                0.011388154596072897,
                0.02979128589630211,
                0.07541157609388796,
                -0.03895112953955465,
                -0.0225527013306147,
                -0.08542438758690145,
                -0.06850608248600751,
                -0.007577074042604004,
                0.0020737021122532,
                0.015115860114888327,
                0.033985955735905789,
                -0.00517680444220121,
                0.041212479591707828,
                0.0249061468812617,
                -0.08941100132027333,
                0.010731953907233869,
                -0.01952536815559829,
                -0.0036926999672863998,
                0.0511029659757479,
                -0.07045029729416705,
                -0.0459145213531589,
                -0.037409726061235489,
                -0.038538252222888969,
                0.04136622119537099,
                -0.004514329676288437,
                -0.040019065660942609,
                -0.09528370086600693,
                -0.0409900217534442,
                -0.016820339418753179,
                0.0002433677231655333,
                -0.0015382283976850258,
                0.032699546652362247,
                -0.048096722705526128,
                -0.01376823396348891,
                -0.06472806503348426,
                -0.01553964730744311,
                -0.09478762635451375,
                -0.05044828899918511,
                -0.04541508795627404,
                -0.04482034017680185,
                -0.070421302228019,
                0.03690398720805196,
                -0.043322331280559598,
                0.021763729230553923,
                0.02572454242322792,
                -0.03775998063111324,
                -0.041141597602377118,
                -0.013195390309603966,
                0.0072257044314488279,
                -0.1008562816296966,
                -0.02816929305783421,
                0.03198680597347024,
                -0.004574378551230597,
                -0.0027268532870558905,
                -0.05049395644080233,
                -0.03493173086139072,
                -0.043925825219758667,
                -0.004282522092387511,
                0.0027391324762522345,
                0.07404133389027372,
                0.01531986540396435,
                -0.02471202551107362,
                -0.01460540756206418,
                -0.038063690046918317,
                -0.060692366131946718,
                -0.025009941276564256,
                -0.02747980277144105,
                -0.04658707198634438,
                -0.012775048558662569,
                -0.04404815027450794,
                -0.03243789045923598,
                -0.013277480095097364,
                -0.07057676784734905,
                -0.026448387000042416,
                -0.023389084748494258,
                -0.048294456387699819,
                -0.05417436536721794,
                0.00034972119318519705,
                -0.05487017751011067,
                -0.07050889325434041,
                -0.03085180959366974,
                -0.007071194365687125,
                -0.020122991627600077,
                -0.049638340270168727,
                -0.033593976335141547,
                -0.029742650341609546,
                -0.035458418491070797,
                -0.07364167377177763,
                -0.04298983685802432,
                -0.02161844081988178,
                -0.028515468875966927,
                -0.07329447120345611,
                -0.03526587078095723,
                0.0048004379647474779,
                -0.026386113943244688,
                0.04761293139368828,
                0.05266022970558286,
                0.021471040531897878,
                0.05604600389402755,
                -0.04831486549531313,
                0.07973677864977225,
                -0.054962094250551599,
                0.01875385229969572,
                -0.08194176630265322,
                -0.04172661978148205,
                0.039772455719342198,
                0.1318109837719973,
                -0.03441458201477075,
                -0.09208527671460813,
                0.0037978910236379675,
                -0.019740507685396079,
                -0.057109983743919418,
                0.050789787993637949,
                -0.043864448135873399,
                0.022596168385835288,
                0.06935311746761065,
                0.0844682197075222,
                -0.048264337682326029,
                -0.05010887873753799,
                -0.026709728935074323,
                0.019142450874695253,
                -0.024612764167708705,
                0.01991654594504242,
                -0.0503270676805646,
                -0.06482998505660738,
                -0.036154062210214697,
                0.01946927228053279,
                -0.058330027450338658,
                -0.03037109493626343,
                -0.048836694191921787,
                -0.014874573955905925,
                0.01571775515812262,
                -0.0337336319734989,
                0.0002726093165423704,
                -0.015048436161389456,
                0.029028093450994415,
                -0.01251278685332008,
                -0.026221919252017717,
                0.0010185482547678685,
                -0.016746212364501867,
                -0.033229742461117438,
                -0.027785233598312164,
                -0.006838843390705573,
                -0.012254993347112392,
                -0.03021753177915103,
                -0.005091526322471855,
                -0.07884093733188236,
                0.0596358535375644,
                -0.04104592032580133,
                -0.06469240776098777,
                -0.05386412479464526,
                0.039194927813555279,
                -0.06408109966944239,
                -0.06761274423916744,
                -0.004045760722279284,
                -0.0315495256028496,
                -0.0866175667526137,
                -0.017422955882366459,
                -0.0044837705445589979,
                -0.052054986447591818,
                0.11420198514842243,
                -0.028035624470023038,
                -0.0008154892536196297,
                -0.05973862109764176,
                -0.052368182910317289,
                -0.03772177259894592,
                -0.06575115037379789,
                -0.06991612939394651,
                -0.06518937081806205,
                -0.024858299957422039,
                -0.04648609079459427,
                -0.04190304991123185,
                -0.01951459271192113,
                0.017696391787594105,
                0.03960366889281389,
                -0.04714434692958455,
                0.013844806144918939,
                -0.07546738610220279,
                0.031558187827913818,
                -0.028347180381011355,
                -0.05969304366412635,
                -0.028157124379871145,
                0.0324567232488592,
                0.08145133516760067,
                -0.07248358418745248,
                -0.03267146401807715,
                0.023417220668118609,
                -0.028227338920093667,
                -0.04567052705540082,
                -0.009765336166090731,
                -0.10463098575326459,
                -0.03252222940344179,
                -0.006210644013245381,
                0.024356524649109449,
                -0.04627333685142697,
                0.00908222227167749,
                0.0008050151190544059,
                0.004314709990208792,
                -0.06679784926388835,
                0.048591119132777107,
                -0.01393365880938944,
                0.02331241920325364,
                -0.004261968478736303,
                0.023356330874388825,
                -0.001121888306012545,
                -0.05874649123062186,
                -0.057064885704118706,
                -0.058902521914197428,
                -0.08020839592261228,
                -0.04669450421509021,
                0.014981647507791586,
                0.010693374093524873,
                0.013137744119202785,
                -0.0030475330517291297,
                -0.018474308290695176,
                -0.0267149704195014,
                -0.014399063422990357,
                0.008878945485436919,
                0.024545459335280345,
                -0.05062423756667921,
                -0.002786800842841228,
                0.011556014093473129,
                0.003510009658987055,
                0.023447734905164349,
                -0.06784177858383318,
                -0.03598587556779417,
                0.008994712343105957,
                -0.0027442879646478169,
                0.020893670615657883,
                -0.03286792668146242,
                0.009416154195736184,
                0.09632319509528067,
                0.02729858659658867,
                -0.003039135523183216,
                -0.0003330812671811464,
                -0.027189664885168525,
                -0.0654854854302101,
                -0.07276594535751262,
                -0.06942067962354522,
                -0.07162765437605619,
                0.006246695973494156,
                -0.04052261499461299,
                -0.03140751131490123,
                -0.026848614098157244,
                -0.052899057824659267,
                -0.042912595147818689,
                -0.049214840756921129,
                0.022453586697355474,
                -0.03975565239553124,
                -0.10548632751226013,
                -0.010282309632138649,
                0.00023669633185485308,
                0.002925620538387223,
                -0.05535559933853212,
                -0.040832845603674377,
                -0.018006329409651395,
                0.00745762224197924,
                0.011799542323465303,
                0.00006209664767091748,
                0.09808446827845817,
                -0.05118133497125249,
                0.03450733046890931,
                0.013871841431310687,
                0.007603714491544834,
                -0.07087914114402788,
                -0.024402173315164919,
                -0.09328426961640747,
                -0.009381394041161121,
                -0.002611944097599894,
                -0.07008535794285523,
                -0.0835982974357144,
                0.011906428546587744,
                0.0037461854709805676,
                -0.0010270707280818667,
                -0.06009639605839569,
                -0.051325775974666868,
                -0.01717989008813949,
                -0.01990348438072247,
                0.015225210493293534,
                -0.049210177517664,
                -0.01655680380305295,
                0.014196275708919225,
                -0.01730108280071766,
                -0.04142845839806121,
                -0.0580859035002931,
                -0.05447705510548125,
                -0.07682039959711298,
                -0.04964748326165954,
                -0.0035429863029392027,
                -0.0016701605859085467,
                0.011901806929329554,
                0.03686646101860039,
                -0.089374457581339,
                -0.0600863664793072,
                0.01442072803565744,
                0.02892136207170489,
                0.03532866333628942,
                -0.007925137655511063,
                0.004783937899082067,
                -0.01995496076776005,
                0.026671328585723888,
                0.005323669543005538,
                -0.06474501778675479,
                0.00995293955459924,
                -0.10126689295805026,
                0.06137303471940049,
                0.1017073272821007,
                0.04719689240226654,
                -0.12790196802021545,
                0.006349674538040548,
                -0.048066867248490737,
                -0.08554839913038655,
                -0.01073717573921956,
                0.026723278792824005,
                0.04101039209727145,
                0.05656790826376444,
                0.09053530923977168,
                -0.04450912957732854,
                -0.054736045424791487,
                -0.010381397793698727,
                -0.025563970875248526,
                -0.008626267053411038,
                0.00204227646041159,
                0.02718607156594505,
                -0.02592528374844995,
                -0.08140944151391753,
                -0.031030869180699015,
                -0.03279470797282154,
                -0.07057168408504217,
                -0.06172134941735764,
                -0.01635717344592658,
                0.08837968833521035,
                -0.0056996392094897829,
                -0.07070434017869182,
                -0.04107406331971502,
                -0.01590725062686918,
                -0.023152163333366624,
                -0.04578035679141238,
                -0.05554736968527096,
                -0.047343609964745087,
                -0.06501761772727882,
                -0.0667654249901686,
                -0.04422405766315158,
                -0.07837463399882,
                0.04221344485276572,
                -0.03735218905257823,
                -0.03268945179393214,
                0.047159968840266398,
                0.0016482060904460499,
                -0.057258197144841507,
                -0.04351531273964433,
                0.01191314242335545,
                -0.08634377051748306,
                -0.14113614641216599,
                -0.033905915789158459,
                0.01892641213099054,
                -0.007986142195789692,
                -0.07327310225099935,
                -0.06471504294678872,
                0.04429367741081077,
                0.1118686190723103,
                -0.04618757498559515,
                -0.007761381265981723,
                -0.0643270080253203,
                -0.034664666014350097,
                -0.0481358900539653,
                -0.031296327098528257,
                -0.048855656655528729,
                -0.043217468741859939,
                0.03143111006566182,
                -0.02310451947156453,
                -0.06387678763764009,
                0.020533727897333273,
                -0.05888192217761454,
                0.007722341770199069,
                -0.05711086495294239,
                -0.05192072246209569,
                -0.020823709803375533,
                -0.019856942860439307,
                -0.0640477295024791,
                -0.03399292482686853,
                0.023648765186403757,
                -0.010999757863803089,
                0.06259416002192762,
                -0.0022822724441039835,
                -0.022973688029976279,
                0.0217702238399098,
                -0.01982484030550636,
                0.011982715102071775,
                -0.02710839236263827,
                -0.10816228486849863,
                0.022199333269020548,
                -0.06583127523614139,
                -0.00418382551379729,
                -0.026337579037488885,
                0.026283012433899919,
                -0.005742296749611072,
                -0.05295208074808689,
                -0.05698698170030277,
                -0.02846975908599512,
                0.0006075398711024603,
                -0.045197140963041029,
                0.02362407292047164,
                0.003968762938774675,
                -0.01609821767172223,
                -0.05780336261869086,
                -0.08766309233256473,
                -0.10059271598233459,
                -0.029767274860150854,
                -0.04123243763730767,
                0.004611487444204228,
                -0.06795153793277627,
                0.033414986604833659,
                -0.03174838864265667,
                -0.05143186537401339,
                -0.04748809095461953,
                -0.017534111017069404,
                -0.06484744018029892,
                -0.04359456151991267,
                -0.10599510339538974,
                -0.01153012576513615,
                -0.06760670431016919,
                -0.05473038114046854,
                -0.023189157096066814,
                -0.030953498393585654,
                0.04171103720564799,
                -0.054216073286110447,
                -0.04577587052273455,
                0.04890634328063732,
                0.01884332740012876,
                0.012687755464610177,
                0.09674812969476751,
                -0.0489257637559446,
                0.028740265485057656,
                -0.08161282842787798,
                -0.035237450928032428,
                -0.013352493555239825,
                -0.024601471955602685,
                -0.07928765540906174,
                -0.021921448669466337,
                -0.03462748355033622,
                0.011169677091629284,
                0.029469031583281625,
                0.018437555123532558,
                0.012985969714983403,
                -0.08631833566507764,
                -0.028065174346478099,
                -0.0017490828611950098,
                -0.028034886102199224,
                -0.06482467123336229,
                -0.08703730971968092,
                -0.05370404768739089,
                -0.07272395011320709,
                -0.036189653546505929,
                0.021022744650788774,
                0.001903492583253649,
                0.01927127578956207,
                0.0395417658266764,
                -0.02562642913327719,
                0.10502885494266107,
                -0.046269627730643348,
                -0.033553689892448317,
                -0.03770636491282941,
                0.012120884924492058,
                -0.053397844278890129,
                0.023939716415781743,
                -0.0942546481679069,
                -0.05695094893862985,
                -0.03392094514031582,
                0.0037561120079098754,
                -0.0714131374568728,
                -0.05045273224084176,
                -0.055961133422033088,
                -0.0016698654268134603,
                -0.011398564517909859,
                -0.01336859017569038,
                -0.04242410927954458,
                -0.017109199904582659,
                -0.032650154848367658,
                -0.04241112608130887,
                -0.0678868112147347,
                -0.015185059043160403,
                0.017333983469902827,
                -0.042457182925733017,
                -0.04219778403984005,
                -0.007365097504666941,
                -0.01514898764702988,
                -0.03631999080312235,
                0.0041354182969721669,
                -0.08651622197014572,
                -0.0064324306537492949,
                -0.0710381378062782,
                -0.0959440356129143,
                -0.08918347576360918,
                -0.05461324208577133,
                -0.027288085172676725,
                0.039689907607106288,
                -0.05392912848812197,
                0.03145785265364895,
                -0.020680044255337587,
                0.0002771976131766646,
                0.021324396457081526,
                -0.0637298603346246,
                -0.04092088345985425,
                -0.04409698662120151,
                0.10350147414673938,
                0.02345931710369984,
                -0.04701958195025742,
                -0.08949113742713356,
                0.01631048753045861,
                0.004703893071810294,
                -0.10777078398685362,
                -0.030892919605688738,
                0.026445831302312658,
                -0.006030544827350351,
                0.08478729866905538,
                0.08802199697817598,
                -0.05508769846842062,
                -0.08869184856080775,
                -0.036347413319629807,
                -0.08097153064546917,
                -0.03836927042437851,
                -0.057762774772804007,
                -0.03569282299382861,
                -0.050593596509851328,
                -0.00858755303625353,
                0.043043235148189317,
                0.01876602712393391,
                0.010275998192865685,
                -0.05799349901918376,
                0.007051861269887871,
                0.0933211549119828,
                -0.028584621237157737,
                -0.007236227562580318,
                -0.06630673569184806,
                0.07127390691750245,
                -0.08495789523874363,
                -0.03598809540560119,
                0.006902306092506623,
                0.01344001867395127,
                -0.04286212702059446,
                -0.04034790485036364,
                0.045842533398846297,
                0.016942259713057886,
                -0.012738749172118059,
                -0.026265184764839006,
                0.022669170202830555,
                0.03197534074790381,
                0.02812676437349926,
                -0.054399735028284778,
                -0.08190625406456777,
                -0.03891184460766475,
                -0.0835834394547429,
                -0.06814032707536473,
                -0.002521722063188705,
                -0.008992584841834385,
                -0.08476658383149836,
                0.013525777936414746,
                -0.10087987096444765,
                -0.023686630897708596,
                0.08380295265029152,
                -0.0890733179088326,
                -0.061132564145539598,
                -0.008481229039950319,
                -0.04457850473401175,
                0.012295361965613188,
                0.010242123566975769,
                -0.030227441354689158,
                -0.04717476194531147,
                0.06019868908158215,
                -0.017483199425015314,
                0.006549950317911325,
                -0.0432188477499583,
                -0.03037178591678421,
                0.03486557938596736,
                -0.02855148367438006,
                -0.002542874160913602,
                -0.07169943873125667,
                0.02219742651635843,
                -0.0013647453223668177,
                0.012554217779086224,
                0.014444333669016289,
                0.03582056834860743,
                0.03812269780216158,
                -0.0659370268016785,
                -0.02833992808137508,
                0.026193703200443113,
                0.003188840625761171,
                -0.058728489819518687,
                0.015737083799501607,
                -0.07408692663269877,
                -0.017035857248954714,
                -0.01140938085105808,
                -0.015582818409629348,
                0.009445998236325373,
                -0.029890686682515986,
                -0.02387076008155459,
                -0.07570904389950897,
                -0.04988882869619035,
                -0.05108271422075855,
                -0.011799833098885106,
                -0.028001989810622627,
                0.04409419337061429,
                -0.069589841142623,
                -0.042099881771841398,
                -0.06303077253851992,
                -0.037565866116171919,
                -0.03405332503980919,
                0.0022850360157486216,
                0.014132359006220192,
                0.04957222204369211,
                0.02499349586970843,
                0.030983427450501367,
                -0.03862208383300159,
                -0.05773805231879246,
                -0.029453304621224469,
                -0.061588963807905749,
                -0.029354452027403258,
                -0.0320025156620174,
                0.015237504379104967,
                -0.05649148923806993,
                -0.03683579470681624,
                -0.06956476665467865,
                0.025296520966854767,
                0.05277187056064225,
                -0.012216020126337008,
                -0.049071822275553147,
                0.03266113722404721,
                0.01772999992139275,
                -0.007130837343429685,
                -0.05211931631588595,
                0.04769268338990671,
                0.007645590667252754,
                0.026328088431467154,
                -0.09285203699766243,
                -0.013962665388584379,
                -0.09998308906172596,
                -0.02915685875814837,
                -0.05169468270247084,
                0.013547450857874594,
                0.017876400776306875,
                -0.035114898987546789,
                -0.01889653366209507,
                -0.03228598763475512,
                0.036489602780759518,
                -0.013773284750554298,
                -0.058556594146568049,
                -0.054611104549261119,
                -0.0592458102942645,
                -0.04618878970313368,
                -0.08035930694723144,
                0.008639716211774994,
                -0.012787034558246216,
                -0.020671672598592124,
                -0.04188934416079636,
                -0.06316009597095877,
                -0.07057711701858373,
                0.0814790765575199,
                -0.03769000639345169,
                0.04051852612593767,
                0.017779655381995015,
                0.03897732913219978,
                -0.04812294607143066,
                -0.039007652410967218,
                -0.004092098440269275,
                -0.03645937038354228,
                -0.06505179765423197,
                -0.04305264821007247,
                -0.06299911586498838,
                -0.0046791133285916338,
                -0.0673235120490608,
                0.002406345953527004,
                -0.04540860545643682,
                -0.03216346824604984,
                0.028070556492457857,
                -0.0012455741748623267,
                0.03577971325604159,
                -0.0702825818820621,
                0.00019685538496347807,
                -0.07829078182835217,
                -0.09427612499081133,
                -0.047282916547856487,
                0.026510119699487319,
                -0.0019152112899872613,
                -0.06562559831089125,
                -0.00760064237729923,
                -0.005293829470014272,
                -0.0254815323663857,
                -0.051403989321870197,
                -0.004598641863064083,
                -0.012361880529330825,
                -0.05739634627542045,
                -0.08761076568598064,
                -0.07310388730856561,
                0.03545736278948623,
                -0.029174332175701754,
                0.08837572374162392,
                -0.048710328772214959,
                0.028392739876947925,
                -0.03557801204093489,
                0.034733460545621267,
                0.019877177410114658,
                0.007371973539708889,
                -0.06744365123553768,
                -0.04795828598683263,
                0.004594409195185181,
                0.06507690438086625,
                -0.04072626342366557,
                -0.06536607163462041,
                -0.03928807597512774,
                -0.045227475826193987,
                -0.013662085351294143,
                -0.056852055163222187,
                -0.07232309693714144,
                -0.05897325590315092,
                0.0839631692250671,
                0.11997634935052731,
                -0.038705154308700449,
                -0.002063817062222445,
                -0.05509778986746339,
                -0.06104486169730955,
                -0.02551446406462618,
                0.015867160859067584,
                -0.014003751418080323,
                -0.042381774174823149,
                -0.07057308680724718,
                -0.01041571630684252,
                -0.04901177291728147,
                -0.02183014543685522,
                -0.01760060346918435,
                -0.025051214534993987,
                0.08511519341132541,
                -0.01383510148699362,
                -0.05230769803047335,
                0.02979197343393748,
                -0.013806171350045169,
                -0.04315576449900417,
                -0.004387631938348808,
                -0.05474933960884457,
                -0.07741312524827714,
                -0.10939460347865894,
                0.0024963445192575795,
                -0.05397553774102785,
                -0.07640303717258272,
                0.025310711926349255,
                -0.02842984228909588,
                0.01235493496235974,
                0.014320297508993283,
                -0.06262727357083141,
                -0.032818084167256209,
                -0.036438897704204848,
                -0.017082128539178309,
                -0.07114996507904367,
                -0.16287473953800334,
                -0.04315699234875867,
                -0.06472255284946864,
                0.0016811321247620516,
                -0.04685923057275674,
                -0.009491407498685274,
                -0.02053272170270839,
                0.140973470596921,
                -0.07018488058289284,
                -0.03506992558859457,
                0.030813771807680608,
                -0.06725877709640835,
                -0.026010231467504566,
                -0.047846907742854698,
                0.008207645140614562,
                -0.09461543947154864,
                -0.008622292742600478,
                -0.06674136789365219,
                -0.06961660318962228,
                0.013556899607289898,
                0.03857822337310323,
                -0.04037424008508162,
                -0.04241524129577671,
                -0.059328384552016399,
                -0.008478816195696664,
                -0.04943498733340033,
                0.005522450810527486,
                -0.06982606180868228,
                -0.05335732600288354,
                -0.05602365676905377,
                0.002149630033349499,
                -0.04286110489492597,
                -0.026801107650493037,
                -0.013245244500641395,
                -0.029965101649728107,
                -0.049286287391250339,
                0.01963110617430186,
                -0.09927414093925723,
                -0.07532499931202963,
                0.029287330010833849,
                -0.052418339617203237,
                -0.06379062897231654,
                0.003020621603568095,
                -0.020990550195068716,
                -0.04527164626879394,
                -0.017103942983695259,
                0.03555161891372055,
                -0.046010371277949779,
                -0.052495590484205958,
                -0.005527303978701095,
                -0.08428754356888217,
                -0.06593202363462927,
                -0.08029300022351087,
                -0.04136024868182182,
                -0.05206763731035686,
                -0.06909112848118623,
                -0.03291766483612853,
                -0.05466288034542355,
                -0.07385783231539553,
                -0.03250264699104092,
                -0.07128632590724651,
                -0.05366542479020622,
                0.02429304716991456,
                -0.06602211862719855,
                -0.040411703984576278,
                -0.00858991667808698,
                -0.027574640589641414,
                -0.06423653807827327,
                0.012786076771551272,
                -0.030912419450395934,
                -0.03700225224967209,
                0.021726392502309907,
                -0.04336364114519201,
                -0.09972463586916833,
                0.020553523864927055,
                0.08279208161301682,
                -0.0017953545206658717,
                -0.03754177086632533,
                0.08224707847948155,
                -0.05119103460754654,
                -0.03467068076943307,
                -0.03134821642821589,
                -0.067989008008497,
                -0.010152502223026017,
                -0.08784372727274967,
                0.012014899835252148,
                -0.07413520594186883,
                -0.07912438425552397,
                -0.05162281115992101,
                -0.04128021537025286,
                0.02215713127910877,
                0.02950737960829457,
                -0.07378398112899692,
                -0.025375726885340075,
                0.015100730265305578,
                0.033146194781562447,
                -0.08593949514547442,
                -0.049214945400394467,
                0.02266188316450541,
                0.006173759136911184,
                -0.07570084904293767,
                0.026549051868988775,
                -0.054063139517862238,
                -0.0317721835543378,
                0.08292959230501942,
                -0.07051559861157897,
                0.056653407814544729,
                -0.051611883583649018,
                0.015223818949240994,
                -0.01384346461880481,
                -0.006386641578452077,
                -0.07017520503443944,
                -0.03205155148625105,
                -0.0008085871814810874,
                -0.049054368638486767,
                -0.036081799204455169,
                -0.08766516647081055,
                0.006522376940411831,
                -0.04392980068837006,
                -0.019957604135642027,
                -0.03629547274291126,
                -0.004349387532021192,
                -0.0008175241144354485,
                0.0023057458342070366,
                0.0000899128486032528,
                -0.025793849777782,
                -0.0075603337179814878,
                -0.060132962036218189,
                -0.042970780486294986,
                0.02754217094083804,
                -0.034064553816193537,
                -0.016673164343024468,
                -0.041109601528748349,
                -0.01699904708832328,
                -0.0137357883585232,
                -0.06807376213329206,
                -0.06915000350798796,
                -0.0232669801544938,
                0.021456182187995205,
                -0.10987346543385565,
                -0.026706044872082038,
                0.012749283735027683,
                -0.02908332638339248,
                0.05750100275558693,
                -0.008876947283447437,
                0.0675212003805196,
                -0.0401569511118121,
                -0.0015749519133412549,
                -0.00899597871360263,
                -0.06335053049976006,
                0.0031056500003217369,
                -0.07559722281606893,
                0.03914193126086385,
                0.05995105561432323,
                0.0010189031347126673,
                -0.10386394454056117,
                0.01536749885861058,
                -0.013824300110873185,
                -0.09132344514571672,
                0.0180420148354133,
                -0.06355665207473314,
                -0.0069646920993504568,
                0.09134589479054194,
                0.0811010313818332,
                -0.06289041357898713,
                -0.04330279979792682,
                -0.007550411994142631,
                -0.038510458800691937,
                -0.08354641489448521,
                -0.07210540871839204,
                -0.009722525936707803,
                -0.031075129082698089,
                -0.004965752417245877,
                -0.04485966565182839,
                0.011972983265604476,
                -0.006367350724442926,
                -0.08716172356198288,
                0.01153621773282861,
                -0.003918871212064083,
                -0.05205011613344656,
                0.0021503529467193519,
                -0.017971627422230499,
                0.04702281310311396,
                -0.1521495728090247,
                -0.09968381267718019,
                -0.12703369453162997,
                -0.008134600695090163,
                -0.1321194774758992,
                -0.040592680691418917,
                -0.023433389896439187,
                -0.06093726306623128,
                -0.001942702126355328,
                0.00015962251730616454,
                -0.033432997107225737,
                0.111303415306574,
                -0.041501298522833639,
                0.03005016809389445,
                -0.0466818746488824,
                -0.05409122003200168,
                -0.00903621245595281,
                -0.06694856049090264,
                0.039551526859517637,
                -0.05631540880226175,
                -0.05616032047705582,
                -0.01779815928755037,
                -0.06532458264740022,
                -0.015479053004119932,
                0.006787959711714042,
                -0.025652041603666348,
                -0.04878144902546685,
                -0.05395383424813684,
                -0.06629184877955664,
                -0.017136003606985019,
                -0.019117609659953559,
                -0.029653703560765744,
                -0.08967930559633898,
                0.053867024201584689,
                -0.01654623599860406,
                -0.007035456100734665,
                -0.06065475921054567,
                0.023885274452964443,
                0.015669153468503419,
                0.020464261121289488,
                -0.007942904551322738,
                -0.02153772720855448,
                -0.034317636857339,
                -0.01086519539828785,
                -0.040338096899377919,
                -0.05591535958976532,
                -0.009736111076339309,
                0.05516329067951406,
                -0.005838263871806039,
                -0.03441674053987453,
                -0.04786135625913474,
                -0.04798948481933023,
                0.026640315648473718,
                0.014123936931769532,
                -0.060373903560294029,
                -0.003110505112737791,
                0.009011190673273448,
                -0.0148696438673391,
                -0.02160628014754341,
                -0.03456091476843647,
                0.031365455805744148,
                -0.05942577837548214,
                -0.11153115485024054,
                -0.01699666903214356,
                -0.04664688031352704,
                0.0014808366742390092,
                0.05534070663053825,
                -0.07785451114399768,
                -0.08424231943866098,
                0.00028440400429422284,
                -0.09271215845859285,
                -0.005060334336675865,
                -0.06775640380361334,
                -0.06631019630259373,
                0.00021853641732462714,
                -0.012316361044070633,
                -0.03194713911058125,
                0.008222122860006122,
                -0.10242476766143305,
                0.039826451857782097,
                -0.08387168198802293,
                0.006583744256184694,
                -0.012589937970924023,
                -0.06901489786901703,
                0.006076409537541424,
                -0.0685252289405847,
                -0.016555074682054348,
                -0.009316708043151212,
                -0.06120621007990428,
                -0.05457611361961337,
                -0.034402373449178898,
                -0.02165193479270051,
                0.031971524376432528,
                -0.017285411638975239,
                -0.07587328991970978,
                0.020887072561519356,
                0.0031385659396371068,
                0.006407651620245905,
                -0.06967433816274513,
                -0.0003596936913927705,
                -0.06587690115332602,
                -0.04513430825467645,
                -0.01475031319121006,
                0.00550438553495783,
                -0.009452086698205329,
                -0.046173553820132318,
                -0.06600965407256808,
                0.036868746306404649,
                -0.023479335786036595,
                0.01281607718209155,
                -0.07791623843546823,
                0.01547983453775145,
                -0.007572903910226828,
                -0.06894882671777462,
                -0.07047447244871987,
                -0.04403304526913904,
                0.006431122507871076,
                -0.058716070775892779,
