{
    "layers": [
        {
            "weights": [
                0.027723457634637517,
                0.00741626102477031,
                -0.04466358511498256,
                -0.032830629528083399,
                -0.042710024071456516,
                -0.21108543171442629,
                -0.018977902031486316,
                -0.024066350934128835,
                0.03270241282893453,
                0.04328895263778279,
                -0.02541629288042654,
                0.04660944128027875,
                -0.03133244174681812,
                -0.05460658081732356,
                -0.04703066600350124,
                0.022579907018712699,
                0.04297295291445966,
                -0.03668217605389107,
                -0.00010239187652304454,
                -0.015394680343567887,
                -0.037550155790695909,
                0.07750811519947994,
                -0.04505102561708769,
                -0.04595632202094575,
                -0.041012305464478118,
                -0.019778228674339993,
                -0.016735677025556705,
                0.035226764215287888,
                -0.01950377425215801,
                -0.020452480287568365,
                0.01889342150468564,
                0.028182920941710537,
                -0.0036867411696670014,
                -0.060857490053421069,
                -0.053429866781165399,
                -0.018616737721656275,
                0.03328159705676709,
                0.006899578908398607,
                -0.06255970364743865,
                0.0012149619060358559,
                -0.04208112289955513,
                -0.017375772259556774,
                0.040428297908001,
                -0.005877725207908413,
                -0.00066525804876214,
                -0.024945159287398413,
                -0.026336118410227199,
                -0.011085064351526994,
                0.03148884477112401,
                -0.0025737177890502265,
                0.013402165682660792,
                -0.034760421967140509,
                0.015800443690385525,
                0.0169992713164893,
                -0.022907367217963625,
                -0.023551916419766826,
                -0.009914205535954447,
                0.03144717398726713,
                -0.0603525056753082,
                0.0017785348724993185,
                0.014940057801783156,
                0.008115451211399715,
                -0.028392642632660719,
                0.040887591766747419,
                -0.011668766993636566,
                -0.029430594593378519,
                -0.021475072644028517,
                -0.02650614504371116,
                0.05853766216934787,
                -0.053248401110111209,
                0.04264413089155559,
                -0.013264561725922629,
                -0.03292959807405299,
                0.020987831714381297,
                -0.02910090211048549,
                -0.04548773203321363,
                -0.051080467590670457,
                0.052711336309330367,
                0.016276673032878568,
                0.021288867472978716,
                0.03574476390035989,
                0.027544792163574026,
                0.040828150462969978,
                0.011088149503520035,
                0.010043654067730864,
                0.027420126938736374,
                0.0007932125968836588,
                0.006374833242846921,
                -0.000997983933193591,
                0.009504087448880186,
                0.039046917523277237,
                -0.04356693801381917,
                0.00017436921542206317,
                -0.010805460386027285,
                0.014749484481773113,
                -0.02350008505330293,
                -0.03267576133767919,
                0.0413358307217988,
                0.01907624722640039,
                0.03871647214402037,
                -0.05753540165630848,
                -0.04184127531962239,
                -0.015655338120445285,
                0.030915833516228079,
                0.03153686973392724,
                -0.011593812853978708,
                -0.058542745333257,
                -0.03303197249438052,
                -0.05088512406871281,
                -0.043538341807632999,
                -0.02271087406615613,
                0.023753505168082634,
                -0.04528938278199916,
                -0.0243883138732516,
                0.007648521325506088,
                0.02490423343629686,
                0.033045069640478447,
                0.0018207708744630656,
                -0.02821270386283372,
                0.03485931905424163,
                0.012671523266560422,
                0.007150268155177005,
                0.02038346681236445,
                0.015067735515894026,
                -0.05412908652533184,
                0.021710352278653996,
                -0.06545109624199559,
                0.0013332153382089494,
                0.03769321388239157,
                -0.04087355465693492,
                -0.05639705108715472,
                -0.05189956027222346,
                0.013788915622750219,
                0.009892275920100592,
                0.0025716820282651014,
                0.006473415654872829,
                -0.023183236370264556,
                -0.051093001510369138,
                0.01693238910581617,
                -0.026052190202762897,
                0.01186511449931446,
                0.0207669154013543,
                -0.025374873124093396,
                -0.007148269948835116,
                -0.036480834201122119,
                -0.030166969067213724,
                -0.0513597402865464,
                -0.06336672290034636,
                0.022771298594274099,
                -0.043481660797037729,
                0.003547815642767353,
                0.02295534413495553,
                0.01006597484154513,
                0.02974438241709536,
                -0.04190763779277177,
                -0.036904421168564429,
                -0.011593441618906488,
                -0.043502140412031698,
                0.030185468018602725,
                -0.050532135013955929,
                -0.010814185876051569,
                -0.02485475056391997,
                -0.030866903971877046,
                -0.026240670791387853,
                -0.03403169965354931,
                -0.02145071297731415,
                0.04573744409153937,
                -0.02160247531509675,
                0.005040760152236041,
                -0.05703793715733674,
                -0.00953715643564273,
                0.02343919838762824,
                0.012514462206595207,
                -0.06955440286245553,
                -0.02863294634118889,
                0.03474648244794943,
                0.003459818252272261,
                -0.02309146118413596,
                -0.04592502321889063,
                0.034469484667412359,
                0.02202121278489903,
                0.04569900153490572,
                0.02642643538320874,
                0.0285036159556256,
                -0.00308386832738706,
                -0.036753594996176548,
                -0.017615599447517569,
                0.030806459995785044,
                0.010119690106976776,
                0.0005106621298481269,
                -0.03579662673263875,
                -0.028759435872008938,
                -0.03847628250235832,
                0.014865260123314246,
                0.019461665601566745,
                -0.03739290102614397,
                -0.0033098413515695605,
                0.03044396166719906,
                -0.025614107018432695,
                0.03302297935484155,
                0.022600683152086917,
                0.015083997864651498,
                -0.009778137974288046,
                0.002676140641371964,
                0.01755436801108566,
                -0.11140442883279558,
                -0.09085589202342544,
                0.0068239710679481439,
                0.04104671447269963,
                0.0012878615883135175,
                -0.007444105596855847,
                -0.025290375197950293,
                -0.0806263504060285,
                -0.0532972993018667,
                -0.08864494647276361,
                0.0030658509514745479,
                0.005428729879509728,
                -0.011113901900357455,
                0.024395517415530679,
                0.020888706256012549,
                -0.010874268301944407,
                -0.011370991825125117,
                0.019259615078214083,
                -0.04214951035276947,
                0.012474123473355064,
                -0.0542166685236373,
                0.003623589409390837,
                -0.04961327403894984,
                -0.043946436951531577,
                -0.06513365217793224,
                -0.02881267139693408,
                0.011128626890190695,
                0.04357594325117587,
                -0.05091573745592601,
                -0.0001648184752144276,
                -0.0556067801338535,
                0.004920536857941277,
                0.04425060446682005,
                -0.04790057804634406,
                0.0042130252573442578,
                -0.044268026828069687,
                -0.002699680617257931,
                -0.024232731056052595,
                -0.019202630129624946,
                0.031687636837699349,
                -0.05492406467521895,
                -0.03197493400553869,
                -0.041213462930123189,
                0.013633506131493946,
                -0.040284191875321288,
                -0.021520194450148204,
                -0.057827732713297708,
                -0.06323621004331726,
                -0.014574718729306246,
                0.033465276420560918,
                -0.04742051194047619,
                -0.04512544658835558,
                -0.020792486459381346,
                -0.060333309027962678,
                -0.009432693190297602,
                -0.036066625415141658,
                -0.0655407717287873,
                -0.004791393344000874,
                -0.010698548082996173,
                0.003575327004731203,
                -0.008162968275150184,
                -0.04609417921297818,
                0.03560999180872767,
                0.007497764004263606,
                -0.030232707068085338,
                0.046388829434094908,
                -0.0004055978708461282,
                -0.018656061382553176,
                -0.052425730175937237,
                0.012813902411176196,
                -0.050021278570630909,
                0.02729073514508278,
                -0.006095929096264918,
                -0.013663630884297586,
                0.0026607471798524887,
                0.035508530942889197,
                -0.023062697636051525,
                -0.0010733407687841958,
                0.04828444319351457,
                -0.009405142153802303,
                -0.0015363736033622098,
                -0.030625760284304,
                -0.0040843555941113599,
                -0.03716723194249979,
                -0.013480260478742248,
                0.03861237957897145,
                -0.024419639986205653,
                0.05267312206601433,
                0.006811254867896233,
                -0.03561850091301073,
                -0.055313299584581778,
                -0.04315942405941834,
                0.027392933664223748,
                -0.0032403754085411639,
                0.04599795385091875,
                0.02565119866893943,
                -0.0176281850991925,
                0.01061806810540088,
                -0.040061826351463467,
                -0.013378841925336694,
                0.027581335968337795,
                0.0025301094999336294,
                -0.04033422875911544,
                -0.025775120587650664,
                0.007528755037384904,
                -0.014152416300967979,
                0.023664555099137498,
                -0.04982392681861792,
                -0.03669338838703646,
                0.0018087859102549887,
                0.02704863653209096,
                0.004614852337534159,
                -0.0040449324146289819,
                0.03681686760297701,
                -0.028975702696972227,
                -0.036287489587191367,
                -0.010071964604048516,
                0.0024261229214695906,
                -0.013258999855848469,
                -0.029340462585040119,
                0.004767371046034005,
                -0.0012047855579167843,
                -0.007395648742014329,
                0.013601481355813274,
                0.027403237652306467,
                -0.05469850972616448,
                0.042158464085320968,
                0.015008598027087313,
                -0.035162658350580248,
                0.0216838814178024,
                -0.011746982171832215,
                0.00061046866048287,
                -0.020089699111912847,
                -0.00485741550046792,
                0.005809275715122695,
                0.022993491586078515,
                0.0019547753070804057,
                0.04702782309047323,
                0.004414947587465868,
                0.026005546106922473,
                -0.02726972226365592,
                -0.03068738820350102,
                -0.0006793148242204671,
                -0.04706621686643415,
                0.0012418248768793399,
                -0.0014537671556410458,
                0.017896621384222799,
                0.029572638516113894,
                -0.03530249640080712,
                0.0034455471994989659,
                -0.04122374574381336,
                0.02018937068252023,
                0.005523508772190359,
                0.03256465496560609,
                0.015707527522305938,
                -0.03831509663863062,
                -0.06646248156035063,
                -0.02182480209517181,
                0.019543500869418679,
                0.008775484776727563,
                -0.0034184173904270975,
                -0.060042707701418587,
                0.020053687930956015,
                -0.025494288876991946,
                -0.04917294407601568,
                -0.030905115508242058,
                -0.04458441715439144,
                0.031608587228879627,
                -0.037259213410880887,
                -0.00612843972910009,
                0.00947821535581026,
                0.012932335730907303,
                0.04352707160340366,
                -0.04373705167792852,
                -0.04784142593959001,
                -0.017129996907553285,
                0.04006670813728879,
                -0.00827985954875157,
                -0.040680984429208078,
                -0.030350430487599619,
                -0.028316689033822976,
                -0.05272786073403313,
                -0.015334679282502026,
                0.010859673809943864,
                0.01704247516497303,
                0.011807723955518617,
                -0.05263932564554631,
                -0.009770845117697895,
                0.021514552247351824,
                -0.03008532221121988,
                0.015494146940624575,
                -0.028081466989692495,
                -0.04402525927907485,
                -0.05066889933166623,
                -0.015285742203192309,
                0.03072011612595085,
                -0.017157552502509167,
                -0.004225749290043098,
                0.0258745953211722,
                -0.013567097751935223,
                -0.19172972572501399,
                -0.002065763235562089,
                -0.03868760768634352,
                0.0549485519883145,
                0.06663534568281467,
                -0.020694933009594589,
                0.034128621328760908,
                -0.026365533204062855,
                0.03568028669745497,
                -0.0648274488184724,
                -0.0203261651973825,
                -0.0007972021218094315,
                -0.026362037830664685,
                0.004020206792461634,
                -0.04765454967321368,
                -0.0663005352647127,
                0.04233029364860909,
                -0.03715185634277861,
                0.0033259004456162434,
                -0.0217840439930205,
                -0.05149672342142508,
                0.020011380427063725,
                -0.03681051868294628,
                -0.04950096663141016,
                0.001102545810617312,
                -0.029781170777012007,
                -0.0015657405541963804,
                0.04034181924893508,
                -0.005136607779645017,
                0.01989260233027981,
                0.032102193139739439,
                0.002877191602649873,
                0.0007820706693478442,
                0.014485190483810104,
                0.015707943951305687,
                -0.007782397092586697,
                -0.013028814923118535,
                0.018790756228997814,
                0.0128021579672634,
                -0.033457114514082047,
                0.01375830057626166,
                -0.010279070241066196,
                0.003738843500829515,
                -0.005619431866247224,
                0.022610136880251709,
                -0.051870014048664887,
                0.023972971382086446,
                -0.006053948137774381,
                0.019767486333041877,
                0.02003747410804937,
                0.006745735744520925,
                -0.01334393471664724,
                0.027834149033154119,
                -0.02089871166322421,
                -0.04589060706928709,
                0.019712164714190046,
                -0.005253460051361955,
                -0.0019155080222757909,
                0.03264438593218927,
                -0.030481504272355139,
                0.007874345146360174,
                0.027766218594706433,
                0.028013858143799386,
                -0.025712866196452998,
                -0.0028388512090930255,
                0.03237771325260811,
                -0.05960761916041076,
                0.001991218612644891,
                0.009342741449346652,
                0.009044855441396806,
                -0.07455234786013806,
                0.030903204722199444,
                0.052111047896616868,
                0.002128809112106103,
                -0.004005268462949111,
                0.019871604119471723,
                -0.05263706184203049,
                0.014738244575121247,
                -0.040867479572364317,
                0.0047062967814783,
                0.01998890583988047,
                0.0015390722572819138,
                -0.04502145976816494,
                0.018905927380874805,
                -0.04745300065909556,
                -0.008572483197410833,
                0.035069268541967877,
                0.05561546750059604,
                0.012942678212094305,
                0.023182593074366096,
                0.0228758426687421,
                -0.0698836800818864,
                0.029946825547484028,
                -0.03579640231729478,
                -0.0217893832377308,
                0.04183348654893976,
                0.009862797665463948,
                -0.012839685604566803,
                0.030416945664277885,
                -0.034046168234756517,
                -0.045427910275405578,
                -0.029572517261350067,
                0.06104017062180229,
                -0.07878673387593237,
                0.033044380728759908,
                0.03168198141946,
                0.04046647092364026,
                -0.023885407826134045,
                0.03679795289683171,
                -0.018891911881236395,
                0.013407352265488258,
                0.05427369543899112,
                -0.018938667105169516,
                -0.029925923753141276,
                0.022745166698370506,
                -0.052108181734871698,
                0.0037356745683479475,
                0.041488289865697438,
                -0.007858494551620165,
                -0.05076993009887806,
                0.037523570427087437,
                -0.0564188685980075,
                0.00832391925121726,
                0.018776208457623124,
                0.04829209589223931,
                0.043044492938694989,
                0.03847070927677606,
                -0.03485838178860844,
                -0.05419429432719888,
                -0.01292159659441561,
                0.0381435444732056,
                -0.0097487173589179,
                0.02230335953461449,
                0.03908831289033324,
                -0.0019237296945646776,
                -0.03066849993836986,
                0.029535285044049024,
                -0.042464675429448348,
                0.037674255912440109,
                -0.04963731395042036,
                0.009877172661823416,
                -0.0035966676504002868,
                0.025329575092773866,
                -0.02602271659277979,
                -0.03503134068222476,
                0.0251740072100361,
                0.014397375592665234,
                0.001657012000909071,
                -0.017105582315058877,
                -0.04834162539309134,
                -0.037382422499621568,
                0.015228940807562377,
                -0.021319710787732129,
                0.03125441812452499,
                -0.03329928068135413,
                -0.05498986830784728,
                -0.0020523036488062074,
                -0.03361338004154461,
                -0.05617116350508276,
                0.0393478786730019,
                0.041192703270147876,
                0.007712352024130445,
                -0.04063539961916822,
                -0.01916834831401703,
                -0.020052256809073949,
                -0.03186191362808118,
                -0.03644662586813365,
                -0.02276974000539771,
                0.004799776057244908,
                0.0015350172663845977,
                -0.03632856279548604,
                0.01521199910292502,
                -0.049933039860047687,
                0.042220088447242679,
                -0.010204976453335683,
                -0.012367340212438504,
                -0.04185757569325013,
                -0.012390531604454072,
                -0.0007406979639398748,
                -0.03371511739035153,
                -0.027357265165013756,
                -0.017538345357408056,
                0.027647565295468847,
                -0.048354358505991689,
                -0.01569553341934205,
                -0.03214029570502606,
                -0.04077574409859553,
                0.03443752568078366,
                0.012831536370336043,
                -0.013510849273528473,
                0.00337721564082675,
                0.0048275093207460289,
                -0.06001344748591192,
                -0.0537775074709457,
                -0.04316516092637583,
                0.08717292987263523,
                -0.013219564154818533,
                0.0073110196892972449,
                0.019364032108656005,
                0.04810841422327884,
                -0.15785991360312977,
                -0.05505337868966703,
                0.002027235386598917,
                0.05421822138746568,
                0.06724571001698465,
                -0.028617610213710719,
                0.009282497523574414,
                -0.032413981632847348,
                -0.010202454376898946,
                -0.033274107596714928,
                0.049572312349057238,
                -0.034574313997089,
                0.01956280519470917,
                0.033113313995949408,
                -0.01818064738967722,
                -0.05667038233229413,
                0.07357345544064953,
                -0.051704275137845989,
                0.033493953719485079,
                -0.05589444300118001,
                -0.0702755713971916,
                -0.022703453524365148,
                0.011436439114542379,
                -0.048374531799493778,
                0.018529893603664309,
                -0.008817621751014755,
                0.01446151176003969,
                -0.04755967806335225,
                0.012408318189313664,
                -0.01606742251500894,
                -0.06022653481925852,
                -0.005147719968428785,
                -0.010352408108625418,
                -0.01307981773869307,
                -0.014869478054854453,
                0.04212579851258637,
                -0.021563472608647374,
                0.04140311486241287,
                -0.04446835158462864,
                0.042297342935646579,
                -0.004558240330187821,
                0.019331346361459,
                -0.016226282011323056,
                0.03244558236307632,
                -0.019717410763689597,
                -0.04235678943704531,
                0.012282023925511383,
                -0.06292871541850086,
                -0.009789991105974637,
                -0.011444250305595047,
                -0.05058925530609014,
                -0.02078271179659228,
                0.013008109230049916,
                0.004565549850431746,
                0.035999294051840689,
                -0.020002369856162148,
                -0.015325946726186734,
                0.011228194282716847,
                0.02616612118291108,
                -0.05267141728874929,
                -0.024493398114382105,
                -0.001020919176382981,
                0.0020819719774400624,
                -0.02859011978271559,
                0.02552933813086858,
                -0.005350349848299732,
                0.011228358534186863,
                -0.025768388414415909,
                -0.026813252086425745,
                -0.006486957798661066,
                -0.07296582613229333,
                0.03135860677949581,
                0.09554957475023668,
                0.05386724651495961,
                0.0002206649060685073,
                -0.03188297622869975,
                0.02815316673108696,
                0.023843207805113264,
                0.018343784910388483,
                0.0007340793898829092,
                0.04516198155558311,
                -0.016706349765477157,
                0.0016750265282239389,
                -0.03419571373027019,
                -0.023261739841342136,
                0.012176178474765872,
                0.04235832172311357,
                0.013529696352471005,
                0.004155753224944862,
                -0.060793053769460678,
                -0.01911868818683746,
                0.024094280327913017,
                -0.04006182860337963,
                0.02698913613341345,
                -0.019809023426188789,
                0.025533674399549699,
                -0.030316845465788758,
                -0.024863652251908624,
                -0.0544033506803433,
                -0.038801040699079577,
                -0.0002648727470640241,
                -0.01803021095594049,
                0.048631357093683148,
                -0.002013331101161329,
                -0.008846148222904808,
                -0.032563223404787889,
                -0.01657014053019652,
                0.009191437481234393,
                -0.03209796836941385,
                0.019853246068429654,
                -0.006618423982504963,
                0.04285603173055294,
                0.03107046450967151,
                -0.035455431075348337,
                -0.025631282174971179,
                -0.049748539433370399,
                -0.0665205903605985,
                -0.032067166740463389,
                0.05687268503422337,
                -0.043429770564685107,
                -0.010951064856389076,
                -0.04377130848468874,
                -0.009697811018611402,
                -0.03964447778044976,
                -0.03103089278033033,
                -0.034922461587047957,
                0.02426078070392775,
                -0.05069360674872741,
                0.004760352443881307,
                0.002085854881108688,
                0.02818656142649703,
                -0.0102092338442073,
                0.014091678059845382,
                -0.000017991019829599847,
                -0.04656492081314313,
                -0.015771526078077179,
                0.011960054496016322,
                0.026563998948573698,
                0.026255518034122059,
                -0.06437814600785863,
                -0.012545678450645559,
                -0.022519435302375016,
                -0.03726311778036363,
                0.03333527068299758,
                0.009946647842841761,
                -0.0011711341586528798,
                -0.05075458463772165,
                0.030219094223560784,
                -0.0032428333725701729,
                -0.04790462709428504,
                0.02210507218707327,
                -0.05377430519706504,
                -0.003974957832704951,
                0.03781714645976219,
                0.008556569186775672,
                -0.018892466723988943,
                0.027125315019921604,
                0.01756680114565153,
                -0.001237024193020615,
                -0.017034505887850744,
                -0.0013564615220415518,
                -0.03162242926297209,
                0.03558670589579706,
                -0.003049517423728021,
                0.025946173851725607,
                -0.05178503353959091,
                -0.04238399932280892,
                -0.039298280435645847,
                -0.05328600192602064,
                0.03740890609293118,
                -0.01405368103799242,
                -0.017286502418155469,
                -0.010037600482376057,
                0.0237314557834698,
                0.021926325825357138,
                -0.039023040703211848,
                0.03110650194516221,
                0.010118024580098697,
                -0.0024135479285467746,
                0.023498036341132776,
                -0.038595515994298789,
                0.02896586646495048,
                -0.010932115503478328,
                0.010646027564613761,
                0.03533827506226814,
                0.02491400720826964,
                0.04296844214289544,
                0.01905795688156423,
                0.03662290817338534,
                0.008572633944180425,
                -0.015294216119715461,
                0.04111027842292514,
                -0.04789029924033854,
                -0.00443648049796288,
                -0.012330025797219455,
                0.02966829614578307,
                0.005904443466782671,
                0.033151937326046387,
                -0.0652600318765426,
                0.013428057638312979,
                -0.17490558534172233,
                -0.00886348120269352,
                -0.02524745220842183,
                0.022948011720455104,
                0.053552044607253209,
                -0.029126516155316398,
                0.025426813302629977,
                -0.005841406472142853,
                -0.026748488995137096,
                -0.06452683401674844,
                -0.010191854300496064,
                -0.025849509231773539,
                -0.020796174418149746,
                0.029987617752270047,
                -0.05116884049421666,
                -0.057222668479037949,
                0.06212031546252586,
                -0.02499092604955777,
                0.002273126526874736,
                -0.06349761267337828,
                -0.06348453397162678,
                -0.01500656981677107,
                -0.020291978493853229,
                -0.014756680240296236,
                -0.018255496935898873,
                -0.01758791274897069,
                -0.030158022774800645,
                0.03882523138339833,
                -0.03489009212462882,
                -0.0016948692000922316,
                0.011382739482022678,
                -0.05429465024214422,
                0.005031059336371681,
                0.020677009558852375,
                -0.03523266356788674,
                -0.028472832593484506,
                -0.059994519269131778,
                0.029021883024773006,
                0.032883523486771249,
                -0.002939881008646205,
                -0.04463858448046299,
                -0.032807161351753637,
                -0.004742074743977698,
                -0.02929755542415887,
                -0.052457802395880378,
                -0.06486926535128428,
                -0.010396948691521044,
                -0.04247495284433493,
                -0.02043171950316572,
                0.003911542649223699,
                -0.02178209717196457,
                -0.03759314296259264,
                -0.03019209245854713,
                -0.06556063097811206,
                -0.0005692632617836039,
                -0.05211044794276315,
                -0.021519196826810098,
                -0.02354582178970351,
                -0.048112311203595079,
                -0.05578335769447255,
                -0.08776250110772015,
                0.008237241285820986,
                -0.019798261398516538,
                0.0340945229948962,
                0.03138205333605782,
                0.011726406411286693,
                0.010391640181417826,
                -0.00024112247804652129,
                -0.008439547253296629,
                0.019759109270464593,
                -0.010310586265254845,
                0.04112625128171253,
                0.005615884373349932,
                -0.028716905179677608,
                0.01985726578724698,
                0.03307565797499725,
                0.025562983409456658,
                0.032580266123238509,
                -0.01983173964470879,
                -0.01927349139396559,
                -0.034812788416446239,
                -0.07152037301427623,
                -0.004816534444954038,
                0.0008787557570420302,
                -0.036601988781143849,
                0.00008453229507153579,
                0.035254621212916777,
                0.01207120947493805,
                -0.027446936519358646,
                -0.04390448483567889,
                0.022419291962386839,
                0.024431294925330684,
                0.022962723136405195,
                0.02348695869183911,
                -0.004823261931109107,
                -0.015918797644523084,
                0.0324610828171209,
                0.02050937068819577,
                -0.006321961446926499,
                0.01308524663641962,
                -0.010034350709710512,
                -0.0597229788422571,
                0.041372862647682948,
                -0.03913242441104463,
                -0.05308361516511401,
                -0.012452488019773015,
                0.018784756618749209,
                -0.048509123778174487,
                -0.04272753822905994,
                0.016711042226561534,
                -0.05693398103968576,
                0.018617830710228355,
                0.03714362206003049,
                0.007990043456004048,
                -0.048961939434827957,
                -0.0601615913286453,
                -0.059728943686134749,
                0.019612135631277756,
                0.034248187370271649,
                -0.03182898695698923,
                0.0067651330309626,
                -0.04117470269579555,
                -0.0561027523493949,
                -0.027443639560890789,
                -0.044934698365956388,
                0.03616262546104299,
                -0.032944771812210369,
                0.00836481642334308,
                -0.0013388435335306006,
                -0.03534982410206531,
                -0.05668023886806926,
                -0.05510429126546888,
                -0.024868091256613008,
                0.007602097902395857,
                -0.04912331663586929,
                0.04526931169604357,
                -0.03462911729649408,
                -0.041851650194502858,
                0.004001140946383162,
                0.001344265097275114,
                0.04142667927351784,
                0.030173234086410089,
                -0.03725901204317855,
                0.01181852743250586,
                -0.04830321674297533,
                -0.03908926270755186,
                0.040345184016699228,
                -0.05140066986919652,
                0.017133930912260784,
                -0.01929843406696756,
                -0.02258824855965485,
                -0.05631616622831131,
                -0.032124174184926568,
                -0.029487923315407458,
                -0.056503889986798287,
                -0.034557408386204847,
                0.030023884049327454,
                -0.0035276050997825215,
                -0.020494803075800567,
                -0.02582287552913185,
                -0.024481249822442487,
                -0.04684404627456727,
                -0.01560438059353651,
                0.02687599592287888,
                0.009240918752188526,
                -0.03429905564225616,
                -0.02072475063419697,
                -0.04212941241398799,
                -0.004824755772963934,
                -0.05157376097074835,
                0.02185322036424306,
                -0.04411929614636749,
                -0.032693853908599117,
                0.03234726276466461,
                -0.011446710394035064,
                0.030423976415857196,
                0.034338553869183257,
                -0.010941730558535618,
                -0.028243789745936465,
                -0.051629902474604829,
                0.03810872478276915,
                -0.046173699677772839,
                0.026542054796722254,
                -0.01851357816500074,
                -0.05307205971401653,
                0.04347584504871392,
                0.026191143414262688,
                -0.05194417256650281,
                0.008912182865016229,
                0.023426650419651867,
                0.04182869850789843,
                0.014823500698914697,
                0.005292743248444728,
                -0.016695524981079514,
                -0.016416540019864827,
                0.12766545737578545,
                -0.02360272559382021,
                0.006804991086065674,
                0.02472886649882904,
                0.030801297443601738,
                -0.17706636471401233,
                -0.007383149271604823,
                -0.03469200917955904,
                0.08123694089186073,
                0.02308321873850056,
                -0.05321142400921199,
                0.038774634756464827,
                -0.03958189425059826,
                0.038010155121197587,
                -0.09178537243917029,
                -0.016654446602583085,
                -0.0012376584708733347,
                -0.016162105729225629,
                -0.018255070595024769,
                -0.03996992878627852,
                -0.09412315799340279,
                0.010198130435962612,
                -0.03797626123452975,
                0.02014546493903871,
                -0.0007921899939450009,
                -0.030601102118818624,
                -0.018204592778332183,
                0.007526084927011235,
                0.026382362153922795,
                -0.05409754120310447,
                -0.05262494425571272,
                -0.009851999565623398,
                0.027466295299880224,
                -0.025472043461925155,
                -0.00870142571363089,
                -0.018966895214721073,
                -0.019475254502534759,
                -0.00335867082397997,
                -0.03322465856690834,
                -0.03670227348194109,
                -0.041549125859396688,
                -0.008088333478866797,
                -0.042880045948744938,
                0.014490586775575382,
                0.02581687005852912,
                -0.055305238459325268,
                -0.023853258927367828,
                -0.04408772882836655,
                -0.003183883616754481,
                -0.019569622222148566,
                -0.021073246531331349,
                -0.04515448999345154,
                -0.037256401050748139,
                -0.03514170153040963,
                -0.04963462270609663,
                0.004798004468086454,
                -0.015029365983219566,
                0.027395919437986927,
                -0.037150447621504507,
                -0.008126103935956019,
                -0.008701754746079076,
                -0.056648053469559828,
                0.020325841145966335,
                0.00525307267302362,
                -0.026900792252914263,
                -0.018885586881567417,
                -0.04827222200443642,
                0.02229269026195882,
                0.011973514530041616,
                0.03298066562662005,
                0.05647951237320714,
                -0.05483882969005502,
                -0.03856828140765204,
                -0.047117318188243977,
                -0.05468815621397587,
                -0.017102463235947456,
                -0.041831412981837557,
                0.04630946558488218,
                -0.04187346394399155,
                -0.014512749981577353,
                0.047374251942517067,
                -0.03646375813602285,
                -0.047431736783870869,
                -0.012886577759342899,
                0.006494423359722036,
                0.055582446849696039,
                -0.07863432450146728,
                0.009769804559513021,
                -0.02253925577526187,
                0.029514411979195276,
                -0.05710541753985424,
                0.023458168504964254,
                -0.029542194373175604,
                0.036076689461326579,
                0.0008019097591173317,
                0.046124732014866647,
                0.030160599289082443,
                -0.0016040212687170662,
                -0.029827628100664886,
                -0.03739700177782279,
                -0.053471309710487389,
                0.004466793812382547,
                0.006512429213580067,
                -0.0008716320007945248,
                -0.0003501444559097122,
                -0.016592756957578497,
                -0.057815872730747449,
                -0.019577994185880029,
                -0.07426297785621976,
                -0.009285680292761412,
                -0.004165798194515674,
                0.03992291965663907,
                0.015437963093120464,
                0.015551422353522676,
                -0.0055441310667551529,
                -0.03388023321040091,
                -0.0222876829417981,
                -0.017947984162608036,
                0.04157090007380854,
                -0.01789152637345109,
                -0.003977450469067941,
                -0.028945722015318727,
                -0.005814985375381731,
                0.04755848454001758,
                0.031216972459793599,
                -0.02366658240959703,
                0.035866178502754069,
                -0.05783967124646706,
                -0.016403753850549296,
                -0.040523333367681397,
                0.022242229941806709,
                0.010963015691389152,
                -0.026747519516293836,
                0.021571621480251679,
                -0.01578616806401473,
                -0.022105072659011704,
                -0.009671015854448922,
                -0.01172911457761122,
                0.01638205861397641,
                -0.019652711588839107,
                0.0297010580859312,
                0.03605343483461733,
                0.009673841753967312,
                0.04069341660644138,
                -0.02655597748606677,
                -0.033095157946496579,
                0.04387328131385178,
                -0.03631524424216747,
                -0.012710098183124538,
                -0.013994766959329438,
                0.033976505389500689,
                0.005191163240842223,
                -0.009262668978677814,
                0.029290087251039325,
                -0.00937761633490894,
                0.004803597950943352,
                -0.046634720833889798,
                0.037926928349377508,
                0.01811692090192605,
                -0.035977353070053379,
                -0.003308595158151306,
                -0.054055470527388609,
                0.025938389873586568,
                0.029232493695633599,
                0.02516160143270439,
                0.042956044657323,
                0.005163804804196751,
                0.022641743283310819,
                -0.022564897468051745,
                -0.04650666935401205,
                0.028277987681131174,
                0.014321972490235443,
                -0.008903371746075438,
                0.011314936722392004,
                -0.0010410122315937555,
                0.0042189794027944209,
                0.03433161415735376,
                -0.0003805297896497823,
                -0.012305109520252725,
                0.021609003960714639,
                -0.012165910961249549,
                -0.0001983166453370499,
                0.00713374678324194,
                0.04408149754198692,
                -0.018191898896818993,
                -0.03679038335455248,
                -0.045648176133584249,
                -0.01462696047459388,
                -0.006359346710842463,
                0.02558430357072542,
                -0.030395819321933725,
                0.00152926376017831,
                0.013001597644065734,
                0.0040899007243152848,
                0.02660483770046868,
                0.017790472889677546,
                0.052221853251812787,
                0.006247385344497345,
                -0.03314156747471642,
                -0.030689617093946247,
                0.06979963099810567,
                -0.042561200685102818,
                -0.03917890556866257,
                -0.04083024628672242,
                0.0005884402836255518,
                -0.19072114845502936,
                -0.09162161273992856,
                0.010062011495260606,
                -0.0014543171485345854,
                0.06789460844946993,
                0.006060797378074384,
                0.007635969336245617,
                -0.014987322203299307,
                -0.052122795911584588,
                -0.012674125113551992,
                0.04209362627697248,
                -0.006205771855978084,
                -0.05742125443931619,
                0.006351770046613274,
                -0.010540622218669104,
                -0.03651985417116125,
                0.012236246227417109,
                -0.021179909139050484,
                -0.006375823461501018,
                0.014305204039211253,
                -0.04820641388716243,
                0.048635987148381309,
                0.038364687259680878,
                0.011889416034929277,
                -0.0027805997324269339,
                -0.015854574203611698,
                -0.021387518518991658,
                -0.02028615299787143,
                -0.0527802215110891,
                -0.0407597817273553,
                -0.044677052998783297,
                -0.005748917147029645,
                -0.033324065219097778,
                -0.025729973459602257,
                -0.060691195442184858,
                -0.055694975430254398,
                -0.05318972013591416,
                -0.05059111493356216,
                -0.0008407316525106848,
                -0.040527108698247087,
                -0.0010746196387407953,
                -0.0725899140017937,
                0.004059864004873648,
                0.02304659914822658,
                0.01943134942868816,
                -0.05513511619672595,
                0.04198090213537483,
                -0.07641478056881107,
                0.0159036852317821,
                -0.036336515873000709,
                -0.04192617713661604,
                0.040228753263301959,
                0.006193317381042175,
                -0.026294043843062277,
                -0.028425701116358377,
                -0.05037907196883298,
                -0.059257274504454417,
                -0.042584370823981577,
                -0.011505436215462137,
                -0.052331067148980597,
                -0.05863158015078731,
                -0.033914870176756869,
                -0.02248404312360794,
                0.045775129633555008,
                0.013513198267137194,
                -0.004058345711045722,
                -0.03816151620969936,
                0.012437466691738165,
                -0.01739797663436801,
                -0.011923082360059356,
                -0.012696469479694542,
                -0.032458246292304458,
                0.04966777816097839,
                -0.012839823978664679,
                -0.06942620577002679,
                -0.03796978824846659,
                -0.02531161166215117,
                -0.04818769825795278,
                0.03200001070336779,
                -0.0014248458422122209,
                0.01727016662634859,
                -0.04258980988227974,
                0.011393540938128668,
                0.02155040910462825,
                0.035556222279201268,
                -0.033789641607197998,
                0.03994990224784391,
                0.01669608140676026,
                -0.05606868992102564,
                0.013670953041828521,
                0.03629766255379959,
                -0.055691180511293496,
                -0.0019605188270218466,
                -0.02870959078936173,
                0.02743083219094579,
                -0.0246643605829387,
                0.019527753813933948,
                0.010704363912822965,
                -0.045204517628227049,
                0.0008890803771442789,
                0.020087573975478634,
                -0.02829935737491905,
                0.01217247567666058,
                -0.08784089831210458,
                0.004190036722844749,
                -0.054901105347150199,
                -0.0403031097991458,
                -0.03409364536572737,
                -0.01792131869472079,
                -0.03615911146018921,
                0.012716214700087086,
                -0.03397343768156707,
                -0.03150677951145119,
                0.02897745203750026,
                0.004429584136723586,
                -0.06639859299650675,
                -0.01644413286591932,
                -0.01857085876057349,
                0.07176816017713972,
                -0.01771805114635954,
                -0.007073149268763368,
                0.004033422280625405,
                -0.01712918823694853,
                -0.004202568671782548,
                0.005924888944643268,
                0.017292096106490557,
                0.004980968360298172,
                -0.027297733872090208,
                -0.0035300779171028309,
                0.011893581929100826,
                -0.02400128119636361,
                -0.0007630725249893427,
                0.03496492775910711,
                -0.03784502892629881,
                0.01692822788732185,
                -0.026896925580987928,
                0.015563388223479384,
                0.00678498996699324,
                -0.034638124790733897,
                0.021366196481671798,
                -0.04074858344710447,
                0.012156951676970384,
                -0.04460114344604494,
                0.0392675427598311,
                -0.04038371746807669,
                0.03465753515229403,
                0.026107912713568258,
                0.0005561852912004371,
                0.018641990876042289,
                0.011018551854350113,
                0.015493962544766427,
                -0.0313471602358452,
                0.017317023156516149,
                0.017710767399826696,
                -0.05091772030966761,
                -0.030777387344193116,
                0.012401809608376473,
                -0.049153070438116338,
                -0.011000239232218436,
                0.053901890392500938,
                -0.020490123119417119,
                0.01775810191977111,
                0.008420351794272922,
                -0.002405756101423929,
                0.019311931782060724,
                -0.03143301663342484,
                -0.04519878443978366,
                0.03235214759891004,
                -0.05442027806072206,
                -0.03310357890996079,
                -0.032315542016737069,
                -0.05600220463204028,
                -0.0277713864372777,
                -0.04642398934852505,
                -0.02345246638646359,
                0.0201170309845896,
                -0.012239651152389989,
                -0.002485573089200983,
                -0.016100915524542189,
                0.01648380604894363,
                0.0298384219099649,
                0.04032764401066089,
                -0.0010278998831748693,
                0.03569065435453317,
                -0.05525899131526903,
                -0.050784373962828917,
                0.031450280325117169,
                -0.03945330399138044,
                -0.0337485775132794,
                -0.009301828045740453,
                -0.013436294939121177,
                0.01758724352856304,
                -0.04733937407616094,
                -0.03819656193000347,
                -0.008137331234803272,
                0.04666235737378349,
                -0.05572799893084485,
                0.023427077762325698,
                -0.061044659359530597,
                0.046713922010414309,
                -0.13804176587691265,
                -0.010164734827382845,
                -0.024034578843888437,
                0.037176295722727129,
                0.025015114302273785,
                0.0029939143969805934,
                -0.031307191620252129,
                -0.017194253289843355,
                -0.006546358744338669,
                -0.09381070727861311,
                0.023847695375015758,
                -0.03287816666599463,
                0.015859511926248756,
                0.01935887224531256,
                -0.06789116617760076,
                -0.0757154901329337,
                -0.0024091490715972346,
                0.02481882901830339,
                -0.013504099361370191,
                -0.0037865741966382254,
                -0.038006658063724937,
                0.04577848175736591,
                0.01576431752645342,
                -0.0029674452359220347,
                0.016067584598903708,
                -0.0121280992288709,
                0.03456574426061825,
                -0.04058818447118769,
                -0.018175110835278973,
                0.025280450096584675,
                0.006291881518708183,
                0.013023778882747802,
                -0.006908483053641824,
                -0.02926112779662581,
                0.023580457991117376,
                0.0304128509640474,
                -0.03492208504280544,
                -0.04125200892648151,
                -0.015019490365683463,
                -0.021927081348933908,
                -0.0634716335741543,
                -0.047038740329355257,
                0.009291846359705572,
                0.05046273825284886,
                0.003401141685407804,
                -0.050688221028259209,
                0.024781529781636545,
                -0.040875307206369868,
                -0.05146862626182576,
                -0.062353881651015418,
                -0.030923069387037155,
                -0.019451775901829336,
                -0.026253879076890156,
                -0.026852264633575548,
                0.00013295156756450372,
                0.02972892556849969,
                -0.053644167290147409,
                0.037118054481774468,
                0.007647170195778452,
                0.0036999704432677798,
                -0.014892819651482618,
                0.03232452432268322,
                -0.06037223712450284,
                0.029570632203225586,
                0.009003563598992692,
                -0.04003098836610621,
                0.016691490343352108,
                -0.01463707822315829,
                0.018456505577777377,
                -0.040203153928915189,
                -0.06256095472244784,
                0.03776628304013072,
                0.03912665644009197,
                -0.03044965084991995,
                -0.0009773998578521647,
                -0.03685493044584444,
                -0.03925406866649749,
                0.019749640442879785,
                0.021475673121447965,
                0.0022543173432084957,
                0.033883820765064309,
                -0.05323905525163463,
                -0.053472045120081117,
                -0.008710106426188523,
                -0.0026731436767440657,
                -0.02373564841410217,
                0.0013579246672802744,
                -0.04101853646372406,
                0.026811142931129025,
                -0.06648273388608538,
                0.01723438609222431,
                -0.020694150433018724,
                -0.007246132179856625,
                -0.0031342225173150528,
                0.007336988732652689,
                -0.06175208898381246,
                -0.033531897882376,
                0.04149886762085469,
                -0.030520026471906677,
                0.016051639261574946,
                -0.018359960009237579,
                -0.008539653166000127,
                0.01914439089284023,
                -0.0262484437449538,
                0.0424203862806398,
                -0.022057960474764338,
                0.03845962690517788,
                -0.048963382829895967,
                0.008701167548608927,
                -0.013745766549295304,
                0.006989343943004192,
                -0.00422441901097862,
                0.046392875076056567,
                -0.05503606666796136,
                -0.0513413397620563,
                -0.05025798003987074,
                0.02613620641861661,
                -0.005991248283947996,
                -0.0018964894496953133,
                -0.026361716002712665,
                -0.00504142513870878,
                0.004234550269069361,
                -0.018363551371842966,
                0.025666114616061724,
                0.004373692523276321,
                0.007376613901859218,
                -0.010281119493765643,
                0.02608678571040555,
                -0.010356450443924375,
                0.0014342924976217117,
                0.03792869567470785,
                -0.04121360703861449,
                -0.011358844434011393,
                -0.037420938166454,
                -0.02717056673670514,
                -0.04070698932425558,
                -0.052216741893679519,
                -0.011142556352525264,
                -0.00038033653172448096,
                -0.05215724655152776,
                -0.00503231740909956,
                0.0018779186020600524,
                -0.03928989847187228,
                -0.012617179301976933,
                -0.02243620578522908,
                -0.02013856439601292,
                -0.007273784988297668,
                -0.016479772779468286,
                -0.013257079041321262,
                -0.015740115159950657,
                -0.0540827991692073,
                0.009024890069596975,
                0.024048381382207434,
                -0.05580898945020441,
                -0.04210963418034503,
                0.004027680211929567,
                -0.04939453271566715,
                0.013853700476398471,
                -0.047516820243574748,
                -0.007060197650878477,
                0.03323819981292823,
                -0.04549206322009282,
                -0.01052424442824532,
                0.04166722260314282,
                -0.010786522807295434,
                0.0022965906640031949,
                0.04579669936581096,
                0.010350763354297414,
                0.010174432388720146,
                -0.057770346220946029,
                -0.04821449342075734,
                0.00999519205991281,
                0.048556404663614837,
                -0.04717386296829674,
                0.038158954367809857,
                -0.05177452869528735,
                -0.010897696332488775,
                0.04055905022177804,
                -0.0017994070566117096,
                -0.01976255014009261,
                -0.03895622986624084,
                -0.051810974655898848,
                -0.02552696558795387,
                -0.02815430469753371,
                0.0053541852572844389,
                -0.024887790884954007,
                -0.016958609554824673,
                -0.011988439601483509,
                -0.048710530984716778,
                -0.0019168553697513085,
                0.04115528714805858,
                -0.02687617306195855,
                -0.04173798175701305,
                -0.03630423441393711,
                -0.03200995446612116,
                0.028542595532749908,
                -0.03664457525119223,
                -0.008350263421301784,
                -0.07950794565261477,
                0.0245307820965393,
                -0.1822726918888261,
                -0.021569350915196525,
                -0.011767347068842896,
                0.01273387257366772,
                0.01831121278197512,
                -0.025321817869488836,
                0.03270383157932022,
                0.004700450848674367,
                -0.0420991481660061,
                -0.07892687542364098,
                -0.014524680723660798,
                -0.04004834949980801,
                -0.018236012373128327,
                0.025988419316758588,
                -0.0404868807340062,
                -0.042676451101346057,
                0.06901767735007106,
                -0.025371361612121596,
                -0.0269053362065707,
                -0.06649870692357396,
                -0.052642628097387667,
                0.0018352895406456927,
                0.01577985431686294,
                -0.049673116599125047,
                -0.08035031957240661,
                0.011213062885721867,
                -0.00445037090009621,
                0.026070013527993705,
                0.011351387520856496,
                -0.005724551974776689,
                0.031832953356712299,
                -0.05177433028069614,
                0.04458824204469871,
                0.008504206398804237,
                0.0238907508635862,
                -0.021124398033775334,
                -0.03517437331153411,
                0.032244244355134819,
                0.0290361878515465,
                -0.02801645311613799,
                0.010642551755384119,
                -0.01150094477224788,
                -0.033161417808578359,
                0.05806938853482612,
                -0.04175185583028068,
                0.00004766499001221909,
                0.019336746419614756,
                -0.03663817773926778,
                0.05842485156828538,
                -0.024534056580559989,
                -0.00970343715844507,
                0.03143915236661453,
                -0.03672388422914388,
                0.01694302212857035,
                -0.002363828476268091,
                0.014409990265590095,
                -0.06416731157843028,
                -0.004108113400678397,
                -0.015351335495206014,
                -0.03668201453174856,
                -0.0012209029909906286,
                0.03769980425123868,
                0.04418477895863347,
                0.017928056037469034,
                -0.027755851263070183,
                -0.017736039098012286,
                -0.05066156226140884,
                0.017008456708615839,
                0.019566788210361325,
                0.01761106433799903,
                -0.029335094760167294,
                0.04518277975541368,
                0.006474758360626357,
                -0.03959315188319403,
                -0.02980300085512388,
                0.0023439389205976836,
                -0.034903637131685299,
                0.0158877959901404,
                0.030173365633975724,
                -0.03547527564687785,
                -0.033603073156596028,
                -0.07610072933372129,
                0.031077554843752375,
                -0.013803720694979411,
                0.04107644369135362,
                -0.04952765072325112,
                0.04790308326527708,
                -0.03543298205994776,
                -0.04207854853773053,
                -0.0685829798917491,
                -0.02779270389838791,
                0.020748634672033588,
                -0.014820816870619666,
                -0.02699616641001009,
                -0.01486407203028307,
                0.01589611010508979,
                0.02437022851960502,
                0.0026529391768049146,
                0.006706393520161691,
                -0.04297259797590296,
                -0.009862505127498388,
                -0.05090667257581321,
                0.005735994919431622,
                -0.06557734088946724,
                0.025331899885418054,
                0.00950840275849441,
                -0.016074646616803774,
                -0.053273614609192058,
                -0.018222794845451225,
                0.045633600664878277,
                0.002273992690040628,
                -0.002766367301713406,
                0.010349958426723205,
                -0.038150418359732238,
                -0.028040763640436365,
                0.014469904883237892,
                -0.07215499453393061,
                -0.01610891171408417,
                0.04995656153763543,
                -0.03493645699854793,
                -0.028570878894308546,
                -0.05420488636260608,
                -0.025930343083168374,
                0.013824328402804773,
                0.0070610333645150639,
                0.019271988712634245,
                -0.0004437518418517264,
                -0.062222889156385689,
                0.011933393347106266,
                0.008262100610402806,
                0.0198903545478802,
                -0.012270071699865068,
                -0.05297145709797922,
                0.014145866481058872,
                0.01602057410438928,
                0.03929965817538632,
                -0.003997878338736013,
                0.030998016779735034,
                0.01198671209608387,
                -0.04463610691950608,
                0.02224620869363471,
                0.04099811485901312,
                0.001987195333389109,
                -0.03756963238959306,
                0.001657285119736541,
                0.030217405481357527,
                -0.03992261146561328,
                -0.03830874254209074,
                -0.050537918413510737,
                -0.00584041186629803,
                0.013115152498647354,
                -0.025955607106002335,
                0.03230768368468054,
                -0.005784722747269386,
                0.024099506985654479,
                -0.008502841750933306,
                0.007857637341386835,
                0.03059876536466102,
                -0.020608912417842328,
                -0.04080662356350182,
                -0.04141246485212094,
                -0.03266316952155003,
                -0.026142519361026227,
                -0.0023654725964708646,
                -0.039064483032972777,
                -0.051985268359579738,
                -0.019369776264431514,
                0.024212058215101998,
                -0.021057668674321789,
                -0.02329616124217749,
                -0.03446503839383517,
                -0.03532655238459954,
                0.018426080908276918,
                -0.008487429134396716,
                -0.011832027052056726,
                -0.021329766727151018,
                -0.017762951259203024,
                -0.039861381403840257,
                -0.04001962707958058,
                0.027948232726850557,
                0.0012763212002700918,
                -0.031322778353560187,
                -0.057958725493260979,
                -0.03132227244501124,
                -0.04739170936497346,
                -0.008442538805140778,
                0.019546704220259359,
                -0.00497618486676726,
                0.03776911659797402,
                -0.036258647167827857,
                -0.03895256827766757,
                0.011077594526912559,
                -0.01754713340735215,
                0.000655112342965456,
                -0.044369695880452458,
                0.06691265736382596,
                0.026937548427449638,
                -0.02799721945619949,
                -0.0764412682455696,
                -0.0047880613976726258,
                -0.1500260602483634,
                -0.049398650920004397,
                -0.015218673807878253,
                0.04804892891319048,
                0.008484079664480289,
                -0.01911268204777811,
                0.01077540495784228,
                -0.019350498837556006,
                -0.04521867467315243,
                -0.047819656612877858,
                -0.05066801929676106,
                -0.0027350835655332594,
                0.02532014361005355,
                0.0022177275740645999,
                -0.008738502783849108,
                -0.02165073691253038,
                0.006611561621838252,
                -0.04414324551435864,
                -0.007942912585871114,
                0.00040755077209305834,
                -0.03666100481765633,
                0.0262414460652818,
                0.039331720507207807,
                -0.03982578724494554,
                -0.06328496454694671,
                -0.012177983983536553,
                0.027285142130266734,
                -0.04023949719949907,
                -0.03901190979120356,
                0.027280618965177029,
                0.01483303792596005,
                -0.036284228798191587,
                -0.034482035870415667,
                -0.007428794722364024,
                -0.039695037865108858,
                -0.040162718011555856,
                -0.02221787519531606,
                -0.027318023594743239,
                0.03198853920579076,
                0.0030761018519629916,
                0.017451443904431757,
                -0.04251031467847258,
                -0.019270068478160385,
                -0.0073392053361780499,
                -0.05329652857665487,
                -0.010772326175490486,
                0.01633462859416629,
                0.007023184637462533,
                -0.052954213623115208,
                -0.04317180760598153,
                -0.03679503658989553,
                0.000020824960449206456,
                0.015150135028322454,
                -0.043874336067280878,
                -0.037170540450476869,
                0.010013457564496006,
                -0.0367838653922999,
                -0.00468242710137967,
                -0.004800154162302495,
                -0.010093736800976923,
                -0.02942644735816432,
                -0.02028544307501542,
                -0.04257222127045609,
                -0.014838022665291225,
                0.016822951616330303,
                0.037501294602327189,
                -0.029588083598268593,
                -0.026004388252012516,
                -0.0316530891642033,
                -0.033424600603991629,
                -0.02957196123429686,
                0.03457994450526802,
                0.01930554746781125,
                0.04858777649265064,
                0.02320540624211752,
                -0.04653372771357951,
                -0.020105393316259998,
                -0.01606411777136592,
                -0.05077109721646859,
                -0.006577015894394734,
                0.04389971541879676,
                -0.08373402623442639,
                -0.04799490543674771,
                -0.0438086206961198,
                -0.0033044718761105526,
                -0.04037408763812181,
                0.0033430847216015669,
                0.04718154761599947,
                -0.021224077063654778,
                -0.02712135611658194,
                0.019045441875519214,
                0.015115061516714724,
                0.01679348271935241,
                -0.046970602969535018,
                0.04638592900971029,
                -0.01857005518924896,
                -0.034103773188511,
                -0.05517123345182387,
                0.010936425752776669,
                -0.025207129696126645,
                -0.038091440041515937,
                -0.01107691480106701,
                0.015761279325094886,
                0.00013809592726659036,
                0.013220275049537435,
                -0.021267899491448376,
                -0.03227768141356873,
                0.013626854215384354,
                -0.006510439059089291,
                -0.045612792071282038,
                -0.029055239889565926,
                -0.04165960145016672,
                -0.01174080569444313,
                0.04352860149257465,
                0.021460298168421617,
                -0.001593580040259,
                -0.03376582315204038,
                0.026846847391530139,
                0.05958917430126088,
                0.0031158653296602678,
                -0.027678310517986503,
                -0.018656399008174383,
                0.017677261022649546,
                0.02041558397631813,
                -0.00023182875437353142,
                -0.0018656069327687578,
                -0.03375019068008868,
                -0.05125880237596825,
                0.03413093518483917,
                -0.027124004800418525,
                0.025427081874401716,
                -0.03243813469206667,
                0.009516637181362774,
                0.02468519701658072,
                -0.028692635557326278,
                -0.02478875242272056,
                -0.010297349833916883,
                -0.019113513723630277,
                -0.009173504425691705,
                -0.05762782950563257,
                0.04492907536080565,
                0.03305432797749463,
                -0.027777936429803183,
                -0.023114335193113259,
                -0.03188076905678391,
                0.024459411757442059,
                -0.003881786600846023,
                0.015034250378096349,
                -0.021582593107760008,
                -0.024010762855772348,
                -0.05396789951669407,
                -0.02427518361813297,
                -0.028443716012987519,
                -0.042277016462147588,
                0.03983246223236996,
                0.025824104130883334,
                0.009231058296449577,
                0.01972238475996513,
                -0.044592434372253009,
                -0.03202125774199324,
                -0.03437922529246476,
                -0.04795434571575973,
                0.017117111137363616,
                -0.05273519182711715,
                -0.03145343076846275,
                -0.04978625135196924,
                -0.018748836041547875,
                -0.0021619313415637065,
                0.0038018411467605815,
                -0.0053721886016126888,
                -0.04505490256414891,
                -0.049037281375391119,
                -0.014744233943778435,
                0.015525042814163034,
                0.008483905852179542,
                -0.010838754325214629,
                0.046121065251915439,
                -0.006774013733223335,
                0.004151047632620467,
                0.031163462572622703,
                -0.05246183840223611,
                -0.013657197861500095,
                0.018867741651662968,
                0.015578209078138787,
                -0.023496699351802577,
                -0.0027954639242309434,
                -0.04843621411161712,
                -0.00588435314406744,
                0.02754280775335373,
                -0.01687584172223986,
                -0.0018016850022149355,
                0.013090361053790502,
                -0.04473530831808608,
                -0.02803031544853962,
                0.03612508011310157,
                0.0894488394172582,
                -0.054293410185479378,
                -0.009665321574052847,
                -0.07675683706765337,
                -0.034053847153983848,
                -0.17515809175009487,
                0.0012972910151350355,
                -0.06842572543921322,
                0.06601628484086467,
                -0.0018120232412250227,
                0.031574220152086138,
                0.04922151816335612,
                -0.02361999308398472,
                0.002826679695008284,
                -0.03791135920847644,
                0.024316101906508085,
                -0.03385778550537234,
                -0.02997155252792453,
                -0.023627829425786435,
                -0.0671071307641213,
                -0.03411390682947226,
                0.016988681163762167,
                -0.04763964540589033,
                0.009800403398749408,
                0.0018396851232766175,
                -0.07272404311337069,
                0.030795965318092878,
                0.020845769977601876,
                -0.037362077186784557,
                0.01068031704654642,
                -0.024013470042512198,
                0.03429523909479935,
                -0.032766327971777229,
                0.0060488658574957558,
                0.010333314548508575,
                -0.02587717877930961,
                -0.0019340665695758472,
                -0.0035666925073334287,
                -0.02415147303580042,
                -0.03138787118428443,
                -0.05369187112815531,
                -0.038725801231726659,
                0.03675834369471196,
                -0.015275395381470349,
                -0.01546875465767616,
                -0.002069905215611798,
                -0.01969382582223575,
                0.03753904738442105,
                -0.024533666633135589,
                -0.00902062136323258,
                -0.045749383953831487,
                -0.02329269408923709,
                0.007160214220330863,
                -0.03559563786371664,
                -0.0578480591321154,
                -0.006571151412954382,
                -0.04352116120433359,
                0.021632687576865596,
                -0.053586058120820147,
                -0.046293579486671409,
                -0.007974635717769442,
                -0.0596937676172175,
                0.016758408181413194,
                0.02567215283252917,
                -0.0069285540591315169,
                -0.09990487265022119,
                0.017969833666235513,
                0.014391505230934486,
                0.0446813233951156,
                -0.03063126051262315,
                -0.02080782390775341,
                0.01435000234470889,
                0.03865251386824361,
                0.027989131619861095,
                -0.06946535496756144,
                -0.03347933976941837,
                -0.016081675187943256,
                0.04689153478396869,
                -0.017301607227431079,
                -0.05617257186103044,
                0.001816379690341141,
                0.026557985445945149,
                -0.013809716250768895,
                0.006601739383725139,
                0.006575557263429958,
                -0.02420621813397146,
                -0.07162518724890783,
                0.03954309165751364,
                0.007926303269446017,
                -0.046736002411736709,
                -0.0364517063047186,
                0.04176581910511059,
                -0.01728426359668278,
                -0.027998509985215505,
                0.009042697536180892,
                0.03981274628569421,
                0.004234401737983986,
                -0.04941903552880141,
                0.009851972237352127,
                -0.016919814384460865,
                0.016718721379145947,
                0.014461528657191948,
                -0.051677876089700928,
                -0.0540129507928962,
                -0.019174207018333598,
                -0.001488582669427609,
                -0.02236948778909612,
                0.05757127836286818,
                -0.06357300365915343,
                0.012069680796928087,
                -0.03742424255756353,
                -0.013181195302615776,
                -0.01546057038135664,
                -0.03818127100683376,
                0.0012729464103396816,
                -0.007372688512267962,
                0.026401425164478088,
                -0.050612007979154289,
                -0.04210026097345683,
                -0.0038809137445559736,
                0.029021585466630328,
                0.013862248973210485,
                -0.055550419133110918,
                0.05623041096835481,
                -0.057052436956860377,
                -0.027824832945992727,
                -0.016682837926819045,
                -0.010283229771041285,
                -0.04670735134435375,
                -0.04911477992276844,
                0.03443493056732992,
                -0.02390793475542703,
                0.03982128870023319,
                0.024271025172263297,
                -0.04570671500422653,
                0.01996871677875867,
                0.009817134897442877,
                -0.0243365269047693,
                -0.023540637509772597,
                -0.04427785362840177,
                0.018274778055766325,
                -0.04746116887091546,
                0.03215389975716182,
                -0.05227752805666159,
                0.019483539805124775,
                0.03220250416785783,
                0.0008364541807642642,
                -0.0812686493343142,
                0.008608015346481962,
                -0.04494432107947966,
                -0.033668292434286827,
                0.008938737007768282,
                0.02676222561405493,
                -0.03786316031465232,
                -0.019073556257234567,
                0.03514452900720777,
                0.013128772268308824,
                -0.03351453883502301,
                -0.056906899573469397,
                -0.05438206976042571,
                -0.04746498330615753,
                0.023726272217074207,
                0.02526627559143302,
                -0.054900874409257807,
                0.042005907329347908,
                0.0318887203709903,
                -0.013447968270579971,
                -0.010296673760825546,
                0.03203902785737655,
                0.020506601453719254,
                0.04232527695549493,
                -0.015005117999308177,
                -0.00040193870423251346,
                -0.07222439159426643,
                0.01885785458191288,
                0.023344193703230866,
                -0.04732004720602892,
                -0.05541821657137222,
                0.04463602594149878,
                -0.03267324036950456,
                0.017076559284169826,
                -0.004253284669877588,
                0.018058787322588127,
                0.04694356615998276,
                0.03380082225797508,
                -0.03838428584316159,
                -0.01594222205229654,
                0.012294221329451474,
                0.0024310017732970918,
                -0.020244740410883728,
                -0.04292978416730081,
                -0.003325869887330855,
                -0.02876765777358288,
                -0.025694921522428878,
                -0.0554415979488389,
                0.020427009272630825,
                -0.041108090559082387,
                0.009267961795604258,
                -0.04608191976324054,
                0.03283641636902786,
                0.048067163861722338,
                -0.04155634752686274,
                -0.04350083952908887,
                0.021413026174866118,
                -0.03932246451848685,
                -0.12747052834978118,
                -0.0990614212669124,
                0.010037124623175607,
                0.01788068677675901,
                0.03177802353066123,
                0.01324487442115226,
                0.01863159853779667,
                -0.04882947071856672,
                0.029556156490229747,
                -0.07151650128361548,
                -0.003072976588467816,
                -0.04409977310828922,
                0.03982424252882384,
                -0.04063736586319256,
                0.004309634505069348,
                -0.07194552067363779,
                0.03789719944169147,
                0.0366290020966198,
                -0.007543424392059496,
                -0.0036769298091947337,
                -0.026707402775484919,
                -0.04240203424269463,
                -0.02226615444772085,
                -0.055431315806067287,
                -0.0780935198076871,
                -0.0008560635309735643,
                -0.014800491158029924,
                0.035990624120423978,
                -0.06121831899401055,
                0.011166967048429443,
                0.00630290990302692,
                -0.011365415917630054,
                0.028437210959505876,
                0.016907560106402626,
                -0.056097809024752847,
                -0.04153864456025189,
                -0.014792203831414282,
                -0.016128365073729737,
                0.03555451262009754,
                -0.0020955088789179848,
                -0.016504632879027208,
                -0.0406555653436469,
                -0.012812120818114205,
                -0.06559533539665782,
                -0.012802290058701711,
                -0.012450695163697451,
                -0.04910543659853453,
                -0.014266385656617847,
                0.002965467056475146,
                -0.025001844664164716,
                0.021781122011617899,
                -0.03423598324353585,
                0.007119505584212425,
                -0.04805093952180302,
                0.01131725920861966,
                0.005957379650055236,
                -0.004542142545285432,
                0.03746140346222983,
                -0.023687503186665735,
                0.01565703364699616,
                -0.05748770800381529,
                0.016414695172732489,
                -0.04396798650169154,
                -0.019859114997747425,
                0.009894273401200253,
                -0.03812480514365467,
                -0.03439272550566217,
                -0.037670834441466,
                0.04119984367611418,
                -0.013012622552753997,
                -0.0773430320478806,
                -0.03484416748098792,
                -0.02768629249110582,
                -0.04713820883668826,
                -0.043213326708594058,
                -0.04356740129942613,
                0.003752139557469275,
                -0.02905347232440657,
                -0.011086139474034189,
                -0.023652483343885104,
                0.01795824362589018,
                0.009397944793968969,
                -0.019938133417876669,
                0.002728684543419409,
                0.029099576090143118,
                -0.013017499445410818,
                0.041901215793643187,
                0.012442726119133528,
                -0.039747349870296298,
                -0.02543961619120748,
                -0.00915958157839774,
                -0.013446683970795355,
                -0.050178022422048117,
                -0.04916375288702782,
                -0.03396689431567475,
                0.0015388395998630553,
                -0.024899704527035529,
                -0.03527302672390598,
                -0.027682026530340035,
                -0.008105321539032458,
                -0.014687024033174819,
                -0.05851596185420641,
                0.015374741925227595,
                0.018295379237313376,
                -0.018987444109421757,
                0.005512247270034474,
                -0.038541496045326088,
                -0.0017339541232783553,
                -0.036960773343443688,
                0.004590093544954646,
                -0.05999017138709482,
                -0.001292056758616177,
                -0.017521378059524467,
                0.04010357140078189,
                -0.02829619256599482,
                -0.01930215988284667,
                -0.027037426094858449,
                -0.00843953384272978,
                0.012380209011423973,
                -0.03561787249429582,
                -0.04297824927842691,
                0.005828949019755406,
                0.024820806682129889,
                -0.00003848286493129678,
                -0.0508749039443852,
                -0.0150320208895899,
                -0.042819806282032257,
                0.042426669506085607,
                0.02549995282058977,
                -0.01884504238155454,
                0.031288663738350878,
                -0.023111295360122638,
                0.033823754948055399,
                -0.05813995787170773,
                -0.050786705692862827,
                -0.0008302785848276397,
                -0.022779384396221393,
                -0.005226992489337343,
                -0.028622645977377446,
                -0.040401227979306158,
                -0.01561765101367111,
                -0.012867718614202936,
                -0.03961168070629049,
                0.00820925412376714,
                -0.0062859403574929638,
                -0.04646178028471703,
                -0.024843130495619787,
                -0.05645685801255351,
                0.018262627065841233,
                0.012913587332699517,
                -0.03410720802185949,
                0.009070116677637838,
                0.03392196530901014,
                -0.04680604167374511,
                -0.027246062916994965,
                0.00701457439210834,
                -0.0498682624833556,
                -0.06479421133247974,
                0.031729664883929507,
                -0.04637498940947288,
                -0.008102208666492103,
                -0.041730659644155908,
                0.014509369136846463,
                0.009384261922925398,
                0.010501709996931196,
                0.008869018424198051,
                -0.004635227839542162,
                -0.03212823185942048,
                0.029385958430460054,
                0.017617105044403147,
                -0.05027620508192519,
                -0.05115646564341075,
                -0.028320333300608039,
                -0.036736543648333657,
                0.038324726966287487,
                0.02052921420841081,
                -0.02291851661292992,
                -0.028482960057642598,
                -0.04546403014179634,
                -0.051540177642652108,
                -0.04884737369703464,
                -0.04532072141955019,
                -0.035241983052204588,
                -0.04381213977961721,
                -0.03878377029007373,
                -0.02778707448909244,
                -0.007658627745992656,
                0.019971038844990724,
                0.012478523049174002,
                -0.01771147629193484,
                -0.021296475290940296,
                -0.026936102260923156,
                -0.014156352725555943,
                -0.034168495069659337,
                0.010941199279071387,
                0.018231263140229844,
                -0.002495944198936919,
                0.026298541770386667,
                0.02399142700622325,
                0.029922854116778885,
                -0.13068004496050038,
                -0.09323975542287112,
                -0.07343594910708325,
                -0.020188205163901204,
                0.051010643062905817,
                -0.05102361237441476,
                -0.008195577560242043,
                -0.007365970824492627,
                -0.033529418797001237,
                -0.03750365473787691,
                -0.02252538792718179,
                0.030844863284673085,
                -0.05919934636008094,
                0.03480559899320785,
                0.019143015294731629,
                -0.09136673902638834,
                0.08478487846322741,
                -0.0003783498606841889,
                -0.025392803203608175,
                -0.03662454108371356,
                -0.05254713842032871,
                0.02116357738875922,
                0.006598523722081073,
                -0.017931427329923298,
                -0.044469075220779908,
                0.00413501266470173,
                0.0016687996943432395,
                -0.05132695594889504,
                -0.019896109592495136,
                0.011686604999097864,
                -0.05390168527171206,
                -0.00045587325591117255,
                -0.01667876107562741,
                -0.039633287167337449,
                -0.02388001751857214,
                -0.052449244527818118,
                0.023903027827265757,
                -0.03815376616256422,
                -0.011479748182614498,
                -0.05119195630551112,
                0.02081249189737281,
                0.02166241811794925,
                -0.0050822572952354109,
                -0.038792655199229548,
                -0.057619993638480578,
                -0.026778937908995726,
                -0.03836556923048542,
                -0.016245897462708177,
                -0.024510957989292795,
                -0.04050663949622152,
                -0.043926127038499487,
                -0.04457084438142349,
                -0.018535457691934075,
                -0.016934326705935745,
                0.005854240642665466,
                0.02023583144635646,
                -0.03091128325041724,
                0.015283931095119198,
                0.000725518608646538,
                -0.006378289194868684,
                -0.037976018313812049,
                -0.03349713036876787,
                -0.048354874698990548,
                0.01651336852187914,
                -0.010722748762084478,
                0.022594313618002558,
                -0.017877639298543549,
                0.026634550550343678,
                -0.01856713518680315,
                0.021505613128525663,
                -0.043436771845321828,
                0.020851445602825367,
                0.0036815598073771454,
                -0.006965690206421906,
                -0.018560419357583629,
                -0.015508864061431451,
                -0.04432908394848146,
                -0.017134248451637567,
                -0.02329646658217873,
                0.032685368122074207,
                0.011886742496841498,
                -0.057487783503392637,
                0.018753862383964448,
                -0.038150494421863617,
                -0.0049908296827521178,
                0.039445173643151369,
                -0.019799673483102945,
                0.03886399498212059,
                0.0027136993986744434,
                -0.024602845377624868,
                0.005442154594610756,
                -0.0390504806271337,
                0.004819193732466454,
                0.0029712093998559539,
                -0.0011343856120572412,
                -0.0016962335828997506,
                0.015660908877513065,
                0.040081049792134327,
                0.008216959820235126,
                -0.0036830786696930787,
                0.022398685379315186,
                -0.014078121481725057,
                -0.025521147123460206,
                -0.03079195669219931,
                0.02853265382528892,
                -0.014426891133128773,
                0.03513603703566346,
                0.03746506005208322,
                -0.04989325792532369,
                -0.029082616614021729,
                0.009299635402204307,
                -0.04376713547101121,
                -0.027328227500482823,
                0.007786353349914632,
                -0.03913344308674121,
                -0.01675244009425914,
                -0.009991980975871833,
                0.03590914161361218,
                -0.01662470856969459,
                -0.007976072449941916,
                -0.023685271912872,
                -0.0016540244578981418,
                -0.05534321868481711,
                0.022566097757560557,
                -0.02246372072989111,
                -0.03850139624973106,
                -0.036641416696260978,
                0.0031172171693204288,
                0.023505453181321628,
                0.02318364064344775,
                0.012364495975966578,
                -0.051006239607982308,
                0.00968671274285554,
                0.027670638988788626,
                0.0451984365744947,
                -0.04646997968677375,
                0.030228131651038778,
                -0.014835714209599883,
                -0.01753762930763057,
                -0.061943785096557447,
                -0.03660299602535906,
                -0.00889045203201045,
                0.0033671400604727947,
                -0.01673330529057221,
                0.0419686779622772,
                0.007296580337010014,
                -0.05197555555996664,
                0.03548759104232925,
                -0.01754853650148561,
                -0.055581435050598707,
                0.03225143220898311,
                0.011438121576515959,
                0.035810242526941458,
                -0.03977045610337322,
                -0.04516874299570668,
                -0.034829784801184437,
                -0.028770356747872634,
                -0.010434500407127446,
                -0.048597290343076849,
                0.023157807144998704,
                -0.028300542549580314,
                -0.020745049847323478,
                -0.054141576277596,
                -0.044924008824239958,
                -0.0035141900275530945,
                0.00041723177716954145,
                -0.01897066909013293,
                -0.023823793621308686,
                -0.003757182501496355,
                -0.04765557673988081,
                -0.004715894933303521,
                -0.02498641677795845,
                -0.0005454414188635977,
                -0.048981276015345669,
                -0.009262987046150834,
                0.038482678784720187,
                0.03869431317532537,
                0.014364626135303132,
                0.027829545049332249,
                0.013883927547844191,
                -0.04227415162288476,
                -0.03463147532867285,
                -0.051641639032491467,
                0.039428917937023928,
                -0.0552054341238758,
                -0.054447846994075257,
                -0.03390475499854911,
                -0.009343509190405967,
                0.013887028966806083,
                0.011783881360945058,
                0.010129936691889302,
                -0.00862048963116755,
                -0.04064826227661398,
                0.011112462316160118,
                0.01365787941055664,
                0.08708809581654738,
                -0.03033420774614487,
                0.017955956298238725,
                0.002878848530975052,
                -0.010856144332451532,
                -0.19835173489283754,
                -0.01987486877602423,
                -0.07019538113745097,
                0.01824360911143175,
                0.018504593758029009,
                -0.009245524639796893,
                -0.036301886511994587,
                0.01760311515327752,
                0.023658469057123749,
                -0.07559145309537871,
                -0.02748540062797134,
