{
    "layers": [
        {
            "weights": [
                0.026068022980539418,
                0.0866690993622764,
                -0.08567197173420604,
                0.08805659804276038,
                -0.01764458462446696,
                0.06644453296958715,
                -0.03015559198631202,
                -0.02637474984908252,
                0.009882801275006494,
                0.019775538128687939,
                -0.04711648977656782,
                -0.034229967897968009,
                0.10397100644672867,
                -0.00932721837078381,
                -0.04367976954548404,
                0.023144893405414883,
                0.06478324010755229,
                0.10136006580459624,
                0.053172947884546958,
                0.13579071981754926,
                0.14320272468941404,
                -0.02213804974096267,
                -0.028170471223012685,
                0.015213253668723693,
                -0.03784565263631583,
                0.045678034883344747,
                0.0369125243587465,
                0.009638784991427088,
                -0.00765452898957254,
                -0.025440037164448479,
                0.003252437251799088,
                -0.023000378672993026,
                0.01639495089424989,
                -0.027331408667094726,
                0.026875495795617017,
                -0.009039315046948535,
                0.02449473506496532,
                -0.04077535626064533,
                0.029907989340085426,
                -0.10212303385444897,
                0.021614201188596618,
                0.03700911703873733,
                0.01142055952380643,
                -0.04252084705390883,
                0.12778202591588326,
                0.18551940322960304,
                -0.02669209601023388,
                0.032964933519903257,
                0.0726832151933638,
                0.04011213629855151,
                0.03980586602346708,
                -0.01663932472114364,
                -0.06574393711316391,
                -0.0628382992314164,
                -0.020108272217340699,
                0.028796483989704418,
                0.03572377048818647,
                0.09104915870272118,
                0.10893360029775609,
                0.03492099594159885,
                0.060718356129274269,
                -0.013020033430853387,
                -0.09317244556660867,
                -0.017361764512054169,
                -0.12677506336728198,
                0.037395145815061,
                -0.056200249041447557,
                0.1597087970615815,
                0.04507658569013688,
                0.12900118072883735,
                0.14456935983413664,
                0.006858008239966394,
                0.056750009019142889,
                -0.013320675553034097,
                -0.13420581902364779,
                -0.002240416584250767,
                -0.0630990529967006,
                0.10738821648170166,
                -0.05395089780118769,
                0.02698569448001872,
                0.09747746091396169,
                0.012726456951078339,
                0.04960715937139619,
                -0.02575961532811926,
                0.01605874315612872,
                -0.015491037102697251,
                0.00011915221633357912,
                0.040079762513599178,
                0.04116050862046893,
                0.12156689769757676,
                -0.0035675048017568668,
                -0.17230442187272927,
                -0.0156420431505431,
                -0.02453663745138271,
                0.05236469688799931,
                0.01827592721677424,
                0.07129708520841885,
                -0.031309450180909529,
                0.028581855751397057,
                0.051131310736026776,
                0.02945755724842419,
                0.06711011156360419,
                0.007853052180586656,
                0.022325518097074637,
                -0.026141174007702548,
                0.06886076568297013,
                -0.016689239505057235,
                -0.10105682814717253,
                0.04106288554643285,
                -0.015268024559612763,
                0.003773833212211225,
                -0.018792223953087308,
                0.1155535204568866,
                0.009517963647745423,
                0.03421085880097418,
                0.03711809311446185,
                0.09698012783089093,
                0.08984009739840839,
                0.04906647709494296,
                0.14266295125649834,
                0.047036081267994658,
                0.06997081878107124,
                0.015194399250157075,
                -0.012981866144237213,
                0.003043838129793355,
                0.023453349883038708,
                -0.052932866740970859,
                0.028238817735135259,
                0.0458584224102551,
                0.048960238600130389,
                0.04110539247286561,
                -0.06502828300752078,
                0.051934318675721877,
                -0.030767755971762044,
                0.020117591603777665,
                0.0571705134672949,
                0.02389051543315012,
                -0.08778744431443736,
                0.027012065729793787,
                -0.0421025089600917,
                0.07707694093420126,
                0.049339310416031168,
                0.03811298838689737,
                -0.03254292140266342,
                0.12639423082762225,
                0.10121321074609649,
                0.009764451470890714,
                0.07186866649523778,
                0.08414509892219771,
                0.08515400704087817,
                0.08175682555096869,
                -0.00454740264808319,
                -0.038850711003678668,
                -0.033385017398292148,
                -0.11039185963575116,
                0.016326173806311039,
                -0.026832466828895109,
                0.06716541657635654,
                0.1345116127708706,
                -0.00023251134426141652,
                0.07557692668004844,
                0.008882935182513308,
                -0.09324813430319852,
                -0.05357507314367064,
                -0.09206864410488729,
                -0.002621607306712187,
                0.03186887003497318,
                0.1495413645887293,
                0.014638122815732409,
                0.07744873584006652,
                0.10982833992765572,
                -0.0579495697652492,
                0.05482574533279514,
                -0.045468663763067008,
                -0.10644392812694399,
                -0.05400432539790559,
                -0.08109663030699344,
                0.1308071816475994,
                -0.002997097823605885,
                0.020736399906809343,
                -0.014090863053793727,
                0.028530812486320169,
                -0.03798468687460357,
                -0.023107084216290008,
                0.02333329869694736,
                -0.036411661384488838,
                -0.022739585851707646,
                0.023859511140341614,
                0.11373186508319337,
                0.006294098943902598,
                0.09988660841932239,
                -0.13366671239748185,
                -0.023075668139816834,
                -0.02853110061499192,
                0.06508625968178927,
                -0.050402368993366499,
                0.08429062239850886,
                0.03581068519690843,
                0.02267382139085487,
                0.034161438934011637,
                0.03538412198064817,
                0.0913023156600638,
                -0.032623161816929837,
                0.05767012070268303,
                -0.09317903857206518,
                0.053759246613583919,
                0.01622497387819574,
                -0.05484559240769519,
                0.007363563874482685,
                0.004492836800716277,
                -0.012668049696359287,
                0.014917161778109832,
                0.1290685589680086,
                -0.01027202293987753,
                0.02124841023455157,
                0.02752478287392028,
                0.15191909130695548,
                0.06894118857013543,
                0.12517252450915279,
                0.019192099225421367,
                0.11398136873695886,
                0.025524141494303419,
                0.00896946492677041,
                0.006272770369736824,
                -0.06329558295507101,
                0.005174632947476139,
                -0.0038357090964938765,
                0.03585595052279756,
                0.011223728929435023,
                -0.026072103952064907,
                -0.018721938016563353,
                -0.04115787136768536,
                0.07409785139921969,
                -0.01976349440441835,
                0.038517028265268888,
                0.033993200814502178,
                0.06277969735348739,
                -0.002417103273529196,
                -0.01736876956876354,
                -0.06427987059880634,
                0.03750106842990645,
                0.04986905937589482,
                -0.03318519695653579,
                0.025157494770340184,
                0.1440024900374599,
                0.0553840678518731,
                0.014629372110983766,
                0.0013173364036628936,
                0.07574486425541224,
                0.1003807481575847,
                0.0595033393929192,
                0.026158310179853034,
                -0.02555087156213612,
                -0.11433961148484692,
                -0.08544357163660406,
                0.015313302411574344,
                -0.012873019475968539,
                0.1073034459474954,
                0.08721981879489388,
                -0.025783091127521447,
                -0.017767103014788494,
                -0.019461381055477214,
                -0.16903914681642344,
                -0.002980279758752539,
                -0.1592958700443914,
                0.13826607667700245,
                0.023916057259522114,
                0.128867304212561,
                0.02148223772906498,
                0.12891910877029054,
                0.11618773470835604,
                -0.05631683621644062,
                0.007100131337469474,
                -0.14375638821448956,
                -0.16701520896258632,
                -0.02831080059743899,
                -0.08582647602133498,
                0.2063062903955557,
                -0.03478774585013195,
                0.0709306280330832,
                -0.0264237257051513,
                0.045338951968482799,
                -0.02602383375345517,
                0.03382779418893758,
                0.07002095408639118,
                -0.016650016017378936,
                0.004997091022710614,
                0.002443278446447201,
                0.08314463481953764,
                0.06147135893121232,
                0.03576668798850755,
                -0.08965577429145355,
                0.0583876116700053,
                0.039245133131834728,
                0.05867895296549442,
                -0.019110484340165266,
                0.0517671686504097,
                0.006664453547573533,
                -0.009104195554029986,
                0.014269799110307367,
                -0.03451979983964562,
                -0.013108197723578262,
                -0.014371764988221306,
                0.055803645676376429,
                -0.023044395326238123,
                0.12577543057480335,
                0.010224449716173406,
                -0.13661494984756199,
                -0.00207348314926186,
                -0.02015723429667397,
                0.005746720759094091,
                -0.0565803218315892,
                0.13731257904094833,
                0.060779021651834828,
                -0.007642179322306735,
                0.05547398103956411,
                0.10638812790119635,
                0.0666655510269331,
                0.12959607331339044,
                0.10665595096440148,
                0.037134748308519188,
                0.044928608630448289,
                0.04687346342471417,
                0.05398835711078348,
                -0.013716039076651865,
                0.02447483916203146,
                -0.056445793913634769,
                0.030515527538293714,
                -0.000009162550200564855,
                -0.006358154367600033,
                0.020623515738669875,
                -0.024018902403749377,
                0.04560491067601273,
                0.016423218015869494,
                0.019926762498981257,
                0.09110439300989118,
                0.055807434717736987,
                -0.02541621053681033,
                0.002243115247794421,
                -0.01950783878279535,
                0.07256464000735415,
                0.0385059719017153,
                0.05599424367583435,
                0.05357906197178969,
                0.13694600391826554,
                0.12943276550535044,
                0.06348282657323602,
                0.04329106666614822,
                0.06966840620845064,
                0.0760283675592164,
                0.057334122093890747,
                -0.03856873642534822,
                0.0017102176878837448,
                -0.04953413129711755,
                -0.10989429144820805,
                0.03162484141074099,
                -0.0370942646340766,
                0.10439992616962951,
                0.10601714252557749,
                0.03553293326740354,
                0.0009447096101890969,
                -0.0006141756744364193,
                -0.07293458044039826,
                -0.034917026820298607,
                -0.06967224076341568,
                0.12821382969254548,
                -0.003321749828825358,
                0.10711823237893953,
                0.05881512662830589,
                0.06857616485308348,
                0.12369776765171857,
                -0.02796326168389629,
                0.07159218864468846,
                -0.042180261001118619,
                -0.15341577297733328,
                -0.0055570257636504819,
                -0.07762911551878123,
                0.12707611429679367,
                -0.08746092612441767,
                -0.03544290879475735,
                0.0464552018008462,
                0.06640862742971096,
                -0.00802730631612784,
                -0.04333317879119447,
                -0.0025947943879811097,
                -0.023895191118758823,
                -0.06925019802207812,
                0.0583165483010704,
                0.053863635587505957,
                0.09786350754396284,
                0.06360860435701832,
                -0.03550479715503758,
                0.028257498509894006,
                0.050507580987128559,
                -0.018337047328959727,
                -0.017372939171486018,
                0.057056258834755717,
                0.03511756137888658,
                0.05147185859139981,
                -0.02543861513624929,
                -0.09886544212046585,
                0.021570158305334425,
                -0.0354250461573415,
                0.0687365074420249,
                0.0034956250759935276,
                0.13410143947375237,
                0.005595728055572976,
                -0.023211984873905579,
                -0.03234584166840122,
                0.006885691894005662,
                -0.004181020762901862,
                0.03667646031162301,
                0.12769578741195568,
                0.042549359442721808,
                0.0327891643604289,
                0.014230207617118109,
                0.0688427521349069,
                0.09043716282908877,
                0.00432907519227255,
                0.06696345277974744,
                0.09047031438936547,
                0.12099858625720486,
                -0.057568555045335128,
                0.035199447074893138,
                -0.046755165763596038,
                0.009916076337316128,
                0.04488480031325112,
                0.04072845906872956,
                -0.0136158016506503,
                0.05157716599382577,
                0.06619974212880724,
                -0.06227096568360886,
                0.0034621181834221016,
                -0.03927561975233539,
                -0.050730466293997359,
                -0.00017508680538662655,
                -0.006836565528384488,
                -0.03156797678279854,
                0.01111873855571819,
                -0.08466034627433618,
                0.0616377722610643,
                0.005387779119282736,
                0.03051927118838673,
                0.03165876969433922,
                0.12953144837260772,
                0.12756407358544556,
                -0.020349545742428363,
                0.016439880538726915,
                0.04562728379920186,
                0.1021854108261165,
                0.03622554269611345,
                -0.018342579937462065,
                0.008645940480022839,
                -0.06874408732932984,
                -0.03347566777533515,
                -0.027706111114267345,
                0.016424774752018299,
                0.07693222385398593,
                0.021902048673111315,
                -0.09545205090044014,
                0.08579696604026457,
                0.021913364687874735,
                -0.11915112366399602,
                -0.03613568443930335,
                -0.10274098115964686,
                0.0941448695532873,
                0.02379721388271545,
                0.15696867274275887,
                0.024385826294504047,
                0.05823457095145126,
                0.010766060951416626,
                -0.05524955470436838,
                -0.015878004510377,
                0.007557048605935429,
                -0.12555960276733195,
                -0.0153741439164732,
                -0.1173908288964238,
                0.10167961260242548,
                -0.062440560299449148,
                0.03061866574937906,
                -0.004000416789640566,
                0.048289083907187609,
                0.03973329370024811,
                -0.014763393201130572,
                0.03781703560933145,
                -0.025449860199955787,
                0.02934787697730416,
                0.006308209134525319,
                0.07299611481624191,
                0.08713608920710867,
                0.05470265119695379,
                -0.04814533725538469,
                -0.017874053505963464,
                -0.009915658627898729,
                0.0055873783832855118,
                -0.05140967402506226,
                0.030297193997508976,
                -0.0002740952124694683,
                0.015299278021135312,
                0.054385428239903037,
                -0.06296320438645044,
                0.03494253486003567,
                0.0006660868278604819,
                0.08145973624050361,
                0.02426152839364486,
                0.08699154530117723,
                -0.03917098776441851,
                -0.04178037207323631,
                0.008563441254805045,
                -0.0474610866017541,
                -0.029300326905338248,
                -0.05084266117996672,
                0.0697003972220708,
                0.018617346973958266,
                0.007476094428590547,
                0.011765447118405845,
                0.1253628513072384,
                0.0530435603205967,
                0.0631968267791652,
                0.07173141762942723,
                0.12129095132633358,
                -0.035303471946591818,
                -0.03880327528065988,
                0.03865133641249969,
                0.002079355373908837,
                -0.013217523511988343,
                -0.020271740585385207,
                0.046889697069393259,
                -0.007205871929179848,
                0.021348145118520346,
                0.06308481972868024,
                -0.031870923391542887,
                0.04476705449225537,
                0.03348929780384704,
                0.016292192000235699,
                0.0973376217526135,
                -0.037072748378355998,
                -0.05155711253410064,
                0.0003855637138984406,
                -0.05375684486314628,
                0.018430765290107347,
                0.08805258615929578,
                -0.03918326096201794,
                -0.0025460593185016825,
                0.08131976148531396,
                0.13477308009561696,
                0.03386955228190558,
                0.029187820471398165,
                0.06767928395375886,
                0.04066563525451855,
                0.033331249569652488,
                0.03413045749253891,
                0.03629834524997665,
                -0.09635969647819717,
                -0.008932091631503098,
                0.03192166382545315,
                -0.010995746070854827,
                0.1332008118991121,
                0.12681991644505723,
                -0.004246971167135764,
                0.0760022214507619,
                0.07791903860819079,
                -0.05630773974243446,
                0.06576744882556095,
                -0.19115933666460287,
                0.13284065526920806,
                0.009498905400391354,
                0.11791796098837144,
                0.05667954732538372,
                0.11824426318637725,
                0.10596185636525464,
                -0.012733373550135308,
                0.06389876419852214,
                -0.009847224943851626,
                -0.12868145647573504,
                0.03671657580936035,
                -0.12523529353152078,
                0.12386300516299608,
                -0.051322180136928619,
                -0.016293735287715363,
                0.09008654812478853,
                0.09501934364210592,
                -0.03125877921662021,
                -0.04599158420228706,
                0.04975525872931307,
                -0.009323067247438201,
                0.024989686482722836,
                0.00018146740855819096,
                0.10086836275760189,
                0.0889929248480661,
                0.0854021369319817,
                -0.060927719091881559,
                0.02793646765939769,
                0.05319285797139159,
                0.07465788390388727,
                0.02345888725551649,
                0.007508992157876279,
                -0.037400629873569648,
                -0.011578472613713866,
                0.03608507682289609,
                -0.003265802910144316,
                -0.023856950213829617,
                -0.02302653039808023,
                0.06049505458209652,
                0.005255435918754829,
                0.0909901542626661,
                -0.009774769247721584,
                -0.0995960854924063,
                -0.004402159358559279,
                0.01724924024351056,
                0.01344339152060481,
                0.004751759166624894,
                0.10763796821024663,
                0.02683888394732026,
                0.03690432890170989,
                0.021013887115671649,
                0.06843370858415111,
                0.060250029331668727,
                0.03620462881181789,
                0.07655343190222258,
                0.051127380739853369,
                0.04554870211632282,
                0.012719867541198188,
                0.021483323985870739,
                -0.0600383401324241,
                0.049475143220818858,
                -0.08036072050545115,
                0.07378331584584259,
                0.041112425356780928,
                0.04193837527624184,
                0.040341234352052297,
                -0.09261092164962133,
                0.004910404491903575,
                0.009705369660977537,
                0.007449837548205872,
                0.038470158097164957,
                0.01575711931509094,
                -0.08584041930742062,
                0.018940742271278466,
                -0.0143269802057281,
                -0.007025810704302123,
                0.0320540096951421,
                0.044867292334847919,
                0.03127459594568862,
                0.052529416343673678,
                0.14833498768369408,
                0.0016373696036880266,
                0.040207073390459997,
                0.05497156102665558,
                0.08086005141917156,
                0.08394518742321697,
                -0.014107473852993049,
                0.012663170360500957,
                -0.04903711587262187,
                -0.05114275895454192,
                -0.018592579251002857,
                -0.003802581080515508,
                0.08354380522840785,
                0.09856093689555214,
                -0.041134336388698077,
                0.039026168727501458,
                0.02560949079720417,
                -0.14918303194449304,
                0.03465851852008781,
                -0.05366071639414728,
                0.0968315927359405,
                -0.021593051451167294,
                0.16508147955572487,
                0.08317514760717776,
                0.04920938544749328,
                0.11246936894849108,
                -0.09180362329355403,
                0.0480467139832049,
                -0.03725478582848689,
                -0.1507635032077949,
                0.009762478233241341,
                -0.07952334108845347,
                0.1879465811585887,
                -0.044066885932407779,
                0.01037810952611462,
                0.043480720858145398,
                0.05806277826804136,
                0.062114303368185738,
                0.06056182838030891,
                0.028919566866984837,
                -0.006985989523390404,
                -0.02236900896838304,
                0.020936744420717036,
                0.10999289639608176,
                0.02847345572124455,
                0.04451732040168625,
                -0.09695123383647808,
                -0.022970671563867653,
                -0.017627882366098334,
                0.032373458826232309,
                0.026602476225202327,
                -0.0026783867343076726,
                -0.028340880936007726,
                -0.01689708479169623,
                0.026516835432542155,
                -0.009565885042300122,
                0.05081396472209336,
                -0.041234417730313419,
                0.08962037982506605,
                -0.05468765163088252,
                0.07675739357528146,
                -0.0009121932965069116,
                -0.10668957688959589,
                -0.014848658978836993,
                -0.05021016117778582,
                0.024132239869883905,
                -0.014099951352229237,
                0.08059149825395679,
                0.007055868137272877,
                0.006445099240789161,
                0.0858869793998847,
                0.10528838438632519,
                0.06299524654125836,
                0.04306813607276347,
                0.00911870340029891,
                -0.026446683148375749,
                0.14367156451028097,
                -0.04946696482528983,
                -0.01261660419679319,
                0.01456753200954221,
                -0.03459949042090403,
                -0.062356012648374269,
                0.027939486340245857,
                -0.019446993764089084,
                0.02937830837003758,
                0.03630984025515953,
                -0.08362180729661938,
                0.026007242445441518,
                0.03400992969709797,
                -0.037608413909995867,
                -0.014233359139108525,
                -0.00021501735115859837,
                -0.08251750033288047,
                0.03390800212591313,
                -0.06627238622727355,
                0.061943277653438526,
                0.012195183228442762,
                -0.027102463686485533,
                0.029055921532183026,
                0.06402480252743966,
                0.06929631074242498,
                0.020153929232987819,
                0.08402142465658275,
                0.05099384582010302,
                0.07722613381397149,
                0.024792759988951118,
                -0.0005818841279534635,
                0.012803012172882584,
                -0.08371968255675372,
                -0.007159543591297102,
                -0.023724351497491564,
                0.013800492853662815,
                0.09332227282533691,
                0.09034436992780604,
                0.051934626821113067,
                0.03967767813254356,
                -0.02930112839360791,
                -0.05311768399457988,
                0.032253556489985169,
                -0.01124480189197852,
                0.09017018378838032,
                -0.05681819249033104,
                0.1323582674082208,
                0.0017938855040573994,
                0.12093191443111144,
                0.08313515310304175,
                -0.028210029662010733,
                0.034336003193695,
                -0.05657071459541092,
                -0.15651767202846063,
                0.009083026696323878,
                -0.01413701038629445,
                0.1060346863551653,
                -0.09716693977196703,
                -0.0008493808979158163,
                0.04374345780446117,
                0.028127627376747099,
                -0.0046781271874546449,
                0.02340099303761604,
                0.027811176520302368,
                0.02965565831534192,
                -0.0334440136449092,
                -0.028078287843938854,
                0.005495237460140313,
                0.12532072703550943,
                0.024632080688527574,
                -0.1151711552209578,
                -0.033931097719578338,
                0.05920877724149111,
                -0.04374831658666579,
                0.011378629246098638,
                0.02021760433850459,
                -0.006886406692733959,
                -0.03963030062858764,
                0.03650585853117719,
                -0.003710128766308044,
                0.011348803282973217,
                -0.004574248643572326,
                0.0866047760803015,
                -0.03188386792136958,
                0.10449126857114896,
                -0.04342708656913976,
                -0.07254575625307142,
                -0.05258593293475195,
                -0.055789408605755239,
                0.01288353465794712,
                -0.02504386927395392,
                0.11843214706791495,
                0.056697293970094788,
                -0.05066221280003631,
                0.09930167849952691,
                0.034581724736187108,
                0.05273065735863758,
                0.024642911301550054,
                0.07016654503458296,
                -0.005508143919668786,
                0.12759500665289476,
                -0.038087710318240177,
                -0.00586078139790412,
                -0.0647714014794447,
                0.032005454971020547,
                -0.017105263561659219,
                0.026016622834970257,
                -0.0202348004174714,
                0.013256681922663076,
                -0.034861541725928559,
                -0.040595326535789819,
                0.007303291077020735,
                -0.014651089873664461,
                0.02144933500500542,
                0.01604123272458378,
                0.03032730823867516,
                0.014387946267308799,
                -0.0066028761093998539,
                -0.0808816223633832,
                0.05615186448333521,
                0.059528873103787269,
                -0.024249820520240427,
                -0.03989163313929077,
                0.11412808649018029,
                0.0677076362355259,
                0.059436696499701398,
                0.06969616667433022,
                0.11433986181526525,
                0.015096987454944229,
                0.08657883831297927,
                -0.013611534728018826,
                -0.03508304477070639,
                -0.06724276708617715,
                -0.02887671053970575,
                0.01706464172759695,
                -0.03309440250201522,
                -0.004608266762585994,
                0.09227339486876722,
                -0.0003157681390009579,
                0.03757976962008673,
                -0.014056136054644978,
                -0.15165268756399878,
                -0.011433122944402344,
                0.05647481391585983,
                0.09840921171964091,
                -0.06842260294079863,
                0.125771872783202,
                0.028374092517075415,
                0.09986813838019884,
                0.033349670028585468,
                -0.1346677113374617,
                0.05852876757456574,
                0.02294042869679234,
                -0.20273861961581017,
                -0.041116593169825809,
                -0.04458625675304569,
                0.12540761581220714,
                -0.10428244626011395,
                -0.03436664200196481,
                -0.009245775363158023,
                0.0949861076323891,
                0.05011496909820081,
                -0.062125113899484208,
                0.08640803202984658,
                0.010733906627971442,
                -0.05395395434814892,
                0.04045949665579976,
                0.06482207022165845,
                0.029348445744787574,
                0.03125225173381508,
                -0.08472588361631305,
                0.050448825621092537,
                -0.01987423325533871,
                0.00036102516637575655,
                -0.03737935045652809,
                0.02818978326677731,
                0.022765558109602663,
                -0.035119904697260718,
                -0.033818044797120788,
                -0.03839714929012381,
                -0.019736377896126819,
                0.060193915311848717,
                0.07296437322431851,
                0.02882787054855175,
                0.03177654089779964,
                0.03857261179758955,
                -0.09739483651917379,
                -0.022495318575853838,
                -0.001901284115882282,
                0.04601762815138789,
                -0.056712620718817097,
                0.06834176086512252,
                0.0368051095773584,
                -0.03782135933345983,
                0.10637813576789836,
                0.06379814004599195,
                0.060744678825348629,
                0.059584059102476338,
                0.035828919726369558,
                -0.003872996658182524,
                0.046642178607077259,
                0.04390302025969181,
                0.012899165416118583,
                -0.0411343267215349,
                0.022100297096682838,
                -0.03981179957909653,
                0.015819333055555087,
                0.01588110698157993,
                -0.0184105179926192,
                0.028769197942042025,
                -0.06811345845496546,
                0.05723896577370932,
                -0.04293252382777549,
                -0.042802172314892469,
                0.05028717567229092,
                0.0003384578025968875,
                -0.03595261574698018,
                -0.03095853511190221,
                -0.07581192313288497,
                0.04884627616916753,
                0.06730726100212586,
                -0.008814014267317375,
                0.046572762099822199,
                0.05508611564179606,
                0.04669792671213242,
                0.008726683730872293,
                0.007851337716179595,
                0.09424703663658105,
                0.06787218090723993,
                0.07194062689512941,
                -0.043672464407350636,
                -0.04735037452973238,
                -0.06042848358298619,
                -0.1169891075646262,
                0.014781149633262077,
                -0.01046884343203653,
                0.030676665281451078,
                0.0571774774059499,
                -0.048874727911180259,
                0.005404164830466669,
                0.018870135233824714,
                -0.10639901507354512,
                -0.03683286872715163,
                0.02183782617242948,
                0.1434323478682836,
                -0.04282665489946579,
                0.07191347076890843,
                -0.0034069904946496208,
                0.0844910213704413,
                0.1028028649646611,
                -0.11333992558487019,
                0.0001921704975863936,
                -0.07387473083538106,
                -0.12676381871961962,
                -0.02784825234083988,
                -0.0933750035129879,
                0.05649342259492759,
                -0.05622408166040782,
                -0.01646107443585357,
                -0.006993886597623263,
                0.07124297864245831,
                0.0010182197075076277,
                -0.026022786927493988,
                0.01333758352896218,
                -0.022180270677532138,
                0.021430955919813145,
                0.056356384477099768,
                0.12579814597107578,
                0.03498208297180118,
                0.055009784336467717,
                -0.05134330827911001,
                -0.039517321427577068,
                0.04599562168483023,
                -0.03181399881665409,
                -0.029300541232442718,
                0.04285256646087277,
                -0.04477354204484104,
                0.041397964254481927,
                -0.010383907126115023,
                0.006088566774083,
                0.01997630769256591,
                0.04196698035859239,
                0.037071434596007767,
                0.003917397125908646,
                0.002779088445513447,
                0.04133993970702915,
                -0.10534372868873374,
                -0.019000388953996643,
                0.010915572258917359,
                0.01961765156483984,
                -0.040920019243476959,
                0.12411001228295232,
                0.067572163007595,
                0.06237479738159441,
                0.06516266211743596,
                0.07201657723202926,
                0.10301575808030476,
                0.10278054618249813,
                0.020657497609200504,
                0.03432357572465464,
                0.03718956175165135,
                -0.042043721601274747,
                -0.04421711285597844,
                -0.07602872135188853,
                0.030888486533748553,
                -0.0891864756119563,
                -0.008143151629697534,
                0.03662738515726862,
                -0.010897325893869773,
                0.023260158377337877,
                -0.08697919674602604,
                -0.050861569077228319,
                -0.0010776516930862896,
                -0.019633457280804676,
                0.0627002093023504,
                0.039647256503985778,
                -0.05710467430886597,
                -0.004418662785206694,
                -0.12620117350760388,
                0.004854634546669586,
                0.058494236055536098,
                0.014069249990243492,
                -0.011799934654903609,
                0.0908683713867839,
                0.05740208385236631,
                0.0031218004592957779,
                0.016703077898347068,
                0.1285232285790629,
                0.04646781846353614,
                0.027104588993403783,
                -0.048124668028988199,
                -0.04083472735767289,
                -0.06747078572943578,
                0.02479163723248271,
                0.017983372989625297,
                -0.02884305281184665,
                0.09765862064303935,
                0.09694888058205438,
                0.043680999832134737,
                -0.019963938567009559,
                -0.015612544560553372,
                -0.10880412761897353,
                -0.049367922010647668,
                -0.05579417281389662,
                0.06804856180608877,
                -0.057376225315018587,
                0.09545387416484209,
                -0.03854573351106688,
                0.023305573181349384,
                0.055782515484436068,
                -0.06739287041409901,
                -0.03197428155566315,
                -0.00991391866034038,
                -0.18406007318258728,
                -0.007983951800175667,
                -0.019463802883793247,
                0.1802589289420075,
                -0.06093334565355066,
                -0.04105898427810496,
                0.04139283334142731,
                0.08599851380575764,
                -0.005961660976710297,
                -0.02363627836860592,
                -0.047946349502536,
                -0.04094774550284119,
                0.009422836253870608,
                0.025970162092078348,
                0.06866096035596092,
                0.0381287378924983,
                0.04682438470848656,
                -0.11037692617437133,
                -0.01716283624963038,
                0.04826636452860563,
                -0.00872667206502521,
                0.02441111344027889,
                0.012051693010556704,
                -0.0005005015534233679,
                0.03031791563356059,
                -0.009535051144792566,
                0.05946149295865283,
                0.013730365724333872,
                -0.019064857066210786,
                0.11372133087346342,
                -0.09250225152648108,
                0.07895573857501881,
                -0.030955946808020455,
                -0.04480834588564292,
                -0.0421473731126671,
                -0.021637399189101473,
                -0.050782288684907517,
                -0.022096227670170815,
                0.1346829020247079,
                0.05517931525135193,
                -0.03227759613769283,
                0.04509173799430105,
                0.02817306664429906,
                0.16107958044582153,
                -0.01496989413656122,
                0.04769781431510497,
                0.1301714775659532,
                0.03615017324663192,
                0.0022402586998005638,
                0.0252335040132297,
                -0.05215501825562461,
                -0.017503994518177265,
                -0.04147059819730896,
                -0.010786753573842824,
                -0.01421822247023652,
                0.010178297896209263,
                0.016529128741770369,
                -0.056855943825235028,
                0.0038670018335562625,
                -0.036720598146562959,
                -0.03498535778534977,
                0.09514874231574647,
                -0.04308589123337928,
                -0.04891998175367537,
                -0.045031392933393758,
                -0.09096622704735734,
                0.051629796751579557,
                -0.020987861688512804,
                0.014104721381075237,
                -0.043623369237734837,
                0.0721132870187917,
                0.06865708064966802,
                0.026447976977005115,
                0.06967392510903535,
                0.04187970320899335,
                0.0801204620502886,
                0.06245024905503252,
                -0.010400732682346603,
                -0.03448691872887324,
                -0.04862136959651777,
                -0.0672465012401022,
                -0.010843285343322126,
                0.03553681550051292,
                0.04810969251079992,
                0.025964121107789764,
                0.025717214167925066,
                0.044082968630181958,
                -0.051898046668789329,
                -0.09971603748798012,
                -0.005289842583481885,
                -0.05835438717734096,
                0.09477860127986405,
                -0.04934827472575958,
                0.1517054965643745,
                0.010471435022632071,
                0.048581680058998818,
                0.09049196662470614,
                -0.041147394966401,
                0.04302193286701023,
                0.006973829571912843,
                -0.1361401871459534,
                0.02411615936805524,
                -0.021710214007705659,
                0.1747639176749411,
                -0.05532824088570464,
                0.029699473451051986,
                0.04856268341699151,
                0.04529929054726259,
                0.01494891995466314,
                -0.01710529848260116,
                0.05777958393585576,
                0.028330812882925776,
                0.0462461382334331,
                0.023159225555121126,
                0.08895788111621386,
                0.10534596318767792,
                0.05809721291711446,
                -0.10130140269350606,
                0.008542637985794837,
                0.008866719991657512,
                0.004973579417008978,
                0.013848362358824026,
                0.02450603072165567,
                0.03943242735879491,
                0.013651467184879064,
                0.040658802422274879,
                0.05183645181432446,
                0.006096096063387108,
                -0.0039765132404684468,
                0.08363930346686059,
                -0.051801829457235357,
                0.09515593958277031,
                0.0038546878757735639,
                -0.02817780838789102,
                -0.020768996696699128,
                0.0027219498076582707,
                -0.005387086477219227,
                -0.05125908139923128,
                0.13751405721173297,
                0.007793868456297258,
                -0.019234682941727523,
                0.07428025606871008,
                0.07022536292289941,
                0.04040966491102463,
                0.03875158149724751,
                0.1231179436634314,
                0.09583966957295397,
                0.058070564325586559,
                0.016206832768050833,
                0.023665879940884605,
                -0.08206613635397857,
                -0.02773267702597286,
                -0.0932308663125021,
                0.009443164108458328,
                -0.008101681831918822,
                0.01127453080653017,
                0.0232110811398861,
                -0.08750917888741966,
                0.050821797753645977,
                0.01901593380965673,
                0.026651789099448734,
                0.021631816004606058,
                -0.014200673036102441,
                -0.019534507331196966,
                -0.06032169077663736,
                -0.1551295931311594,
                -0.032544079488673247,
                0.015195024367022312,
                -0.01904490356605046,
                -0.0372958943055599,
                -0.005801587117677511,
                0.15395772602907097,
                0.0026224643304711937,
                0.03594736407033074,
                0.0234177458448955,
                0.04988643836877231,
                0.02431235180442062,
                -0.013126568608764818,
                -0.04373890546363702,
                -0.08144474810937369,
                -0.041770591084937639,
                -0.029015908797363683,
                0.01339591626458226,
                0.001933431909973621,
                0.11951122619240753,
                0.038310759906835609,
                0.053967752761350438,
                -0.06957369556552007,
                -0.1547516118353643,
                -0.007625612722761942,
                -0.12775157276622099,
                0.08572706065802573,
                -0.016327705231620795,
                0.10299081658312259,
                0.03530238929308219,
                0.10925506341750772,
                0.06992731353376529,
                -0.026564722764545257,
                0.07367440585028365,
                0.02684748631015161,
                -0.14757682027757144,
                0.01848736002351692,
                -0.06124006924343992,
                0.15731548313143613,
                -0.014280697391134055,
                0.007648043887799598,
                0.06660756200601806,
                -0.008578147302579081,
                -0.012831508835022224,
                0.002538857110402981,
                0.039952571703154738,
                0.030287456158886729,
                0.03350773891597263,
                0.024537587903745305,
                -0.0068399002331263288,
                0.07727004026491928,
                0.10596597141811057,
                -0.0675985116165201,
                -0.0125953449584054,
                -0.0059144136099774928,
                -0.008862429744717973,
                -0.054370002505396409,
                0.07531457047690737,
                -0.006593519399068147,
                0.023207357315075559,
                0.03216116326119741,
                -0.0544529108249614,
                -0.006818738058796659,
                0.009768521233824563,
                0.0209815610296808,
                -0.039906115911464059,
                0.05957175076513848,
                0.006353825048805993,
                -0.07331974650595531,
                0.027419362193826258,
                0.03894670736358624,
                0.04471840349645526,
                -0.05752548916303786,
                0.10217482628862994,
                0.042898463035494317,
                -0.05454521250834664,
                0.10162456026893105,
                0.11465988288223109,
                0.09137484087472822,
                0.04371362352750649,
                0.09814646781861276,
                0.07520660310699748,
                -0.009228633033065599,
                -0.02388146345330511,
                -0.04195571875596446,
                -0.04949263922006271,
                0.008716814584411934,
                -0.0663281353160942,
                0.016065223864882896,
                0.023112970964188473,
                0.006487752546646535,
                0.059113509103239907,
                0.025531656505239695,
                0.05917857985112646,
                0.05504764155977642,
                -0.010596163692560805,
                0.03046523486823495,
                0.020723309958449004,
                0.04814415641736434,
                -0.016325569778648558,
                -0.09156208393910513,
                0.0025591589716051118,
                0.033713569350175779,
                0.031344634918665448,
                -0.016218191829170005,
                0.1312136597737271,
                0.103366451821744,
                0.028923768208004517,
                0.10590603375431043,
                0.03978803650961341,
                0.06103424955481757,
                0.038307191665852478,
                -0.007256228763415403,
                0.033300175956400297,
                -0.1004727234011235,
                -0.12692605415344683,
                -0.05009241661318441,
                0.05804957473532045,
                0.07796624549687388,
                0.08646106224575974,
                -0.003472769730721471,
                0.053704347720181167,
                -0.07485010576559483,
                -0.05148738318482909,
                0.04033836070094362,
                -0.052129299913434578,
                0.06149530839002472,
                -0.03881590622816568,
                0.12413276211687458,
                -0.01747732326613071,
                0.08938983387549703,
                0.021925555748534634,
                -0.0882933562278939,
                0.040653640518282418,
                0.002302268609922393,
                -0.19261130425280674,
                -0.03727461735901575,
                -0.08409792977376601,
                0.15541244649667966,
                -0.058183633577574309,
                -0.02554478910233812,
                -0.038737868267183259,
                0.02962064787147668,
                0.011457072073702554,
                -0.04112424326299357,
                -0.010119531992075493,
                0.0014036683883687715,
                -0.05841486696565631,
                0.004381901431416377,
                0.06302517177458735,
                0.03185092674934348,
                0.06046561345583759,
                -0.10880393153820757,
                -0.02441378121808874,
                0.0204918582274408,
                -0.020111572467060747,
                -0.028783299183202439,
                0.012622403200801939,
                -0.02409503475436668,
                0.054648342789912918,
                0.02158050899029166,
                0.018064084858592394,
                -0.015355670013797164,
                0.024934607695422427,
                0.11910971223682118,
                -0.011071725635259714,
                0.060660886465300527,
                0.03387208223806715,
                0.018578692987358048,
                -0.049039679766287019,
                0.007182306210051432,
                0.01130763447481748,
                0.017146604539955213,
                0.10954196200234275,
                0.05597144040082422,
                -0.010872519285677398,
                0.02420994150293105,
                0.06853974580146159,
                0.09238846914680286,
                0.002237992336422657,
                0.12345909454675054,
                0.09137182825666747,
                0.1015747488206496,
                -0.003568648974264965,
                0.014317363996631052,
                -0.10088746027824058,
                0.014087083793569459,
                -0.008458383475751026,
                0.050828023580401737,
                0.054560015954628057,
                0.05753222125994183,
                0.04466111280112032,
                -0.06684810114124972,
                -0.029252909867265015,
                0.04466274152907338,
                -0.04088146343908699,
                0.08175578230263939,
                -0.06078414967037604,
                0.024534962698472417,
                0.036360455918223417,
                -0.15183814504703872,
                0.03043644862648597,
                -0.026564291779997204,
                0.007035711924069476,
                -0.0378497485210663,
                0.1140580741135096,
                0.14294816162338989,
                0.021743026784501495,
                0.09893882740186244,
                0.07860070732214658,
                0.055014733120142048,
                0.08287619918215171,
                0.051613025597110197,
                0.03645863016271079,
                -0.10704584860144866,
                -0.00615367182560289,
                -0.02924746501225712,
                0.035719321264570589,
                -0.0015744431663679497,
                0.01841235915113415,
                0.004050553682589927,
                0.006562971544294957,
                0.016817891671815967,
                -0.19161652940414848,
                -0.012050684423449669,
                -0.011623659784114293,
                0.06361753926849462,
                -0.00009904485555203846,
                0.2080863203125655,
                0.020938338407259204,
                0.10769446950380761,
                0.1254153437054084,
                -0.0021478490582721636,
                -0.0014102591572914207,
                -0.046340769579782548,
                -0.15031152331493775,
                0.02207113354293157,
                -0.09160377565768464,
                0.18029880135744939,
                -0.050288123216667989,
                -0.020059127001795089,
                -0.007262791781377797,
                0.02605202492331414,
                -0.00610251190335846,
                0.052085233006601398,
                0.025597042425037458,
                0.045959722153012968,
                -0.030438487318768343,
                0.051807380498815659,
                0.005088393764614224,
                0.11806240194521377,
                0.002567586125451205,
                -0.10046423808971394,
                -0.004745294183174386,
                0.06275785052444638,
                0.04071098573696839,
                0.024421365502033083,
                -0.026184785017698284,
                -0.012801608060525896,
                0.025275646169585838,
                0.006334649606645145,
                -0.019486988442934507,
                0.03870462853558323,
                -0.05175658496379525,
                0.16016140641808819,
                -0.0615002530238788,
                0.13630865017705538,
                0.02903554626709139,
                -0.037907777718848057,
                -0.044032729611380317,
                -0.0017353002329988886,
                0.05387966164519036,
                -0.05669350752454737,
                0.06789918753916281,
                -0.02455379043351947,
                -0.03667281009508726,
                0.03683581341736994,
                0.05600661627726485,
                0.021630286863627107,
                0.03308016720244943,
                0.104319819541668,
                0.07970701936456945,
                0.07397673306661787,
                0.018593070377230043,
                -0.0006254669875619222,
                -0.027577006114885499,
                -0.042199925698610637,
                -0.08113190379896339,
                -0.02614965821845309,
                -0.010742225904332522,
                -0.0017987367179278886,
                0.03544209367241525,
                0.0029663297950232884,
                0.02866214655111619,
                0.011519490505767356,
                -0.03454917905094222,
                0.03143077650625296,
                -0.049995124024257677,
                -0.012680282220048325,
                0.02787378750057186,
                -0.09250078160460285,
                0.047410396864175748,
                0.012964722577433958,
                0.035427412964087749,
                -0.017595334108275776,
                0.06533144295294298,
                0.15988863487440198,
                -0.01409221154239888,
                0.07027072787457577,
                0.04193539909061371,
                0.05792002069790227,
                0.049498754697439927,
                0.08924146113696018,
                -0.026759439405730998,
                -0.08144459824708253,
                -0.1413969018237993,
                -0.012827058937769634,
                0.0652319658852441,
                0.09304526275129419,
                0.0255639667462945,
                -0.02497120578172623,
                0.1190896862093105,
                -0.013978381191747975,
                -0.06459513113342354,
                0.05314008727206749,
                -0.05268153492210695,
                0.02917466537045185,
                0.008731483996525153,
                0.1329162017812286,
                0.06402782833290326,
                0.04604346839691739,
                0.07647073570655068,
                0.006170454477866652,
                0.02016482739508009,
                -0.03658423193526194,
                -0.07026901197190196,
                0.019663356928353295,
                -0.04105926570876979,
                0.09568613310674329,
                0.0037341687729687004,
                0.0344532227803375,
                0.08863324947215214,
                0.06423717430815612,
                0.05457307511106524,
                0.018999932841558113,
                0.03311832097715124,
                0.03989192551713324,
                0.014423764099060696,
                0.005740031688618134,
                0.034236689843695957,
                0.11340052372032396,
                0.02916143877576919,
                -0.1316730624978674,
                -0.04857809803827462,
                0.005584706444078928,
                0.059908372746527268,
                -0.02609430374246306,
                -0.020847120567421826,
                -0.04660231817039489,
                -0.02938812165125736,
                0.05301103930134796,
                -0.008005643395660537,
                0.03599575526627357,
                -0.04381146325844465,
                0.05114059238501408,
                -0.08498028076862196,
                0.049162105762416457,
                0.0037141717013514194,
                -0.03822245029164417,
                -0.02773131126013839,
                -0.011986125885523369,
                0.030024141983429954,
                -0.04410180383082375,
                0.18698556634935549,
                0.009897830402531163,
                -0.005144370589253657,
                0.1692946292064796,
                0.14229710738345845,
                0.11731202161395865,
                0.02870191563492456,
                0.08630854168934829,
                0.12472041193279998,
                -0.014947487710753504,
                -0.04242110824573282,
                -0.03226109562006843,
                -0.02534370833861894,
                -0.016856029220468285,
                -0.07648165431813753,
                0.011572665575321466,
                0.04307759242726545,
                0.04048582245586915,
                0.07380581093089193,
                0.032367423553120878,
                0.01242787202892247,
                0.052052816876337507,
                0.007135851858962134,
                0.002480389289785991,
                -0.023139755400284978,
                -0.03419425760404115,
                0.01321640444695346,
                -0.09999508243203308,
                -0.0024481236428252727,
                0.04812012915406895,
                -0.023282451774130854,
                -0.023698361020364424,
                0.0721523628041637,
                0.20248401019007704,
                -0.0333445210831424,
                0.046000421989263916,
                0.035148637810258499,
                0.10363783125273078,
                0.027515612238789807,
                -0.003315319250231479,
                -0.00757064717387846,
                -0.014867735230864099,
                -0.11559536030180864,
                -0.036809770749174647,
                -0.00032737558492810896,
                0.0517761836762916,
                0.08010199332727998,
                -0.04338725117487518,
                0.049304992227450879,
                -0.01317827272245521,
                -0.10341248329262357,
                0.02047619316972842,
                -0.03766008288268982,
                0.0688330614915668,
                -0.02020880357778922,
                0.05934895335627663,
                0.03253271700657971,
                0.12773310840146158,
                0.01980760191298553,
                -0.11604570853558008,
                -0.011138210053449284,
                0.01680594412521383,
                -0.127524566018145,
                -0.03984935404981249,
                -0.027795772939406078,
                0.16733419455069996,
                0.006147845971826594,
                0.025038095452347445,
                0.009896971368831734,
                0.015778002867531457,
                0.02075025182587191,
                0.032312200971498328,
                0.04275576700007345,
                -0.01491385802694831,
                -0.022648037570944358,
                -0.021783578218720624,
                0.05260890731438943,
                0.05063250085031128,
                0.11712810444552689,
                -0.09317249495296119,
                -0.03668199248312985,
                0.0462619473853451,
                0.009424264874603543,
                0.0013260525060502893,
                0.01661570137059462,
                0.005527254302096409,
                0.017215656628093376,
                0.0038273599154389169,
                0.037902633605693399,
                -0.002851547531189746,
                0.05824514874798937,
                0.09566488689194881,
                0.02680923701137975,
                0.11440100941547325,
                -0.01576392657983015,
                -0.040642061184357449,
                0.015664739601784783,
                0.03287090213744371,
                0.00599124489013305,
                -0.014594167224491776,
                0.1075859337222967,
                0.059320397276614669,
                0.0006042894771397848,
                0.11106808867482236,
                0.028026608914092329,
                0.05600248358299763,
                0.01395874157454425,
                0.07657007458418057,
                0.10236906877572534,
                0.057805199642792268,
                -0.027353798899030635,
                -0.01963328757350654,
                -0.0814022869612747,
                0.016550084244543876,
                -0.09276520436361544,
                -0.04057989784856274,
                0.027296860665018745,
                0.031278194251089779,
                0.041154529758964119,
                -0.09864341325279559,
                -0.006636604019658115,
                0.007424280822869796,
                -0.013071844194903895,
                0.006823807231160149,
                -0.015215059506615798,
                -0.0009204798423994287,
                0.007600973382673902,
                -0.07477325248076962,
                -0.028544998329110263,
                0.019835535836264175,
                0.0072727903015786569,
                0.048485742564616979,
                0.010056870099166754,
                0.059858931006491287,
                -0.013453017071857266,
                0.049396058440435448,
                0.04608690424092046,
                0.060353905057730989,
                0.11133764776041144,
                0.04268293372441397,
                -0.04433801449916339,
                -0.06970232141754734,
                -0.07174065071128612,
                -0.051059621154123508,
                0.0642184422833057,
                0.08486946961396076,
                0.01989886146953508,
                -0.07181957060851552,
                0.08618790730435107,
                -0.0827121767092971,
                -0.18270702590786598,
                -0.028153053092502497,
                -0.059587012702639639,
                0.019124039034201166,
                0.008303940776416282,
                0.18154622885940586,
                0.009797496593785902,
                0.0798049118799757,
                0.15191412452943629,
                0.020428154200888578,
                0.06867624761462613,
                0.023735926162349313,
                -0.09459846366647878,
                -0.047319425423058208,
                -0.04002650372960141,
                0.10429845271359388,
                -0.09830905684567873,
                -0.03633190865328354,
                0.024727184313637419,
                -0.03142381742069367,
                0.065916181388066,
                -0.0184189672760028,
                0.10782546116430215,
                -0.014124226223257913,
                -0.06208261896594143,
                -0.016377854734384087,
                0.03421608388605346,
                0.09928907666448925,
                0.03185685548941761,
                -0.12466623793864842,
                -0.004627463089360301,
                0.0628008543784119,
                0.08560165639912758,
                -0.03223457200507594,
                0.02231856102271002,
                -0.014212509873655051,
                0.010087733857617682,
                -0.018228135074278626,
                0.015742591633105524,
                0.03175787145848181,
                0.03235564753313391,
                0.10130222576030984,
                0.019321417368377566,
                0.1562424817006275,
                0.0023997331427979137,
                -0.0659756867193734,
                0.026572065387460709,
                0.024011909808191738,
                -0.023014435269335947,
                -0.027174870529764328,
                0.06416869205612957,
                0.057581029607134018,
                -0.00877113464675421,
                0.1322079442231785,
                0.03588082338108111,
                0.10967660471904095,
                -0.019030613065886726,
                0.039319890106045769,
                0.029433208333714823,
                0.08023237414902923,
                -0.03304777946789917,
                -0.061276993347943457,
                -0.05847547027003537,
                0.007772758131430796,
                -0.08269973864212978,
                0.07092129603610847,
                -0.02697568416499727,
                0.03963172884526343,
                0.03651655091016158,
                -0.050151411068656368,
                0.04454291746143515,
                -0.03110472037748193,
                0.01363656521637934,
                0.0634736223342508,
                -0.030918753416636005,
                -0.0400101555322439,
                0.05167978819568921,
                -0.03974955686248321,
                0.02075644070067858,
                0.04585382907667745,
                0.0044587064718044889,
                0.011477843908862406,
                0.05177216060615568,
                0.16913016154167824,
                0.045523916510813198,
                0.04402049741140947,
                0.0034705810318327878,
                0.02654161789670529,
                0.03821574507684936,
                0.048094299917769717,
                -0.06355245962329917,
                -0.04991206108892072,
                -0.12222917442858072,
                -0.0498047744496157,
                -0.0263482246205769,
                0.07995025623449988,
                0.04831381777089621,
                -0.041971466562976029,
                0.09729572138836922,
                -0.043577522545758199,
                -0.14226728654302124,
                -0.01817040709533907,
                -0.06230641662490866,
                0.11598064779961422,
                0.024554146188053195,
                0.11050123508887838,
                -0.0016717697576928163,
                0.12562198263700426,
                0.05880686628649299,
                -0.03285225636397668,
                0.023148072578246749,
                -0.03848351553734889,
                -0.08592866397204303,
                -0.03351732417065232,
                -0.029484639985061218,
                0.15094643820190829,
                0.012411552412805904,
                0.007910110509161347,
                0.05842536200648662,
                0.04014976485289132,
                0.04756441518178924,
                0.031586551945390489,
                0.06078831275973531,
                -0.03298348606016373,
                -0.03687076129046027,
                -0.022596480040201127,
                -0.016913174148380916,
                0.05044395151952618,
                0.04810269723286111,
                -0.055034065317521998,
                0.00006392295251231515,
                0.012353326308693493,
                0.027273854561333838,
                0.05002259936334859,
                0.020546172874334895,
                -0.009254402822924854,
                0.005533288617006275,
                0.04609486219527197,
                0.016936495267740233,
                0.04970873160129855,
                -0.04450860808717882,
                0.055979258080894839,
                0.04417367275466257,
                0.03237224171640627,
                -0.030476227453837675,
                -0.003741989665986163,
                -0.053943075710238968,
                0.037765923770079218,
                -0.03456103775902698,
                -0.012034802316452142,
                0.02708701149616548,
                -0.034909528350333379,
                -0.003730315688063114,
                0.10862874464994694,
                0.10341489558110391,
                0.06827763023695822,
                0.023683884703197913,
                0.06533822778592115,
                0.08519787351184993,
                0.10504640197649072,
                -0.0359681491443961,
                0.002783943130485734,
                -0.03257572912161247,
                0.03617071359362032,
                -0.037049785675627677,
                0.05621920654898592,
                0.05294483361147644,
                -0.022878172005611737,
                0.05057131298857085,
                -0.04782043626333828,
                0.05228975861718253,
                -0.015629378644241328,
                0.02196594388842587,
                0.0533852472192668,
                -0.02704760218529247,
                -0.002140320309702218,
                0.0838284810990044,
                -0.08174774336553582,
                0.031194442207667967,
                0.02742360543450701,
                -0.029181510329100346,
                -0.020674370750404394,
                0.01676296902897056,
                0.1742947784480468,
                -0.005339838882499992,
                0.04955896837248216,
                0.010355625586352519,
                0.0681434619649163,
                0.06614199930989073,
                0.036146525460739837,
                0.007701594486605737,
                -0.05456401149161457,
                -0.09553951609806744,
                -0.04663893430855361,
                0.00944689737976774,
                0.03137988170891388,
                0.07158937650570671,
                -0.05542171076889736,
                0.08348221644962274,
                -0.04443405483089303,
                -0.014240786394856938,
                0.013395010334744504,
                -0.07799621691453318,
                0.052887671275077877,
                0.037580218762146139,
                0.18734036918854497,
                -0.007534913439828042,
                0.08912608409642002,
                0.15985082027898549,
                -0.011947773508341406,
                -0.0020607696293019866,
                0.053693397298212919,
                -0.19502339433243658,
                0.03513411191494841,
                -0.07542243793192005,
                0.19318220546546084,
                -0.0724859707639321,
                0.030280633240327545,
                0.02452761027824947,
                -0.04500736517112143,
                0.032251620098214587,
                -0.018344831598658748,
                0.019440896484967806,
                -0.010941247699388615,
                -0.007683658542844132,
                -0.01860112124951926,
                0.015270224738797103,
                0.08683287493979693,
                0.026189054315074648,
                -0.08247032411621748,
                0.014987095742990065,
                0.05202866914670918,
                0.052637095182996678,
                -0.005321395889982779,
                0.033574099162946038,
                0.008437147251920364,
                -0.04324059230524526,
                0.04712442610018162,
                0.034758279986305939,
                0.06855804767881398,
                0.004208204659393339,
                0.09690484207956887,
                -0.02393016347710343,
                0.08714279902573181,
                -0.0417481696160914,
                -0.09428171538315988,
                -0.01368543637526218,
                -0.03378914028725688,
                0.039076557863668929,
                -0.04430529014899912,
                0.04133314736280382,
                -0.033647844504424349,
                -0.012433202363106449,
                0.06794087952461744,
                0.1767870285102562,
                0.10854421320111396,
                0.013028650412831324,
                0.08817464098995615,
                0.067585820275061,
                0.0455230522351892,
                -0.00551545135012409,
                0.024637551543113417,
                -0.07057054206886955,
                0.002295343907582341,
                -0.034567879137346917,
                -0.018727799464324587,
                0.014103320326049884,
                0.04356513762739989,
                -0.02957810073230202,
                0.011729481776501488,
                0.03891935859627595,
                0.006444386132379306,
                -0.04078585493436882,
                0.052621187349927659,
                -0.004953559173236505,
                -0.06548924490951984,
                0.035985778144294187,
                -0.07407309093977753,
                -0.04218691621595932,
                0.002347356307514897,
                0.05239720194458925,
                -0.03935167426872447,
                0.04435428180957039,
                0.09020732906461183,
                -0.023589630718149815,
                0.0467845548580633,
                0.04773665340684958,
                0.020906576530005755,
                0.0422972272140379,
                0.06925421379452701,
                -0.015449621588249333,
                -0.09868139708174473,
                -0.09678395146587726,
                -0.04478675324002279,
                -0.030345240001942505,
                0.06133335788015061,
                0.06697758673081704,
                -0.08326718869858782,
                -0.011325437069649135,
                -0.005548314402870265,
                -0.043329041916678998,
                0.019162872980810439,
                0.015209157265176439,
                0.10914576540217434,
                0.020313488297632917,
                0.10206754393241147,
                0.0319193566452966,
                0.10594436892631584,
                0.07153920028770798,
                -0.014061604176230659,
                0.07953444919906989,
                -0.024066147349964215,
                -0.06364762856702103,
                0.006792164125495964,
                -0.08891972510894469,
                0.08463848745386361,
                -0.03535181605166695,
                -0.009655576919344648,
                0.039594388718835259,
                -0.03753438336734348,
                -0.04615146164709324,
                -0.016206924851358788,
                0.02940910304886019,
                -0.017385038569792505,
                -0.02525679694448527,
                0.003079763359149572,
                0.034075099210995749,
                0.00005922791861606286,
                0.04696875586960271,
                -0.04068241316674827,
                0.010754488567976329,
                0.014599927229130797,
                0.038353076898071849,
                0.0029130196025033709,
                0.054640955886516139,
                -0.019058466651609045,
                -0.008290485937416688,
                0.0014200502038820224,
                -0.020056855802292128,
                0.007915836099625417,
                0.031399384652368387,
                0.06063247786570026,
                0.023212915317004574,
                0.07797316849080763,
                -0.03853752505193079,
                -0.022252279096258804,
                0.0036520370788260838,
                0.03945763903318514,
                -0.011015715835546475,
                -0.008549099483704828,
                0.11591701688471447,
                0.0651179460010825,
                0.0025439182194261736,
                0.048332283553219518,
                0.08813814825202965,
                0.0644828663993586,
                -0.005424018651939376,
                0.07143717996289623,
                0.07120369853878896,
                0.10465807274459427,
                0.037668951715692008,
                0.012054886674825124,
                -0.009085107817860025,
                -0.01445548394293558,
                -0.026929089405128765,
                -0.002108634194494391,
                0.056627602657150787,
                -0.028099774357294533,
                0.10468373012365767,
                -0.055968563943131949,
                0.05990629819274174,
                -0.011635467719810746,
                0.025730393947996628,
                0.05257420157229753,
                -0.04192455861682824,
                -0.02075484850449071,
                0.007458686014771475,
                -0.1304150877014218,
                -0.04211420986768541,
                0.018579194777098949,
                0.04041516188514289,
                0.0515291342535227,
                0.06185867297120002,
                0.1415985598995176,
                0.036483156765981978,
                0.058898351924431869,
                0.061211864184218259,
                0.07424356676132034,
                0.07750682014460203,
                0.06323757694772039,
                0.012880301359829783,
                -0.0647321469329976,
                -0.07057544375186856,
                -0.0371395085826855,
                -0.004953487034268015,
                0.11031546821357252,
                0.1049286409972217,
                -0.050321232642536028,
                0.05589580378015555,
                0.01773287980525427,
                -0.052251432250819889,
                -0.04299979692000424,
                -0.04302684100917086,
                0.05300830074490893,
                -0.04953398796199999,
                0.10140642935503168,
                -0.04109203577641701,
                0.13077633037059814,
                0.1104188530275814,
                -0.10172672404000882,
                0.017435889691552458,
                0.015018603120834893,
                -0.07333946993406704,
                -0.046182361763502547,
                -0.03806626480630943,
                0.11744608649982588,
                -0.06552645169445061,
                -0.03711494108221733,
                0.01119619795114743,
                -0.010359220084945826,
                0.0019178133563389924,
                -0.01711689696768328,
                0.03258316831944968,
                0.030049901478292994,
                -0.020295451717655144,
                0.0030526954775526467,
                0.02380996444627893,
                0.036474604342207918,
                0.03967399208406118,
                -0.03269721488757744,
                0.00004540523589228771,
                -0.04593167719498359,
                0.05791796433110673,
                -0.00948543264985861,
                -0.024265469826676868,
                -0.0031959302145353515,
                0.014275009054801351,
                -0.0009955681459197894,
                -0.025908328241149419,
                0.003188676091998811,
                -0.008674884281135056,
                0.10529512687057585,
                0.03197672647706907,
                0.04817636423530222,
                -0.014166947913594363,
                -0.0005582515331290642,
                -0.011310199810414328,
                0.04163892148521489,
                0.007293990243788081,
                -0.04510678473289657,
                0.0917536982671902,
                0.03866608103790038,
                0.02556960522080918,
                0.12603291462170564,
                0.07478355001544519,
                0.09388383674609598,
                0.09148832278791272,
                0.05136879688808502,
                0.11466613120169585,
                0.02329837978823989,
                0.032909353323921728,
                -0.01180000548992462,
                0.00803153363539079,
                -0.021391454244306105,
                -0.05744537740002306,
                0.021022042669949158,
                0.04651759693903271,
                -0.02036364858056512,
                0.06068823899633346,
                -0.07573363962664193,
                -0.011293528409179559,
                0.050576483526476447,
                0.0207255714907041,
                -0.02238304172991752,
                -0.11536319001940117,
                0.0012365869444119352,
                -0.00412015991318098,
                -0.0476476753183238,
                0.010381746025594965,
                0.03278478513020653,
                -0.02474024496752857,
                0.03707500480235808,
                0.027600312118881859,
                0.16716886195412979,
                0.03311857585393894,
                0.10574623031514102,
                0.03663251136172021,
                0.005623670048809857,
                0.08841125542786468,
                0.05579152279891614,
                -0.012978965483875912,
                -0.06909997087765217,
                -0.061852385701407098,
                0.030622727817316166,
                0.008774703376532616,
                0.09257236628644039,
                -0.0033524696743963487,
                -0.00894495197806502,
                -0.013605583821132724,
                -0.04652180744530072,
                -0.17964126808220769,
                -0.04281112497316267,
                -0.031264716068984527,
                0.04838042681324637,
                -0.05118871657928764,
                0.14015374315965913,
                -0.013651086875811012,
                0.1235165746838242,
                0.13153928974371596,
                0.028625724055609669,
                0.07470138380734209,
                -0.07066217639547087,
                -0.11190106353374171,
                -0.02193412679827734,
                -0.1298616067209293,
                0.15571816784272497,
                -0.0608284983002333,
                0.02142053360805753,
                0.08104450699185172,
                0.049589794108345738,
                0.009536306861674513,
                0.030446395729149035,
                0.022709588383307109,
                0.04615064772381112,
                -0.010143833945937245,
                0.027471290399494913,
                0.025948953148803783,
                0.10475329386132368,
                0.06786759610449436,
                -0.10314791419024376,
                -0.004103779649418144,
                -0.02416040417787445,
                0.0518087709817885,
                0.001701014827982822,
                -0.023621199391652686,
                -0.04071896582060052,
                -0.04520016477584076,
                0.025393815843922079,
                0.0038849646618562816,
                -0.00819374037059798,
                0.04038368378099413,
                0.07071464937957944,
                -0.03330625669352431,
                0.015526049824395247,
                0.02796306613691969,
                -0.027322611756818918,
                0.03474079781366472,
                -0.06956731853511723,
                0.003508722381368999,
                -0.006291922947313991,
                0.09064890032312073,
                0.030753779122931439,
                0.00451308172056196,
                0.04423592812116896,
                0.14453730865504209,
                0.07249255171242615,
                0.05107517807748493,
                0.09603264942522398,
                0.10264151591370094,
                0.031768193696025699,
                -0.028548831232261635,
                -0.042797840371610679,
                -0.03823628646787164,
                -0.0031288261729753047,
                -0.05733220580252708,
                0.06655522034437855,
                -0.046785932683845867,
                -0.021095959141564984,
                0.05679424361760454,
                -0.06547930768598846,
                0.06012250577460715,
                0.03412048495636221,
                0.0435026613487698,
                0.02127859211152099,
                -0.022105231995175578,
                0.0319121201054661,
                -0.001371132342069866,
                -0.137360903703596,
                -0.024473192382983758,
                -0.032948539671818859,
                0.040708603888335078,
                0.00021205621883042426,
                0.07038732960528503,
                0.14291239635939285,
                0.0318558723384449,
                0.061316736426681919,
                0.04344824112924612,
                0.062020389688883879,
                0.06534807576936543,
                0.029672391024244225,
                0.0036301732053294398,
                -0.12246052226839066,
                -0.01590873417875924,
                -0.028137298532824336,
                0.01777948582196484,
                0.07100781323056535,
                0.10546383778505914,
                -0.04751555575088429,
                0.03610571047919746,
                -0.06954410093915688,
                -0.0188391362412125,
                0.020262241937668264,
                -0.07636599606939398,
                0.054554160912735908,
                0.02949817443304619,
                0.08448482127774169,
                0.016578386456162925,
                0.058031750338316239,
                0.039452710976646137,
                0.04162386230705223,
                0.01565063198827116,
                -0.03936736494397188,
                -0.0445357594260224,
                0.021119267629195916,
                -0.06652379678291275,
                0.15567934039847937,
                -0.03093316830767859,
                0.002169444310124188,
                0.053295918998573648,
                0.016777857429212924,
                0.03612496048960123,
                -0.006519629860660797,
                -0.016301890002445388,
                0.019345364074628038,
                -0.021983834872644705,
                0.0017197951268866745,
                0.049201414677589389,
                0.07392061071937171,
                0.1057811198087717,
                -0.009995110003698587,
                -0.045629178780666888,
                0.04184834790120839,
                -0.0327998768151369,
                -0.03847305734787545,
                0.003656553378716095,
                -0.03669696025832773,
                -0.03237083623684551,
                -0.017565358451300803,
                0.034003694101264688,
                -0.0169757693789799,
                -0.013976285380408257,
                0.10771948291762723,
                -0.027778577886020479,
                0.08037045127026373,
                0.022890445939755534,
                -0.04200745588703128,
                -0.01876026376789095,
                -0.031955761777876939,
                0.013326129178525029,
                -0.007713289678364935,
                0.088179938719198,
                0.032516792863131329,
                0.06373432267863957,
                0.10604660683012889,
                0.04039741030583004,
                0.12821507369921918,
                -0.025153704025201719,
                0.07727243437937978,
                0.10689892674038715,
                0.050979765755404918,
                0.024596252986794417,
                0.02628895687110522,
                0.014319501083786582,
                0.004278974137235045,
                -0.0015242571151755608,
                0.06389030994729127,
                -0.03359504285407861,
                0.02414867944209911,
                0.0014824049190050005,
                -0.012949694180135273,
                0.057134858652907617,
                0.026480730719108775,
                0.006398242382423205,
                0.05018595056800588,
                -0.03211828213738127,
                -0.037235581451355647,
                -0.04896705821951885,
                -0.0818033765197484,
                0.04904569509605277,
                -0.004203490394237156,
                -0.018617770917730055,
                0.04604419367099614,
                0.028030134876919314,
                0.1252779088806622,
                0.049064646161518617,
                0.08290843848249593,
                0.08226233321400307,
                0.09915922329966233,
                0.09178643327535417,
                0.053300124582254509,
                0.033647563129714289,
                -0.09505053646540363,
                -0.09758184501960791,
                -0.0030857072534712026,
                -0.014433564272365035,
                0.018386275920026137,
                0.09905964410972695,
                -0.030860728353135405,
                0.029945974828715934,
                0.015063324545853486,
                -0.08837363919229878,
                0.01837432102980528,
                0.031509871678519037,
                0.030112708555005677,
                -0.04229175448311182,
                0.14005267672191674,
                0.038451070917278337,
                0.05384831412611852,
                0.10773859796119666,
                -0.05854625312137404,
                0.07370360663197476,
                -0.005287707221469156,
                -0.12242210231866864,
                0.005476228702693645,
                -0.1173610299010589,
                0.1551934399544315,
                -0.053154999120101169,
                -0.023220558157820958,
                0.0837513149492465,
                -0.018294808455554428,
                0.04752967923712597,
                0.0035933004914798394,
                0.0714508410381792,
                0.013103203283932098,
                -0.024615147542911707,
                -0.020099236002143297,
                0.009712263092884121,
                0.02915254806859426,
                0.03716175713604903,
                -0.08585861458521112,
                -0.008940643773381335,
                -0.020904884195082533,
                0.029956984846861526,
                0.04826200160034598,
                0.026221401159644898,
                0.010377404062046908,
                0.05458844772271873,
                0.0688710340695445,
                0.0014211775195166908,
                0.07187991357496142,
                0.02720246992539889,
                0.0924216142219542,
                0.033320885412864067,
                0.11783242317117626,
                0.027482645494662427,
                -0.045467614569275689,
                -0.047552984003675507,
                0.004360878084678114,
                -0.015573866170195038,
                -0.043264828255649079,
                0.07166735715351189,
                0.05929514533267961,
                -0.06593244805861745,
                0.10693831721295237,
                0.07159580353551001,
                0.10801625804904602,
                0.03964712609155131,
                0.04870347453410422,
                0.08474260927147565,
                -0.01902597602804763,
                0.001352683692390325,
                0.03383682244733996,
                -0.022741518097416599,
                -0.03563498055013304,
                -0.009661956786648897,
                0.08493302160993507,
                0.044483706857312729,
                -0.0002753152256701158,
                0.04125592230871092,
                -0.03547605921815738,
                0.06776864639730178,
                0.05669148004769803,
                -0.009926230416266502,
                0.05261177569134339,
                -0.026864415070633277,
                -0.03096409352178414,
                0.03215573647264553,
                -0.12481354618134082,
                0.047779474328597127,
                0.01628201477216389,
                -0.04092650018997628,
                0.05433107987155998,
                0.12809953044517606,
                0.20575936534536827,
                -0.026752529908815885,
                0.05930439900097708,
                0.12193611661475958,
                0.08785402203118584,
                0.10998305468918458,
                0.08442176073758621,
                0.019813303845011136,
                -0.07985784784622434,
                -0.13008663751019587,
                -0.0023715583909122998,
                -0.008398875404352136,
                0.05928787392640193,
                0.09405723929917687,
                -0.03809438229153457,
                0.05677641797369366,
                0.06364177052676912,
                -0.0920018984457789,
                0.03451649298564157,
                -0.0201176815851066,
                0.07072182905792367,
                0.00717650628590622,
                0.09485484951138139,
                0.025038753279843626,
                0.10967128141202567,
                0.13430900833291124,
                0.01595048583870959,
                0.015795575026268769,
                0.0477589783132705,
                -0.1441073490312959,
                -0.01161347006504775,
                -0.1378813619525281,
                0.1633007465458264,
                -0.13350228566977677,
                0.05450185937267463,
                0.05374257383444596,
                0.04886054040583211,
                0.06778495510462679,
                -0.050916221189498987,
                0.06796712886014313,
                0.06291381428734733,
                0.02842958055095755,
                -0.007858866247537544,
                0.03367059362325327,
                0.08364846168879715,
                0.037057912836119168,
                -0.02286578937087917,
                -0.0008049825575809713,
                -0.02263543139282601,
                0.033167049779172817,
                0.046303357647175007,
                0.033249969918345629,
                0.0034294406464964448,
                -0.03988605717149617,
                0.09597350119897415,
                -0.04982725709050453,
                0.05905501907324769,
                0.0769648518813432,
                0.15381514894586124,
                0.015387171294124463,
                0.035576952579717779,
                0.02310133140715715,
                -0.0896891232439443,
                0.03850958870386687,
                -0.008279784713356185,
                -0.020080095321865167,
                -0.02416627828266998,
                0.0771525173199958,
                0.043245741819573437,
                -0.04259572711417099,
                0.0403837700834537,
                0.0816954053588727,
                0.035408095819359369,
                0.018748184535334349,
                0.053909292063326719,
                0.1155174702425652,
                0.027469095242849824,
                0.008103422578842269,
                -0.018247096924258623,
                -0.07610893323380187,
                -0.048998320463135559,
                -0.12810662359412418,
                -0.03760647998691023,
                -0.03694620890463248,
                0.02260760069850809,
                0.029596367940096157,
                -0.042960768621016349,
                0.03144662722991127,
                -0.05014497621430881,
                -0.006458743560541782,
                -0.0032125028632564187,
                0.04726446611236548,
                -0.001783102661829422,
                -0.06709681074106305,
                -0.05051357578761714,
                -0.043872781974384659,
                0.019483883823805276,
                -0.016888825886972205,
                -0.033699922659958119,
                0.02123645873491671,
                0.05973932545565305,
