{
    "layers": [
        {
            "weights": [
                -0.03114181054788624,
                -0.03309826752243458,
                -0.036714595156255479,
                0.02111794403717982,
                -0.0028620167814356947,
                0.01606612813770698,
                0.037327544780681839,
                0.031987349680583299,
                0.04959644082657629,
                0.01249565275381554,
                0.04701048896063894,
                -0.04511974857203751,
                0.007979679486551837,
                0.00037091176736512454,
                0.01793832128994751,
                0.014506377830543045,
                -0.008291418620893582,
                0.04899020846995047,
                0.03613260611481362,
                -0.03283434751786676,
                -0.030524725720916747,
                0.013980643394501521,
                -0.013572570999331247,
                -0.025903501418580355,
                0.026056404361021164,
                0.039853727593687538,
                -0.03857988465419468,
                -0.038955316989973187,
                0.04693114824591285,
                0.009057870004686816,
                0.04309920150851648,
                0.029285015435700013,
                -0.041816196284952259,
                -0.007614151588433878,
                0.033115075277550389,
                0.0177906908634596,
                -0.005514153478461792,
                -0.012763552629781889,
                0.021395294716654083,
                -0.02863979617455287,
                0.05007869903634837,
                0.02396845489690851,
                -0.0027991010175449349,
                -0.030489282969306754,
                0.0050197913167835069,
                0.01957332175256301,
                -0.02170592141911785,
                0.004064657427341384,
                0.014586956514070573,
                0.037610828285439688,
                0.04282434408580584,
                -0.032374905675070477,
                -0.011121268743544003,
                -0.04334828200027017,
                -0.00505413385006871,
                0.0054099943110291399,
                0.027616490151703866,
                0.03930175692002364,
                0.05015927318740744,
                0.005201673902867613,
                0.0036488251898006338,
                0.029029208554210808,
                0.0370997694273048,
                -0.007386032588460504,
                0.022539507846668834,
                -0.028845554649080585,
                0.04906685781772233,
                -0.03568551570513679,
                0.017820302376222856,
                -0.045891822812434,
                -0.02967039895426625,
                -0.044353854507795029,
                -0.017769735525730774,
                0.014916755516638422,
                -0.030384198365785966,
                -0.0064170247702894978,
                -0.031020561735409525,
                -0.028687443025401706,
                0.01992657467350855,
                -0.045139966893412358,
                0.009506683203965574,
                0.009208369481345659,
                -0.006614276114939162,
                -0.03946920065319483,
                0.0158860461569783,
                0.0225522662758214,
                -0.011952108609038696,
                -0.04394561961447431,
                0.043667436153681387,
                -0.02070668221628039,
                0.033333057952834168,
                0.009504975031853925,
                -0.013089725387923466,
                -0.036296762991242587,
                0.015902517449373853,
                -0.02939077702323159,
                0.03800435249231188,
                -0.04163961102712598,
                -0.003921983929680018,
                -0.014476251790190036,
                0.024854647389039348,
                -0.03432330809193503,
                0.035219817853516178,
                0.008898319771022489,
                0.018677524507311025,
                0.03854669059442902,
                0.03777950012847268,
                0.02228828846009577,
                0.036114586171871878,
                -0.048034262998357887,
                -0.013363635225500189,
                0.008158718135954226,
                -0.028780978344324649,
                0.04167021624711084,
                0.046296435931449868,
                0.044557403550517297,
                -0.01604349590594991,
                0.02934758593809803,
                0.02702583747605108,
                0.048780668954318037,
                0.034137255042225259,
                0.04417348875143137,
                -0.02960106512927527,
                -0.01433167849977496,
                -0.02876239583482802,
                0.009860492107967157,
                0.014460080813713042,
                -0.03022655889330132,
                -0.047970104768633687,
                0.04514133278119888,
                0.009704929871920235,
                -0.03439480867279736,
                0.023418614600159077,
                -0.013935974021810165,
                -0.017387159267919867,
                0.0027346189335048117,
                0.02305506087319414,
                0.03620250647142479,
                -0.006714528430332311,
                0.02984782103064017,
                0.03791957243821531,
                0.01255610489271309,
                -0.030494281349514545,
                0.041970137204195869,
                0.03991806057135653,
                -0.025255328557332456,
                -0.011123964794616774,
                0.00048571559441124766,
                -0.036161692907893918,
                0.02282220375560304,
                0.04273939743442897,
                -0.043066085798900668,
                -0.022410131819585248,
                0.0019850350094903544,
                -0.0010863161459233806,
                0.03119500133925176,
                0.042517473145041829,
                -0.0004943854028658238,
                -0.0071477905114276769,
                -0.043395469611261058,
                -0.026969457037416077,
                0.020670786176666766,
                0.02241011243024976,
                0.04297114463470187,
                -0.004556465871113318,
                -0.025537830122077503,
                0.037157099011877938,
                0.033684860082556427,
                0.009587653464221977,
                -0.0023309777272915008,
                -0.028284736632388897,
                -0.0010808840146702226,
                -0.009245363553711942,
                0.04740905876137295,
                -0.03676070058503969,
                -0.03031344471797819,
                0.026546971755654428,
                -0.017402764846651928,
                -0.0034380692517488799,
                0.04499441391688142,
                -0.031001745950179003,
                -0.0341726779416622,
                -0.04689042324721725,
                -0.019505930269280017,
                -0.04798821506164812,
                -0.0001783170372297007,
                0.035622833393265367,
                -0.024301635654591998,
                0.033401610045361549,
                0.003282446020641203,
                0.0036383216412486138,
                -0.02241269765710237,
                -0.006950924330096967,
                -0.015995266747646027,
                0.005050905870016701,
                -0.03333024404813809,
                0.04166110998664382,
                -0.019702426934789249,
                -0.004300731898875015,
                0.017063595826000655,
                -0.008284591967839334,
                0.006583888581945835,
                0.039934625151704958,
                0.014775281717614197,
                0.0024929236114679925,
                -0.004824544523976554,
                0.018752985271605364,
                -0.021332615932891209,
                -0.012192945500830256,
                -0.020199666226508967,
                -0.04553045511101429,
                0.011500991133172949,
                -0.04542451083413374,
                -0.005746944579039539,
                0.038424832371810737,
                -0.042582601059888747,
                0.016345671687671826,
                -0.005190522930652584,
                0.04132406159647178,
                0.04465304926063983,
                -0.010284646525945237,
                0.01267998837300992,
                -0.05003508548329836,
                -0.046285593080427029,
                0.044460210910020687,
                0.0428209982393745,
                -0.04826780160115206,
                -0.0419996174718137,
                -0.004744251649610242,
                0.04262893237334324,
                -0.017768691159736468,
                0.0015731454232159447,
                0.03532337432620189,
                0.03149128448804674,
                0.005777625401344116,
                0.021297263436049209,
                -0.02510426298958974,
                -0.010222109125151607,
                0.029113182748610995,
                0.009255341874503193,
                0.03419948531705335,
                0.00384843202668136,
                0.03775439018121042,
                0.0037435648265319555,
                -0.004165683314330563,
                0.04145859810965048,
                -0.026058308329088527,
                -0.045784182005098459,
                -0.00801865310903399,
                -0.0008867677692326094,
                0.006610549660207928,
                -0.004862015788327732,
                -0.014637808670650829,
                0.005760468255273014,
                -0.02499696038103247,
                0.029513025358171,
                0.00379767589997561,
                0.036209169587847717,
                0.025428979731588764,
                0.007642015371584029,
                -0.007575572415677129,
                0.013604565795595974,
                0.03552193841907621,
                -0.003008188395911809,
                0.05087898259208209,
                0.006367843775686213,
                0.028649150081177949,
                -0.028200825782009249,
                0.03894450217313886,
                -0.028819188913140345,
                0.03269255555009679,
                -0.022626949161448405,
                0.020187464627284558,
                -0.017810707797652187,
                -0.036943763593901068,
                0.03407253191488963,
                0.02697711075019007,
                0.00048614262892726943,
                0.008756863615294928,
                -0.048610809810866958,
                0.016976517229858914,
                -0.05073013183844339,
                0.01288834569093584,
                0.04725431554969927,
                -0.014386232071622108,
                0.03423090415164094,
                -0.03616897338790909,
                -0.016038699623944595,
                0.0027577722017131896,
                0.027888356160898934,
                -0.03939438919470755,
                -0.006982882810201834,
                0.014470557405210546,
                -0.03094994303131826,
                -0.03493874720797744,
                -0.030036619148737555,
                0.019492319237524114,
                -0.005577601104479068,
                0.0021092848706388428,
                0.0411095821212301,
                -0.03295646112797356,
                -0.04645105770592475,
                -0.03578191053408241,
                -0.030655475013789347,
                0.017894381192458419,
                -0.01954558753637798,
                0.027387511556639916,
                -0.04825518856379816,
                -0.008190845876676987,
                -0.008571589547609135,
                -0.04722482700804858,
                -0.044864732684446528,
                -0.020760812341016043,
                0.020495054303041515,
                0.04157455883060379,
                -0.006792161023606637,
                0.049242388881188977,
                0.04095943559665755,
                -0.03845705079556057,
                -0.03461342522990672,
                -0.006272654205017189,
                -0.004192026821238485,
                0.018924778457020766,
                -0.041421746455446818,
                -0.03894807883693504,
                -0.011363450407936864,
                0.008879104723327865,
                0.0024388133204631364,
                -0.030014701195973566,
                0.03901994402637976,
                -0.03144707707571456,
                -0.0121973868820825,
                0.046359150399662988,
                0.019459206825336033,
                0.036919605565782599,
                0.02217918840461305,
                0.03401576962424809,
                -0.0050152236421326,
                -0.019504920136281128,
                -0.04242606608177472,
                -0.0398904552948698,
                -0.041063880974255038,
                0.04202813311515814,
                -0.038658785718715348,
                0.022164641477665449,
                -0.04499849809507056,
                -0.03581596043016812,
                0.049299047806995819,
                -0.025959017593198697,
                0.02324731375012919,
                -0.02286482628431351,
                0.026836922433977518,
                -0.020798802859878244,
                -0.008554996712794692,
                -0.004949473252234333,
                0.02171940896112123,
                -0.018109419724676644,
                -0.04433763213634157,
                -0.03657047367463354,
                -0.02259402269917909,
                0.020672746129378768,
                -0.022188706600088899,
                0.03371092839531872,
                0.004656337894281774,
                -0.023943592642426137,
                0.018386728270774947,
                -0.0388895034126308,
                0.008613753265506242,
                0.03405052440370507,
                -0.026755794268452206,
                0.009564570364131742,
                0.005291501345651246,
                0.015015233559258216,
                -0.04589004920792844,
                -0.04222823284509676,
                -0.01725476620901358,
                0.005805628573647685,
                0.011830807835665222,
                -0.012929803945820658,
                -0.04568851284434226,
                -0.027850157692627665,
                0.011630351364503286,
                -0.02474577741185284,
                -0.0019722414251246236,
                0.011479304256321935,
                -0.011150895016003254,
                -0.04368506889929394,
                0.009412457937589674,
                -0.02924122495939146,
                -0.03316917392302151,
                -0.016477434427091429,
                0.03264738866674031,
                -0.018537930282881818,
                0.05073828713978434,
                -0.014832704380102572,
                0.03181017117649139,
                -0.023615492455385423,
                -0.00898286371129944,
                0.03452829016229404,
                -0.04452625157108514,
                0.048263773208419399,
                0.007371853880323529,
                -0.03587375770913068,
                -0.05071133801719829,
                -0.034862852285510528,
                0.023012468153551514,
                -0.03576714063154521,
                -0.026756771805349936,
                -0.017391629094059135,
                -0.037294595957416017,
                -0.03390046760324931,
                0.021967503136025199,
                0.02051788986620262,
                -0.044454542367624489,
                -0.04402532329272888,
                -0.04077679519005711,
                0.051026310927059188,
                -0.011482006945683188,
                0.04336831862356521,
                0.03602093373126085,
                0.01319730725330816,
                0.002839408931170857,
                -0.012370432983406298,
                0.014737220545432046,
                0.0401734979212748,
                0.02594592244762464,
                -0.03041505150164154,
                0.015486620517346419,
                0.021998531540321086,
                -0.027881667423272424,
                -0.03943220270169091,
                -0.03002820728927795,
                0.025482371518357265,
                -0.016637011132383869,
                -0.04114618542959464,
                0.023652379630510237,
                -0.003538209115708012,
                -0.02250435130201996,
                -0.015692729916770198,
                0.04090266001832801,
                -0.02214719782382701,
                0.02980558935713263,
                -0.02351663547089695,
                -0.041897074074527227,
                0.04777521564431637,
                0.011244616131213007,
                -0.037474737474478537,
                -0.01879724982564253,
                0.04140195960423112,
                -0.022472500923203809,
                0.03714067100189578,
                0.03598596093299571,
                -0.006071241556679662,
                0.05317194344145263,
                -0.01021529406503287,
                -0.004207770659824194,
                -0.032995483341557479,
                -0.0006164426795497104,
                -0.03572947616335867,
                -0.013029927581888914,
                0.002420446429183913,
                0.0015065105510172509,
                0.003326793368380768,
                -0.03737932651773123,
                -0.04448775180800474,
                0.049457864031377998,
                0.048860723691621959,
                -0.014255861191718844,
                0.04725235171609156,
                -0.013734274966797909,
                0.012951989651529076,
                0.0245977105393388,
                -0.041196956165212728,
                -0.047404597389166049,
                0.01053465157575101,
                0.0315223008448433,
                -0.021739104464560629,
                -0.015985069269071497,
                0.01777488073013979,
                -0.02258579258915918,
                0.011278874927717666,
                0.04028553977135552,
                0.021100514978442315,
                -0.004142008230892687,
                -0.01534422478622653,
                -0.028371056190170168,
                0.023806857959262539,
                0.02667035679854828,
                0.039795214741529,
                0.014771966261506195,
                -0.00014325580861369207,
                0.05125327629442756,
                -0.03717194607700436,
                0.04462189694871617,
                -0.013340702148663793,
                0.025750247962600366,
                -0.02235670317913304,
                -0.03230486719604835,
                -0.048215357369346779,
                0.04993276700735319,
                0.01654740953801326,
                0.028504811052356455,
                -0.016992886394447478,
                0.003636991059356012,
                0.01596853688383333,
                -0.036374884921341197,
                0.029572391998623629,
                -0.010439476570050999,
                -0.008545651101900219,
                0.008859503515012591,
                -0.032562541167598168,
                0.035047053235062988,
                0.03335344775122015,
                0.03328694308796716,
                0.026430426344290458,
                0.012308814112417769,
                0.029044388519267628,
                -0.039706463054907919,
                0.028098902295591468,
                0.032780116464100148,
                -0.023348086743129456,
                -0.026602383533053256,
                -0.004304753632080681,
                -0.020155561818584478,
                0.03683428587421572,
                0.010610944580197433,
                0.007567369419742706,
                -0.03470854052736416,
                0.018907193911240774,
                0.030990048862596474,
                0.008111992669326614,
                -0.034289604381619719,
                -0.01970500629446806,
                0.019689615195344635,
                0.013374569757261501,
                0.04161102084674096,
                0.0064779847958029899,
                -0.031020420777709346,
                0.031205985579594466,
                -0.02666765504809332,
                -0.004916886698727981,
                -0.01900673871413909,
                -0.0152420996136012,
                -0.0188298045409385,
                -0.005693769537789765,
                0.014279325847204648,
                -0.031557275855509357,
                -0.01496767491220641,
                -0.035349090334766377,
                0.025925353419784758,
                -0.04693248349438923,
                -0.03458469347731949,
                -0.013809357788790498,
                -0.026233320649513934,
                0.020698526003744504,
                -0.006300047372554647,
                -0.020025048786421117,
                -0.04676576108735536,
                0.02178009642361625,
                -0.04686171571985811,
                0.00529782696571822,
                0.016978216822545204,
                0.022843668143019897,
                0.012485709592539977,
                -0.04590145668575941,
                -0.04482270731294016,
                0.007164359818939978,
                -0.037531083716782747,
                -0.029578522394765537,
                0.03889892850062872,
                -0.04392496443611777,
                0.011120536431188148,
                -0.016260184320601786,
                0.004674436805784315,
                -0.009863305141412106,
                0.04388126935913404,
                0.04049997490447635,
                -0.031041924740180195,
                0.036261145866729588,
                -0.02909289623962113,
                -0.009986869138737016,
                -0.02571231562264447,
                0.04767392280889874,
                0.044330615198889717,
                0.02753701002003838,
                -0.010322411622580692,
                0.02753798653074167,
                -0.03883015442913092,
                0.04514129099752277,
                -0.02862153981639187,
                0.004966520845106398,
                0.007326888164253844,
                -0.0031130506188704165,
                0.025406122856552504,
                0.016505798680325039,
                0.02742530023422017,
                0.009437807696056738,
                0.02609910136321486,
                -0.023780840346181887,
                -0.009290969717253552,
                -0.03853735636262713,
                -0.04229276891167327,
                -0.0365593166672056,
                -0.025715223895750078,
                0.0210898747801803,
                -0.006843754920523155,
                0.03408498222678267,
                0.02954570311329869,
                0.03260963218634661,
                0.027411485035124276,
                0.003306144287995006,
                -0.03697991685195344,
                -0.03119264780752218,
                -0.002721594027101497,
                0.01377487416024487,
                -0.019056523882429734,
                0.01783851784086518,
                0.03134718313637446,
                0.03509777068880062,
                0.013339859594527892,
                -0.021181614627157169,
                -0.0026980002321780394,
                -0.03279579136519561,
                0.046322391339210688,
                -0.015473128896552996,
                -0.0021631054622970656,
                -0.040018005302221739,
                0.009494239733108623,
                0.04131441875563272,
                0.008854368244837013,
                -0.011137240865473117,
                -0.030615216212739099,
                0.04091931824254603,
                -0.0028791938430752759,
                -0.037925393998771487,
                -0.008716950880692392,
                -0.040102369834366349,
                0.024957209675005776,
                -0.02555133854378209,
                -0.01302533972125133,
                0.008726737984655328,
                0.044498729498688927,
                -0.021796880001388458,
                -0.03213160072277715,
                0.015247707604957523,
                -0.008457863598703859,
                -0.01082202697277066,
                -0.0450431671152212,
                -0.041975876208160827,
                -0.01287325983947387,
                -0.03402615021584251,
                0.026123791841902986,
                0.03743152321239665,
                0.017609000253715425,
                -0.040362320667547139,
                0.01462179368959728,
                0.03783596743953968,
                -0.03280576316817314,
                0.04504277884038316,
                -0.028832067456288355,
                -0.01780894625231107,
                -0.02266699070246258,
                0.040453880720255148,
                -0.02435337159433375,
                -0.008320128722360789,
                -0.012613793879178702,
                -0.02568867872925983,
                0.020311112620911815,
                -0.01422603570139952,
                -0.02326321901545417,
                -0.028699804619667307,
                0.04383928400672579,
                0.011546725633758195,
                -0.001536106609514752,
                -0.0430315334757851,
                -0.017783363569957745,
                -0.028945338921951354,
                -0.04646696881335338,
                -0.01805503195163776,
                0.04133303367842842,
                -0.04345210417388278,
                -0.04302549773770589,
                -0.001493766300035278,
                0.005364359288012855,
                -0.007446351965076218,
                0.009571441526632384,
                -0.020250662884807367,
                -0.022165816261733155,
                -0.016161607974304133,
                -0.0007794019265047494,
                -0.0031911626622620717,
                0.04706313630877217,
                0.029980288086117015,
                0.05060533619587821,
                -0.047112834409514667,
                -0.019225967982250938,
                -0.04468930642388636,
                -0.04376930407118779,
                0.02544065809116215,
                -0.020549672703395477,
                -0.028457357633643659,
                0.02048809797520447,
                0.01806555161077087,
                0.029985765083155415,
                -0.03272094037957569,
                -0.026868596111814206,
                -0.03299659358568233,
                -0.012564727377937388,
                0.009469533651940495,
                0.027840448075730795,
                -0.006658193296127382,
                0.036088017813223387,
                0.036888431398098459,
                0.050125492050936599,
                -0.034670447854875847,
                -0.02449595768248027,
                0.027529954357711593,
                -0.01215768840377648,
                0.0334631350340892,
                0.030966509560938574,
                -0.041398874682627078,
                0.0478814664000445,
                -0.013732898187704433,
                0.03394952774155684,
                0.030318798523894985,
                -0.02691200184192499,
                -0.03977201893948807,
                0.011995285930408535,
                -0.0014220302928431223,
                0.022296165330173653,
                -0.01890489138029386,
                -0.029942005805786127,
                -0.023644414199101735,
                -0.04572157420227854,
                0.02244962919083823,
                -0.005066485978951419,
                -0.012011537334788075,
                0.020063093509204049,
                -0.010349467958467168,
                -0.028276883375368029,
                -0.004201022716087178,
                0.03913043192969806,
                0.0177542506430713,
                0.0062613719097797779,
                -0.047167711181747087,
                0.010107916955354023,
                -0.03920671560501555,
                0.034938442044465747,
                0.03180656053370408,
                0.02886836405774719,
                0.009892987745897324,
                0.015698002543450028,
                -0.030696222353106377,
                0.049181805673891628,
                -0.031532661464155477,
                -0.026021266689719607,
                -0.018506793757313675,
                0.03406291906100803,
                -0.045240499489184519,
                0.04177584483955697,
                -0.0377121277971746,
                0.007720905163933224,
                0.040965236100408437,
                0.03929444308210251,
                0.00006433685423521718,
                -0.023247808872991269,
                0.012276993451523826,
                0.03130079514387534,
                -0.021842619631817114,
                0.0246829416505104,
                0.03774457727733081,
                -0.041555921126574728,
                -0.047172215772301798,
                0.011587303711319162,
                -0.012582343431306733,
                -0.03224727319363728,
                -0.018090590463364379,
                0.03443841765649998,
                0.032171681571678958,
                -0.03140847738625139,
                -0.03970391237093347,
                -0.023146584726657743,
                0.027250336541553276,
                0.02118186197289437,
                -0.037917413888991637,
                0.012412365153123646,
                0.04842991990797518,
                -0.018323185535855735,
                0.031936280237642129,
                0.00026961149709623863,
                -0.04317214542379333,
                0.007948584232801528,
                0.014990024335896484,
                -0.004965883776056869,
                -0.04206336391089179,
                0.03749514369177975,
                0.049407419640833307,
                0.03251487115387268,
                -0.0446449526082431,
                0.027802220697402334,
                -0.047636301161677659,
                -0.01903765941048709,
                0.005791838879673705,
                -0.04434831936818387,
                0.04265066799025386,
                0.0026054487963218678,
                0.015193316267739883,
                0.006019321391346183,
                0.010480047096195936,
                -0.0487965422455041,
                0.04193506374438912,
                -0.0011239574851118395,
                -0.04592294544155066,
                0.03269007694088697,
                0.032380856344369889,
                0.03544923972671727,
                0.029004324213064284,
                -0.02720602607661839,
                0.027426721305813804,
                0.036499294120042508,
                -0.020751275416604099,
                -0.018008997911281405,
                -0.050886107974182418,
                0.025289457653049718,
                0.01823217677807948,
                -0.02131738321189572,
                -0.010623722902632175,
                0.009037762163025924,
                0.0066859796288326199,
                -0.0038544600548038739,
                -0.027575173480153839,
                0.004759987789825488,
                0.02741901853811662,
                -0.0440964089563989,
                -0.031138948835927526,
                0.038284434894551997,
                0.020361282222072776,
                0.023381249818738075,
                0.029851282066903636,
                0.011809478099358027,
                0.050401931034989719,
                -0.010773096729175312,
                0.020554589961852385,
                0.03087515060508232,
                0.005305492615510367,
                0.007448187923247279,
                0.004625107823669466,
                0.03758526058112534,
                0.009199353856155276,
                -0.02597323604041869,
                -0.03510322262654665,
                0.02474093485962284,
                -0.04858148127641603,
                -0.026363525583854114,
                -0.003911194874109064,
                0.020688763162226968,
                -0.020888567488898239,
                0.030495618685151567,
                -0.007590840119089321,
                0.011650544527596934,
                -0.03760941577400046,
                -0.04114285386961073,
                -0.04852391227405776,
                -0.03361472162063982,
                0.032018758068628718,
                -0.00922507650982591,
                0.02395143449317771,
                0.04674018529890625,
                0.014363645149465423,
                0.04826189758220407,
                -0.03472351541608548,
                -0.04341069539610889,
                -0.0022300530820665725,
                -0.03441867360426775,
                0.03852556231437424,
                0.03815620178282306,
                0.013205128911026099,
                -0.02727803041095466,
                -0.029063490754292707,
                -0.04086150480243297,
                0.022092067902548096,
                0.003438809590254281,
                0.046820678993783209,
                -0.015971242233506459,
                -0.019021927001975124,
                -0.005027363977680987,
                0.0010166997490125123,
                0.008323682819914956,
                0.00608459348043136,
                -0.00025322357185045144,
                0.002510216247027646,
                0.04383154265938467,
                -0.019368865273232298,
                -0.03442174627859247,
                -0.0022471172493581327,
                0.04101349161181173,
                -0.010932883874739015,
                0.008198294141041755,
                0.047863315916320998,
                -0.033637614401192738,
                0.03783049954051378,
                0.009310184694040916,
                -0.027815161382734434,
                0.009542859382856924,
                -0.03970024624061038,
                -0.04052004359215723,
                -0.02057072677719129,
                0.03420432870557482,
                -0.016140603886998059,
                0.008250218221397125,
                -0.042554758038744398,
                -0.04176843454301952,
                0.011661109967021568,
                -0.020342374579830414,
                0.04050876077437826,
                0.009049457197144548,
                -0.039554188538378037,
                0.020329691103240505,
                0.035583692313273868,
                -0.013939468504813858,
                0.0407385574572955,
                -0.03294627761381342,
                -0.009522883205424047,
                -0.03802927242927184,
                -0.0038392003659094024,
                -0.029743155219764937,
                0.021841165280024053,
                -0.01656262107633683,
                0.020783238225489617,
                0.043698153353132148,
                0.003438914184253077,
                -0.03958854036964722,
                -0.027203722202807369,
                -0.04352584862722569,
                -0.025979562839220269,
                -0.028456512069628079,
                -0.019450645386167949,
                -0.011065568802859099,
                -0.025093991711776416,
                -0.026145827605632247,
                -0.031297539353278929,
                0.013694617391137717,
                -0.02615907074874361,
                0.047850273241568447,
                -0.010593059078428231,
                -0.006370327115866251,
                -0.016990240435297879,
                -0.043568032113258017,
                -0.02843565127443601,
                0.04036414739689563,
                0.0367460658132453,
                0.01673707254216819,
                0.018903491061121087,
                0.016703394141151505,
                -0.02708753070206876,
                0.021251492455957156,
                -0.03394738641849116,
                -0.039531110140272659,
                -0.031589806095881838,
                0.03785446062468521,
                -0.013172146253202535,
                0.048506182298974628,
                -0.034522274314886799,
                -0.007910982000754583,
                -0.041964755871507487,
                -0.04943566701182013,
                0.03800539858777113,
                0.003895649526610481,
                -0.043806060195698517,
                0.023013771437586287,
                -0.021286887734184497,
                0.02240238573770655,
                0.00031004359726196566,
                0.011709510375863894,
                -0.030234901706016456,
                -0.024749436973739406,
                0.0450215980662282,
                -0.0031693206574713677,
                0.023367768604952628,
                -0.049143396255439,
                0.03519661000771753,
                0.017250680033429386,
                -0.04101564502842816,
                0.03185833868474767,
                -0.043371076145507229,
                0.033691307995463378,
                -0.010848551130610668,
                0.010612837831733769,
                0.029487313229814059,
                0.0044893118313591019,
                0.04878500462283546,
                -0.025841184810984076,
                -0.02958627851197689,
                -0.015443109293371577,
                0.03539816457371888,
                -0.03038012890580757,
                -0.0005630599506338836,
                0.03562067024967396,
                0.03883354965940256,
                -0.009384412072721978,
                0.01000213553810648,
                0.03075164974861755,
                0.04903207648843263,
                -0.0028493792055050797,
                0.013064832663715404,
                -0.03429300954222917,
                -0.030919441359466516,
                -0.04469230818199994,
                -0.004269232744786103,
                0.04830503899713105,
                0.02621102726247563,
                0.021053835097504429,
                -0.011160713078892996,
                -0.035960118683734717,
                -0.04657685191507891,
                0.019478523337329559,
                0.03804336657727924,
                -0.013505394052656829,
                -0.014183944470375928,
                -0.02669215546218572,
                0.012175575571584201,
                -0.021460208800775244,
                0.024165501188350113,
                -0.0008785001993513202,
                0.02457647397813171,
                -0.04656610392859601,
                -0.0021188975219580249,
                -0.03297092927011016,
                0.029377066945304548,
                0.04640906971649758,
                0.029888974961475999,
                -0.03519078237490518,
                0.006114104040406525,
                -0.015621600255959094,
                -0.006521541437283826,
                -0.03666649178539347,
                0.01726071949571582,
                0.013367708909002756,
                -0.029974248656378465,
                0.043432880740315777,
                0.01788108786700651,
                -0.019217466415918886,
                -0.03572914810296666,
                0.031644091626628467,
                0.025300784221795933,
                -0.022607782123854976,
                0.03590796188688951,
                -0.03821137344505561,
                -0.022356551083280403,
                -0.0327748550127778,
                -0.012060519627652979,
                -0.03886275637151589,
                -0.0035644364915710369,
                0.020416104472006065,
                0.02587360954141813,
                -0.01815881018642073,
                -0.04621755170581202,
                -0.00011546507686026855,
                0.027737262047554249,
                0.0075954961232456989,
                0.016888119684728039,
                -0.045146219656930487,
                -0.021876413021163559,
                0.0013747431236286105,
                -0.028528182768052868,
                0.01482690872450641,
                -0.03264020378600937,
                -0.046675336436823488,
                0.021023887510629684,
                0.04426466372160781,
                -0.047357268267948737,
                -0.024295614458815254,
                -0.028758002178360124,
                -0.007712231299819231,
                0.007837646849140751,
                -0.020418970967891024,
                -0.03384091479627756,
                0.046866155846435577,
                0.02487690886864054,
                -0.004567609861735639,
                -0.03472085172042123,
                -0.012093783554077122,
                0.036430438898552099,
                0.013447414249052051,
                0.008013660992186959,
                0.015845555537428028,
                0.01621165508440835,
                0.04020794900595815,
                0.004639598448815835,
                -0.03661916414001852,
                -0.04709591608823238,
                -0.028612925563108277,
                0.03513375895430883,
                0.009784400039792278,
                -0.025194736590787395,
                0.012355414486842204,
                -0.046183989466489498,
                0.016867220380169077,
                0.009052352766562314,
                -0.03780829656425283,
                -0.03560272374332856,
                0.03443012601473819,
                -0.010266232678660462,
                -0.018157579202755404,
                -0.03384067429541794,
                -0.036447314471047657,
                0.04234395935881245,
                -0.04780453106701164,
                -0.03860332623240684,
                -0.003309257333932231,
                -0.034236820975196858,
                -0.04130575194662528,
                0.026966758961227408,
                -0.021193789959196024,
                -0.006956194349148807,
                -0.020931095533472774,
                -0.03297981358899194,
                0.017692021710892206,
                0.043614561998511987,
                0.004697260423854424,
                0.04948757720977036,
                -0.02158360093855357,
                -0.001672678833493623,
                0.005159829199424491,
                0.04176386956660328,
                0.030051958101609517,
                -0.013651628618386034,
                0.01263329963526731,
                -0.029495495670013487,
                0.041575117331822408,
                -0.019938373569501737,
                0.004471215792331985,
                -0.013959020456665444,
                0.01422713941722267,
                -0.016084862590710574,
                -0.010234383303377082,
                0.04726265349896243,
                0.006421240368306506,
                -0.0013548949310717865,
                -0.0028131679580528196,
                0.02649053231171994,
                0.010919147985202549,
                0.028164059163504036,
                -0.04174253403499843,
                0.04446489317592077,
                0.04353469356071668,
                -0.004765579396269247,
                0.011823537429372634,
                -0.03657119064271816,
                0.047303287077445878,
                0.0018603792284332482,
                -0.015569613026806904,
                0.019675500280199436,
                -0.04088685235178377,
                -0.03985515036077664,
                0.03633715590857307,
                -0.01655791675789879,
                0.034494383843962,
                -0.004985347637978834,
                -0.01624814913376065,
                0.02652632114941351,
                -0.017426287102870184,
                0.03384090898634788,
                -0.028086279434940233,
                -0.029942115759194304,
                0.014747133602650092,
                0.0252259520842815,
                -0.03846103153317135,
                0.045472670916854519,
                -0.042669120586145709,
                -0.018048479015715516,
                0.011976194963182747,
                -0.02661826029827801,
                -0.0034765700594959847,
                0.03046562344003669,
                -0.013305742211988776,
                0.002420088630691676,
                -0.0056467256081504288,
                0.011780795867377419,
                0.04643064014077852,
                -0.017248266117977738,
                0.025944877443091025,
                -0.0038314111248197986,
                -0.02545354037932721,
                -0.010543653089711131,
                0.04266900844189714,
                0.032343536497880177,
                -0.01861857000141403,
                0.00036421525112408147,
                -0.0007566113362214357,
                -0.05018292971616585,
                -0.03317333239972586,
                -0.038889295910696997,
                -0.037823710317518698,
                0.019171045665027945,
                -0.00674547607331709,
                0.028360318199406984,
                0.010045400183724091,
                0.037415833922731119,
                -0.01876598497244622,
                -0.02709325990481092,
                -0.014601424010018799,
                0.01553071062800056,
                -0.045370137278499648,
                0.016894357722631434,
                0.04136579353537172,
                -0.03701016210823617,
                -0.028518187123013944,
                -0.022674666200730006,
                0.023912806920016746,
                -0.01582856889968772,
                0.04070798836647317,
                -0.025034370161525423,
                -0.005104703260850324,
                -0.048317189201544197,
                0.05014340045320237,
                0.034959303763786617,
                0.012238064851671938,
                0.032887996398229379,
                -0.023796760765165967,
                0.03319568707153452,
                -0.004851311528602723,
                0.01083805881933872,
                -0.0064220277376690168,
                -0.041930081123376889,
                -0.03580634143889671,
                -0.0032606861551079987,
                -0.037440056589305308,
                0.030338370344326714,
                -0.016678462671950734,
                0.012626679471399671,
                0.047239759950998178,
                0.005366850551023666,
                -0.018150523182691309,
                0.026370863661537296,
                -0.04368942909444954,
                -0.04016847557460506,
                -0.006516582006026174,
                0.009011559355737376,
                0.0006123617588736271,
                0.032665712630447,
                0.007732670505858665,
                -0.046806672546086728,
                0.02676610352705915,
                -0.038012336259286527,
                -0.041567128898094839,
                0.042613860412471029,
                0.021361838959448936,
                -0.04296420244450977,
                0.020323660323145789,
                0.01486170294714215,
                -0.035712820279176698,
                0.02359289324870479,
                0.01601280499761079,
                -0.00446099825679234,
                0.027912175123792284,
                0.021893806365273044,
                -0.028157525159649329,
                0.051504937650263777,
                0.00038196287948720107,
                -0.00609278709581133,
                -0.046704126244335498,
                -0.006602891484132465,
                0.04626157504346612,
                -0.035208387788936357,
                -0.009570929090554206,
                -0.012099202544096338,
                0.04164874923027044,
                0.019050952575207938,
                -0.05042310232016651,
                0.040604745633355619,
                -0.007394868897443992,
                -0.04206720991432581,
                -0.01786901092161536,
                -0.004214541710283129,
                -0.026135176725061314,
                -0.006143872355330405,
                0.038408514541387297,
                -0.01727711681886658,
                0.04794389163948022,
                -0.030466652297412849,
                0.026939443229377349,
                -0.047325184605504718,
                -0.03856492513276364,
                0.018113094209972828,
                -0.004755622636137146,
                -0.02877135158022326,
                0.043841108369448388,
                0.03259257530024845,
                0.05010073823704492,
                -0.022180178200016524,
                0.04199020097836042,
                -0.008264737304900037,
                -0.04412957480811141,
                -0.044829245965252,
                0.0286534531928446,
                -0.03433500406567496,
                -0.03917101954500254,
                0.011302527292554292,
                0.023143027368662744,
                0.024999063555709728,
                -0.04763088060180522,
                -0.04877065961040712,
                -0.04390626713251637,
                0.031348713046285166,
                -0.02657199361920278,
                -0.041360038533448637,
                -0.010111425625143929,
                -0.031102336967036537,
                -0.027721231175508084,
                -0.015616668139740622,
                0.03544360780081162,
                0.04120415475354307,
                0.05009261902304453,
                -0.018394916533423856,
                0.016528871110787895,
                0.04925998673195296,
                -0.014935253592571366,
                -0.02139375697427188,
                0.01808663906263936,
                -0.029918933577094517,
                -0.004644045331855043,
                -0.04094169391052996,
                0.016392847986956905,
                0.02227293191797747,
                0.04762239280226342,
                0.04674864250896873,
                -0.04656292709085448,
                -0.019981400420710284,
                0.013210792225423476,
                -0.03760382871083634,
                -0.01179308851932887,
                -0.024701589485002077,
                0.01090362654913923,
                -0.024343193441307085,
                -0.024053716438802849,
                0.02477622915035137,
                0.04845146163355285,
                -0.018930487733395595,
                -0.0028168587905862605,
                -0.010131329107545308,
                0.02813777485247335,
                0.024263335004422034,
                0.010659350340969211,
                0.012872112896843716,
                -0.007978551945262468,
                -0.04842695756470601,
                -0.003112097773874122,
                0.020723152102981813,
                -0.010271126009351263,
                0.03598051259079547,
                0.028738886552192267,
                0.02867960704194207,
                0.048023984133648309,
                0.0007531956630697931,
                -0.02021699446769452,
                0.040778970960318548,
                -0.015081728048832932,
                -0.011206349598565273,
                0.03158969677822978,
                -0.023961912147752608,
                -0.04194063750322373,
                -0.03793693763425831,
                0.007796994019766153,
                -0.03675583854551485,
                0.049491906540651418,
                0.012173804210060879,
                -0.02109236051752379,
                0.024955472558764913,
                -0.0403127664932751,
                0.04227504277366079,
                -0.04813327146028234,
                -0.04164981454253608,
                0.03161535752119928,
                -0.019500399072686169,
                -0.009893654040504532,
                0.02325649970627274,
                0.0026130551409961324,
                -0.04537775238962126,
                -0.021463513733146309,
                0.0439865774580123,
                0.0013330240572591618,
                -0.02054611278511931,
                0.04127379630924166,
                0.027104893255811899,
                -0.0191550822658383,
                0.007020416636018716,
                -0.01800441968261328,
                -0.04339056032100602,
                0.04723928204081906,
                -0.02133752666321266,
                -0.005853116374621546,
                0.00945458449647596,
                -0.003066350383816739,
                -0.030636810243028037,
                -0.018760500342577738,
                0.01748970804568292,
                -0.02983539941542026,
                -0.0032962482397867678,
                0.014912150656108056,
                0.03402190515314205,
                0.024133321942322745,
                0.020918859065790549,
                0.00954870067721874,
                -0.0009644695529691101,
                0.03535443509999062,
                0.022354650791536404,
                0.045711810959469519,
                0.016378637339575634,
                -0.039021038410750347,
                0.006991234185581835,
                -0.010248963943936103,
                -0.017636291698393076,
                -0.04332157575730973,
                0.038254317905729019,
                0.02458234023321165,
                0.02702829409924022,
                -0.026562887891871856,
                0.03126461984087631,
                0.03120961374345336,
                -0.006670406011579233,
                -0.018245848349986727,
                -0.027826262399087376,
                0.025189554171177854,
                0.031589017851759607,
                -0.002800169445288953,
                -0.011579975384533292,
                0.01286603783512785,
                0.015000073768279061,
                0.045377282955390677,
                0.0268854028380533,
                0.00801682570223824,
                -0.04585078389069025,
                -0.008858007697787676,
                -0.0028661756211917569,
                -0.021244434289708043,
                0.029733278032411847,
                0.021790967328540274,
                -0.006293525955009319,
                0.044064718003555058,
                0.011400132341122872,
                0.008200608011691117,
                0.014964758083306046,
                0.04582141631163729,
                -0.012733651538959966,
                0.03816288079661149,
                -0.03757431477711625,
                0.008030775588239956,
                0.005064584801701989,
                -0.00379474535826321,
                0.01056840414321803,
                -0.007820910058049268,
                -0.014599919761236509,
                0.020341387542181106,
                -0.030866912940342576,
                0.002597376271416454,
                -0.0007541777679169648,
                0.04574506164517851,
                0.03297712530677588,
                -0.05024865141868592,
                -0.003855087500383849,
                -0.0376295648742939,
                -0.01710764615162938,
                0.02299683648760123,
                -0.012538169309757434,
                -0.04753750748306271,
                -0.011920245720054042,
                0.03986567767330793,
                0.010084640420737902,
                0.013767634028374798,
                0.04507590609965039,
                -0.04362754969504527,
                0.03438715280784375,
                0.037064747796509037,
                -0.02787236300829902,
                0.03346713288132682,
                0.018697605936753436,
                -0.019524823765608727,
                -0.011189716242886004,
                0.04159871332379642,
                -0.01738068605779374,
                0.032140303670011607,
                -0.045222341638212159,
                -0.029924921001728438,
                -0.015448246245204025,
                -0.018051590047504119,
                -0.029915426313067759,
                -0.011565883310957554,
                -0.031808925120915137,
                0.04619806846806209,
                0.02296990776354305,
                0.03795540670198295,
                0.03840716158561707,
                -0.008616883968343025,
                -0.0036020931176126938,
                -0.0014787871691286656,
                -0.023237352255311134,
                0.04576952418736748,
                0.007615555904840123,
                -0.013421050162737768,
                0.004535825827469676,
                -0.025923944991995283,
                0.04664462601288916,
                0.039891054028338878,
                0.002765336322844848,
                0.0054464612808052029,
                0.010130853262778565,
                -0.003491343065613176,
                -0.00292435258707503,
                -0.013759788413205257,
                0.03427010447134388,
                -0.029284852357891985,
                0.008881948673449979,
                0.037760949065644467,
                0.0178567410389912,
                0.013962251444239736,
                -0.043887365763769409,
                -0.03420585416995255,
                -0.011072392604048588,
                -0.045578488454291989,
                0.033227567395402179,
                0.05078731397459474,
                0.02141099708398815,
                0.011563744518762047,
                0.041396451293981197,
                -0.044172851735102058,
                -0.03643099933032176,
                -0.005798151418994066,
                -0.006285134999187568,
                0.019907879528452828,
                0.011146051115002338,
                0.028030469941846535,
                0.021335051397414138,
                -0.04625202689298981,
                -0.010286870853332742,
                -0.032627926465567048,
                0.03446406103777121,
                -0.03335981986523002,
                0.018695151859975818,
                0.03150378624200486,
                0.02479427395373985,
                0.020285168556832886,
                0.040946775340885217,
                0.03245536382403148,
                -0.04105285836057287,
                0.001816765916568741,
                -0.020109396685023277,
                -0.04390485978997336,
                0.01978192057940807,
                0.03398609100623257,
                -0.0011962481796060916,
                -0.04110397634578303,
                0.0034094021744031377,
                0.007992974787320693,
                0.0007654068833989875,
                0.004076972332527458,
                -0.000025217285005712674,
                -0.014547746820026223,
                0.05369507037370037,
                -0.005441355034481833,
                -0.00893553135780343,
                -0.03144539072173907,
                -0.04475079561163404,
                0.029251158224628455,
                0.02848192147089601,
                -0.04057722184316163,
                0.0016294766238289457,
                0.0036950343646786289,
                -0.0014820983997699839,
                0.0046663559073357508,
                0.029841818450415986,
                0.04065992977348856,
                0.0017790657256940592,
                0.007357477651808932,
                -0.018056503535552147,
                -0.038783648789026469,
                -0.0380528524836072,
                0.0431289409655993,
                0.0034438666789149187,
                -0.012417117584921764,
                0.02401129308481597,
                -0.0406385266752579,
                0.021401458686426908,
                0.011100867990527966,
                -0.029329892144562113,
                -0.0008542548906975948,
                -0.027542289627922876,
                -0.03219795419579015,
                -0.0006128823590566422,
                0.037330103423417939,
                0.010528988746626453,
                0.0030526030557548329,
                -0.03721291390106591,
                -0.028642125524083348,
                -0.011201675706435644,
                0.005728665784748887,
                0.016460557227894035,
                -0.034636156096132807,
                -0.046757955554064537,
                -0.04873087202169435,
                -0.04544701015311332,
                0.027773448782722786,
                0.006296161353706492,
                -0.036384595115333057,
                -0.04459004937697919,
                0.009320346144251625,
                0.009621925728770012,
                0.04441483912558944,
                -0.025051040925585495,
                -0.009793686074622416,
                -0.007616894765356209,
                0.008719373406099513,
                0.034083144913950428,
                0.012540006912854686,
                0.021444893552962076,
                -0.018347516551884527,
                -0.004524567228782116,
                -0.003039608511780498,
                0.008871998685296194,
                -0.02197277586188764,
                0.037968639828675519,
                -0.01505468594805173,
                -0.045817733188624757,
                0.008791429816202033,
                0.04460531000792742,
                -0.02434364606312069,
                0.023892327169284027,
                -0.018346697749844679,
                -0.028500227904511498,
                0.022320403695619448,
                -0.0009657615149340478,
                0.05146670515326214,
                0.038303206617164558,
                0.003721615809936037,
                -0.014452063780277698,
                0.055150202862399449,
                0.0020850957526591699,
                0.009380288752777638,
                0.0067892725018614849,
                0.013853558606871767,
                0.04270174207831129,
                -0.025100902022834605,
                0.04255670734555157,
                -0.0406897404784035,
                -0.008065270193602734,
                -0.04886973822998747,
                0.019858661363912457,
                0.005377695003812688,
                -0.0036557909045630005,
                -0.041278682504648899,
                -0.03349441760849142,
                -0.032476126806655018,
                0.0031086877136519655,
                0.02998217397502665,
                -0.03906431919610753,
                0.020032269266530974,
                0.020765531324767159,
                0.047731443165423857,
                -0.025803938528982396,
                0.027763990579595354,
                0.03456442982857365,
                -0.01931721590646968,
                0.024976431108517953,
                0.004498051280611771,
                0.04451838748668798,
                -0.005701498467964699,
                0.022752159481199627,
                -0.021124536250507674,
                -0.022592242176717397,
                0.020260879190513303,
                0.029885011120975047,
                0.03732293456832713,
                0.04472518748158606,
                0.04510362821746619,
                -0.012252173436857169,
                0.011220936943653224,
                -0.005443639780674382,
                0.048905266523628799,
                -0.0322349882436988,
                0.04156215970406777,
                0.0037453198230062015,
                -0.029571380874339957,
                0.03207716100440466,
                -0.03583311621707881,
                0.005430385298371807,
                -0.021478246900570116,
                -0.00399867243049137,
                -0.03684158263798789,
                -0.01080079595385088,
                0.016924500701707824,
                -0.022401131192368506,
                0.008523036585146362,
                -0.014782383313324875,
                0.026599789205411219,
                0.027542772252212787,
                0.0115589270704992,
                0.001305426312385587,
                -0.00836529738803233,
                -0.03586899326580725,
                0.04941579615486457,
                -0.017015097728881345,
                -0.007532867131061862,
                -0.023339675695413857,
                0.024738294591316817,
                -0.01963560540967921,
                -0.01943320993321846,
                -0.025076225318963708,
                0.006355174873214674,
                -0.009087777603548548,
                0.00020579800040252226,
                -0.024138199251517925,
                0.023619845369838266,
                0.03199980268182678,
                -0.02107450336321486,
                -0.025322744735814544,
                0.014157034468985319,
                -0.0029523134724318835,
                0.01360190987112873,
                0.04958342443807278,
                0.014680753909031255,
                0.049148348933526,
                0.011088986520538349,
                0.0396091447139875,
                0.008185292458428181,
                -0.00680031681662062,
                -0.029773119239388816,
                -0.0018518627608459448,
                -0.03073233401712181,
                -0.029448593214993509,
                0.02232474943387829,
                -0.035782363124679989,
                -0.04224303399576788,
                0.033276146870268,
                -0.03011258886796587,
                0.0113425746744487,
                -0.029914375319201049,
                0.04278120015561551,
                -0.0408170660133638,
                0.0352096684944484,
                -0.022662625469265633,
                -0.04347085421170146,
                0.03649876803291337,
                0.021435085635996624,
                0.03918854211425251,
                -0.01198029381720386,
                0.0032636430663531815,
                0.027311853489048009,
                -0.03864795669108204,
                -0.0016988967443942606,
                -0.03520363849491605,
                -0.029012485043343928,
                0.03575471307613927,
                -0.011331240991469078,
                0.004186780039263186,
                0.047722172693365209,
                0.022161255060762148,
                0.0001926731345326119,
                0.018658154633341658,
                -0.01340023107425991,
                -0.04215044695593702,
                0.031635498191600847,
                -0.041470566075715618,
                -0.01205301658570682,
                0.02078471547459097,
                -0.01054986877212807,
                -0.028585414459857195,
                0.042644831839092917,
                0.01068947010448989,
                0.018113136368668037,
                -0.041363444254875297,
                0.02170216611321881,
                -0.011028537503314255,
                0.03297528176403847,
                0.022176836334503716,
                0.010446670689046145,
                -0.03913821617923948,
                0.041754445641687957,
                -0.045336435621823167,
                -0.028988495352343357,
                0.037967156735039257,
                -0.009022717388593107,
                -0.011607192513017737,
                0.017848046762754319,
                -0.04306340766831864,
                0.0009933513318981815,
                -0.024574057860920003,
                0.016743046786915584,
                -0.01628016835791597,
                -0.0314999736044574,
                0.04070920785181073,
                0.013272573010802877,
                -0.021725392060589295,
                0.022510712329732713,
                0.024825601978445467,
                -0.005882781541111851,
                -0.05244352930930437,
                -0.00016609668726518665,
                -0.045655214233793008,
                -0.0009972692593608602,
                -0.03167623390947271,
                0.015080268127620657,
                -0.03179054097557583,
                -0.007881260220657872,
                -0.011837452743152948,
                -0.005432259651277763,
                0.033200911740082907,
                -0.04528436277488468,
                0.014984011635489915,
                0.042469803941479717,
                0.03737797067063502,
                0.03080054122279424,
                -0.002448593639377377,
                -0.00026707982026955197,
                -0.004892322459369554,
                0.01752532556256113,
                -0.007097731088279855,
                -0.011113864052656892,
                -0.01615823370406067,
                -0.029789702066320046,
                -0.037278975930370699,
                0.005630171934910636,
                0.010471312124867783,
                -0.007921064278749047,
                0.024829714426579238,
                -0.003934952569840183,
                -0.007533087680067029,
                0.01258485318413133,
                -0.04029767445343552,
                -0.019098755842014524,
                0.00912064117116559,
                0.015216182448480626,
                0.04242773037705986,
                0.003848330980573002,
                -0.04591986022351633,
                -0.02440101314821679,
                -0.01827195532832401,
                0.04539236460143923,
                -0.018170557638989849,
                0.013821419212791033,
                0.02013106511637089,
                -0.02634703986010216,
                0.04874097656851352,
                -0.009566978932129014,
                -0.018646385751312456,
                -0.0429487708953537,
                -0.03475288655558702,
                0.028998180864573864,
                -0.017502531739120646,
                -0.04626236532278215,
                -0.047688588068642009,
                0.01503850606753592,
                -0.035863372902521197,
                0.030648033447265696,
                -0.0089219814613532,
                0.010261633932880659,
                -0.04496543372184624,
                0.023420153108771457,
                0.017311365122402536,
                0.047053057867507849,
                -0.050076686943630797,
                -0.03026385790965473,
                0.04809098641216481,
                -0.01391249378592846,
                -0.014458892171928391,
                -0.024611773978827687,
                0.04183326977972452,
                0.0457871233632207,
                -0.005815396318947071,
                -0.029931976162437779,
                -0.009893932141185228,
                -0.0020213735388735899,
                -0.041948162078163039,
                0.02473110781100336,
                -0.00007380326529318755,
                0.041451084849775169,
                0.005089267043339891,
                -0.027975970362339697,
                -0.034942216418243219,
                0.0186448905345778,
                -0.020929963652554397,
                0.011300986498802112,
                -0.01826022026758367,
                -0.047097832707366709,
                -0.020316636399428695,
                0.043701104027189369,
                -0.0017121437025045025,
                -0.04053496114368623,
                -0.03255216495155556,
                -0.009677764768392602,
                -0.02788727438207767,
                0.0017470754011004303,
                -0.017927351531236654,
                -0.015438498644498216,
                0.011222109043399615,
                -0.001180676546088578,
                -0.025223118321766034,
                0.013899751304514789,
                -0.041358184838352147,
                -0.04473273054762573,
                -0.033152823222849677,
                -0.026562367927048675,
                -0.013445227363803575,
                -0.0388025546769094,
                0.011905714531022519,
                0.005774615445316726,
                0.008117714096702466,
                -0.008283543447818466,
                -0.020921363094768793,
                -0.0016191490134911419,
                -0.044486244691922628,
                0.033238250108416158,
                0.010366056595274195,
                0.050578744022507168,
                0.014614652721428248,
                -0.010568834379193282,
                0.03776720131345642,
                0.04352462668077473,
                -0.04066287977856084,
                -0.007762400824161499,
                0.025983311222137534,
                0.03352630405145947,
                0.029782468880654775,
                -0.04623191247223133,
                0.045389707849801248,
                0.03903940982221489,
                -0.035275423049788767,
                0.019523167775630916,
                -0.03514407834590777,
                -0.04585776813787949,
                0.012851350823509793,
                0.04549653688807192,
                -0.031656257176736739,
                -0.04192741335819686,
                0.003225503731276631,
                -0.041847934464014229,
                -0.0162786290368889,
                -0.030473699379113915,
                -0.007120642847402807,
                0.025284842589037579,
                -0.011935606605027195,
                -0.0405067702132397,
                0.027130776368271844,
                0.01835509165435058,
                -0.014922009367583986,
                -0.013884872065966257,
                0.04098766465055234,
                -0.017869518360976046,
                0.025241351380982048,
                -0.03154637888202295,
                0.012355729032915429,
                -0.012172892730024062,
                0.0027501528441653958,
                0.01299802244671906,
                -0.016107293727603244,
                -0.01895712191853398,
                -0.005864983104655392,
                -0.020004256591572006,
                -0.03397669876828034,
                0.028177385919538147,
                -0.010859382970463154,
                0.03773053159087677,
                -0.020112070978647566,
                -0.022953352601557898,
                0.03770986093230104,
                -0.036782651542021958,
                0.01812559501095658,
                0.0045110505235574339,
                -0.0039921545134049729,
                0.006990608688684325,
                -0.0401675463687652,
                0.018497023505724496,
                0.0018830555669640134,
                -0.011320274826942229,
                -0.0460699252317462,
                0.018811312841746198,
                -0.045540063333323197,
                -0.03632664804486402,
                0.022999450636493048,
                0.010161025440160888,
                0.0460155888494407,
                0.03039066850108536,
                0.04603584950698457,
                0.04321905937857628,
                -0.0069190996882496249,
                -0.025471750887992547,
                -0.009976555411108349,
                0.0031112009416585297,
                0.028656956497427115,
                -0.031283701299194038,
                0.015550216903859289,
                0.046951446056911257,
                -0.04238247714635813,
                0.014257300182544512,
                -0.01656099136216455,
                -0.0013175759216092567,
                0.029073979305237288,
                0.001361835675416245,
                0.03439632404095767,
                -0.028861812541894753,
                0.019640307589819007,
                -0.009189060690632918,
                0.03789722298002879,
                -0.03288801383400149,
                -0.04297249880923119,
                0.04516564708950664,
                0.03719789493142653,
                -0.03369653878445738,
                0.007354560080354189,
                0.013818889215028604,
                -0.023045026716171835,
                -0.019257741643522058,
                0.008980801813641608,
                0.007816678487709129,
                0.028496145144961767,
                0.009440353023008882,
                0.04119651326807805,
                -0.015069146841219747,
                0.036908813772164619,
                0.013527046056805596,
                0.022072444583443354,
                -0.03385020943452569,
                0.02712383313682635,
                -0.023071526650550783,
                0.03907401656563978,
                -0.03664055315034681,
                0.00986719929334299,
                0.03345101486847555,
                -0.043654730692050978,
                0.008373008233969654,
                0.035947220703742528,
                0.007518097366048954,
                -0.015750560985642187,
                0.00011261389483303257,
                0.04233488624047306,
                0.008058217044646843,
                0.0512814434358331,
                0.02805198256867838,
                0.03811751941061495,
                -0.0009112501041415482,
                -0.01000938258943994,
                -0.023626341988302419,
                0.042502077491221677,
                -0.035736823352162449,
                0.042012918648780147,
                -0.018253314473188656,
                -0.01265354389241225,
                0.0006203918890020511,
                0.0411684712182759,
                0.020497500562479108,
                0.00879601929051062,
                0.0006410048308510681,
                0.012526101807477134,
                -0.03260115139270607,
                0.0036149268723388186,
                0.0009095378350120026,
                0.014029949992323836,
                0.00817475559839572,
                -0.021711997152094849,
                0.04862100325491933,
                -0.016738988524630684,
                -0.04711250620240689,
                -0.03704962887370083,
                -0.04895109868361404,
                0.029999545385808344,
                0.023026446293603236,
                0.04981564815770271,
                -0.03912120025900452,
                0.01418116063465289,
                -0.029100829175055313,
                0.012072052750318943,
                -0.03629746431774666,
                -0.002257627512610978,
                -0.007788283837359074,
                -0.026398334425704437,
                -0.0019197578270374037,
                -0.02813868533105259,
                0.014959351293204639,
                -0.010937428066693509,
                0.00795770502908138,
                0.024314380892794319,
                -0.042855132158260877,
                0.04391022158117747,
                -0.01728231929191991,
                0.050724044970941167,
                -0.015012746774046376,
                0.04184387247967453,
                -0.03537824478736766,
                0.051156792504555109,
                -0.012316699800006432,
                0.04552531581625459,
                -0.013520340094355977,
                0.004027853947218244,
                0.039394542940303669,
                -0.03673993261589016,
                -0.014595470850409638,
                -0.03707789719418742,
                0.042687151704710119,
                -0.01221191924180789,
                -0.03165574761731989,
                -0.01624798686887421,
                -0.01921576328531959,
                0.03786534306184466,
                0.019008026652905617,
                -0.04305001580463592,
                -0.003575080297024765,
                -0.046093089282575359,
                -0.0274896985806543,
                0.04221462685915867,
                -0.045544719138013018,
                -0.020383238329173098,
                -0.05059734851745324,
                -0.0289522342677069,
                0.022109969159793395,
                -0.029052986670072699,
                -0.023131025861145839,
                -0.04108509384731606,
                0.02857508893681883,
                -0.04695144661062977,
                -0.004612827818647665,
                0.029614959895632566,
                0.03626708743214476,
                -0.03872055005156061,
                -0.023602806744063708,
                -0.026990476315308519,
                -0.02393617905904509,
                0.008702659809267624,
                0.004462895116443377,
                -0.019629291657926204,
                0.04103378048683253,
                -0.018716870613846919,
                -0.016937340210155535,
                -0.017706500160180967,
                -0.03088098419229483,
                -0.024036171508634648,
                -0.0038568480551334557,
                -0.021822021709244318,
                -0.02593328917409374,
                -0.022285449455044918,
                0.005948292558933188,
                -0.016677081274408483,
                0.022597878288034506,
                -0.030704381574784908,
                0.04612427722714224,
                -0.04179346562675937,
                0.043251992624771928,
                -0.034952611528368347,
                0.03238419519178772,
                0.023770060122853499,
                0.03312834578206806,
                -0.022176005262335379,
                -0.009315033404175307,
                0.03807576816270632,
                0.038946003840913758,
                -0.0065664836929636518,
                -0.004887579037659536,
                -0.030078009021436527,
                0.008668446586232342,
                -0.0039288288974054798,
                0.03572541377698807,
                0.03556693614470498,
                -0.0012421073485517514,
                0.04498031340340406,
                -0.0467830964507447,
                0.025103994431055707,
                0.04988115477442256,
                0.020453704052853507,
                -0.045783070151287918,
                -0.005047336224244604,
                0.025298051281234088,
                -0.047194139115415447,
                0.03504540237073328,
                0.0021419705962284769,
                0.0017893539333303432,
                -0.03812751228467808,
                -0.040512161151848708,
                0.015302756658441046,
                -0.032877939149860157,
                -0.02752260772135577,
                -0.019423294566354347,
                -0.040760399330351627,
                0.024194316619405588,
                0.032347121091071667,
                -0.005629826196122339,
                0.014370784494587553,
                0.040366233821071819,
                -0.007761406789766708,
                -0.00904286741917526,
                0.030194073080304013,
                0.02723278984272115,
                -0.02219345291267055,
                0.01278114375815714,
                0.03199929272347127,
                -0.008594590780224326,
                0.01779372011255594,
                0.033225200695544358,
                0.026950872992266014,
                -0.03279412342680546,
                -0.02525325822861786,
                -0.042377142568780747,
                -0.025599705950384325,
                -0.0348390465042802,
                -0.010751976532644668,
                0.04739645243640968,
                0.028636720108391933,
                -0.005711477058388577,
                0.03999837448379546,
                -0.011367847284349376,
                0.025228261796630154,
                -0.017195379772139014,
                0.030100510727862779,
                -0.047115728099286959,
                -0.01219262651429732,
                -0.03244499840419938,
                0.022941994472241938,
                -0.03793150157808299,
                0.01626225894902136,
                -0.0009815387803353449,
                -0.008201170884548704,
                0.03521412594304666,
                0.006429886421614878,
                -0.019546097612964883,
                -0.024728949467080646,
                0.01732002922390324,
                -0.005038888468521112,
                -0.009572300884674224,
                -0.047995585959654019,
                -0.04344759653370173,
                0.035211657721759968,
                -0.018247786228490764,
                -0.02134213181888153,
                0.002283944661799482,
                0.04735222200558139,
                -0.036783618101375,
                -0.0422029027320391,
                0.04678745479431702,
                -0.006104687628152286,
                0.03412472831518136,
                0.017545928567578505,
                -0.02850985754744368,
                -0.04703870585908842,
                -0.04343092309949187,
                0.012564322165520593,
                -0.0031330826866531344,
                0.047269128357783237,
                -0.028071764232255656,
                -0.025717009873320239,
                0.015179511103144254,
                0.023951648903413945,
                0.0021697863211467278,
                -0.0315038999680936,
                -0.015637351115735899,
                0.023654179687075975,
                -0.01398383432043435,
                0.0059437926126482579,
                0.041499586569845949,
                0.04023997147349433,
                0.019040378681150516,
                0.002492183154682089,
                -0.00683925407039284,
                -0.009824031047283542,
                0.03246198404377003,
                0.006291464895175007,
                -0.004413211378026993,
                -0.04395147014385033,
                -0.018635561216809435,
                -0.041036758810993809,
                -0.023101248932890687,
                -0.04162409063593011,
                0.026564932698125045,
                0.0221127763214848,
                0.03233191090741867,
                0.032477868917366477,
                -0.025127130341678629,
                0.03239786094590806,
                0.002116820845805465,
                0.016015556237437155,
                0.03044573467768336,
                0.02429484976639794,
                -0.026157724193947419,
                -0.03555914972349898,
                -0.015309273062516057,
                -0.015858439185432076,
                -0.02001488792783846,
                -0.035675398112374277,
                0.04407571798969572,
                0.025548961380236328,
                0.009048646485317167,
                0.01171968429112799,
                -0.03737430363426216,
                -0.0418372308574497,
                0.018149920828554008,
                -0.014241705843796866,
                -0.025806739967011304,
                0.028668268502586588,
                -0.03129763545763152,
                -0.00023544276955988203,
                -0.03174156671828216,
                -0.0056691789380792089,
                0.01518425337768192,
                -0.035365269695025489,
                0.05159682003902339,
                0.008306106777612276,
                0.04613095717829292,
                0.028574589886218975,
                -0.012343977810667862,
                0.0028806188040495456,
                0.0009706480528019585,
                0.0022174928340096525,
                -0.04751996478075476,
                -0.024075940350737424,
                -0.04012524141254396,
                0.046536136644363148,
                -0.019519088723045937,
                -0.024857786839433597,
                -0.04365266020223447,
                -0.0020179657930791655,
                -0.02526836850939629,
                -0.016267290727311306,
                -0.037518205100274249,
                0.004383245012249231,
                0.0008126924056893461,
                0.01655272499037516,
                0.04560608139049081,
                0.01610252278962193,
                -0.0455734790623845,
                -0.004660360154138163,
                0.004537160509376568,
                -0.0026471433196214079,
                0.01653849922986154,
                0.04861717314130062,
                0.002011104923393645,
                -0.008839865720437015,
                -0.04262560124575869,
                -0.03905376797926871,
                -0.03447564252891172,
                0.03521693409843727,
                -0.012711431988698652,
                0.003476047325935053,
                0.02852453622556598,
                -0.00659486318790351,
                -0.022509208428179489,
                -0.04620818813112731,
                0.008563533744834649,
                0.03698226122810357,
                0.04513668044227265,
                0.020963234052186507,
                -0.04385496831436702,
                -0.0457558937230999,
                0.0190873778918761,
                0.021973006434574308,
                -0.01844513756460585,
                0.032631721445285987,
                -0.02152012105246109,
                -0.03442651390925818,
                0.011362226671312207,
                -0.014659832642399626,
                0.00987432531879155,
                -0.01980196471732333,
                0.028944126436629495,
                0.0399949886742727,
                0.04774396773566744,
                -0.043398403697207699,
                0.03770849235224615,
                -0.04387731687128097,
                0.027495373931737955,
                0.02209051725116004,
                0.041490132752430238,
                -0.031913702691900549,
                -0.039825500537061849,
                -0.0249276832760208,
                -0.038775231979521349,
                0.022364300070176033,
                0.01007925176965303,
                0.018832858418970524,
                -0.020710646966134319,
                -0.004602201302526791,
                -0.0401095113040872,
                -0.03694549245102556,
                0.02161848424723828,
                -0.018371721601214157,
                -0.012729481257493238,
                0.0017596524852055106,
                0.02535078949174154,
                0.0455708988229725,
                0.016825165966382194,
                0.01661651267322203,
                -0.039492087196416999,
                0.04637585084044288,
                -0.00405815538188598,
                0.03166876582165776,
                -0.03131129782048827,
                -0.03906272107409844,
                0.024214727244931373,
                0.03587799726082688,
                -0.005662253530055855,
                -0.029667923072835,
                -0.032766074558495988,
                0.00630765793462414,
                -0.04141847505463704,
                -0.02511711097808736,
                0.03379440070558447,
                0.03951999346741253,
                0.04279437489287927,
                -0.007869529335922218,
                0.012047760571619122,
                0.010334280443790667,
                -0.025126817160810764,
                0.007960446269460794,
                0.035307294100870859,
                -0.033601669171456707,
                -0.024182913271494,
                -0.0012581896275301644,
                0.010497270554592264,
                -0.006088925332534752,
                0.00352389916670485,
                -0.004470801408686006,
                -0.02049710654564443,
                0.04473842655460023,
                -0.0100937797323386,
                -0.04037193070255505,
                0.01265459422483483,
                0.04640594274372892,
                0.022084870422851286,
                -0.023928794293839495,
                -0.04305554030654922,
                0.048962294609654,
                0.04422388292812535,
                0.02556134437310592,
                -0.02255090413907799,
                -0.04495424620543025,
                -0.017769135561971819,
                0.008624130034348438,
                -0.04725629154929603,
                -0.0017118514730634465,
                0.0004001278210793952,
                0.006529465436211179,
                0.008014713111944582,
                -0.014906609602076644,
                -0.014958625023858882,
                -0.041044555079271908,
                -0.005343096571756449,
                -0.0007279349014917835,
                -0.039361889726597518,
                -0.02040612470199036,
                0.0029620771238488255,
                0.019531255569852539,
                0.0011915185077956477,
                -0.014462788087225629,
                -0.021302415658921035,
                0.05026609015507361,
                0.04727292435940967,
                -0.029244921508188489,
                -0.036947206062704119,
                -0.046187661840088319,
                0.009677579280599373,
                0.03782519076038544,
                -0.03525745061665193,
                0.016953731508165129,
                -0.009654178946117557,
                0.010861199378211917,
                0.015309155138095939,
                0.0021645379285173008,
                -0.017390639494837744,
                0.03208832902168456,
                0.037465724934020627,
                0.02047591688140582,
                -0.0016699344688508543,
                -0.039007604545071499,
                0.044017272520341089,
                -0.04889967146995241,
                0.03776089579185429,
                0.04565992785586117,
                0.014307701916595336,
                -0.019066802776197816,
                0.017311762419121476,
                -0.038441709778977418,
                0.03801420886345163,
                -0.003519840544443306,
                0.0238774697554175,
                -0.014459775699604435,
                -0.004371995144103241,
                0.01038636688837368,
                -0.006148958857566109,
                -0.02124620538176179,
                -0.04252571635606568,
                -0.041418882791025807,
                -0.006747588613422951,
                -0.0465666764678227,
                0.03496153828568529,
                0.01420499373286403,
                -0.01488922827114242,
                0.04523031621077424,
                0.044399908716257468,
                0.02153177036434382,
                -0.00798955265196198,
                0.04206989032761748,
                -0.03210222839118741,
                -0.01776167354147573,
                -0.008603310064917323,
                0.0342026165028368,
                -0.02442087000336496,
                -0.0079700934650619,
                -0.009789875243101149,
                -0.02395360503977258,
                -0.03623091301937937,
                -0.04700352791844762,
                0.008843961633070854,
                0.030244959468434565,
                -0.014511441544934419,
                -0.0012745807489333115,
                -0.04988196594191879,
                0.02020180355424588,
                0.04510344494918466,
                -0.04888618689808973,
                -0.033985971061455007,
                -0.045567067851081419,
                -0.043383341360732619,
                -0.04308335026178586,
                0.02511250762596848,
                0.027626047088529866,
                -0.02189645831748367,
                -0.003965340938815167,
                -0.024332909159007829,
                -0.022771627469955963,
                0.016459098132817045,
                0.04157706594510941,
                0.04702017187095873,
                0.0439646689956271,
                0.04201370176046492,
                0.021555767285609308,
                0.04778086961549321,
                0.010616906453761849,
                -0.04660560964554834,
                0.04115989544786184,
                -0.03733002317101722,
                -0.037314576660762859,
                -0.03084616074382325,
                -0.03053878109604022,
                -0.033677899808517878,
                -0.042936636147291599,
                0.002774892629259628,
                0.00982866525066606,
                0.017447059015475338,
                -0.013497392038200605,
                0.011184257176061167,
                0.014680886795299765,
                -0.04918935065421984,
                0.048476557378802829,
                0.0020515324560995728,
                -0.011060519390025099,
                0.04169896733556553,
                -0.04085475599187511,
                0.003664599151865103,
                0.018581320383546593,
                0.0035906347384769409,
                0.029769363756324039,
                -0.03650794257281568,
                -0.03675561933870702,
                0.014704000229071507,
                -0.030053339818683607,
                -0.04511478019105209,
                0.01766135206136998,
                0.040575990188729028,
                0.016029175874924713,
                0.00443896658966245,
                -0.007294231224609587,
                0.018936256901154678,
                -0.04751708527486538,
                0.03900194620613949,
                -0.04257719207944385,
                0.035566311323621969,
                0.03821634999525569,
                0.04531240292420131,
                0.018031932090203687,
                -0.02309420556311003,
                0.016516216630762184,
                0.030550273355447314,
                0.04353211078827272,
                0.016998024011215208,
                -0.04981292422059644,
                0.03864131049489895,
                -0.04979004391901945,
                -0.010995059312015849,
                0.004386494193082564,
                0.02933274214128253,
                0.03538269538989021,
                -0.045014669109395308,
                -0.010844276530297263,
                -0.015932009977006287,
                -0.015420954033608383,
                0.04239244625965953,
                -0.039687244625710719,
                0.0047169134680161389,
                0.0434738281532991,
                0.050230900925888947,
                0.03456399127711506,
                0.020430202263575615,
                -0.04478523845236108,
                0.031576639714713469,
                -0.02994485062839351,
                0.05007382189271191,
                0.049924136373854729,
                -0.04156056477664209,
                -0.0068304127780007199,
                0.004574932534104689,
                -0.04515448047912712,
                -0.03379559518359672,
                0.03367056217666013,
                -0.009612828064904104,
                0.037704379005776538,
                -0.05087150083397603,
                -0.027998460689080155,
                -0.002119168552106904,
                0.010898983071724454,
                -0.017944429034252267,
                -0.04539069855981717,
                -0.022847773623649094,
                -0.010839580612987687,
                0.03692498015337326,
                0.017532132147328438,
