{
    "layers": [
        {
            "_numNodeIn": 784,
            "_numNodeOut": 32,
            "weights": {
                "_height": 32,
                "_width": 784,
                "_values": [
                    -0.0005072568792998657,
                    -0.0010037181659240706,
                    0.023798303059836689,
                    0.0016266704188462644,
                    0.02710786993173872,
                    0.022325558454578479,
                    0.013316443265977274,
                    -0.010265365874767674,
                    0.010167502192799601,
                    0.01714499216725103,
                    0.01080569854977658,
                    -0.01827075808619645,
                    -0.00422305384291153,
                    -0.021266883711781288,
                    -0.016846474267251087,
                    -0.003811659804324104,
                    -0.008332153703003059,
                    -0.007750692673467301,
                    0.01651937949552112,
                    0.036906989739225539,
                    0.032244056108268869,
                    -0.009624966794734536,
                    0.00790243212589558,
                    0.0005697217580344744,
                    0.012629179337937613,
                    -0.02698611599483415,
                    0.012609495344350339,
                    0.011943785042210555,
                    -0.013465010654671156,
                    -0.010061030724078865,
                    0.018265091145259608,
                    0.01964497867049108,
                    -0.009684763035238674,
                    0.02229419287217259,
                    -0.012979320043870117,
                    0.012014654637498443,
                    0.0065663238653342098,
                    0.015473740359252753,
                    0.013452691404634,
                    -0.020264357118566044,
                    -0.02885196475320103,
                    -0.015608920765611602,
                    -0.034386121544355798,
                    -0.0546624150983415,
                    -0.023416227801772169,
                    -0.018364785446556569,
                    0.011051843271160595,
                    -0.004191430819800881,
                    0.004727099154539194,
                    0.008091923932085752,
                    0.02721070502576204,
                    0.01602821822723553,
                    -0.011733964045893867,
                    0.006750810022823921,
                    0.022076028541461756,
                    0.004416045571970993,
                    0.027819416654810589,
                    0.012353765135682418,
                    0.03493147918139081,
                    0.012849832195986039,
                    0.03652079125071726,
                    -0.002327642631623178,
                    0.005412058791644607,
                    0.025399255380810026,
                    0.022079778193993997,
                    -0.0012095150622068265,
                    0.048498254921442458,
                    0.017103491768538666,
                    -0.0396642725091513,
                    -0.011510320099938536,
                    -0.031115909110560146,
                    -0.04109494292471251,
                    -0.03601800227268481,
                    -0.05450837540352309,
                    -0.016068202404631146,
                    -0.008729079305383737,
                    0.0026547501977760596,
                    0.004961708352931189,
                    0.004722156452050139,
                    0.010422910832605203,
                    0.030462618968812993,
                    0.005563525445959358,
                    0.009987728829690523,
                    0.02738477114434695,
                    -0.0012426594839905449,
                    0.011140755187183153,
                    0.008268657110833475,
                    0.013159418141296984,
                    -0.003977700652847356,
                    0.005598329597716764,
                    0.014394420268368989,
                    0.006277897886322998,
                    0.049669149357341419,
                    0.031377413527544497,
                    0.04109761988860667,
                    0.007157580241966352,
                    -0.011415144015492299,
                    -0.027594798994281717,
                    -0.05966481381706433,
                    -0.07265050271611641,
                    -0.07060881808197038,
                    -0.007703514418096728,
                    -0.022485828658794023,
                    0.0191089664237879,
                    -0.012518842891972034,
                    0.015138898067003363,
                    0.03328587012433696,
                    0.004033488919708174,
                    -0.00010526959662317035,
                    -0.00451971936085728,
                    0.0046527995517796389,
                    0.013275763886128287,
                    -0.008997058344966537,
                    0.013491912202154838,
                    0.032176600765631207,
                    0.04130063946146993,
                    0.03415322725688736,
                    0.02993320062530936,
                    0.014090770013772224,
                    0.03965882220029509,
                    0.04107499945713838,
                    0.03248947723708689,
                    0.0010810893652361803,
                    -0.01610836672904904,
                    -0.039906452827336829,
                    -0.0642150189817779,
                    -0.11832639108610016,
                    -0.0899956676078423,
                    -0.07906784937510421,
                    -0.03451903210619679,
                    -0.02220132002509082,
                    -0.0179009985132526,
                    -0.004430989560049119,
                    -0.04551771452189378,
                    0.0007794459823927127,
                    0.013791835263997365,
                    0.018369700094484018,
                    0.038862786888816409,
                    0.03668795413089116,
                    0.01369149485460111,
                    0.01823771238319582,
                    0.011701758740234485,
                    0.0076701667867878219,
                    -0.006381310831914941,
                    0.0529017990880058,
                    0.030299596408361184,
                    -0.01542200648445992,
                    0.06263901455879699,
                    -0.002042963114928514,
                    -0.025205431178306736,
                    -0.001933663749705816,
                    0.03761093222731663,
                    -0.011148801781840664,
                    -0.043786091442158118,
                    -0.056302982436530767,
                    -0.12122015740231117,
                    -0.11006141017885497,
                    -0.11497162708490506,
                    -0.08856003091348452,
                    -0.006458661716233514,
                    -0.02241734946500266,
                    -0.021259129385593619,
                    0.0439982899958793,
                    0.029041310115185499,
                    0.015304514624353673,
                    0.03079917619230511,
                    0.019214903233087209,
                    0.030151167127453607,
                    0.04941995318871795,
                    0.05841895212154579,
                    0.02960391593844124,
                    0.025622968775019653,
                    0.04404312074701767,
                    0.018297855980658707,
                    0.009135281495322272,
                    0.044616962388110737,
                    0.021120380924076724,
                    0.020359408413687598,
                    0.02671848417897705,
                    0.01029975767407342,
                    0.01601105059261416,
                    -0.025506397163386046,
                    -0.06145884472595066,
                    -0.07831528815803769,
                    -0.06907792703645219,
                    -0.0772078541432763,
                    -0.10768689475650589,
                    -0.02988862618411808,
                    -0.04122055914893569,
                    -0.01663061523687204,
                    0.0033134034223960137,
                    0.00752750082690693,
                    0.015120876573476052,
                    0.04584321061701725,
                    0.03684042541518604,
                    0.009804391025112903,
                    -0.011581474673252832,
                    -0.006710939530803364,
                    0.013470037471420662,
                    0.027636307320945784,
                    0.05522160689564015,
                    0.07666894180259579,
                    0.05431845911700246,
                    0.011374557087748446,
                    0.0368789474923736,
                    0.0008655054741146936,
                    0.031798884989380059,
                    0.01988974741016337,
                    0.014586908297685759,
                    -0.06844950988455435,
                    -0.03600803956988425,
                    -0.09940493702952623,
                    -0.05962580718707432,
                    -0.08457359308776369,
                    -0.08107050451679074,
                    -0.04794016133813372,
                    -0.0780985177728057,
                    -0.0199555112835804,
                    -0.00926545147185307,
                    0.01922418950628046,
                    -0.004507084246404279,
                    0.03289184594824799,
                    0.06512208539537526,
                    0.06423829379790266,
                    0.0307909464113335,
                    0.002060098563559806,
                    0.06645800922320416,
                    0.07124648529347895,
                    0.059449298052092428,
                    0.05099556505820793,
                    0.012028391750453307,
                    0.0011053484829364733,
                    -0.013421943913976295,
                    -0.013255453863172669,
                    0.008027004152465179,
                    0.0036446069861823177,
                    -0.0005393371357254232,
                    -0.02298718900646459,
                    -0.07285766277873311,
                    -0.07295655490675691,
                    -0.08154980089238115,
                    -0.09245275053395305,
                    -0.09804129464272576,
                    -0.058395239998015897,
                    -0.07193489608054386,
                    -0.05806913919255053,
                    -0.06867279380276341,
                    -0.0058415477671528389,
                    0.00490361769925023,
                    0.02375886046223033,
                    0.01860209727506848,
                    0.05289221069037189,
                    -0.004740725449225991,
                    -0.007624565676032782,
                    0.04299590299969683,
                    0.04178354917657363,
                    0.05292514034366845,
                    0.014276877598944141,
                    0.005120779557264138,
                    0.01922632433387972,
                    -0.005214114947972508,
                    0.04937118394454441,
                    0.026396069958691538,
                    0.04392378559120784,
                    0.008479090695624704,
                    -0.013138556933604579,
                    -0.041424813743321787,
                    -0.06203279460608025,
                    -0.09596936825185729,
                    -0.08630537075773927,
                    -0.10255244309369213,
                    -0.10087398034226787,
                    -0.07671397553844511,
                    -0.027108312514023088,
                    -0.042153651860554048,
                    -0.057648920447187137,
                    -0.025469353566887958,
                    -0.020258875817388827,
                    0.06308448075116006,
                    0.03869013532052581,
                    0.04979400026928925,
                    0.01761205866844991,
                    0.03855396154705487,
                    -0.005136650414436602,
                    0.05545426367918848,
                    0.044402779110488139,
                    0.02881978611831883,
                    0.031348639972643,
                    0.01259587511275771,
                    -0.024785386723030588,
                    -0.008672809103524776,
                    -0.027682148999587546,
                    -0.013016210174972084,
                    -0.013943915392493676,
                    -0.028636732848948723,
                    -0.018002843009922055,
                    -0.06485327404101055,
                    -0.09189288210504147,
                    -0.058456118812264607,
                    -0.08513068440551314,
                    -0.053677724651333549,
                    -0.05700140479952202,
                    -0.010628338402574199,
                    -0.037022942237310219,
                    -0.024575325409408635,
                    -0.012483151640027682,
                    0.052626097371254499,
                    0.03494759411706634,
                    0.010071668960351952,
                    0.026030621548684669,
                    0.031228120278620185,
                    0.04549899014155504,
                    0.04413550150241037,
                    0.005500202124905369,
                    0.028570246633840999,
                    -0.006883318725350476,
                    -0.007127249653219545,
                    0.023248018112067907,
                    -0.018450331003208199,
                    -0.027025758613782124,
                    0.021916061287135009,
                    0.029629543338025103,
                    0.06025920843645948,
                    0.00016583253547858813,
                    0.004530326243890106,
                    -0.02018771462520246,
                    -0.057040379590238329,
                    -0.06878623795271893,
                    -0.037649221733488207,
                    -0.0730825625997892,
                    -0.05857982643649,
                    -0.03314359580115261,
                    0.0249782163845603,
                    0.0181541401782256,
                    0.014952494532272992,
                    0.03169874872152007,
                    -0.02653679351298606,
                    -0.0003277685508989095,
                    0.026162641628347053,
                    0.06178480919976668,
                    0.008766289651568551,
                    0.021485665143025479,
                    0.02023184836436145,
                    0.0007052163916813723,
                    0.016109100774239557,
                    0.013047412517515886,
                    -0.0004940926596908252,
                    0.06771881094702471,
                    0.08411870177981409,
                    0.12771042572696218,
                    0.09808360803238156,
                    0.10923861138542546,
                    0.12806967786696339,
                    0.03953009332306832,
                    0.004912563147278554,
                    -0.033591855815527909,
                    -0.05709263718629175,
                    -0.0633270838339228,
                    -0.06663703229210712,
                    -0.04218432989778859,
                    -0.03213649153483139,
                    -0.05626932403286011,
                    -0.023500586256414717,
                    0.002462505279464486,
                    -0.003469928041749722,
                    0.023564168011631895,
                    0.0070865009738842999,
                    0.02097256233848202,
                    0.046243331306343917,
                    0.04099228424735531,
                    0.0193770652625874,
                    0.068114435336563,
                    0.021846077698838438,
                    0.06755751924079659,
                    0.057850552079593619,
                    0.059169782196423829,
                    0.1296156986787919,
                    0.17815221440427946,
                    0.22785218639981986,
                    0.1869051026990161,
                    0.1276324252460154,
                    0.10415772724668315,
                    0.033963620991717107,
                    -0.003490291995328249,
                    -0.027087698895746565,
                    -0.08175970013111074,
                    -0.047462373460984,
                    -0.04907892566521568,
                    -0.0696300044077936,
                    -0.03972813399791605,
                    -0.004590962433700636,
                    -0.012299430733195461,
                    -0.005312381446691935,
                    0.014141924022481333,
                    0.021811171708473705,
                    0.04772135749874458,
                    0.05685539719240457,
                    0.0310090697698962,
                    0.03507919128959481,
                    0.02742403915478888,
                    0.05503387917655313,
                    0.03552341010724866,
                    0.09199830488982076,
                    0.12133312315718699,
                    0.1627291817657249,
                    0.20779923140302784,
                    0.2083687755945002,
                    0.18958374271418719,
                    0.18403143423323499,
                    0.11645429844573335,
                    0.06068849087238997,
                    0.024217161665962229,
                    -0.004649241321248549,
                    -0.03822366634953406,
                    -0.06317835073132021,
                    -0.09252660090496753,
                    -0.08085481960868026,
                    -0.04124549705819933,
                    -0.03465128383254699,
                    -0.00874219935194433,
                    -0.03631408237017969,
                    0.007787932889240999,
                    0.048513345542733638,
                    0.04023445198795141,
                    0.040688722112524149,
                    0.05144926932331876,
                    0.02665452702643498,
                    0.061618441961034487,
                    0.058679094314809939,
                    0.021320663240833878,
                    0.0836372809258495,
                    0.08870123147730336,
                    0.1216551191684112,
                    0.18128494097383206,
                    0.16327687402810354,
                    0.18113036125645025,
                    0.16290793535610835,
                    0.08892641962255052,
                    0.07307459547209869,
                    0.05254068324903622,
                    -0.027260888439275978,
                    -0.06772113106839439,
                    -0.09478138623041949,
                    -0.056162595306571676,
                    -0.04757587547522245,
                    -0.0366377863543199,
                    -0.06732726778903131,
                    -0.026055708250806436,
                    -0.00892988805692609,
                    0.03207081000420717,
                    0.012271362142487485,
                    0.02661397216948349,
                    0.07725918860987079,
                    0.06699760803246559,
                    0.09419545031215349,
                    0.03466685454025785,
                    0.0891819880112164,
                    0.06608359635078655,
                    0.05478914596866285,
                    0.04673251635103169,
                    0.05275219400309614,
                    0.058209816546794298,
                    0.10181142647604442,
                    0.12338090167777156,
                    0.09483587897025595,
                    0.057753990961348169,
                    0.046997557426593668,
                    -0.03193570603975767,
                    -0.06447463936327465,
                    -0.014312324141124104,
                    -0.05896373624470259,
                    -0.04679309824432545,
                    -0.030320008036171094,
                    -0.03845456336231598,
                    -0.012443734930741668,
                    0.01582087944199708,
                    0.03429246339613923,
                    0.0057049902877624228,
                    0.023524577737545267,
                    0.037405010447275548,
                    0.07452762195433308,
                    0.05087978141103726,
                    0.08224106491466898,
                    0.0775807128526127,
                    0.05020173925878533,
                    0.084704996832534,
                    0.04186126721095999,
                    0.03318549707084483,
                    0.043728367226338677,
                    0.017416101612354286,
                    0.038719237799062247,
                    0.04888227245326731,
                    0.06431651135365664,
                    0.04662715214682986,
                    0.004081006153007269,
                    -0.029656742125061209,
                    -0.06156726366717084,
                    -0.04966672124414694,
                    -0.007987594435089793,
                    -0.022875985380201848,
                    -0.030182153869703904,
                    -0.056729145913480567,
                    -0.012747260616074997,
                    -0.00796703600295778,
                    0.004777165954310998,
                    0.0036722046562854906,
                    0.02929988900688314,
                    0.04908920030078085,
                    0.05863642749613225,
                    0.0890555352053614,
                    0.04166205351908756,
                    0.0722114850577607,
                    0.041229096128896667,
                    0.06319356488277746,
                    0.03711902760098029,
                    0.03627884075960694,
                    0.040966767868954877,
                    0.014376390489755564,
                    0.08825836450331845,
                    0.05423363483276705,
                    0.026156785851094379,
                    0.054160460743957489,
                    -0.015427940125818645,
                    -0.000021297764249452033,
                    -0.02744950357163795,
                    -0.015425784197642552,
                    -0.017709824164457836,
                    -0.04733855811958619,
                    -0.08930748859541436,
                    -0.01231421088282986,
                    -0.03259483799148141,
                    -0.001027512767478021,
                    0.030080562159938989,
                    0.03435355565837688,
                    0.024663879365695614,
                    0.06493043133234848,
                    0.08595557495306192,
                    0.032192572104789467,
                    0.027202226040995617,
                    0.04323373611254072,
                    0.015698061957659216,
                    0.0093970443069385,
                    0.020574281994514049,
                    0.027624113464777366,
                    0.02250213748684743,
                    -0.001785678165179736,
                    0.025397163644379045,
                    0.0038440838359232469,
                    -0.0026124266143810416,
                    0.021063205234728434,
                    0.00008913309668309555,
                    -0.04339908955643123,
                    -0.01311121138403178,
                    -0.057238969455603427,
                    -0.04441176583253722,
                    -0.04698794004687849,
                    -0.04589709253998874,
                    0.007474193887602084,
                    -0.027278986655117154,
                    -0.007915623514541712,
                    0.002459142595751348,
                    0.008767744602930195,
                    0.033462180125690289,
                    0.06990805455457042,
                    0.06290549493748006,
                    0.056939876007714659,
                    0.04208561115896186,
                    0.028061411572666039,
                    0.08680746653307596,
                    0.05055850263908903,
                    0.04556035549994207,
                    0.04970890116931131,
                    0.029174112733969864,
                    0.05740562556367834,
                    0.03420916417880489,
                    0.056467483245892218,
                    -0.03120004747993454,
                    -0.0398820044055973,
                    -0.013825536624389363,
                    -0.07910387393716183,
                    -0.02095534441148332,
                    -0.03099935339517949,
                    -0.021116414485182687,
                    0.00048669922650530046,
                    0.006109094730535785,
                    -0.020850322868294685,
                    -0.002488548333115886,
                    0.01852327574420623,
                    0.01807643240250874,
                    0.011016084030157152,
                    0.03761354244331857,
                    0.04983100864701136,
                    0.06622591354281746,
                    0.06703330841127109,
                    0.04977977715782712,
                    0.028117203013638404,
                    0.05939838034299219,
                    0.06280268012785737,
                    0.07918192948131031,
                    0.04098057263488935,
                    0.03238764223489201,
                    0.04893125822467296,
                    -0.01443195751285601,
                    -0.0019481740599044003,
                    -0.01143417535599936,
                    -0.04217439749076463,
                    -0.02994934618111718,
                    -0.005898946791005282,
                    -0.01649720799772049,
                    0.00014864074524556346,
                    -0.0035702122561637546,
                    -0.0051966177896656949,
                    -0.004622451258179718,
                    0.0019802506240203388,
                    -0.018250668242247169,
                    0.012731412460429722,
                    -0.005412506218436161,
                    0.027484899048142224,
                    0.06171862145764664,
                    0.06600297955392959,
                    0.08224398991758282,
                    0.07013148478941274,
                    0.0638957539207025,
                    0.05677243776797905,
                    0.05386750719717994,
                    0.06558457054299277,
                    0.08329374802759569,
                    0.0666974995857797,
                    0.06065351891311376,
                    0.013354684643298089,
                    0.03162909674739679,
                    -0.01947204103773646,
                    -0.02890719511869017,
                    -0.055876791752501066,
                    -0.0413589605894228,
                    -0.033632587282907567,
                    -0.04348647453493632,
                    -0.04605711034072869,
                    -0.03181893464092275,
                    -0.01888496849016493,
                    -0.005583172230830562,
                    0.004174547844467009,
                    -0.007180618575488262,
                    -0.006640790578320764,
                    0.042613392658816817,
                    -0.012425303814510198,
                    0.02759135835110915,
                    0.02057634434541637,
                    0.05619714803989936,
                    0.06110011233098449,
                    0.0622735463331731,
                    0.04797310956526358,
                    0.07728981050672441,
                    0.0447997668180821,
                    0.03738645309072319,
                    0.06635354106974477,
                    0.015264615757495378,
                    0.01871588295348244,
                    0.02692071190714252,
                    0.011124787404797032,
                    -0.037523583994200377,
                    -0.05866196442825441,
                    -0.03880822666440852,
                    -0.05764195799095441,
                    0.013867005613706862,
                    -0.023795082236032336,
                    0.005930819073245388,
                    0.016947443043484116,
                    0.02346862270014879,
                    0.021859972167279648,
                    0.0118064327141871,
                    -0.02326801792480627,
                    0.0008414742053286432,
                    0.010701886712648696,
                    0.024678699797239278,
                    0.01848505455317263,
                    0.029693835806625016,
                    0.07665578258639436,
                    0.033797812744437268,
                    0.03189118572976989,
                    0.07316289761659307,
                    0.02950772178180708,
                    0.027969479019469648,
                    0.010263343055968828,
                    0.026934892560721178,
                    -0.0014405545741754426,
                    -0.04369370574029621,
                    -0.05146229533567413,
                    -0.06965498391503466,
                    -0.04238303484831543,
                    -0.07672438453882478,
                    -0.05508211742427213,
                    -0.012399032331165792,
                    -0.0013560930773063858,
                    -0.016208765298138675,
                    0.0021181710006368756,
                    0.007736607497005527,
                    -0.017062522973371315,
                    0.003972167649074731,
                    -0.021277725191427876,
                    -0.0011546761253381226,
                    0.00005756790196234217,
                    0.02371573204965047,
                    0.04047500205583674,
                    0.04860289084509515,
                    0.057352135771019257,
                    0.03291909765290276,
                    0.04719112467860584,
                    0.06173060360446725,
                    0.027041565203569437,
                    0.018901757739719604,
                    0.016117773616784824,
                    0.0017869489925391263,
                    -0.006376590843797576,
                    -0.0328509377293631,
                    -0.039250591961703707,
                    -0.06419948208920735,
                    -0.07529404730378461,
                    -0.06802233832770788,
                    -0.08043121852294191,
                    -0.02495599510406621,
                    -0.010706933562548465,
                    -0.0034086480587485776,
                    -0.026154760616784679,
                    0.012895087072678587,
                    -0.009201274962650275,
                    0.011487740685359896,
                    -0.0094275465184073,
                    0.0010874678914942283,
                    -0.02843162582221653,
                    0.023430778184238268,
                    0.00043193835580946033,
                    0.01006583876517433,
                    0.007823903426920015,
                    0.02161962317573882,
                    0.014488232332033082,
                    0.010222042353949843,
                    0.03513849366093328,
                    -0.009214742463347624,
                    -0.0021177614063243408,
                    -0.0030745711029502816,
                    -0.0063020412228593229,
                    -0.05441545937404656,
                    -0.10371180373993189,
                    -0.08246363183246466,
                    -0.06488053564537982,
                    -0.040717533129362,
                    -0.01885162783461963,
                    -0.003353370318327098,
                    -0.007168542086055567,
                    -0.005743290971943063,
                    -0.044281866312250849,
                    -0.005483255813357652,
                    -0.046543877671862469,
                    0.008351834845172378,
                    0.024311855897545866,
                    0.0072131878086378439,
                    -0.02867901978187723,
                    0.03186650775584328,
                    0.017933357306331906,
                    -0.003892235297599125,
                    0.02384592023872857,
                    0.04615457810184252,
                    0.0014598586601855615,
                    -0.002840763378662413,
                    0.028636661611660766,
                    -0.007611591938046583,
                    -0.044075082795261549,
                    -0.042432917126607069,
                    -0.05416272784528433,
                    -0.07419187045412937,
                    -0.06122954679105192,
                    -0.08319463145334182,
                    -0.09021774447005063,
                    -0.06242723035318464,
                    -0.04806244427145273,
                    -0.027181520866808856,
                    -0.012135070859483588,
                    -0.00494037287926963,
                    0.01294703203703058,
                    -0.028361360977467916,
                    0.005922192698468573,
                    -0.013207498574559829,
                    0.00005592290976521504,
                    -0.0013277500506089593,
                    -0.014038771811068964,
                    -0.03210132019876683,
                    -0.017759312133096746,
                    -0.012470210667688988,
                    0.012989034331436269,
                    -0.008579347631917612,
                    -0.0017091164979439026,
                    -0.0018369266603126226,
                    0.004945807609723326,
                    -0.011545728057023973,
                    0.01717311417647457,
                    0.011376681088926623,
                    -0.012547464285714015,
                    -0.023109019327137129,
                    -0.024288980981530249,
                    -0.008274146283537936,
                    0.006761368323354409,
                    0.0011296210114551144,
                    0.025130291312215375,
                    0.018950401708652817,
                    -0.017434624135203429,
                    0.01639423422557642,
                    -0.002382825180873692,
                    0.007275842764373952,
                    -0.022242072944727834,
                    -0.0024030408679365548,
                    0.007551333494535274,
                    0.006020563929194033,
                    0.002698400015330173,
                    -0.01908797877644201,
                    -0.008897016534736119,
                    0.002561973084426223,
                    0.007276191125177642,
                    -0.0305903138795451,
                    -0.03533922875904437,
                    -0.02384557751579393,
                    0.005132186556454086,
                    -0.03158573556057452,
                    -0.024938136229057423,
                    -0.03569382119567911,
                    -0.023842272983885625,
                    0.016824938774650246,
                    -0.011766960881749516,
                    -0.008832986670551041,
                    0.010116036591235502,
                    -0.004965976606625872,
                    0.014284321050242065,
                    -0.00040107004736599134,
                    -0.011335904759320106,
                    0.0010969578982633158,
                    0.008089827070202395,
                    -0.00893744951556869,
                    0.01279000544597011,
                    0.00681842627452301,
                    0.03180795571719997,
                    0.018094396402105089,
                    0.010115674575452493,
                    -0.017742002584471344,
                    -0.02428540823548404,
                    -0.06797697989732857,
                    -0.02050772594984935,
                    0.003512994706828058,
                    -0.027270739199396308,
                    -0.07128393343053992,
                    -0.03401116794025963,
                    -0.035271642070529279,
                    -0.05697553585966757,
                    -0.022340175136115759,
                    -0.03831235742655188,
                    -0.017651259531491913,
                    -0.004067005146200186,
                    -0.03432365491495159,
                    -0.001164279603748096,
                    -0.04926711884744039,
                    -0.030913435474392949,
                    -0.007021048449625265,
                    -0.023398431320208244,
                    -0.0003381748333180566,
                    0.029750057227323987,
                    0.022848599559704476,
                    -0.00555273017590133,
                    -0.004552941217804204,
                    -0.00649380397454169,
                    0.002738536923203976,
                    0.018382658574504854,
                    -0.023133948365751449,
                    -0.018923494264581166,
                    -0.03440119530757128,
                    -0.060778503927526188,
                    -0.057307705882434379,
                    -0.04405467492484066,
                    -0.1036814428669017,
                    -0.04873325029525677,
                    -0.017346087218610159,
                    -0.02797084409585118,
                    -0.05132757030056025,
                    -0.05035857835451179,
                    -0.03173178378050136,
                    -0.010246643058216777,
                    -0.014185290976432506,
                    -0.016136772304813607,
                    -0.05385845536169336,
                    -0.03235661720939521,
                    -0.027061586857289593,
                    -0.020878781786895847,
                    -0.02358719602111281,
                    -0.033949756344242968,
                    0.012421005854971053,
                    -0.01987375373055785,
                    -0.012661746653433313,
                    -0.007119750217745438,
                    0.01936452740344472,
                    -0.020611889186805709,
                    -0.022820081933377056,
                    0.01325773783897336,
                    -0.016990141965948399,
                    -0.04726478755416256,
                    -0.04765763455008935,
                    -0.06454832337637298,
                    -0.08350725695300294,
                    -0.08718443511564403,
                    -0.04000029523498114,
                    -0.03455529300117686,
                    -0.022238729443229016,
                    -0.037219966946223859,
                    -0.04938361925675887,
                    -0.018356457588642604,
                    -0.027736188818861149,
                    -0.06042764126548662,
                    -0.05336263104166125,
                    -0.034292442663693568,
                    -0.02764460585590158,
                    -0.012416610154518457,
                    -0.022509746544386357,
                    0.007257642240876119,
                    -0.004112175521198926,
                    -0.003291570959195685,
                    0.025811796435442546,
                    -0.016072115614958368,
                    0.011214781206319032,
                    0.012361784190511892,
                    -0.022829276066647087,
                    -0.001780426595098764,
                    -0.049513261968718549,
                    -0.046426021149751969,
                    -0.020729538756616929,
                    -0.03650042523723924,
                    -0.018793390599855004,
                    -0.05233876194653445,
                    -0.08556614514559216,
                    -0.07549269529970058,
                    -0.038258473891399007,
                    -0.04757080510567567,
                    -0.041751545223631159,
                    -0.045753268384511807,
                    -0.02148476703175164,
                    -0.0672615545401226,
                    -0.04150471591304801,
                    -0.07468638308999659,
                    -0.06330596331512487,
                    -0.04298087449746842,
                    -0.00461238495308596,
                    0.0018283563627552375,
                    -0.06371058442016182,
                    -0.003978908380521149,
                    -0.024270601709484465,
                    -0.020031990118222065,
                    0.026460362695744017,
                    -0.011547068323442019,
                    -0.005097173214042905,
                    0.02250923468430988,
                    -0.0013356622888707133,
                    -0.0018424327147784725,
                    -0.017356781630034333,
                    -0.03967459799565233,
                    -0.04383808438847707,
                    -0.05767019961364943,
                    -0.03247789259061208,
                    -0.05705408172408912,
                    -0.043531249161066289,
                    -0.04014843240976722,
                    -0.055034075477241619,
                    -0.05690442735159327,
                    -0.050581945642124547,
                    -0.07134486561709982,
                    -0.07326920698916918,
                    -0.08056992012560536,
                    -0.06553076228708953,
                    -0.0700252222924156,
                    -0.04420676613437238,
                    -0.04247349611165823,
                    -0.07305946299971927,
                    -0.01322373866191351,
                    0.014709206774702808,
                    -0.022335607600263795,
                    0.006770591814445718,
                    0.025774704351234764,
                    0.005704125893001583,
                    0.017123848289954219,
                    -0.04363417560316669,
                    -0.022256270904083429,
                    -0.04684834949294718,
                    0.04009996975166602,
                    0.014727701722292545,
                    -0.013491308949038788,
                    -0.009265754485808017,
                    -0.028372527331425057,
                    -0.11343512540850596,
                    -0.06883036722286616,
                    -0.04924502117502405,
                    -0.07012168987100155,
                    -0.09774191698443775,
                    -0.09494876755457756,
                    -0.10805054653571339,
                    -0.08814687087960988,
                    -0.10284080573992584,
                    -0.10696735379671961,
                    -0.07840370601869945,
                    -0.07015087498436615,
                    -0.051545812320634386,
                    0.00777336777158416,
                    -0.009865228579784292,
                    -0.0021354836559241785,
                    0.013634967955693073,
                    0.02766983342115478,
                    0.029767594380706528,
                    0.05832546115925354,
                    0.017904379156287559,
                    0.0267351010051868,
                    -0.000019241473351041226,
                    0.055795931227602488,
                    0.019203562327230526,
                    0.030765620662757129,
                    0.01697421243841883,
                    0.008700583366817333,
                    -0.042030461915442147,
                    -0.04398173951020731,
                    -0.02112692660537005,
                    -0.050800437719261608,
                    -0.06396877908778721,
                    -0.08533195907026335,
                    -0.11086567014156707,
                    -0.12958693367534999,
                    -0.09814336869017559,
                    -0.07516287279283271,
                    -0.05663082520244726,
                    -0.0029779003278957284,
                    -0.032621287937416847,
                    -0.015245645785677248,
                    -0.0007245515891245906,
                    -0.028222622344616607,
                    -0.022318312019021744,
                    0.03376750100402904,
                    0.058672718442181328,
                    0.07345766010836627,
                    0.06848223597659802,
                    0.030271298898605298,
                    0.07930293550359186,
                    0.07721619821525196,
                    0.08527284717438223,
                    0.0605117531286761,
                    0.03040451722709692,
                    0.028791885693877755,
                    -0.008723612279328107,
                    -0.012151132551835914,
                    0.03075947982459671,
                    -0.013407715583467954,
                    -0.014825670063851762,
                    -0.058913401881368818,
                    -0.09699734004266308,
                    -0.1294792240360341,
                    -0.08408992879843025,
                    -0.07239210094017841,
                    -0.10287000707830402,
                    -0.037398282457818458,
                    -0.02873203346924602,
                    -0.012915924558905494,
                    -0.028200911060875086,
                    -0.04786320230980894,
                    0.014682129035739946,
                    0.01614173326965086,
                    0.0304182942291353,
                    0.05162096755959459,
                    0.08020564667906589,
                    0.08792045375554379,
                    0.0883730274138023,
                    0.09902731514746673,
                    0.12505579624505204,
                    0.06837509106455718,
                    0.09721603183065107,
                    0.08570537248897997,
                    0.0862428794782499,
                    -0.017029862948072819,
                    -0.0047994639382226,
                    -0.01698925468840677,
                    -0.0013192899321833353,
                    -0.07550548075857723,
                    -0.07966557031329258,
                    -0.10361448704206265,
                    -0.07207027665995794,
                    -0.06695372583094772,
                    -0.06450224630656752,
                    -0.06057685046094274,
                    -0.041034671504998069,
                    0.006199336399851148,
                    -0.034032474896846829,
                    -0.013720827345229992,
                    0.00761412838602001,
                    -0.0019310902901664106,
                    0.059665758333297149,
                    0.05699740387777844,
                    0.0954627418415919,
                    0.08764059814352526,
                    0.11987239536916268,
                    0.13445612323622814,
                    0.13593505115958483,
                    0.15263799516109406,
                    0.1578799988492059,
                    0.16052275059565594,
                    0.12048807743853063,
                    0.06911830307666929,
                    0.014193602707364859,
                    0.0012273634138991125,
                    -0.015512769608048205,
                    -0.04691934800454319,
                    -0.09045390028711789,
                    -0.09619147322182868,
                    -0.09579049069016786,
                    -0.08239317162237181,
                    -0.08259559021482743,
                    -0.06737574324049664,
                    -0.042644090349552497,
                    -0.03536224336991137,
                    -0.05836761760455708,
                    -0.005086153322114623,
                    -0.02662875096620696,
                    0.025439514909653388,
                    0.0053562695728016488,
                    0.028863494427887386,
                    0.09531795472320459,
                    0.08922116600185166,
                    0.11869264448054066,
                    0.14648081182260987,
                    0.14849114506925333,
                    0.1657973646389262,
                    0.21060283132263414,
                    0.16383485831651474,
                    0.13037110120524054,
                    0.09903136165480529,
                    0.07372599482917541,
                    0.0008833451846663163,
                    -0.009413180906156692,
                    -0.08765812530626724,
                    -0.07924462530795754,
                    -0.13808952783730173,
                    -0.1395703035788042,
                    -0.135677780643688,
                    -0.09211959552359271,
                    -0.09103612663912839,
                    -0.047856648747043668,
                    -0.027214180252876524,
                    0.017280544177171215,
                    -0.017682151485029435,
                    -0.006778019227695541,
                    -0.016340080209816454,
                    0.018965920399445035,
                    0.04496061206805349,
                    0.0794723355069051,
                    0.0524422733764184,
                    0.060717534709558557,
                    0.08056360361250685,
                    0.13147501559461759,
                    0.09336767020487354,
                    0.09446866930024464,
                    0.10799769405585992,
                    0.07573833470468701,
                    0.07155870954207366,
                    0.027825311749358984,
                    0.07101926424259225,
                    -0.004229265651518093,
                    -0.06098871108554802,
                    -0.10008918370200402,
                    -0.09599564390034193,
                    -0.1260476363707399,
                    -0.1318165147712798,
                    -0.11221756041653543,
                    -0.08290644131734892,
                    -0.07330643432051316,
                    -0.05059068598852303,
                    -0.011273699392605105,
                    -0.02896301850913897,
                    -0.014333333213890768,
                    -0.02220734843232674,
                    0.0024114736628125337,
                    0.00489024786293182,
                    -0.014445041141173758,
                    -0.005291183525539414,
                    -0.007944754038268606,
                    -0.04265113028033946,
                    -0.04533219279789057,
                    -0.05092591873060012,
                    -0.008517690030093764,
                    -0.009942774574387593,
                    0.03443177223328443,
                    -0.017918222098969047,
                    -0.02062067299593186,
                    -0.02365626022526197,
                    -0.03489624043323169,
                    -0.03324359895519812,
                    -0.10852506733688529,
                    -0.15480757256783443,
                    -0.11097736620488479,
                    -0.12776460898526019,
                    -0.10986960447732508,
                    -0.07839734978111797,
                    -0.06631977459346617,
                    -0.039239089277873197,
                    -0.05159509104999141,
                    -0.03771305920349947,
                    0.0001143823186678563,
                    -0.048988738459381318,
                    -0.0614482196690694,
                    -0.0260079534604573,
                    -0.047075163034170548,
                    -0.1077407813865736,
                    -0.09153133030528088,
                    -0.1298961119690185,
                    -0.1658314626140511,
                    -0.10381028476038291,
                    -0.12777769041258159,
                    -0.07893808955764989,
                    -0.04373905955771482,
                    -0.01533531471965512,
                    -0.028312050595444409,
                    -0.05871896649674798,
                    -0.07931354792851145,
                    -0.10776045896077516,
                    -0.07630776756398659,
                    -0.11580831776464652,
                    -0.09456449362348873,
                    -0.09214086919635972,
                    -0.114389767470945,
                    -0.09364060825282215,
                    -0.07900205056838024,
                    -0.04643223432204845,
                    -0.013700328968349168,
                    -0.02861436309857517,
                    -0.016145354373075135,
                    -0.002095497338919522,
                    -0.06668481103846458,
                    -0.03704149637831746,
                    -0.09926935751851279,
                    -0.16599990341617569,
                    -0.20039422399072558,
                    -0.23850333394909194,
                    -0.25547155419758368,
                    -0.2450353731165853,
                    -0.2204040319868036,
                    -0.1650334522837173,
                    -0.14862059321770283,
                    -0.08290498316837783,
                    -0.0697940270298463,
                    -0.0998420075242675,
                    -0.05816425693214807,
                    -0.10458896672813176,
                    -0.07424319512439899,
                    -0.10325658159057538,
                    -0.08824114238708479,
                    -0.05017906038010498,
                    -0.04643721826428187,
                    -0.043867217828045246,
                    -0.0396253670087834,
                    -0.030970586549190567,
                    -0.02041427645381912,
                    -0.026656928070699715,
                    -0.02858538006176025,
                    -0.012756960969677125,
                    -0.020852548029526339,
                    -0.05762412373060389,
                    -0.09403170689161498,
                    -0.15134119547236045,
                    -0.2062858637597185,
                    -0.25103305109812337,
                    -0.27395915793959538,
                    -0.24756808287924954,
                    -0.2506517138939218,
                    -0.148768178712893,
                    -0.132223284702761,
                    -0.10073573450929183,
                    -0.06104489704901236,
                    -0.08732486476059139,
                    -0.05140166267658845,
                    -0.020708228610382186,
                    -0.001083107348320536,
                    -0.03829027132982005,
                    -0.05598365923913187,
                    -0.025666655101203137,
                    -0.023192845385873508,
                    -0.014491159734276817,
                    -0.05164981592878367,
                    0.0016807570109671543,
                    -0.013098741582156095,
                    -0.010901166607676467,
                    -0.014140048375035164,
                    0.017222189771013295,
                    -0.0351273029371903,
                    -0.08938909970943056,
                    -0.10449953987215481,
                    -0.11861700109007124,
                    -0.14262501776752677,
                    -0.1997164205207904,
                    -0.1868176055637038,
                    -0.1940918548839278,
                    -0.20803737504659018,
                    -0.1424338870750499,
                    -0.12034380522986127,
                    -0.07403552648501116,
                    -0.050377682559157279,
                    -0.029159266750368296,
                    -0.028887183615327936,
                    -0.0042740558581859399,
                    0.033670520121075356,
                    0.02676394405666254,
                    -0.006305273937600128,
                    0.02719581744567188,
                    -0.02479501884251346,
                    -0.008302747010457771,
                    -0.008608231126653054,
                    0.01727351043000894,
                    -0.01091176771232589,
                    0.003953129790095362,
                    0.022957578351286504,
                    -0.013847647520375366,
                    -0.02533208517614486,
                    -0.07076021203174002,
                    -0.07788856740853711,
                    -0.08101900331238357,
                    -0.0857000544856361,
                    -0.11687378856553574,
                    -0.09482806603276457,
                    -0.1445773453826232,
                    -0.12238265328125687,
                    -0.09496145045414807,
                    -0.12183503023478559,
                    -0.048757772551252288,
                    -0.01525944662936785,
                    -0.003752174184544816,
                    0.020598528258547224,
                    -0.0009194333821986189,
                    0.013796313007152736,
                    0.0033490683810088689,
                    0.010812669262265476,
                    0.011569244636821557,
                    0.011527485579430785,
                    0.005139111787232559,
                    0.010466146461374043,
                    -0.008732425456611517,
                    0.01845175175462883,
                    0.03979928615571486,
                    -0.008267535095869073,
                    -0.011004752487250698,
                    -0.028415001969781595,
                    -0.031792160044255068,
                    -0.02985671438467829,
                    -0.0747109437154036,
                    -0.04596043332787268,
                    -0.06863545092811636,
                    -0.06454261611463744,
                    -0.12379110604748178,
                    -0.10206402444979967,
                    -0.07310010230871528,
                    -0.08547593446599106,
                    -0.08458191634633479,
                    -0.056739219253893389,
                    -0.002222244841471814,
                    0.012214796524820259,
                    0.03622953360279932,
                    0.029634736991067686,
                    0.040330804606142658,
                    0.03316298395422012,
                    0.022824797237907449,
                    0.020808875206498855,
                    -0.000184017400977528,
                    -0.0009271434594235099,
                    0.01662821648482512,
                    -0.0008364667562782139,
                    -0.016997200258010996,
                    0.03556185675579314,
                    -0.03868114177271816,
                    -0.011781955741955942,
                    -0.04842411677109966,
                    -0.06347867095870845,
                    -0.009814191873740044,
                    -0.0481942495052942,
                    -0.041684682814837458,
                    -0.06768001958073068,
                    -0.05979385738475734,
                    -0.0429877112319278,
                    -0.05622169458667138,
                    -0.033606124911951838,
                    -0.06791291833874166,
                    -0.03427902421438554,
                    -0.011423607723804686,
                    0.016180419055311404,
                    0.01049760900696672,
                    0.06254439575865324,
                    0.030188193921091845,
                    0.026791215704210993,
                    0.008888425766696802,
                    0.007451118639597861,
                    0.023644144502856087,
                    0.01015350287268741,
                    0.025497748514445537,
                    0.02635913529278484,
                    0.022745760803920879,
                    0.0038532672786908588,
                    0.00808043317701739,
                    -0.00826768058444955,
                    -0.021536532182968,
                    -0.018446105523558556,
                    -0.0331193639632158,
                    -0.04793587597928625,
                    -0.05168245005773114,
                    -0.026847837749032937,
                    -0.08268898854479674,
                    -0.02727615467764166,
                    -0.020593392939678696,
                    -0.05507762142394899,
                    -0.034364706786177378,
                    -0.006190953103321616,
                    -0.007537856481889636,
                    0.02011899659032032,
                    0.028426573121516527,
                    0.019837949869785617,
                    0.0021004613843372294,
                    0.028332543416837106,
                    0.05462207146583658,
                    0.04055669239073898,
                    0.05644839017765534,
                    0.021740258949924795,
                    -0.04001594950669737,
                    0.05449953210820055,
                    0.010081705819226754,
                    0.006184934331677529,
                    -0.018891144291808744,
                    -0.008849606349463455,
                    -0.03362698676593958,
                    -0.023147888014267049,
                    -0.032417404146627189,
                    -0.013917672170273931,
                    -0.027695182425541206,
                    -0.04017222922261618,
                    -0.08393177719758717,
                    -0.04902600583135674,
                    -0.025707677800461568,
                    -0.0007539173903471128,
                    -0.02003620431224123,
                    -0.06772686378953627,
                    0.01356620914372429,
                    0.01901857816161088,
                    0.0010114356322999733,
                    0.05793762108610233,
                    0.042604725579822758,
                    0.005375592569560119,
                    0.008775647276713574,
                    0.026220564057614694,
                    0.023368197126110686,
                    0.025003537880133647,
                    0.004682536035133185,
                    0.01555588885045079,
                    -0.02466775282647122,
                    -0.013447294573228386,
                    0.02639143694949144,
                    -0.012286882093385328,
                    0.007924294568870229,
                    -0.033590315407866829,
                    -0.04687516705929255,
                    0.00805092415925614,
                    -0.05373500995658536,
                    -0.0007907160756010854,
                    -0.034664213359176788,
                    -0.022055279454749989,
                    -0.039862440017833438,
                    -0.047104891126273338,
                    -0.012240305914974562,
                    -0.005290857166608255,
                    -0.05282689800137397,
                    0.015018426587606429,
                    -0.00012065463621718976,
                    0.007511914808206207,
                    -0.0003396457775028281,
                    0.013977276550903239,
                    0.04088731100625323,
                    0.02189445840161252,
                    0.052776856131812367,
                    0.001533214491794885,
                    0.01701824015116032,
                    0.02383955589466189,
                    0.01586753667467497,
                    -0.0024629474299734095,
                    -0.002607646573884002,
                    -0.011852349123302644,
                    -0.026829528921157566,
                    -0.02607601867426863,
                    -0.013157118876766445,
                    -0.04473808379507768,
                    -0.018451856056182413,
                    -0.019829323640706138,
                    -0.00806182522867161,
                    -0.03083649036729966,
                    -0.0057909423058731079,
                    -0.0011638514509706327,
                    -0.01996335805082628,
                    -0.007138351736720517,
                    -0.00941683658612207,
                    0.006678040334284063,
                    0.014183254906206044,
                    0.015967522593248737,
                    0.014450542807585303,
                    0.01931700884355105,
                    0.0299947010454312,
                    0.02652502556596843,
                    0.019495554212063127,
                    -0.007361613536415227,
                    0.016102090516129574,
                    -0.012902772902996482,
                    -0.016825238194340957,
                    0.0034481681366063424,
                    -0.0003247946847912535,
                    0.005135898656917262,
                    -0.0010089976833294022,
                    0.018769165358922408,
                    -0.013558610962009834,
                    -0.021670494298135957,
                    -0.02458591119072543,
                    -0.004219719479614579,
                    -0.00934452187329907,
                    -0.014778552156176435,
                    -0.02126385586817456,
                    -0.03367932322740914,
                    -0.008011937877900546,
                    -0.0035504422146560409,
                    0.012304337041835659,
                    -0.02573608457202556,
                    0.012133546035132628,
                    0.010037721486627389,
                    0.012292550248609652,
                    0.002355534853112688,
                    -0.0003066436203321409,
                    -0.02033586624860195,
                    0.02328128662561074,
                    -0.0192501611209011,
                    -0.014564074985238769,
                    0.015674360780265518,
                    0.020502086704228457,
                    0.019158826828658529,
                    -0.015729458949660954,
                    -0.00874851559894262,
                    0.005662330011027072,
                    -0.00676784484418457,
                    0.0151516933489362,
                    -0.006359176116569357,
                    -0.03208643209180252,
                    0.026139233104600438,
                    -0.02208835998654743,
                    0.027960823696200268,
                    -0.01517390656911554,
                    -0.009452495835390276,
                    -0.004945718695248655,
                    -0.009378963883057252,
                    -0.0033839656659066087,
                    -0.012522063300837848,
                    0.002582500981702887,
                    -0.015328020999704092,
                    0.025606343937800654,
                    -0.005639061043073616,
                    0.0001327970349803965,
                    -0.0012039712616077404,
                    0.02202496142076132,
                    0.03538726974539154,
                    -0.005798112271405637,
                    0.004670444183668095,
                    -0.03780624553738471,
                    0.015587916821157957,
                    -0.008069157922386154,
                    -0.008884761292766474,
                    0.017571870092624534,
                    -0.003314283771954618,
                    -0.0038083715978525047,
                    -0.005760418709822398,
                    -0.007242740731320839,
                    -0.010116107359166143,
                    -0.009124610719353877,
                    0.010557559825571323,
                    0.010016788289141007,
                    0.021289415433190466,
                    -0.0009796645945070637,
                    -0.02154091605780654,
                    0.003488160123812222,
                    0.029853278576352114,
                    -0.023423916824832633,
                    -0.0010050965346647297,
                    0.0230051978650789,
                    0.016519707313300357,
                    0.0038453440160070766,
                    0.004806523241911612,
                    -0.01533053986036631,
                    0.0024573647596060675,
                    0.0009793622746744917,
                    -0.011287632811386339,
                    -0.004466275546218362,
                    -0.04676978928791907,
                    0.018586019229673613,
                    0.01177359344864478,
                    0.011702473378132383,
                    -0.0050714713668432828,
                    -0.009874136851522185,
                    -0.020958969758519204,
                    0.049842222161501869,
                    -0.016058558475787373,
                    -0.007022279198806738,
                    0.01530854011117314,
                    0.02632376222897338,
                    0.008371858465809223,
                    -0.005309531274137209,
                    -0.011086058050352767,
                    -0.027900436211496267,
                    0.013804029623260538,
                    0.018823347177615684,
                    -0.0022113784510015375,
                    0.013714394824916975,
                    0.03155290732946183,
                    -0.002168542956701831,
                    -0.0338291279175549,
                    -0.007496026594860864,
                    0.009403905822418296,
                    0.009734181900886314,
                    0.02013586911547644,
                    0.0023157053011309458,
                    -0.004250554169342845,
                    -0.018108938605862883,
                    -0.003408068038988941,
                    0.0047962455333266239,
                    -0.02891542038182173,
                    0.015492414451057998,
                    0.038955361912542559,
                    0.02881670092679305,
                    0.04610464160161178,
                    -0.0016328750276857717,
                    0.01497838097090711,
                    0.01680552823705443,
                    0.008270337429330616,
                    -0.003561916604173651,
                    0.06819902030119542,
                    0.032321545329409197,
                    0.006990453553604469,
                    0.03547959650069915,
                    0.0128920593703288,
                    0.009594698387462058,
                    0.01859767392528761,
                    -0.02687170461539543,
                    -0.010804142801614528,
                    0.019067636789731516,
                    -0.020668156873141966,
                    0.02114221001494481,
                    -0.012638859529645625,
                    0.005335517894362867,
                    -0.000582007479795047,
                    0.013797316719331356,
                    0.0032929124660781496,
                    0.007211318538252621,
                    0.030947752902625276,
                    0.012309288393196084,
                    0.011357985673667153,
                    0.05883107836247544,
                    0.018430290791427628,
                    0.04345408398041467,
                    -0.012374752089927076,
                    0.02368837337277309,
                    0.030407343775380827,
                    -0.021679758151898506,
                    0.025303635322807859,
                    -0.014637543069798797,
                    0.0067634723758973089,
                    0.012162060846434748,
                    0.03703021387857419,
                    0.02370427391234486,
                    0.03926985694192156,
                    -0.0030835143748586554,
                    0.002663244578135775,
                    0.010294301963636248,
                    0.018640717989592577,
                    -0.008657005687577232,
                    -0.000762707136008784,
                    0.003788773098827009,
                    -0.012906160616103179,
                    0.0017234172584194019,
                    0.0014280440245568924,
                    0.00599730790008629,
                    0.00966676284233977,
                    0.013033496476001217,
                    0.006763209192972019,
                    0.02065362412965123,
                    0.06581048492277235,
                    0.05407890202791298,
                    0.03241856970227201,
                    0.04929603203121667,
                    0.04705277508884478,
                    0.033345037737256808,
                    0.03592977344240711,
                    0.029025807768968606,
                    0.04441871283831279,
                    0.032539383400213537,
                    -0.010793439667333944,
                    0.05422775004457854,
                    0.024958490424166717,
                    0.01779050866301338,
                    -0.003767564889070349,
                    0.03002823041935238,
                    -0.011804219406311585,
                    0.0259787148335702,
                    -0.019293958140756408,
                    0.008818088121051265,
                    0.006329748096362453,
                    -0.0019448125631140467,
                    -0.02636830657760714,
                    0.0036177236652156755,
                    0.03312516200690578,
                    -0.022782772700381285,
                    0.010536085120279645,
                    0.01840686496032823,
                    0.044963265012938648,
                    0.04522520624909942,
                    0.04366018089463557,
                    0.028993839349657135,
                    0.05724294066007718,
                    0.02578922974424368,
                    0.019718757375817038,
                    0.06261832668380293,
                    0.03879859245600927,
                    0.035915934296742727,
                    0.04120543458826336,
                    0.03725224337689385,
                    0.029995084027346659,
                    0.010001126102190205,
                    0.038056934400362587,
                    0.023894892051170209,
                    0.002121594413149379,
                    -0.008318231778299847,
                    -0.00012761927095722162,
                    0.00992866771710062,
                    -0.026991896817581658,
                    0.02302969494471849,
                    -0.003702039442914162,
                    0.007986147244429485,
                    0.029847484303617855,
                    0.019102872775805768,
                    0.061714545611271907,
                    0.022540241343817225,
                    0.06221904024780546,
                    0.08324809028842013,
                    0.08806080337751807,
                    0.03191564034952985,
                    0.06977578705744254,
                    0.0641409235376956,
                    0.03329542568487017,
                    0.05184227622299206,
                    0.06521946084760135,
                    0.07101430274429382,
                    0.06600247483038994,
                    0.04422908284968084,
                    0.05827665946293686,
                    0.030872826094440935,
                    0.03294801722829329,
                    -0.015660361917085219,
                    0.000936153231384033,
                    0.01700299988201299,
                    -0.001958449993047266,
                    -0.0038412717828288447,
                    -0.004231244391176356,
                    -0.013459589970173028,
                    0.002234377749793766,
                    0.013628226622468336,
                    0.022991661948407115,
                    0.06313456874523584,
                    0.06567896747401639,
                    0.05404382563312399,
                    0.040913990285180248,
                    0.09716642010605886,
                    0.0801011141501003,
                    0.06566408885636259,
                    0.08588936624250059,
                    0.09560137734684225,
                    0.07294612209805562,
                    0.08487330539084344,
                    0.05226181503176534,
                    0.07757007919144019,
                    0.05481190289963985,
                    0.06386167917087886,
                    0.03150044254144813,
                    0.05990299384921692,
                    0.05236719633548718,
                    0.022413064764279453,
                    0.01663091280055124,
                    0.009083680138636232,
                    0.029361128667739584,
                    -0.003037246997227047,
                    -0.013138935472926918,
                    0.004135668638438079,
                    0.018195952267397853,
                    -0.01294528625131744,
                    0.0038422110460912489,
                    0.024151969873061786,
                    0.03955041955665969,
                    0.029357273249714087,
                    0.06950481580392948,
                    0.09037041545827604,
                    0.06945235112310182,
                    0.09631776986941584,
                    0.11339320030495241,
                    0.11351704367469502,
                    0.09560161606776263,
                    0.07874224057354674,
                    0.10689963315407121,
                    0.1200835340417551,
                    0.061805469115451368,
                    0.07352454704401748,
                    0.08483240716433759,
                    0.06338004743163701,
                    0.04042297785981047,
                    -0.0017150262727371267,
                    0.02137025753638405,
                    0.001005790273412858,
                    0.01595063443395808,
                    0.003024109851618654,
                    -0.01576070117265774,
                    -0.017213497379769656,
                    -0.02967841316750861,
                    0.005024254083132723,
                    0.03381134510798679,
                    0.038699677236640337,
                    0.023989296427541646,
                    0.0209267549093929,
                    0.01973619918728827,
                    0.062275631853622028,
                    0.0830494403671233,
                    0.07499855687769833,
                    0.07886687041434443,
                    0.09871058884818991,
                    0.07951389683017066,
                    0.10155381554454805,
                    0.07755845452370729,
                    0.06905431006740018,
                    0.09646265813202681,
                    0.055928878552127758,
                    0.04459830716618799,
                    0.03165528327797262,
                    0.04901470487404178,
                    0.009778413182188157,
                    0.027828090643638505,
                    0.0039211537302163289,
                    -0.0033136115458685529,
                    -0.004648159443116163,
                    0.007726751471875071,
                    -0.0027467932353766927,
                    0.01791228185311093,
                    0.004634014482638978,
                    0.02798946568456876,
                    0.0729471241105645,
                    0.021184311757409144,
                    0.03873177038189375,
                    0.017754394429883529,
                    0.06255995551472164,
                    0.04357679230783037,
                    0.036030432947960908,
                    0.08046676606194533,
                    0.128026183446587,
                    0.07230274625662235,
                    0.08681388268549613,
                    0.1131657541699119,
                    0.05775809861745603,
                    0.07230713712184334,
                    0.0398058331695756,
                    0.05365892154008107,
                    0.019339419089465315,
                    0.06009193225813498,
                    0.023204764307857094,
                    0.06727169666141184,
                    -0.00782995381262145,
                    0.03193585114215128,
                    -0.004312722649060076,
                    -0.010231976555605703,
                    -0.006963306105983619,
                    0.002539566681340416,
                    0.019021548731249887,
                    0.02461461071363846,
                    0.031617667121966227,
                    0.033198647313812928,
                    0.025386543939879756,
                    0.013717194910621808,
                    -0.04470081293663469,
                    -0.0195686523618568,
                    -0.004776373666699691,
                    -0.01842070461933895,
                    0.023632898762065609,
                    0.012502799655740096,
                    0.07776476832127395,
                    0.036191309216525548,
                    0.03946962873138363,
                    0.04871713597791937,
                    0.04925298101190202,
                    0.07321284899964902,
                    0.0755881978510836,
                    0.022941992913527437,
                    0.04883125883085992,
                    -0.00840240735779661,
                    0.001279161978762447,
                    0.046264019742701518,
                    0.008377630063589098,
                    0.009287187396315495,
                    0.039103281588504058,
                    0.025384246696043865,
                    0.036933467962050017,
                    0.007303749802974324,
                    -0.02019684799972159,
                    0.013447069373502334,
                    -0.031564849827686519,
                    -0.04024951043927272,
                    -0.04903337428085754,
                    -0.08403542656945609,
                    -0.05603869986433178,
                    -0.03872416099726065,
                    -0.05437272152497054,
                    -0.00825387315238955,
                    0.01034042196776715,
                    0.0404785617076943,
                    0.02204411819766056,
                    0.04896951356278979,
                    0.055823100601683228,
                    0.00877057100902041,
                    0.027180980001568834,
                    0.031301440929499668,
                    0.024976612422966724,
                    0.030578814435317335,
                    0.02329739576272913,
                    0.0152501966429661,
                    0.006122126573588988,
                    0.030219336994647587,
                    -0.00015553427876790755,
                    -0.015110495759217375,
                    -0.007760495540340707,
                    -0.03088543367217324,
                    0.026162060848569946,
                    0.010682888713625152,
                    -0.04434559894424001,
                    -0.04134181988386558,
                    -0.035288469722896519,
                    -0.04293533890908872,
                    -0.087469389862508,
                    -0.059436976694500157,
                    -0.04399344731388953,
                    -0.06308479203077527,
                    -0.06314917931577129,
                    -0.02725176320577886,
                    0.007063093168195927,
                    0.05020824126037132,
                    0.03372681598022675,
                    0.05355420351886194,
                    0.02189094029210171,
                    0.022845668955862869,
                    0.028303145459782378,
                    -0.018507516555558477,
                    0.013577992932366334,
                    -0.004471400325003607,
                    0.02337810989372473,
                    -0.009174107194582207,
                    -0.021304829709196766,
                    0.02539865494984539,
                    -0.017512448169288695,
                    0.007873992049369162,
                    -0.006601704742720182,
                    -0.04562395653345932,
                    -0.05935938520638598,
                    -0.05189555557471066,
                    -0.06245651461965181,
                    -0.08446778677631471,
                    -0.1146262076386027,
                    -0.07557663654759857,
                    -0.08069665462923043,
                    -0.05597764073672536,
                    -0.02436929193104953,
                    -0.03090185699869587,
                    -0.003941329221036782,
                    0.011083520187898929,
                    0.02308060195400135,
                    0.04919317756168782,
                    0.04332426579369056,
                    0.08174744692705496,
                    0.028031387437459786,
                    0.02910499930005466,
                    0.01863981131291289,
                    0.014801469060519818,
                    -0.01501333711173513,
                    -0.02624327080589039,
                    0.016446570257179668,
                    -0.0006142072223633246,
                    -0.02730461382135568,
                    -0.02538921913330336,
                    -0.019392555279008063,
                    -0.047297892205564958,
                    -0.06178514233628424,
                    -0.06424186336630512,
                    -0.08027099857033926,
                    -0.06155186611629413,
                    -0.09894140558062903,
                    -0.09136500731280722,
                    -0.11472169995919789,
                    -0.08332736546588314,
                    -0.08998343681126084,
                    -0.04250993815611063,
                    0.00912956420687088,
                    0.01939030151006872,
                    0.04417396049263927,
                    0.04968111737479646,
                    0.023563229858662349,
                    0.03217962233962854,
                    0.05063697910560437,
                    0.04621777147169289,
                    -0.008977928408669569,
                    -0.009370298257463704,
                    0.015599431488964675,
                    -0.01722113540254822,
                    0.0012908478522928797,
                    0.01919168863447696,
                    0.006739480814004009,
                    0.0178555446868744,
                    -0.007164617731300472,
                    -0.04463491715823014,
                    0.006491779974216898,
                    -0.02193276870833599,
                    -0.053552888417271859,
                    -0.029581403569536446,
                    -0.050454888980204139,
                    -0.08057720995017945,
                    -0.09601317821993963,
                    -0.0618959521649219,
                    -0.010599649786549481,
                    -0.0023424154091295698,
                    0.03138695722843002,
                    0.02351585535942476,
                    0.043788688631950869,
                    0.04810594827609447,
                    0.033531112636946,
                    0.02680107375715127,
                    0.043403110058485388,
                    0.024728337602089566,
                    0.01731015737372234,
                    -0.020237288742864715,
                    0.029007547551394946,
                    -0.029460533406669068,
                    -0.004090936695228006,
                    0.02968481979948768,
                    0.009910083088014525,
                    0.030208607963550406,
                    0.011149500721182957,
                    0.01332330269700909,
                    0.0040413897177927079,
                    0.023544962242780487,
                    0.01350423730454634,
                    -0.013408116544067695,
                    -0.011159032546810038,
                    -0.033930600238149439,
                    -0.015541318756385783,
                    0.0072184396170326728,
                    -0.003031702418732236,
                    0.017212236347761604,
                    0.04205330402230438,
                    0.014660575066403364,
                    0.029326339592023237,
                    0.07182749053739351,
                    0.0318520522725479,
                    0.020801904653171469,
                    0.055534242412772088,
                    0.032144372303243119,
                    0.03794575983876001,
                    0.007527034581600126,
                    0.017205003036461706,
                    -0.0135854850644199,
                    0.01558817915604599,
                    0.015009659918176894,
                    0.00355869434189935,
                    0.028740820316428468,
                    0.07730980713783004,
                    0.054218017602421387,
                    0.053998800809693447,
                    0.047138998200979147,
                    0.08118567991091129,
                    0.05076695064474781,
                    0.021193483915679966,
                    0.010274142368752243,
                    -0.014199481439699256,
                    0.03776374386466765,
                    0.023589901309213729,
                    0.05922147807294188,
                    0.022385967221433206,
                    0.01312148653890209,
                    0.05520330086145037,
                    0.010970812237658503,
                    0.03402070220484831,
                    0.03764663521098331,
                    0.05786861166328335,
                    0.03109652139814264,
                    0.006437658508275078,
                    0.009690874718237599,
                    0.021392688783858979,
                    0.004015114685204966,
                    0.012566627674395776,
                    0.026596444831909394,
                    0.03863093615179583,
                    0.025867184757440457,
                    0.05839771909843701,
                    0.03803207108361328,
                    0.07038563774803174,
                    0.09644517390062844,
                    0.12328175502486005,
                    0.09641164229028235,
                    0.1190510883473659,
                    0.08701149299142526,
                    0.07445880424426826,
                    0.04148832693026342,
                    0.018628605074456855,
                    0.023331445182204884,
                    0.030150251446146606,
                    0.06518608683872114,
                    0.03861000693200399,
                    0.022599051856554417,
                    0.025809907228051398,
                    0.0003116576427740898,
                    0.023491032698091706,
                    -0.013764193722174774,
                    0.0038944397755466288,
                    -0.05066624006624281,
                    -0.008620157255392223,
                    -0.01434506664854877,
                    0.004538052599220721,
                    0.03020706707255581,
                    0.04389614805233459,
                    0.023648070975945819,
                    0.0675117977178821,
                    0.08557194174300306,
                    0.11086566427666495,
                    0.10060232867094028,
                    0.1200708289706195,
                    0.1344959612092038,
                    0.11626908142976403,
                    0.09203487396816924,
                    0.08179114807284463,
                    0.07093574569538877,
                    0.08033726757040288,
                    0.047046361753185206,
                    0.011169952679827593,
                    0.019128177925980005,
                    0.010544598780977015,
                    0.003596643654527769,
                    0.01732109225579969,
                    0.02891948166975677,
                    0.05025775443945911,
                    0.02179767655213613,
                    -0.010991080639697776,
                    0.015027220971992916,
                    0.011402724233367133,
                    0.006239424413154956,
                    0.012749392002307955,
                    0.003974925977555487,
                    0.025555495902335573,
                    0.03597943479167457,
                    0.04114677043085423,
                    0.0885579076133977,
                    0.10035238848079395,
                    0.10882110463484902,
                    0.09735842685100292,
                    0.1481215128709926,
                    0.12122557894418522,
                    0.09682252827735714,
                    0.07957281619505292,
                    0.12286568653848303,
                    0.058319126419139239,
                    0.05685071657146253,
                    0.03471156954919114,
                    -0.012743940154148082,
                    0.002119632758763772,
                    0.014547433086147555,
                    -0.016203278429384819,
                    0.018694770057105477,
                    0.018812862659163298,
                    0.007326515142009301,
                    -0.0034034542955292638,
                    0.009443122088374045,
                    0.007293074492803255,
                    0.010779844218503582,
                    -0.03339390702410259,
                    0.02159938011074575,
                    0.04030245539297963,
                    0.01906748827982153,
                    0.04909962741578514,
                    0.06794610656517278,
                    0.08562452148665481,
                    0.0913391885354328,
                    0.07191082609595037,
                    0.10919125284296148,
                    0.09920644851572125,
                    0.10117815258491519,
                    0.11391275352249639,
                    0.11472290412330838,
                    0.08148102512267437,
                    0.04750546667122498,
                    -0.006071397580858665,
                    0.005452485271009929,
                    0.010886688824593979,
                    0.017699800240721956,
                    -0.0020206329148632518,
                    -0.023043673320319575,
                    -0.008841488889040793,
                    -0.046849418972640468,
                    0.007347659601541531,
                    0.018748144445235969,
                    0.0036589617618714299,
                    -0.0005141815452841751,
                    0.014409808255813547,
                    0.003036413555418316,
                    0.009153145023648037,
                    -0.007834401429192452,
                    0.008238043013861689,
                    0.025189815974930246,
                    0.055687522105092829,
                    0.08596781915157545,
                    0.10824040485964583,
                    0.08966930023343199,
                    0.08639788873785284,
                    0.07586908925684377,
                    0.08499447182705243,
                    0.053816458350392139,
                    0.06204403713467593,
                    0.04212295406655541,
                    0.027590381358724146,
                    -0.011473744541834834,
                    -0.0027328088836809716,
                    -0.018982145729999804,
                    -0.005218291122322696,
                    -0.030045966181878528,
                    -0.025702947764062995,
                    -0.002545241927981407,
                    0.007261696636719416,
                    0.03257274646840398,
                    0.003834050154648715,
                    -0.039616327595824129,
                    0.01585835401278769,
                    0.015802695401832459,
                    0.017033100994742146,
                    0.026788583831751556,
                    0.01917107505698118,
                    0.04778407676307659,
                    0.07399269371587133,
                    0.0426878870711243,
                    0.03840788210878916,
                    0.05801491636835664,
                    0.09027367971578176,
                    0.07675168578310585,
                    0.06743138403002953,
                    0.037902899103926638,
                    0.08967675712037172,
                    0.03252861774537854,
                    0.04132283235795613,
                    0.010706760915342825,
                    -0.01271645582619794,
                    0.029077215369298367,
                    -0.009559323648113768,
                    -0.006022684959409514,
                    0.00008882309710969161,
                    -0.0024821229586950365,
                    -0.0023989531816578878,
                    -0.018542423341218328,
                    -0.011484321177678265,
                    -0.020626368280264305,
                    -0.009700591457774109,
                    0.008962078531648455,
                    0.0191522228340104,
                    -0.00022069438507112252,
                    0.011130109266349189,
                    0.019528069985005376,
                    0.0024852450816409867,
                    0.05366345705290684,
                    0.0361035579633282,
                    0.06967186530431405,
                    0.0320719013584504,
                    0.06846269413420929,
                    0.07718225975252145,
                    0.028932569857166788,
                    0.06611206495185353,
                    0.040496714888842138,
                    0.005837785012911419,
                    0.018698111142933187,
                    0.017926095285673014,
                    -0.004019734440599759,
                    0.01053748511739517,
                    -0.029945836754313023,
                    -0.014838330786183438,
                    -0.027416045322201798,
                    -0.008882433083124978,
                    0.021092943725747529,
                    -0.026157357544194645,
                    -0.043031456746798698,
                    0.013175782117605973,
                    -0.002457354494345987,
                    0.017991200465514166,
                    0.036811237264383438,
                    0.02517605157238971,
                    0.009836058373127992,
                    0.025726546872852097,
                    0.013289198897023996,
                    0.05573885695998833,
                    0.023896492925515598,
                    0.020013267102775735,
                    0.020567434921857833,
                    0.04828735692263008,
                    0.012730818876889179,
                    -0.020019130938175937,
                    0.062316385766324759,
                    0.03695299776011901,
                    0.004702340621920076,
                    0.01453417729768514,
                    -0.02156307900235297,
                    0.005958054652966019,
                    -0.006595186545706436,
                    -0.008577264361595104,
                    0.0054252736160043,
                    -0.005249664513366322,
                    -0.0019213865112857128,
                    -0.009479293853911643,
                    0.003689780049787217,
                    0.00004531958366998327,
                    -0.005844395406756892,
                    -0.022172127992552295,
                    0.007223057094501613,
                    0.012094178518253405,
                    -0.027814489645471856,
                    0.006915302226528851,
                    -0.010592537650233105,
                    0.011418112488960193,
                    0.010482062356514239,
                    0.04375983298255829,
                    0.03839574393605911,
                    0.05958452186536545,
                    0.020975129674644857,
                    0.03437632995104101,
                    0.03149704022362243,
                    0.030561221598460938,
                    0.030563909418206856,
                    0.009450354387109275,
                    0.014765589268028172,
                    -0.015421468362152845,
                    0.0098759502271854,
                    0.0035638994815545717,
                    -0.010150777562510573,
                    -0.0091222269805756,
                    -0.0026008450550452295,
                    -0.030417114452284775,
                    -0.011408824930238778,
                    -0.0037169372940506985,
                    0.017763299733892819,
                    -0.009302130992834168,
                    0.0093661563079752,
                    0.006916161932678046,
                    -0.011968342843777584,
                    -0.003844651554563083,
                    -0.01958549084971975,
                    -0.038577599254035099,
                    0.009551547515916448,
                    0.009293386937812757,
                    0.01046311866883045,
                    -0.019341745619899276,
                    -0.01077744252571715,
                    -0.0019875677244687039,
                    -0.002305121706230148,
                    0.014512723825200504,
                    -0.002300619980026669,
                    -0.02275666713498178,
                    -0.01094383249528545,
                    -0.03992907053257488,
                    -0.024622339588491486,
                    0.01068240091105737,
                    -0.00825010113834537,
