{
    "layers": [
        {
            "_numNodeIn": 784,
            "_numNodeOut": 32,
            "weights": {
                "_height": 32,
                "_width": 784,
                "_values": [
                    0.008645719669921675,
                    -0.0023111746348113027,
                    -0.017951525234696093,
                    -0.01807039972480661,
                    -0.021197547487658138,
                    -0.0016196269006991506,
                    -0.02983908373603058,
                    -0.004446880721838155,
                    -0.012113247494520616,
                    -0.005045490764915798,
                    0.0019121780413361883,
                    -0.018128527942765986,
                    0.021349133803409329,
                    -0.008774853571175162,
                    0.009065307570630963,
                    0.013765074676730124,
                    -0.0023117228165373288,
                    0.016112454534584418,
                    -0.017874412847002899,
                    0.022473569814241483,
                    -0.010622973533235166,
                    0.004833753266995157,
                    0.01539492916323611,
                    0.006948462080550843,
                    -0.010014661721600324,
                    0.0071742310648881669,
                    -0.015002886004503965,
                    0.03219138732933881,
                    0.0034094975287320349,
                    0.00002229703847445146,
                    -0.021860078169428654,
                    -0.02426188218692808,
                    -0.023311259523588567,
                    -0.006240062581332431,
                    -0.010510349444312365,
                    0.015200625651913073,
                    -0.01908268133363851,
                    -0.0028102230899005409,
                    -0.02695518016620772,
                    0.008697250132666921,
                    -0.009446226103581542,
                    0.0010441227551560185,
                    -0.02566914762659554,
                    -0.009616551499792582,
                    -0.009092202040094337,
                    0.008853450051141328,
                    0.010269343202116203,
                    0.027474334912233425,
                    -0.0031268070846769567,
                    -0.00806831112070336,
                    0.024978237032083778,
                    -0.018027262275447515,
                    -0.002733330093212175,
                    0.013396196616102309,
                    0.006746849767077521,
                    0.01205462956755424,
                    -0.0321610593743166,
                    -0.0053776924344259989,
                    -0.02751112646082213,
                    -0.037991049551584169,
                    -0.01420402654215983,
                    -0.021733106583662885,
                    -0.002027286756155815,
                    -0.00767182201379113,
                    -0.026785691525344086,
                    -0.002856218057232722,
                    -0.04780412874425389,
                    -0.015283700475573202,
                    -0.00875291269721054,
                    -0.01725594329571142,
                    -0.016299699909364794,
                    -0.006455049511917997,
                    0.0017981101680259004,
                    -0.0066553807198086278,
                    0.001058008650767528,
                    0.00020164148254466294,
                    0.003940266763958902,
                    0.01627598757747192,
                    0.019399262304653585,
                    -0.013696493482698979,
                    0.00555510118559553,
                    0.020329284508547458,
                    0.026453566217896235,
                    -0.006574201023662685,
                    -0.0188592490901084,
                    -0.021052373339238724,
                    -0.01664608438366036,
                    -0.03885450927080124,
                    -0.06432854590745545,
                    -0.06752561330076219,
                    -0.026773604550424509,
                    -0.029335575934070724,
                    -0.026064108349318314,
                    -0.032680362241174137,
                    -0.032062330034923088,
                    -0.05759365799984062,
                    -0.021662883322272919,
                    0.013113643487958567,
                    0.011733365505408635,
                    0.03444320788603815,
                    -0.02852336084919069,
                    -0.00996893258689631,
                    0.009954909387510543,
                    0.021071526632871919,
                    0.008415990469548322,
                    -0.00037651832986635586,
                    0.012212906429782386,
                    -0.012816565533550479,
                    0.0020172377273509117,
                    0.001161737798843397,
                    0.0057722781645068109,
                    -0.010168528369171476,
                    0.0008356027619727847,
                    -0.031551101415100767,
                    -0.02378102961844346,
                    -0.041047255785441379,
                    -0.053736554770912669,
                    -0.09312912198603886,
                    -0.0765365732483735,
                    -0.0601168912002983,
                    -0.04204412085091145,
                    -0.05717912065700167,
                    -0.060252956733776907,
                    -0.044786838694275406,
                    -0.04992397475333704,
                    -0.02452495408935948,
                    -0.020106709582799605,
                    -0.047770909138342507,
                    -0.002962941701320475,
                    0.006723295638713517,
                    0.007665985878723203,
                    -0.022587434947237866,
                    -0.0015264494335468988,
                    -0.019165422868453014,
                    -0.011516070536754417,
                    -0.013014262072318728,
                    0.00175841856468968,
                    0.005300380178840248,
                    -0.0025505810985603017,
                    -0.002383656113376396,
                    -0.03342052736285049,
                    -0.002812371346244096,
                    -0.04567080200603261,
                    -0.05983023422565085,
                    -0.09409175029541668,
                    -0.0973328348438737,
                    -0.11683764928370094,
                    -0.07837673283342021,
                    -0.09898729488666292,
                    -0.11257347058757654,
                    -0.06043869472674742,
                    -0.09688157669025364,
                    -0.08660139146618826,
                    -0.05745446470197893,
                    -0.02741866713375986,
                    -0.03760290587548593,
                    -0.01563481833763532,
                    0.00757334128826019,
                    -0.013984021008968038,
                    -0.019830429260353393,
                    -0.04050884752998315,
                    0.009215761767737214,
                    0.00024224759062931787,
                    -0.02026300525372739,
                    -0.010037160360604687,
                    -0.0023333541774895156,
                    0.011515066986657068,
                    -0.006819142372140378,
                    0.0029362284722338697,
                    -0.01943348886127841,
                    -0.0626461550415283,
                    -0.11014227779804022,
                    -0.12123526623674655,
                    -0.14551349466377448,
                    -0.1554319589650778,
                    -0.11927816514369763,
                    -0.14202319720069654,
                    -0.13858794867083303,
                    -0.12419344089799071,
                    -0.13218405821538993,
                    -0.11399817286922832,
                    -0.06110090204100267,
                    -0.07687245414772213,
                    -0.022087226270260129,
                    -0.024413105386805909,
                    -0.04272492872355097,
                    -0.015281038820611373,
                    -0.030159454022576677,
                    0.010112271853655869,
                    -0.010929457515790005,
                    0.01975762138923784,
                    0.018359879155159517,
                    -0.00349265859413043,
                    -0.0009933186965390686,
                    -0.022721717102211406,
                    0.010606181326080116,
                    -0.014215913830065623,
                    -0.055008981334992938,
                    -0.08619499991954727,
                    -0.10876452260278566,
                    -0.14531112913282119,
                    -0.1368892478670226,
                    -0.17047303840834419,
                    -0.20345980666760023,
                    -0.20363072537092176,
                    -0.20127882844971965,
                    -0.17492688731653065,
                    -0.1574702904329799,
                    -0.14220694946870564,
                    -0.09804559313486125,
                    -0.11042993339616263,
                    -0.06030787047789416,
                    -0.05468147996085484,
                    -0.036729586661627119,
                    -0.044807077432825307,
                    -0.07482885729026098,
                    -0.019926266385658109,
                    0.033667776416707439,
                    0.008151095790069625,
                    -0.007845954378229157,
                    0.034460883984191729,
                    -0.01606901258477216,
                    0.03384664316369647,
                    -0.0035844071837768454,
                    -0.0349540130528979,
                    -0.040273426140649947,
                    -0.07717769885716834,
                    -0.15040176428011976,
                    -0.14672082667876036,
                    -0.17133544211368449,
                    -0.18637828112848218,
                    -0.2648082966392393,
                    -0.23970198364903876,
                    -0.24870288701693783,
                    -0.2208083252167418,
                    -0.2248976651269843,
                    -0.18309314993044965,
                    -0.09978278046650449,
                    -0.10733752894305084,
                    -0.14666165900516249,
                    -0.15087250482544235,
                    -0.1247107280242051,
                    -0.045124235426960489,
                    -0.05103767252469914,
                    -0.013323500389945778,
                    -0.03623859352551437,
                    0.0065221549525520138,
                    0.0201842063581577,
                    0.033007698682452627,
                    0.01887935381784051,
                    0.013798476775302129,
                    0.007880998405662567,
                    -0.0064421560387734,
                    -0.03466851053639187,
                    -0.07747713106832383,
                    -0.10484433017007922,
                    -0.1032553701003109,
                    -0.198783273072989,
                    -0.1889601524509256,
                    -0.24377752526286559,
                    -0.2890121126614369,
                    -0.2521591648184158,
                    -0.29506157415901138,
                    -0.23800057757047125,
                    -0.22494764010213226,
                    -0.16812408442488956,
                    -0.1585434218276499,
                    -0.1765100875333001,
                    -0.17000693836413703,
                    -0.13995013313614006,
                    -0.07630099373092424,
                    -0.06780726069199862,
                    -0.0025853919440856655,
                    0.0013974548595678235,
                    0.014644633331145175,
                    0.07738304914560429,
                    0.05592769612673718,
                    0.06503825594570408,
                    0.025330921291776423,
                    0.012162300505584511,
                    -0.010036333433475162,
                    -0.03867875521398894,
                    -0.05972709589849322,
                    -0.0630211879129129,
                    -0.0882167635645872,
                    -0.15191621476440857,
                    -0.10587712820052428,
                    -0.19845495693206553,
                    -0.23493046353740347,
                    -0.2931543284576605,
                    -0.2750658009808464,
                    -0.24798738592309456,
                    -0.2570523003832727,
                    -0.27497600873879715,
                    -0.23426652637359195,
                    -0.18463325206710044,
                    -0.1663755650693595,
                    -0.08834516056909275,
                    -0.05984734808410039,
                    0.007081072743288105,
                    0.0008008365525991957,
                    0.02839271039831065,
                    0.044609540362788389,
                    0.067330145996184,
                    0.06477137705024862,
                    0.037563006605129987,
                    0.012916315557619402,
                    0.018702885082262707,
                    0.004068085772711925,
                    -0.011348284833089173,
                    -0.030879561504910614,
                    -0.032832970402515228,
                    -0.042537889732310107,
                    -0.0500735413227644,
                    -0.0006929162993857922,
                    -0.06566067479715829,
                    -0.11849376182145888,
                    -0.12283845575456397,
                    -0.14548101170182305,
                    -0.18069172715950067,
                    -0.2054500059570314,
                    -0.18576218402045464,
                    -0.1919181581272678,
                    -0.144131144886401,
                    -0.12750759167461754,
                    -0.13003558046636594,
                    -0.050148105678877109,
                    0.07116936381127054,
                    0.028998015190714728,
                    0.05269684219353399,
                    0.06335184649649253,
                    0.06685083647346912,
                    0.06354445702802303,
                    0.06091136328677733,
                    0.05728329683052594,
                    0.01514421361208332,
                    0.029915795976978546,
                    0.007410244609857723,
                    -0.024236091193607365,
                    0.0005809224606617904,
                    0.009680355579168195,
                    0.04163657187574824,
                    0.07552915220840656,
                    0.0007696149840056682,
                    0.014764735535292718,
                    0.03653067639208089,
                    -0.042036059486627027,
                    0.0138646027596752,
                    -0.036478380761490448,
                    -0.09500375432006816,
                    -0.07277298028088378,
                    -0.035253718095049037,
                    -0.01868826520808349,
                    -0.08697852008365405,
                    -0.016377086257565584,
                    0.03043037207774587,
                    0.04499446438756209,
                    0.03434394990528652,
                    0.07274051062852669,
                    0.026037311378880887,
                    0.044604206615808907,
                    0.04964470656838214,
                    0.0451293488257065,
                    0.06727022650368085,
                    -0.007180449148954741,
                    0.0012282665755037328,
                    -0.047245099311638939,
                    0.0031056337977823135,
                    0.06884944514490979,
                    0.03985667113004019,
                    0.07229401574442543,
                    0.0375431572367699,
                    0.1181754474734336,
                    0.12302948513957116,
                    0.10021685439853608,
                    0.0544226263579556,
                    0.020753915631523447,
                    0.08926931844816236,
                    0.07348216445596523,
                    0.0471986770938481,
                    0.03362755558021116,
                    0.026866885766009327,
                    0.022160941584930394,
                    0.05261756028318018,
                    0.02275849436279374,
                    0.02857141027829432,
                    0.08011884250766908,
                    0.06353618085734753,
                    0.013136389814127028,
                    0.04963148402932526,
                    0.04336727478179773,
                    0.038768202406357709,
                    -0.0070544634226353459,
                    -0.010016959708015496,
                    -0.05524826706899416,
                    -0.032167323651987458,
                    0.021213874058887907,
                    0.00930845597650928,
                    0.02149672200432022,
                    0.06582398075500519,
                    0.11402561261285778,
                    0.11477074132318531,
                    0.13324497133702999,
                    0.08265056116848912,
                    0.09977251851596547,
                    0.09225355493767126,
                    0.10891705678294456,
                    0.05366886785815502,
                    0.01832998056792644,
                    0.03866696336331355,
                    0.02114584312535727,
                    -0.018022380896882064,
                    -0.013314548924046412,
                    0.0052829628016425309,
                    0.07647820899197307,
                    0.0822212420618168,
                    0.02976451407913406,
                    0.046088366937986378,
                    0.033202382442249638,
                    0.03782639364317442,
                    -0.012439659064882345,
                    -0.0077172904740587179,
                    -0.0207335030715925,
                    -0.01802756500131257,
                    0.0030931945562978166,
                    -0.0019630294611431939,
                    0.036068780976223308,
                    -0.013102877884708748,
                    0.058981240488670937,
                    0.04266939634297445,
                    0.11509037426404365,
                    0.1323075039349532,
                    0.09150378691295995,
                    0.10370889545235415,
                    0.11706958896858032,
                    0.08081061060767018,
                    -0.026420273766326886,
                    -0.03902953226495614,
                    -0.022510208967954905,
                    -0.028167241458304027,
                    -0.06903812333790849,
                    -0.025373815068594296,
                    0.005232520118649295,
                    -0.002621391971442457,
                    0.059541627198136579,
                    0.03396697955793024,
                    0.04640820244521257,
                    0.06597497956115935,
                    -0.0011210485936447245,
                    -0.027105388527561188,
                    -0.01369056865764698,
                    0.0009461017657288385,
                    0.042319671328716199,
                    0.0181321255520822,
                    0.014017333271445778,
                    -0.017114598841398759,
                    0.05319342828083103,
                    0.07291180367689143,
                    0.08449465952877437,
                    0.15034480340752436,
                    0.11060768437791673,
                    0.07376133777441688,
                    0.08256893585209223,
                    0.06005487433221179,
                    -0.0471936527176281,
                    -0.11108835453159449,
                    -0.09130743545187443,
                    -0.0808331957552919,
                    -0.05418157953872249,
                    -0.03904534980006857,
                    0.0010593876065669894,
                    -0.010458663564152244,
                    0.014534023131297322,
                    0.03322088789812021,
                    0.024342639586056194,
                    0.04199446118564492,
                    0.02629002045841852,
                    0.017621452104057683,
                    -0.008617210992013512,
                    0.015331483614604123,
                    0.025649036180125877,
                    0.02598892929528969,
                    0.028179429211209845,
                    0.004377906337971072,
                    0.01578126163718314,
                    0.019197144361339844,
                    0.032356209178384377,
                    0.07727710237859496,
                    0.093839562228344,
                    0.07157545775471847,
                    0.03590326612742923,
                    0.008649367020183263,
                    -0.07566035439436943,
                    -0.09458900524022294,
                    -0.062111677533157879,
                    -0.05482598897651564,
                    -0.035896621561030569,
                    -0.02457867295522861,
                    0.056110145982722358,
                    -0.00028852153355449336,
                    0.01596130243510496,
                    0.021673216709878378,
                    0.041151322674096577,
                    0.07288756865301549,
                    0.0320375582404734,
                    0.046497409724963068,
                    0.01720498627691766,
                    0.043068308600975078,
                    0.03500196102179584,
                    0.017493527700946755,
                    0.021605386696143117,
                    0.0065091566624422649,
                    0.0222243370654778,
                    0.017053514831932606,
                    0.015732507669292674,
                    -0.03221256414218628,
                    0.004803840933721241,
                    0.02034702707166045,
                    0.004780775168595375,
                    -0.03835866687352696,
                    -0.004268270094261163,
                    -0.040488802455635668,
                    -0.06676051870972728,
                    -0.07268228134127396,
                    -0.009989727571403174,
                    -0.026565165090794195,
                    0.06302097863027681,
                    0.030484113505787889,
                    0.02405077501834786,
                    0.040652301623685899,
                    0.03946824183091662,
                    0.043958957127285449,
                    -0.004720223511792738,
                    0.035443437413574249,
                    0.013522352487110302,
                    0.01638909589012715,
                    0.026623374517887187,
                    0.043524622609196348,
                    -0.004490287697593394,
                    -0.022512206045108047,
                    -0.025054365123566313,
                    -0.058793585677291908,
                    -0.03803082809726106,
                    -0.024710464008832028,
                    -0.04936182214570866,
                    -0.006527948051054991,
                    -0.03299044605525034,
                    -0.05010734691150384,
                    -0.08980058906195358,
                    -0.0530109330551729,
                    -0.043027371875577157,
                    -0.029524187945097165,
                    -0.005393997065761558,
                    -0.005860476450880957,
                    0.05138958802069344,
                    0.035816896385432808,
                    0.03780517147756966,
                    0.03386608209631871,
                    0.07784407791092553,
                    0.04813366077764885,
                    -0.003998377891493675,
                    0.022082430339492248,
                    0.015373089907218018,
                    0.015753185768543275,
                    0.03702116248694185,
                    -0.01727216156824604,
                    -0.028551414304857256,
                    -0.02844026199315859,
                    -0.005281329235106781,
                    -0.035489904626117039,
                    -0.09253564389283228,
                    -0.042993855140988686,
                    -0.02976009034829452,
                    -0.018434164196685634,
                    -0.06684907959424012,
                    -0.05026266705475577,
                    -0.07568165445226238,
                    -0.0694023429480239,
                    -0.0013792652146068655,
                    -0.010449966459278688,
                    0.018889592132013565,
                    0.003007241134307031,
                    0.04265986741486865,
                    0.03650309719201727,
                    0.04372880031477569,
                    0.029474872221259993,
                    0.024542625826261916,
                    0.039735341146641397,
                    -0.008463885000563288,
                    0.024943124979256695,
                    0.03787706976336918,
                    0.024059251126477996,
                    0.007517273031481506,
                    -0.005402231324285454,
                    0.013200356085325802,
                    0.00983888172042279,
                    -0.010426671406595249,
                    -0.027524077995981678,
                    -0.1156230059176457,
                    -0.06695028043645997,
                    -0.052806903463672467,
                    -0.06044434094846358,
                    -0.04378360402468295,
                    -0.07377258995423278,
                    -0.06502503232306294,
                    -0.061676272804786168,
                    -0.027132741320372725,
                    0.03759740550906378,
                    -0.0021136060635887608,
                    0.03366948581171669,
                    0.0043605980658171909,
                    0.047695355973738858,
                    0.05598425439860366,
                    0.04690294990859662,
                    0.03550150099962686,
                    0.008738204231415267,
                    0.015379416031743138,
                    0.05146265712799256,
                    0.027993921378542953,
                    -0.006102446678215432,
                    -0.002725894431369738,
                    -0.0241047392806245,
                    -0.07941366292239538,
                    -0.051660104934894788,
                    -0.06517653269917116,
                    -0.059372679820683008,
                    -0.059694215803131039,
                    -0.09653384700876762,
                    -0.09840086729162787,
                    -0.037219714674810788,
                    -0.019808186934141125,
                    -0.04113693747901764,
                    0.0031209494133017298,
                    -0.012857107473342599,
                    -0.013762241656221287,
                    0.008048302376822687,
                    0.030326309469192099,
                    0.019985763780731946,
                    0.005033294697572206,
                    -0.009865341601671256,
                    0.0417933716248464,
                    0.016517440363961287,
                    0.017702539018026644,
                    0.04592727783887219,
                    0.0031846054499735027,
                    0.02247347678461847,
                    -0.006413486842097597,
                    -0.01919908993782163,
                    -0.039416873641226129,
                    -0.09366283404921332,
                    -0.06625540987806722,
                    -0.04318711513122769,
                    -0.06710259488495139,
                    -0.01884330492612501,
                    -0.04424793507700786,
                    -0.05845621907486643,
                    -0.02342877582427002,
                    -0.030321101532615199,
                    -0.015506164854244283,
                    0.0013917832484777345,
                    0.007544340987723386,
                    -0.0006374063148202762,
                    -0.038472838797029288,
                    0.019217495147163988,
                    0.015189664798232573,
                    0.010132013233000111,
                    0.028810566632356393,
                    0.03264160487135266,
                    0.028809642719724465,
                    0.02955838556775936,
                    0.030526367018682309,
                    0.003668551652349728,
                    -0.010325458611539785,
                    -0.0051146241235326089,
                    0.02135761517926779,
                    -0.021176838851741415,
                    -0.015486821517950554,
                    -0.049626360339907357,
                    -0.057357562389104829,
                    -0.03460603713036658,
                    -0.02677654444035078,
                    -0.04165287552937135,
                    -0.039663026808998,
                    -0.02048242343003882,
                    -0.043269915677422037,
                    -0.0321043154499537,
                    -0.03930995321604838,
                    0.002125933316539308,
                    -0.032884949996768667,
                    -0.005923798484425579,
                    -0.013004488777958687,
                    -0.025096220850641925,
                    0.01540777459958398,
                    0.035139835946818357,
                    0.0072828616274109489,
                    0.01150809023824589,
                    0.04168454834457362,
                    -0.009866075868640058,
                    0.0032792508836260276,
                    0.002280532042598081,
                    -0.005888294265483902,
                    -0.01776132126193086,
                    -0.010872717054322707,
                    -0.0014445512521409276,
                    -0.03326709817199197,
                    -0.035346621357862938,
                    -0.035295126396979199,
                    -0.055492004090109108,
                    -0.03263965015459338,
                    -0.017998495359683916,
                    -0.031544314653276877,
                    -0.015390331126552176,
                    -0.045154865055404638,
                    0.0008817368634101932,
                    -0.03946708430751478,
                    -0.021207997502723925,
                    -0.03363037032671435,
                    0.00140129489411866,
                    -0.027433003569623205,
                    0.0173288131466527,
                    -0.008326952634771058,
                    -0.0061594225086187988,
                    0.0023104696230885244,
                    0.022467312813480409,
                    0.01246226066321141,
                    0.01861708892095856,
                    0.022229622222193023,
                    -0.00335661090213482,
                    0.0022923990273758779,
                    -0.010790026221781605,
                    -0.019893237479747855,
                    -0.0005811201909440655,
                    -0.001808653195167062,
                    -0.016434599971249607,
                    -0.003400094142272961,
                    -0.014167715402462414,
                    -0.025236951526393764,
                    -0.006653076738553563,
                    0.0025544040224655349,
                    -0.005669613236408856,
                    -0.011120938742772129,
                    -0.021545517056920268,
                    -0.025168241136394797,
                    -0.02330571064768533,
                    -0.00934537288666533,
                    -0.030866392585862158,
                    -0.019387670908551897,
                    -0.009047907736165935,
                    0.023328562327159496,
                    0.021664904122116244,
                    0.005801972692649166,
                    0.020555520325037187,
                    -0.001849233338176091,
                    0.01572022974341259,
                    0.001939320498358183,
                    -0.00382202894372914,
                    -0.011306188297879492,
                    -0.011494947792134865,
                    -0.00964971499921159,
                    -0.005490013621566835,
                    -0.01226019482912669,
                    -0.03122631688660144,
                    -0.00015859378809862022,
                    -0.022754556310663249,
                    0.0012438475808332546,
                    -0.01775858607989539,
                    -0.0041552313430821279,
                    -0.01897528149683609,
                    -0.011350931718917107,
                    -0.016159282263408734,
                    -0.027108830007236477,
                    -0.011493115086166154,
                    -0.03628968959809388,
                    -0.00784881140294766,
                    -0.0012758651530423162,
                    0.028002474085067676,
                    -0.000008024085857402666,
                    0.013702482240608648,
                    0.03617068522463663,
                    0.01267660993611555,
                    0.020650688853566594,
                    0.008456044839266392,
                    0.026384951243300739,
                    0.00618295700695498,
                    0.007581060888982325,
                    -0.011540521997265212,
                    -0.010467451153435172,
                    -0.003910221285817147,
                    -0.006304514197858398,
                    0.006490704108964933,
                    0.0067613033278584098,
                    0.010680933578951465,
                    0.025271336649812894,
                    -0.021993620501986136,
                    -0.017826163292362409,
                    0.004880377589606656,
                    -0.009485766985562569,
                    -0.0102409070556853,
                    0.008466959342462864,
                    -0.008429070379193257,
                    0.020758243581167535,
                    0.017915683405821414,
                    -0.014395710651433884,
                    0.01588693819118468,
                    -0.004009777521508515,
                    0.004579605421667638,
                    0.013176018034853252,
                    -0.011947767596065249,
                    -0.009257095215048596,
                    0.019377319049097329,
                    0.013249763764614908,
                    -0.0015682654182612147,
                    0.015193518275349587,
                    -0.010969884562239203,
                    -0.02374491487002418,
                    -0.006183094121870918,
                    0.004299897794567571,
                    -0.012926067687673753,
                    -0.01943612417144277,
                    -0.016006651614881619,
                    -0.020915313038887153,
                    -0.0008505833327058724,
                    -0.0021938388229570317,
                    0.0011734281847933903,
                    -0.009240033360737992,
                    -0.012594243810694264,
                    -0.007001869795778149,
                    0.03261943218842099,
                    -0.010787503314686921,
                    -0.012592338520363142,
                    -0.0018244506263361193,
                    0.005595332304981715,
                    -0.004289173107038372,
                    0.013432853234967648,
                    0.022517734948283777,
                    0.016657099320345513,
                    0.014008317675469746,
                    0.003741156786110514,
                    0.008150370143284436,
                    -0.01300519661347041,
                    -0.00006570840860154929,
                    -0.01548686671933067,
                    -0.003916868338308278,
                    -0.017931723581821027,
                    0.007329308155431508,
                    -0.013499501712767285,
                    -0.027657013884976306,
                    -0.04331992643371448,
                    -0.0430862989657606,
                    -0.001232966728398936,
                    -0.007942900106220992,
                    0.0032647308628531094,
                    -0.017331143254795238,
                    -0.01866919518720083,
                    -0.010761992203587439,
                    -0.008572865910927316,
                    -0.0006681096393278111,
                    -0.01692412603200552,
                    0.008268128520968733,
                    -0.008359556663294623,
                    -0.011965961305929914,
                    0.012215390121397727,
                    -0.014075883640767397,
                    0.03616666459779181,
                    -0.0035817114993874495,
                    0.009552203572492624,
                    -0.008337471311548309,
                    0.02317629204405678,
                    -0.030195564097664289,
                    -0.0007031696047444917,
                    0.00655840064283119,
                    -0.01920748046322518,
                    -0.03556752555979053,
                    -0.029126003009887846,
                    -0.03669898904203291,
                    -0.04722904278180213,
                    -0.035907314573977968,
                    -0.008712110491188282,
                    -0.02507240443566743,
                    0.0031173942018502996,
                    -0.023990793687541795,
                    -0.02529502581479393,
                    0.00435542198692238,
                    -0.002659461135983359,
                    -0.021786552677999509,
                    0.0013468949506329949,
                    -0.008114778808552978,
                    -0.023510346063137765,
                    -0.003663659734058317,
                    -0.008267209209928276,
                    0.005986529420129591,
                    -0.014752462662243546,
                    0.006676124909038285,
                    -0.00738253521788559,
                    0.006161695148015507,
                    0.0008742722305434511,
                    -0.006739879947744083,
                    -0.0057060578843645529,
                    0.020653412285777694,
                    -0.02734907582196662,
                    -0.009835252999842908,
                    -0.03724673157676105,
                    -0.046384984818802228,
                    -0.042641732047627969,
                    -0.02800887322466066,
                    -0.05982732323197311,
                    -0.01271347033612287,
                    -0.037906526480870398,
                    0.03777906485291402,
                    -0.007347934324655717,
                    -0.02966799868597818,
                    -0.022968875585665926,
                    -0.028369933102313388,
                    -0.02156988053184586,
                    -0.0444367999505886,
                    -0.024322409108947095,
                    -0.023354064962289056,
                    -0.003002953508950415,
                    0.013931085095333215,
                    0.0036926438423023927,
                    0.01467189970403611,
                    0.006459289512086586,
                    -0.007799583425269778,
                    -0.004769223916219441,
                    0.007379824607183442,
                    -0.01220139293476057,
                    -0.02312301615128673,
                    -0.016803071744901006,
                    -0.044211129506144138,
                    -0.054869385752410747,
                    -0.04961544727207383,
                    -0.0481734931378796,
                    -0.09659628103082263,
                    -0.02805592128809115,
                    -0.08650052878470181,
                    -0.017804696347829494,
                    -0.04480671329251056,
                    -0.02235669883931085,
                    -0.04362965647952251,
                    -0.04736625318382919,
                    -0.04569369473799065,
                    -0.042509406139335178,
                    -0.03592727238395348,
                    -0.055388977514621729,
                    -0.04588736944755323,
                    -0.005379161845667786,
                    -0.018792700757961416,
                    -0.009096856213798367,
                    0.004161704637505079,
                    -0.004567431328751453,
                    -0.005700158652181837,
                    0.008161074906612229,
                    -0.015162978431835141,
                    -0.007160910195709612,
                    -0.023738893338979267,
                    -0.001755234425664317,
                    -0.06569537851274714,
                    -0.07527076354676539,
                    -0.05123792710838116,
                    -0.10916580754007802,
                    -0.0703591052738276,
                    -0.06056962913345988,
                    -0.08652646264481216,
                    -0.07081181327280775,
                    -0.08185140928433386,
                    -0.06622177033760207,
                    -0.10631631281506957,
                    -0.0600746395670176,
                    -0.0793969109215668,
                    -0.06602111223881303,
                    -0.06056287417960527,
                    -0.07617610046139255,
                    -0.037574150578379667,
                    -0.012640610701196809,
                    -0.014506931098239798,
                    0.016168175569227253,
                    0.01270276347805886,
                    -0.015046100468644306,
                    -0.026874404395123797,
                    0.00933596764089854,
                    -0.006962923229164382,
                    -0.004539312420141838,
                    -0.03340116845450102,
                    -0.03926787297910832,
                    -0.04603404908520694,
                    -0.04340780941479719,
                    -0.0523387913857299,
                    -0.13421897744373183,
                    -0.09821987098959308,
                    -0.06160964560251717,
                    -0.08773743726555423,
                    -0.05906648289143228,
                    -0.055728287545232266,
                    -0.03765379150398823,
                    -0.04843520982143608,
                    -0.08551922417649985,
                    -0.07703231776036551,
                    -0.08734504098949532,
                    -0.12434892753809772,
                    -0.1235850783393331,
                    -0.07259312189409655,
                    0.023398270246312113,
                    0.04086402548521584,
                    0.010267187390496894,
                    -0.003872328378964095,
                    -0.015224605004646662,
                    0.02984959747846742,
                    0.02895168837050033,
                    -0.03948762703764441,
                    -0.004692950149445143,
                    -0.02004674017632857,
                    -0.07860063331237395,
                    -0.07509514020763,
                    -0.03205577936566811,
                    -0.06760402244395272,
                    -0.127050016067181,
                    -0.08967395043464688,
                    -0.06129470168041884,
                    -0.04535065769015971,
                    -0.08521843171067259,
                    -0.024728413316553553,
                    0.057816315190767398,
                    -0.020150829038365387,
                    -0.04787018074299954,
                    -0.10594026524371408,
                    -0.08898234859349567,
                    -0.027497227487396828,
                    -0.07535000092462162,
                    -0.03456590175086796,
                    -0.01905472752035409,
                    0.012192655354877926,
                    0.07530294946465462,
                    0.03352958487595482,
                    0.05764071925567079,
                    0.03309951868191005,
                    0.023316697832056415,
                    0.0011010099692015394,
                    -0.00841828901744743,
                    -0.040584176318244308,
                    -0.021368160310875685,
                    -0.06322175209209884,
                    -0.06851832323683807,
                    -0.045980004186047,
                    -0.1281870432541768,
                    -0.12913924775685285,
                    -0.06330768512887598,
                    -0.09178308126594047,
                    0.00298636912301068,
                    0.009559489273717437,
                    0.060723429805831,
                    0.026796655943601867,
                    0.03578462527449758,
                    -0.017427000801380819,
                    -0.038619579036143287,
                    0.014071043876524367,
                    -0.03823613332317399,
                    0.03663904681000879,
                    0.059131019301542218,
                    0.07087881062364399,
                    0.08494364708104615,
                    0.07181276234915035,
                    0.0820452871152675,
                    0.04282869143977902,
                    0.03435059961940203,
                    -0.009239893051558545,
                    0.01598664231877431,
                    -0.04883388887114032,
                    -0.06454838609848268,
                    -0.03564054589652324,
                    -0.07482480123234775,
                    -0.05762956102566217,
                    -0.10594996845655205,
                    -0.09518319649651236,
                    -0.07880423582904206,
                    -0.03741127882427048,
                    0.00931359598287353,
                    0.02462300165468758,
                    0.04151460105009877,
                    0.00683670311870383,
                    0.11887737825902749,
                    0.13204544703422006,
                    0.10825884751296551,
                    0.029299731330719313,
                    0.061885689700053678,
                    0.062194249719244958,
                    0.031522226451154728,
                    0.07740321357919557,
                    0.08739448254007297,
                    0.05236622281183007,
                    0.08716702593246832,
                    0.07248482196819708,
                    0.05715900009319292,
                    0.0025575594354619024,
                    0.018818868391248017,
                    -0.024569153695988514,
                    -0.043781272722128349,
                    -0.057869978420279407,
                    -0.0988717727564155,
                    -0.07378365046494789,
                    -0.12206783098450988,
                    -0.0895166009868511,
                    -0.04051860411139852,
                    -0.023483632733569117,
                    -0.0149840911869976,
                    0.010900525305744832,
                    0.13586183273972544,
                    0.08747994208145738,
                    0.1304799894014601,
                    0.13989393785787167,
                    0.0875682053495114,
                    0.08122568982017457,
                    0.09610648066705241,
                    0.05416767341934707,
                    0.057324544472920558,
                    0.09408583542331357,
                    0.0948707452198582,
                    0.08854126983034531,
                    0.08214988175197519,
                    0.10216430838120332,
                    0.05023242406512192,
                    -0.012666675586299538,
                    -0.021906576680300696,
                    -0.005350936015285969,
                    -0.028610633603930664,
                    -0.05381405051320879,
                    -0.07336501460891207,
                    -0.020571023446405307,
                    -0.1424304189147716,
                    -0.09673342774434718,
                    -0.023823318428057996,
                    -0.08469603371573567,
                    -0.03274112877389283,
                    0.002867293992088517,
                    0.056077863918673077,
                    0.09921101513150993,
                    0.12044813531233639,
                    0.17442107816636596,
                    0.016561744300713785,
                    0.007836922583687883,
                    0.027443213439291286,
                    0.044740002578332469,
                    0.049153294421274768,
                    0.09922757212948666,
                    0.061984634502093249,
                    0.07969613519999995,
                    0.08680041815354345,
                    0.10765971216822533,
                    0.0811177683463675,
                    -0.006569924013436788,
                    0.0008811880421494079,
                    0.019158272608892313,
                    -0.00943962538134705,
                    -0.010594099258712542,
                    -0.054575192159957919,
                    -0.07467082033457742,
                    -0.09920726736127912,
                    -0.09925015370221883,
                    -0.07491856929894872,
                    -0.1483857687195466,
                    -0.11451467691911689,
                    -0.06077996353834372,
                    0.04999446924542501,
                    0.1588524668725173,
                    0.17238723927816466,
                    0.14927313980271357,
                    0.11512272094238167,
                    0.05899076402844274,
                    0.07423444415759786,
                    0.024354325742400049,
                    0.01957114593080832,
                    0.11172701550703175,
                    0.11690294190868914,
                    0.11652157478138782,
                    0.09702086657804576,
                    0.08916707605898954,
                    0.06432377014664137,
                    -0.01133950433581746,
                    -0.009188843307029004,
                    -0.021693928441831133,
                    -0.024719465054170204,
                    -0.04181237433913882,
                    -0.04016414733503001,
                    -0.10318473078490832,
                    -0.1072381734490498,
                    -0.12210437426704052,
                    -0.1743124214180487,
                    -0.15056931269633098,
                    -0.1117621145234875,
                    -0.04082484261538331,
                    0.07586220168165944,
                    0.09980190527232209,
                    0.1367257242812865,
                    0.1192677734501245,
                    0.1624224035773488,
                    0.13631603035739854,
                    0.09765535504981582,
                    0.06423065382713357,
                    0.057157663952261728,
                    0.09071895784924189,
                    0.11824410491105954,
                    0.11469847040838439,
                    0.07142495023188954,
                    0.03310133301938891,
                    0.05263684908569046,
                    0.000592779559336754,
                    -0.0003381867133132068,
                    -0.02392108019670541,
                    0.00759355109574849,
                    -0.020738452370611738,
                    -0.013671654718150173,
                    0.00009106400720591376,
                    -0.10877379872621024,
                    -0.09686667755139801,
                    -0.1702656280560935,
                    -0.07238845703649008,
                    -0.05054386567161775,
                    -0.022796036106551334,
                    -0.004742060101352338,
                    0.09731865687313669,
                    0.14733234955287287,
                    0.14325621926359947,
                    0.18054608312549143,
                    0.1984111417632859,
                    0.1290982313553196,
                    0.10564567278444236,
                    0.09155280708607874,
                    0.1004659871507061,
                    0.08729688480835792,
                    0.1251120356431783,
                    0.08234328742229234,
                    0.06404879837271134,
                    0.050108994924253868,
                    0.012623065591804693,
                    0.02338497005286554,
                    0.04617853256987507,
                    -0.009106031155625553,
                    0.028837635768922389,
                    -0.0002773505431474024,
                    -0.07165107566989643,
                    -0.04397576158889696,
                    -0.03945031660722982,
                    -0.06778870693036536,
                    -0.0874854239861628,
                    -0.11256970631778123,
                    -0.1335932925708736,
                    -0.125177911317181,
                    -0.03665318367912555,
                    0.013050446983578542,
                    0.11396815026341807,
                    0.09666008042609184,
                    0.14714668573175955,
                    0.1395705215895174,
                    0.12763269218612798,
                    0.11335947358882413,
                    0.09718907331034128,
                    0.1056974196531161,
                    0.07760663071137609,
                    0.07371994705697313,
                    0.025271608608107417,
                    0.032031396206975298,
                    0.034495170678883798,
                    0.01957849051385017,
                    0.026428069587052035,
                    0.03478675402240336,
                    0.044955968945126319,
                    0.018606355430870644,
                    0.05434899859404746,
                    0.027186352894215908,
                    0.03392626842161989,
                    -0.03533240414593415,
                    -0.08994515099921885,
                    -0.1246402251971815,
                    -0.12989109701018393,
                    -0.1351579309429761,
                    -0.1530086918265662,
                    -0.14483179293533786,
                    -0.03878678237044102,
                    0.019029762858255297,
                    0.05292580379916967,
                    0.07275816498440115,
                    0.10751722231847455,
                    0.09058925041875705,
                    0.033826236594447108,
                    0.03279065283777843,
                    0.052631927823283058,
                    0.018011695581747878,
                    0.0346520829542921,
                    0.03651599209355895,
                    0.016945613276812555,
                    0.056108674628603787,
                    0.04585579200769719,
                    0.03858237900656446,
                    0.07393268709462396,
                    0.045847755243524346,
                    0.06231894889689889,
                    0.08885533832242501,
                    0.05655146969214355,
                    -0.007331127678941862,
                    -0.05583215986805515,
                    -0.1213380950189955,
                    -0.2285717827374308,
                    -0.29011612121658267,
                    -0.23019877162295658,
                    -0.23821212644911986,
                    -0.177261498876286,
                    -0.13652155393746275,
                    -0.0679775533079548,
                    0.02391739761556519,
                    0.03614838160647907,
                    0.026550946847297517,
                    0.07313535111398018,
                    0.05976296156744448,
                    0.056104651607959899,
                    0.03228881894187297,
                    -0.0005656086968688034,
                    0.019343392009006284,
                    0.01647984332443771,
                    0.06120076451510265,
                    0.062133038722303187,
                    0.04668543418987167,
                    0.031905733685828528,
                    0.0637512058945721,
                    0.06293224758162308,
                    0.06239783631587097,
                    0.029991679939991517,
                    -0.07157521918093864,
                    -0.08360762674020031,
                    -0.14476851512296663,
                    -0.20277836519025667,
                    -0.2360056027831043,
                    -0.27813529691912006,
                    -0.23259004772309034,
                    -0.25935545034247178,
                    -0.2518857872012249,
                    -0.16444889082373977,
                    -0.0881328134971709,
                    -0.05401555724771544,
                    -0.045005950106434409,
                    -0.03190691671750007,
                    0.00251149327708266,
                    -0.0016217891111026308,
                    -0.011193232087402966,
                    0.042598591360354227,
                    0.018235988298280476,
                    0.0073113996210652548,
                    0.04064961945801535,
                    0.02983580336099013,
                    0.048585967339764949,
                    0.031624124716992347,
                    0.037354600481494897,
                    0.008471064904134879,
                    0.028061823303956944,
                    0.002558298629351365,
                    -0.013561366494999299,
                    -0.07383762702024519,
                    -0.11129210363350492,
                    -0.20111974518289184,
                    -0.23486716006731987,
                    -0.21530510189246036,
                    -0.20396585632493498,
                    -0.2199458970110192,
                    -0.198438680245921,
                    -0.145151510727726,
                    -0.09210353090368126,
                    -0.06419157454088412,
                    -0.052485084731672747,
                    -0.08735945094274414,
                    -0.0007095806566677924,
                    0.030232368148833668,
                    0.032817010625187919,
                    0.037496793771436758,
                    0.036215463741802327,
                    0.015024101813298885,
                    0.04606143898628172,
                    0.029069362325430414,
                    0.013862477358935153,
                    -0.015925473883395284,
                    -0.0046873346706302839,
                    0.020789007265984387,
                    0.027811248183423077,
                    -0.040851151930644379,
                    -0.04582333859908441,
                    -0.07368728849022265,
                    -0.13372512896060119,
                    -0.17146128406995923,
                    -0.17014875365132368,
                    -0.18930982964137586,
                    -0.14850921426137435,
                    -0.18009097206505815,
                    -0.17206216579433646,
                    -0.1250366428918557,
                    -0.11672933281660723,
                    -0.08524027912676334,
                    -0.07018657366533437,
                    -0.03495922764864639,
                    -0.045449107199218369,
                    0.007549261087942813,
                    0.012088930042409654,
                    0.008508595878508876,
                    0.013699584074523132,
                    0.014076186677244633,
                    0.020774161400898995,
                    0.010738591514287908,
                    -0.03093820795666686,
                    -0.036301160219964417,
                    -0.025381499653587278,
                    -0.03229078076829808,
                    -0.026091476504402974,
                    -0.04603498768826773,
                    -0.08902989782856313,
                    -0.108402540929816,
                    -0.10581293206171158,
                    -0.1479289480814902,
                    -0.14857187853722884,
                    -0.12706481463535838,
                    -0.10935817013551418,
                    -0.10601754378973452,
                    -0.16288914995174468,
                    -0.10876864870344262,
                    -0.12029322346529069,
                    -0.07235819406679894,
                    -0.06847579232166491,
                    -0.029157929293483543,
                    -0.016956886753245534,
                    0.007623733135674613,
                    0.020153809055594508,
                    0.016810329771979179,
                    0.022950169194916115,
                    -0.010433583261383892,
                    -0.02175616601991535,
                    -0.008321456507397454,
                    -0.043265620571433658,
                    -0.018822541582421645,
                    -0.07652225206937086,
                    -0.037186591484207328,
                    -0.05860415706907821,
                    -0.04164478872883093,
                    -0.08033446366193516,
                    -0.06091940705746778,
                    -0.1070372444033196,
                    -0.08675108442213973,
                    -0.1076167667614863,
                    -0.13784846159257087,
                    -0.10875953715062947,
                    -0.07277898125840557,
                    -0.08206747551843984,
                    -0.08162398055918424,
                    -0.03589912018194042,
                    -0.04948867213184015,
                    -0.0745945917557843,
                    -0.016688763195534429,
                    -0.009475868849153364,
                    -0.019219543692655367,
                    -0.022724025646499274,
                    -0.0062197523781958269,
                    -0.011653934687398426,
                    0.003793401213363982,
                    -0.016204234472322444,
                    -0.02252691678890721,
                    -0.027359970086865767,
                    -0.05713275340406023,
                    -0.04611617869530562,
                    -0.04117942077443298,
                    -0.047310367478265519,
                    -0.05933977718252409,
                    -0.08021366012737082,
                    -0.0627148882667624,
                    -0.07218003990949106,
                    -0.08874138272367437,
                    -0.08576772804227119,
                    -0.07360380581104573,
                    -0.10163880121068582,
                    -0.06603419302929074,
                    -0.1054329458201719,
                    -0.05721102644720947,
                    -0.037983326442343468,
                    -0.048146751541110689,
                    -0.08543453546823415,
                    -0.03433913632424759,
                    -0.027104052536030117,
                    -0.01625878928442099,
                    0.01075455767285205,
                    -0.007789211441665079,
                    0.0035062137905320495,
                    0.00275393032058151,
                    -0.01281190606879098,
                    -0.02332460983859894,
                    -0.02448520324916732,
                    -0.02742100538184813,
                    -0.05846159954383867,
                    -0.06703317660717717,
                    -0.036067796666108927,
                    -0.03472624615477811,
                    -0.053633217010325657,
                    -0.04832001594206168,
                    -0.06908447491578924,
                    -0.04749790558590894,
                    -0.05233700517938686,
                    -0.08187517385268843,
                    -0.06524719373269863,
                    -0.07810722287852948,
                    -0.08054106019349412,
                    -0.06099689447190143,
                    -0.06696976681301241,
                    -0.060405077169948088,
                    -0.02542588107533758,
                    0.00454107817269484,
                    -0.0035421591100865594,
                    -0.013057463472864024,
                    -0.00791105522116695,
                    -0.011623726732021818,
                    0.01867247188064545,
                    -0.011644962092769168,
                    -0.014047557585114867,
                    -0.028832247384822118,
                    -0.03350430926185828,
                    -0.0384766572069282,
                    -0.034385805854474548,
                    -0.08723946598561128,
                    -0.0510142201348333,
                    -0.051994033657198488,
                    -0.03402008564202809,
                    -0.0618863347413639,
                    -0.05936649630925004,
                    -0.05869446476045182,
                    -0.07238730733022962,
                    -0.059291148068870449,
                    -0.07240511000782292,
                    -0.06517647497881318,
                    -0.07159394193968824,
                    -0.0749150434928291,
                    -0.0719800132055547,
                    -0.014069439471598189,
                    -0.04149560393571758,
                    -0.023593851612564135,
                    -0.0016286831461133839,
                    0.001940089096994238,
                    0.007875720562173812,
                    0.0033567808881492919,
                    -0.016638669358840214,
                    -0.0010225259594687207,
                    -0.021383209219188315,
                    -0.0013499403411451948,
                    -0.024690322777340864,
                    -0.023209092995227076,
                    -0.031840782920667328,
                    -0.026306037881261066,
                    -0.030058010868447183,
                    -0.026420683699259915,
                    -0.04887998266597518,
                    -0.04332883678318325,
                    -0.0535788958122787,
                    -0.06163450778624733,
                    -0.06594555127577638,
                    -0.08552530441255534,
                    -0.05926928478977533,
                    -0.05911303807471003,
                    -0.05579845204548588,
                    -0.05950088307855151,
                    -0.0400699709350072,
                    -0.0380311440699062,
                    -0.01583713004088897,
                    -0.031863669835834908,
                    -0.005033215429350614,
                    -0.0031389661907053284,
                    -0.03046468220179961,
                    0.007225342670135297,
                    -0.005799319517746784,
                    0.0013504218526497166,
                    -0.0015952790420800533,
                    0.018151910854502325,
                    -0.008575604459924003,
                    -0.004370034551992845,
                    -0.018761848967001839,
                    -0.003024768865024119,
                    -0.0032658208254923686,
                    0.008926026888782257,
                    -0.021327840222684435,
                    0.027801126890623554,
                    0.021214903092330384,
                    0.01235792648963817,
                    -0.006754566758833198,
                    0.005567804347693927,
                    0.013882605452825096,
                    0.01058242449710831,
                    0.0013280498782450702,
                    0.011938467725300235,
                    -0.004035403007305625,
                    -0.010640926568284984,
                    -0.009148412178128099,
                    -0.02842363613490803,
                    -0.013673036700040728,
                    -0.017549353024220079,
                    -0.014047494356075137,
                    -0.007165781644487967,
                    0.013034452628364345,
                    0.0036322318563124266,
                    -0.012454653658020806,
                    -0.0007226007565825345,
                    -0.0021899440925809384,
                    0.02389944813272587,
                    0.03271053564946649,
                    0.005827210421045714,
                    0.010777985795532876,
                    -0.0030141650464913028,
                    0.012396400201303258,
                    0.0034426734112648256,
                    0.02341567169662663,
                    0.028717680738503373,
                    0.023021090284122415,
                    0.005869980613319041,
                    0.010283996714615504,
                    0.030361611801598084,
                    -0.00038220587017771893,
                    0.011350348302994458,
                    -0.011683355202176966,
                    -0.0029684786905492339,
                    -0.05150523866551352,
                    0.009764164631688879,
                    -0.013826467006581408,
                    -0.01595965819043202,
                    -0.026108087599643897,
                    0.0104104785877395,
                    -0.00369568426182483,
                    0.011565606620432673,
                    0.0014923931602665415,
                    0.006850771452409471,
                    0.022888215779598203,
                    -0.005853304934404527,
                    0.0015547839671850412,
                    0.020678802705711219,
                    0.029403828986536416,
                    -0.009217290208184643,
                    -0.003533853577139551,
                    0.0045383107878027438,
                    0.0072043850335324868,
                    0.025292077090419093,
                    0.029330578473383083,
                    0.004968373650558101,
                    0.007729028511436966,
                    0.03526735096334702,
                    0.006360206639232154,
                    -0.007666994125939247,
                    -0.007714028602226455,
                    -0.0030971394395648244,
                    -0.024902582884281645,
                    -0.04293080118969206,
                    -0.024680629824323166,
                    -0.013070363159527405,
                    -0.023566936784290464,
                    -0.002021961901997004,
                    0.007601835746464307,
                    0.01607014832332587,
                    0.004596117648898627,
                    0.010729137735946429,
                    0.006564996835622286,
                    0.007756574399707263,
                    -0.0161021610788325,
                    0.00579097729096491,
                    0.03240794393576585,
                    0.01653537830311564,
                    0.010230353080105307,
                    0.0429201338186588,
                    0.003902626046083968,
                    0.013667210336867454,
                    0.019312580475359117,
                    0.021805323400341103,
                    0.03805175620825205,
                    0.03836839319406696,
                    0.006139701906539187,
                    -0.014888992584890302,
                    -0.005736835015981697,
                    -0.015361150429455132,
                    0.005668308621620651,
                    -0.012709849349847379,
                    -0.026064018920076233,
                    -0.0047165406706572228,
                    -0.0008188909621074936,
                    -0.013577562007296354,
                    -0.02012347571229268,
                    0.024209979625880588,
                    0.02393124822053756,
                    0.012810455542103305,
                    0.01688282998044998,
                    0.018437654274653525,
                    -0.004356247356020739,
                    0.012643590470324392,
                    0.013153338199307649,
                    0.04807534130883452,
                    0.06378403194597406,
                    0.043918498581403609,
                    0.013116223655033687,
                    0.04888674265318511,
                    0.017740082156730898,
                    0.027671387191106953,
                    0.040373560845195628,
                    0.04441645367166987,
                    0.009257537350484893,
                    -0.0011485258359290303,
                    -0.026987733795812414,
                    -0.008313430097390832,
                    0.017503520231956426,
                    -0.0028668106773491019,
                    -0.006343030548841962,
                    -0.033581574730175967,
                    -0.01589492885608977,
                    -0.022587697588267835,
                    -0.008164205824533932,
                    0.029887259702542716,
                    0.011381795376102932,
                    0.012386465538190799,
                    0.02811317062181913,
                    0.030695390488003558,
                    -0.01062125431813147,
                    0.04510825478413489,
                    0.04947841552175429,
                    0.08055543530751062,
                    0.07604250699476739,
                    0.02722438987782544,
                    0.02310424314889343,
                    0.0380618559189059,
                    0.04898692856013432,
                    0.03186155736791722,
                    0.04993694300957178,
                    0.012142605483683601,
                    0.04982582994297662,
                    0.029807027803258024,
                    -0.03403099360766852,
                    -0.014401387318034915,
                    -0.003624273828325887,
                    -0.0023820330163804137,
                    -0.015517870245801459,
                    -0.041038527361925179,
                    -0.01099286224909708,
                    -0.014452543466951944,
                    -0.02175901384844637,
                    0.022344985041030775,
                    0.024151966254620254,
                    0.05423151634097394,
                    0.06459972663059983,
                    0.05194076291357748,
                    0.029519923662554075,
                    0.07575433848530326,
                    0.035078525230237789,
                    0.0910826254675688,
                    0.09897706462074117,
                    0.07931038157773483,
                    0.027456337381783079,
                    0.023465555986823904,
                    0.09155843288436431,
                    0.06481235242213276,
                    0.052868346281378899,
                    0.06386281105458762,
                    0.0324368096258376,
                    0.010792077441966992,
                    -0.004832246346482959,
                    -0.008319979029211057,
                    -0.0015826800692352575,
                    -0.009944302829400683,
                    -0.012123410205826038,
                    -0.02807758474879679,
                    -0.05214487331309991,
                    -0.03077123628108958,
                    -0.035137705256906268,
                    0.01473877611871003,
                    0.03904610912516097,
                    0.04738598614000018,
                    0.07085424769276785,
                    0.08680801186364946,
                    0.06169774623680448,
                    0.11310549801743845,
                    0.0795705313015882,
                    0.0789482153487504,
                    0.08477499297998266,
                    0.06433060374350233,
                    0.01789200624601831,
                    0.011264261079025997,
                    0.059132679745800938,
                    0.07259145352992472,
                    0.06689134793618501,
                    0.03784760026632057,
                    0.002519657611142563,
                    0.011269440081713964,
                    -0.025565143501445257,
                    -0.03438354176597423,
                    0.004403877905537678,
                    -0.011509219326486006,
                    0.007524325380701804,
                    -0.028961706436607474,
                    -0.03847960344553875,
                    -0.04401795318662945,
                    -0.014114738142663551,
                    0.00361472797712778,
                    0.027456865587633187,
                    0.05523906421813104,
                    0.03754978128616019,
                    0.0691310415935799,
                    0.12956550543102125,
                    0.1250961854068225,
                    0.09575821258429178,
                    0.11033134207584573,
                    0.10542971006179275,
                    0.1255438100093039,
                    0.031044768975642218,
                    0.045437150397316879,
                    0.06940196072432442,
                    0.03859164671580555,
                    0.01667580602455147,
                    0.0359444025309545,
                    0.019289692299734097,
                    0.0318857940445603,
                    0.015890552305222136,
                    -0.006396105502432815,
                    -0.015089662559651614,
                    -0.05149513173653997,
                    -0.015425038840636176,
                    -0.033462334675698739,
                    -0.020264216475601776,
                    -0.028711483293875588,
                    -0.054409050546571229,
                    0.03787975220214734,
                    0.06050467876786036,
                    0.044126176019888278,
                    0.04303907596389418,
                    0.1056732096835088,
                    0.11493195084239062,
                    0.16462826432223927,
                    0.1718278924978569,
                    0.18035574350499593,
                    0.19536922020030493,
                    0.09931955531984468,
                    0.1057172690333258,
                    0.014528192758426342,
                    0.06218094399450764,
                    0.02505347123426752,
                    0.0630657328914349,
                    0.030943909211397306,
                    0.09732751328981684,
                    0.07239832363956525,
                    -0.031043692234801424,
                    -0.002969176308092711,
                    0.023533531398338814,
                    -0.03146888912683235,
                    -0.01858596177861824,
                    -0.03426710898356775,
                    -0.006856378799141116,
                    -0.02815541086133138,
                    -0.0179256655262519,
                    0.021483672053546684,
                    0.06125720718596298,
                    0.03720278183732968,
                    0.06787183427840947,
                    0.12521126181068382,
                    0.11062236395758271,
                    0.1534725111271838,
                    0.20744083138917988,
                    0.21119356149054384,
                    0.2069898718377041,
                    0.2058843400902194,
                    0.16858037389091086,
                    0.09704802756913496,
                    0.10623375813256993,
                    0.08029344891111454,
                    0.10943935035121443,
                    0.11758882150261486,
                    0.08642671690006404,
                    0.025381883564871315,
                    -0.0003260425896603756,
                    -0.021420413639640848,
                    -0.007611244289847093,
                    -0.02345048404136944,
                    -0.04226582045300077,
                    -0.06916076454853268,
                    -0.016359462312443647,
                    -0.0124461930010244,
                    -0.03197616864499034,
                    0.029447020648124577,
                    0.038227593809379057,
                    0.042696677927344748,
                    0.02834818993572569,
                    0.02208815873559708,
                    0.052158977360873177,
                    0.06030904255523293,
                    0.15252674138623868,
                    0.20434946048640854,
                    0.2185599492949194,
                    0.18500537312126753,
                    0.20660526168101976,
                    0.1726886192406778,
                    0.1535552668557433,
                    0.1543004733121583,
                    0.11263323110523345,
                    0.11005667993680704,
                    0.09840179858202319,
                    -0.00954035707414247,
                    -0.04019324884217085,
                    -0.08953766485989974,
                    -0.06833611677726276,
                    -0.06006552165647515,
                    -0.041926115450271018,
                    -0.07511436345868143,
                    -0.04947229819480471,
                    -0.03272732767871974,
                    0.0010289852331469487,
                    0.020331107075054028,
                    0.052268995016741707,
                    0.02803122481364526,
                    0.04651338989059803,
                    0.04791683315126979,
                    -0.004819780487362473,
                    0.03725898137800883,
                    0.011725308101622926,
                    0.06848567550080789,
                    0.07107404213846413,
                    0.045304300629549359,
                    0.14281989796807097,
                    0.12760406636918124,
                    0.09324036278145598,
                    0.10404434098021234,
                    0.10099592072454908,
                    0.05398987175068324,
                    0.0024753847433739608,
                    -0.07807167953339851,
                    -0.0914721157794959,
                    -0.08041766125837369,
                    -0.08889322870711114,
                    -0.08786017022385386,
                    -0.06234442391813158,
                    -0.04869009255612113,
                    -0.051079834593706959,
                    -0.02717143264819923,
                    0.013231577904417898,
                    -0.018995584092383199,
                    0.04817237045825289,
                    0.001721526360311577,
                    0.03828735802801035,
                    0.0289843047876611,
                    -0.037996304952543299,
                    -0.048663244821522667,
                    -0.10628709623454241,
                    -0.10248411611817676,
                    -0.16161398660346533,
                    -0.1443235239868865,
                    -0.07718676661497188,
                    -0.02052286290103295,
                    -0.07000061634055503,
                    -0.011585438279340025,
                    0.015926346385026783,
                    -0.02612529627945508,
                    -0.08338503373096482,
                    -0.09993587938200192,
                    -0.09922645329788484,
                    -0.08522881565933727,
                    -0.11919440445732371,
                    -0.06835089752854293,
                    -0.06517189581887613,
                    -0.05673688189629714,
                    -0.0655872687435133,
                    -0.0042480469630066,
                    -0.0028979627415698999,
                    0.008724466454359434,
                    0.020307956325994276,
                    -0.019711166945611065,
                    -0.004400339533460483,
                    -0.02626366302631366,
                    -0.02951354501567893,
                    -0.131353418520037,
                    -0.15835132327534397,
                    -0.21562297819212523,
                    -0.24572670866912697,
                    -0.25335142152488129,
                    -0.2646558679471542,
                    -0.2753737025345003,
                    -0.23289648650024676,
                    -0.1881244326895286,
                    -0.10463595730797516,
                    -0.06631437063435453,
                    -0.09889936987273483,
                    -0.15167417982005247,
                    -0.10769104517877014,
                    -0.11369661218810372,
                    -0.08730502650259493,
                    -0.08377414990066223,
                    -0.03409554338274641,
                    -0.03397218440767023,
                    -0.07114596833767226,
                    -0.021493251644985054,
                    -0.018313332660542544,
                    0.0013225983434276183,
                    -0.01166070463628424,
                    0.012409842604792608,
                    -0.022757621437302274,
                    -0.07764390851696837,
                    -0.052486349787431777,
                    -0.06523962352706274,
                    -0.16181420065926364,
                    -0.1794612699803006,
                    -0.2052394085043299,
                    -0.26108614101817248,
                    -0.24126989583225565,
                    -0.2711091051235124,
                    -0.2827791695583891,
                    -0.2843680952764649,
                    -0.22598153453423792,
                    -0.17410608291871267,
                    -0.17581250711255454,
                    -0.16560579362691819,
                    -0.13923269589819488,
                    -0.091369038891561,
                    -0.07296042863060887,
                    -0.02916176375314228,
                    -0.04579611005295573,
                    -0.07120648524737322,
                    -0.0419715306843056,
                    -0.032887202181988438,
                    -0.029419235267717483,
                    -0.025700281436005075,
                    0.004450154587463164,
                    0.011061899325820591,
                    -0.020155882136219565,
                    -0.04526998593313593,
                    -0.05483473106958673,
                    -0.05314539765514475,
                    -0.09265728399151628,
                    -0.12574482025361556,
                    -0.10580850156024777,
                    -0.16890416462366374,
                    -0.18016038948159039,
                    -0.17323469857873817,
                    -0.160848399570588,
                    -0.19115706468301886,
                    -0.17613289471786693,
                    -0.17178194028699735,
                    -0.14202136221695323,
                    -0.1367222840543212,
                    -0.11666393811453906,
                    -0.09176090557026895,
                    -0.040433122748619949,
                    -0.04554635180526101,
                    -0.01431888196039777,
                    -0.03385887077007485,
                    -0.024380876495000406,
                    -0.07763892113974466,
                    -0.043172322065455678,
                    -0.017442962993618119,
                    -0.014332296175169408,
                    0.009830215055485163,
                    0.020565559016149833,
                    -0.03793235350656813,
                    -0.039758209948901317,
                    -0.03998460029362788,
                    -0.04939801139136178,
                    -0.05945986750429227,
                    -0.07934707120213962,
                    -0.04995064679659003,
                    -0.026819792796474404,
                    -0.06996876034899521,
                    -0.04253605225855974,
                    -0.016889671302426649,
                    -0.0207057476474931,
                    -0.07037374088711587,
                    -0.05391136983129038,
                    0.00956329196599318,
                    0.025240132011104395,
                    -0.03954794584794235,
                    0.001392045759427734,
                    -0.025031220494303117,
                    -0.015911753784519507,
                    -0.025629879406819414,
                    -0.017259113461770185,
                    -0.025219709142951079,
                    -0.025542041027907419,
                    -0.023504944578749969,
                    0.0037217548725270996,
                    0.02056511781227048,
                    0.0049042930269810858,
                    -0.008954924924927889,
                    -0.03753682006881816,
                    -0.02894147518919843,
                    -0.0763813657900732,
                    -0.029081785876670479,
                    -0.017416731378082419,
                    0.00396047420947902,
                    0.02422156878105521,
                    0.06840766827592111,
                    0.06173060963836926,
                    0.007084750710851308,
                    0.0525043101073575,
                    0.09030809567655336,
                    0.057578856646104879,
                    0.0732873674109271,
                    0.03065156443561899,
                    0.07410484229953528,
                    0.007637348031677081,
                    -0.017242783483072289,
                    -0.004929132580951476,
                    -0.01481372200826009,
                    -0.022436821948048435,
                    -0.024217317345226923,
                    -0.025820435515147675,
                    -0.015992818216597969,
                    -0.004816634193153949,
                    -0.005738899362694265,
                    -0.010228550269148949,
                    -0.03403409253848083,
                    -0.07285735140260984,
                    -0.05373180514329009,
                    -0.04793649448070264,
                    -0.080480967473561,
                    -0.023971661068221556,
                    0.07034991442741726,
                    0.029636320946377128,
                    0.09085393100823318,
                    0.13525283639410355,
                    0.12088719508156634,
                    0.14131457734635173,
                    0.09237058693284962,
                    0.11278743256890099,
                    0.04291482320247128,
                    0.08157388064294542,
                    0.04595421908031093,
                    0.038570905914763257,
                    0.059448327698161867,
                    0.04926804380106153,
                    -0.014503114684785643,
                    -0.03270859562856316,
                    0.020586565321684307,
                    -0.03308693839976058,
                    -0.03796861596769682,
                    0.005789666792455892,
                    -0.02600290083051114,
                    -0.008183932771038991,
                    0.011580819273512152,
                    -0.03450493161133045,
                    -0.039484036271903766,
                    -0.03627011389160975,
                    -0.036184101662447277,
                    -0.03791957643580793,
                    -0.005551134865360764,
                    0.04858243325166809,
                    0.09033127048334376,
                    0.10494027384780641,
                    0.12625871787267324,
                    0.1096454030212785,
                    0.10937854999394566,
                    0.09599224926094194,
                    0.07487777124806559,
                    0.05019717591702365,
                    0.05830358269194209,
                    0.014007179861760734,
                    0.019038011744081555,
                    0.023973238562910286,
                    0.009630291354121893,
                    -0.021267416931608636,
                    0.021770173122100415,
                    -0.01200135669460929,
                    0.009230971918741263,
                    -0.011269286793102247,
                    0.005663518989949997,
                    0.017753190897131657,
                    -0.004058063859464031,
                    -0.009085236564393177,
                    -0.03184376774322077,
                    -0.016758323028523655,
                    0.007394682915716359,
                    -0.027314490634946697,
                    0.006607711197274197,
                    0.04966294793720527,
                    0.006695768950611421,
                    0.05984436252625452,
                    0.05736178924864595,
                    0.029240678219776937,
                    0.064324522975165,
                    0.048646506178595599,
                    0.04199171657993969,
                    0.0655137369068309,
                    -0.017870012646716079,
                    0.02890374330130208,
                    0.0036213220831798839,
                    0.019616902736155369,
                    0.012077548856902947,
                    -0.024994797314835526,
                    -0.009105675617266895,
                    -0.011002056464217423,
                    -0.008107088287257886,
                    -0.016508053623288347,
                    -0.027400675885296764,
                    -0.023039689749601006,
                    -0.00726382787060327,
                    -0.0015061060998912079,
                    0.004951126104283381,
                    -0.029697622941814426,
                    -0.01725561507691815,
                    -0.011844683328414858,
                    -0.022687005316838497,
                    -0.020505957066675234,
                    -0.01625600943579351,
                    0.03237470364866106,
                    0.0435500696568919,
                    0.06304732691429578,
                    0.053630311887093547,
                    0.03616277005218011,
                    0.026529139486225166,
                    -0.001966895530986904,
                    0.020112858733054706,
                    0.03841391899407698,
                    0.019526802851546757,
                    0.010200723385390482,
                    0.010197843443178038,
                    0.0051120802457689019,
                    -0.005304470639277911,
                    0.014251293409633463,
                    0.010155976023292553,
                    -0.0004266191321991806,
                    -0.024725835002042005,
                    -0.016109553825233569,
                    -0.006793164740399391,
                    0.008408020721903024,
                    -0.02485604574663291,
                    -0.0024753178616888774,
                    -0.013097065753771903,
                    -0.015409309255112476,
                    -0.019434066047402989,
                    -0.06066858848375426,
                    -0.028704508632606056,
                    0.04064376530596321,
                    0.049333447133507169,
                    0.07440135638902029,
                    0.06564194785821193,
                    0.04231143440583696,
                    0.027851166383046048,
                    0.01561258688191222,
                    0.04324324396616691,
                    0.003517496774150449,
                    0.037748262356712188,
                    0.0452729713416175,
                    0.009493356052429915,
                    -0.004520062221120513,
                    0.02136514338700967,
                    0.002375244002186054,
                    -0.009867944443844316,
                    -0.013490398364691164,
                    0.010746861678626867,
                    -0.013321776948866098,
                    -0.031065468980581203,
                    -0.0021175336263152975,
                    -0.035587511090627698,
                    -0.03007906667424346,
                    -0.052963400722638439,
                    -0.02882752115168702,
                    -0.016752741518027769,
                    -0.019493942528312735,
                    0.0002451448552340143,
                    0.0005037867446175743,
                    0.020893228219181868,
                    0.07228758059766867,
                    0.0644631683574024,
                    0.049655206838938547,
                    0.002499858610007514,
                    0.04769512866384819,
                    0.028263723521538277,
                    0.01941735057670726,
                    0.04376221512937049,
                    0.03109163463048856,
                    0.018717751986123088,
                    0.026094373269661874,
                    -0.0028881207249464686,
                    0.021411684246233334,
                    0.008738662873637443,
                    0.013920157405595086,
                    -0.019961791142721363,
                    -0.00695423253588921,
                    -0.03163068547767522,
                    -0.03865201052934799,
                    -0.025013897016356078,
                    -0.049534783842368857,
                    -0.05900846428779262,
                    -0.03445908409629175,
                    0.017859039604471613,
                    0.0048012464632211809,
                    0.005098966085147772,
                    0.010861412190302442,
                    0.018882317305937866,
                    0.0712682381332238,
                    0.02347200984311936,
                    0.05827502269140838,
                    0.025673732443313916,
                    0.029776900221406313,
                    0.02352595884647822,
                    -0.011705687645946097,
                    -0.006265755122022451,
                    0.03816390198937826,
                    0.015209713945537846,
                    0.014214070502988692,
                    0.01317374121735307,
                    0.012294378976561053,
                    0.008991032118632033,
                    0.005261540930915499,
                    -0.007362567627357854,
                    0.004978813969373224,
                    -0.06245675811963916,
                    -0.01278001541994999,
                    -0.030363325224076346,
                    -0.018100367940897513,
                    -0.018024912571711697,
                    -0.01765084346487399,
                    0.007260112090221433,
                    -0.0005669502933287516,
                    0.0016105984071297505,
                    0.01473252190940844,
                    -0.0022794088050160567,
                    0.061309932234839697,
                    0.019151586035411604,
                    0.03268039459292931,
                    0.028931330543796049,
                    0.03185293878724606,
                    0.015756622316522484,
                    0.014723528604719738,
                    0.014517761321374596,
                    -0.00663970800003392,
                    0.02103359825637782,
                    0.012622372384830525,
                    -0.015135211259838135,
                    0.0008839233756724044,
                    -0.026938414953426208,
                    0.005680568233837475,
                    -0.010343428264188057,
                    -0.008833276662375446,
                    0.0018407885828222184,
                    0.005033406874041112,
                    -0.024078746380066807,
                    0.010155575930831815,
                    -0.025439941267542313,
                    -0.02355084261911282,
                    -0.007916486767246448,
                    0.0038194206963528579,
                    0.02964777294535104,
                    0.05283113092224336,
                    0.040657385884266258,
                    0.02098966668959469,
                    0.011852361520426049,
                    0.03546187931272781,
                    0.012854056764242459,
                    0.007992482471517836,
                    0.00836950780714886,
                    0.05049479657684207,
                    -0.016376036210385124,
                    0.02190088998278133,
                    0.010482432316169015,
                    -0.0023870317299019584,
                    -0.015802945870457068,
                    0.0008045586897846332,
                    0.00128550615538604,
                    -0.0031209300089070737,
                    0.0149725206028165,
                    0.005004395467262578,
                    0.0006171776080958082,
                    -0.01342922966285854,
                    0.012294889170550388,
                    -0.009314995639306708,
                    -0.04868786123562964,
                    -0.007173044324506794,
                    -0.036843638373971598,
                    -0.03422209650627447,
                    -0.024174811572052047,
                    -0.06220045385809658,
                    -0.04002075210136523,
                    -0.0029626011296760947,
                    -0.0053736708025761549,
                    -0.00043704983520341696,
                    -0.010505441882360814,
                    0.0010243106477580875,
                    0.004329614119230506,
                    -0.0182801939030629,
